svm_type c_svc
kernel_type rbf
gamma 64.0
nr_class 2
total_sv 517
rho 6.2914407753037125
label 1 0
nr_sv 250 267
SV
55.398856665942375 1:0.0203464947623 2:0.00241740531829 3:0.00282030620467 4:0.00181305398872 5:0.00302175664786 6:0.00100725221595 7:0.00141015310234 8:0.00201450443191 9:0.00302175664786 10:0.00141015310234 11:8.05801772764E-4 12:0.00402900886382 13:6.04351329573E-4 14:2.01450443191E-4 15:6.04351329573E-4 16:0.00120870265915 17:0.00261885576148 18:8.05801772764E-4 19:0.00141015310234 20:4.02900886382E-4 21:0.00120870265915 22:2.01450443191E-4 23:0.00261885576148 24:0.00825946817083 25:0.0 26:2.01450443191E-4 27:4.02900886382E-4 28:4.02900886382E-4 29:2.01450443191E-4 30:0.0 31:2.01450443191E-4 32:0.00523771152297 33:0.00282030620467 34:8.05801772764E-4 35:0.00100725221595 36:0.0 37:0.00161160354553 38:4.02900886382E-4 39:0.0 40:2.01450443191E-4 41:8.05801772764E-4 42:0.00241740531829 43:4.02900886382E-4 44:0.0104754230459 45:6.04351329573E-4 46:2.01450443191E-4 47:2.01450443191E-4 48:0.00483481063658 49:8.05801772764E-4 50:4.02900886382E-4 51:2.01450443191E-4 52:0.0 53:0.0 54:0.0 55:4.02900886382E-4 56:6.04351329573E-4 57:4.02900886382E-4 58:6.04351329573E-4 59:0.0 60:6.04351329573E-4 61:2.01450443191E-4 62:2.01450443191E-4 63:2.01450443191E-4 64:0.00503626107977 65:0.00342465753425 66:4.02900886382E-4 67:0.00100725221595 68:0.0 69:6.04351329573E-4 70:4.02900886382E-4 71:0.0 72:0.0 73:0.00120870265915 74:4.02900886382E-4 75:0.0 76:0.0 77:4.02900886382E-4 78:0.0 79:0.0 80:4.02900886382E-4 81:6.04351329573E-4 82:8.05801772764E-4 83:0.0 84:0.0 85:0.0 86:2.01450443191E-4 87:8.05801772764E-4 88:4.02900886382E-4 89:8.05801772764E-4 90:4.02900886382E-4 91:0.0 92:2.01450443191E-4 93:2.01450443191E-4 94:2.01450443191E-4 95:4.02900886382E-4 96:6.04351329573E-4 97:4.02900886382E-4 98:4.02900886382E-4 99:0.0 100:2.01450443191E-4 101:2.01450443191E-4 102:0.0 103:4.02900886382E-4 104:8.05801772764E-4 105:0.00241740531829 106:0.00342465753425 107:2.01450443191E-4 108:0.0132957292506 109:0.0 110:4.02900886382E-4 111:6.04351329573E-4 112:0.00463336019339 113:2.01450443191E-4 114:0.0 115:2.01450443191E-4 116:8.05801772764E-4 117:2.01450443191E-4 118:0.0 119:8.05801772764E-4 120:2.01450443191E-4 121:4.02900886382E-4 122:2.01450443191E-4 123:4.02900886382E-4 124:4.02900886382E-4 125:6.04351329573E-4 126:6.04351329573E-4 127:0.00100725221595 128:0.0130942788074 129:0.00322320709106 130:4.02900886382E-4 131:8.05801772764E-4 132:4.02900886382E-4 133:0.00120870265915 134:4.02900886382E-4 135:0.0 136:0.0 137:0.0 138:4.02900886382E-4 139:2.01450443191E-4 140:0.0 141:0.00100725221595 142:2.01450443191E-4 143:0.0 144:6.04351329573E-4 145:2.01450443191E-4 146:6.04351329573E-4 147:0.0 148:6.04351329573E-4 149:8.05801772764E-4 150:0.0 151:0.00141015310234 152:0.00423045930701 153:2.01450443191E-4 154:4.02900886382E-4 155:0.0 156:6.04351329573E-4 157:0.0 158:2.01450443191E-4 159:2.01450443191E-4 160:0.00282030620467 161:8.05801772764E-4 162:2.01450443191E-4 163:4.02900886382E-4 164:4.02900886382E-4 165:2.01450443191E-4 166:0.0 167:6.04351329573E-4 168:0.0 169:4.02900886382E-4 170:2.01450443191E-4 171:0.0 172:6.04351329573E-4 173:4.02900886382E-4 174:2.01450443191E-4 175:2.01450443191E-4 176:0.0 177:8.05801772764E-4 178:6.04351329573E-4 179:2.01450443191E-4 180:4.02900886382E-4 181:0.0 182:0.0 183:2.01450443191E-4 184:0.00100725221595 185:4.02900886382E-4 186:0.0 187:4.02900886382E-4 188:2.01450443191E-4 189:0.0 190:0.0 191:0.0 192:0.00684931506849 193:0.00120870265915 194:0.0 195:2.01450443191E-4 196:0.0 197:2.01450443191E-4 198:0.0 199:2.01450443191E-4 200:4.02900886382E-4 201:8.05801772764E-4 202:0.0 203:2.01450443191E-4 204:2.01450443191E-4 205:4.02900886382E-4 206:6.04351329573E-4 207:2.01450443191E-4 208:0.00120870265915 209:0.00402900886382 210:0.0 211:4.02900886382E-4 212:4.02900886382E-4 213:0.00644641418211 214:6.04351329573E-4 215:0.00382755842063 216:0.00201450443191 217:0.0 218:0.0 219:0.0 220:2.01450443191E-4 221:6.04351329573E-4 222:0.00100725221595 223:0.0022159548751 224:0.00906526994359 225:6.04351329573E-4 226:0.0 227:0.0 228:0.0 229:0.0 230:0.0 231:4.02900886382E-4 232:6.04351329573E-4 233:0.00161160354553 234:0.00483481063658 235:4.02900886382E-4 236:0.00322320709106 237:2.01450443191E-4 238:2.01450443191E-4 239:8.05801772764E-4 240:0.00402900886382 241:0.00624496373892 242:6.04351329573E-4 243:2.01450443191E-4 244:4.02900886382E-4 245:0.00543916196616 246:2.01450443191E-4 247:0.00543916196616 248:0.00584206285254 249:0.00523771152297 250:0.00261885576148 251:0.00181305398872 252:0.00846091861402 253:0.00543916196616 254:0.00584206285254 255:0.0149073327961 256:0.673045930701 
256.0 1:0.00975048867426 2:0.00170173623088 3:0.00114982177762 4:4.5992871105E-4 5:0.00160975048867 6:4.82925146602E-4 7:3.44946533287E-4 8:2.29964355525E-4 9:0.00105783603541 10:3.21950097735E-4 11:3.21950097735E-4 12:0.00213866850638 13:4.36932275497E-4 14:1.60975048867E-4 15:1.60975048867E-4 16:0.00257560078188 17:0.0013567896976 18:3.90939404392E-4 19:2.7595722663E-4 20:9.198574221E-5 21:4.36932275497E-4 22:1.8397148442E-4 23:0.00202368632862 24:0.00174772910199 25:2.52960791077E-4 26:9.198574221E-5 27:1.37978613315E-4 28:1.37978613315E-4 29:9.198574221E-5 30:4.5992871105E-5 31:1.37978613315E-4 32:0.00243762216856 33:0.00163274692423 34:4.13935839945E-4 35:5.05921582155E-4 36:1.37978613315E-4 37:1.60975048867E-4 38:3.21950097735E-4 39:2.29964355525E-4 40:4.5992871105E-5 41:1.60975048867E-4 42:5.05921582155E-4 43:1.8397148442E-4 44:0.00165574335978 45:1.14982177762E-4 46:4.5992871105E-5 47:2.29964355525E-4 48:0.00255260434633 49:4.13935839945E-4 50:3.6794296884E-4 51:2.29964355525E-4 52:1.14982177762E-4 53:1.60975048867E-4 54:1.60975048867E-4 55:6.89893066575E-5 56:1.8397148442E-4 57:6.89893066575E-5 58:9.198574221E-5 59:6.89893066575E-5 60:1.37978613315E-4 61:4.5992871105E-5 62:6.89893066575E-5 63:1.37978613315E-4 64:0.00167873979533 65:0.00112682534207 66:6.4390019547E-4 67:4.13935839945E-4 68:1.60975048867E-4 69:4.13935839945E-4 70:2.52960791077E-4 71:9.198574221E-5 72:0.0 73:2.98953662182E-4 74:9.198574221E-5 75:6.89893066575E-5 76:4.5992871105E-5 77:1.60975048867E-4 78:1.37978613315E-4 79:1.14982177762E-4 80:2.52960791077E-4 81:1.60975048867E-4 82:2.7595722663E-4 83:6.89893066575E-5 84:1.37978613315E-4 85:1.60975048867E-4 86:1.14982177762E-4 87:1.14982177762E-4 88:1.14982177762E-4 89:9.198574221E-5 90:6.89893066575E-5 91:9.198574221E-5 92:6.89893066575E-5 93:1.8397148442E-4 94:9.198574221E-5 95:1.37978613315E-4 96:7.12889502127E-4 97:1.60975048867E-4 98:1.8397148442E-4 99:1.60975048867E-4 100:4.5992871105E-5 101:1.8397148442E-4 102:1.37978613315E-4 103:1.14982177762E-4 104:1.60975048867E-4 105:0.00117281821318 106:0.00163274692423 107:2.06967919972E-4 108:0.00462228354605 109:6.89893066575E-5 110:6.89893066575E-5 111:6.89893066575E-5 112:0.00110382890652 113:1.8397148442E-4 114:1.37978613315E-4 115:9.198574221E-5 116:9.198574221E-5 117:9.198574221E-5 118:6.89893066575E-5 119:6.89893066575E-5 120:1.60975048867E-4 121:9.198574221E-5 122:6.89893066575E-5 123:1.14982177762E-4 124:8.2787167989E-4 125:1.37978613315E-4 126:1.60975048867E-4 127:2.52960791077E-4 128:0.00501322295044 129:0.00174772910199 130:3.90939404392E-4 131:4.36932275497E-4 132:1.60975048867E-4 133:7.58882373232E-4 134:3.21950097735E-4 135:2.29964355525E-5 136:1.14982177762E-4 137:6.20903759917E-4 138:1.37978613315E-4 139:1.8397148442E-4 140:6.89893066575E-5 141:5.28918017707E-4 142:6.89893066575E-5 143:9.198574221E-5 144:1.37978613315E-4 145:4.36932275497E-4 146:1.60975048867E-4 147:1.14982177762E-4 148:1.60975048867E-4 149:5.28918017707E-4 150:1.60975048867E-4 151:0.00239162929746 152:0.00248361503967 153:1.14982177762E-4 154:1.60975048867E-4 155:6.89893066575E-5 156:1.8397148442E-4 157:1.37978613315E-4 158:9.198574221E-5 159:2.29964355525E-4 160:0.00170173623088 161:4.82925146602E-4 162:9.198574221E-5 163:1.14982177762E-4 164:2.29964355525E-4 165:1.8397148442E-4 166:1.8397148442E-4 167:1.37978613315E-4 168:1.37978613315E-4 169:9.198574221E-5 170:1.14982177762E-4 171:4.5992871105E-5 172:2.29964355525E-5 173:9.198574221E-5 174:9.198574221E-5 175:1.14982177762E-4 176:2.52960791077E-4 177:2.7595722663E-4 178:4.5992871105E-5 179:1.37978613315E-4 180:1.8397148442E-4 181:6.89893066575E-5 182:9.198574221E-5 183:9.198574221E-5 184:1.14982177762E-4 185:1.37978613315E-4 186:2.29964355525E-5 187:9.198574221E-5 188:2.7595722663E-4 189:1.14982177762E-4 190:1.60975048867E-4 191:2.52960791077E-4 192:0.00234563642635 193:5.05921582155E-4 194:1.37978613315E-4 195:1.8397148442E-4 196:4.5992871105E-5 197:2.52960791077E-4 198:4.5992871105E-5 199:2.29964355525E-5 200:1.60975048867E-4 201:1.14982177762E-4 202:6.89893066575E-5 203:6.89893066575E-5 204:1.37978613315E-4 205:1.60975048867E-4 206:2.29964355525E-5 207:1.14982177762E-4 208:1.37978613315E-4 209:0.00209267563528 210:2.29964355525E-5 211:1.14982177762E-4 212:1.8397148442E-4 213:0.00204668276417 214:1.14982177762E-4 215:0.00243762216856 216:0.00174772910199 217:2.06967919972E-4 218:1.8397148442E-4 219:6.89893066575E-5 220:2.52960791077E-4 221:9.198574221E-5 222:3.90939404392E-4 223:9.198574221E-4 224:0.00517419799931 225:3.21950097735E-4 226:4.5992871105E-5 227:1.37978613315E-4 228:1.37978613315E-4 229:9.198574221E-5 230:9.198574221E-5 231:1.60975048867E-4 232:1.8397148442E-4 233:0.00105783603541 234:0.00181671840865 235:6.89893066575E-5 236:0.00137978613315 237:1.37978613315E-4 238:2.06967919972E-4 239:2.52960791077E-4 240:0.00211567207083 241:0.00340347246177 242:1.60975048867E-4 243:1.60975048867E-4 244:2.7595722663E-4 245:0.00285155800851 246:3.21950097735E-4 247:0.0014027825687 248:0.00257560078188 249:0.00289755087961 250:0.00142577900425 251:5.97907324365E-4 252:0.00436932275497 253:0.00181671840865 254:0.00193170058641 255:0.00558813383925 256:0.851856962171 
256.0 1:0.00704327056602 2:0.00147753152252 3:9.77614841971E-4 4:3.22168527468E-4 5:0.00115536299506 6:3.88824084875E-4 7:2.66622229628E-4 8:4.77698161418E-4 9:0.0012109092929 10:4.88807420985E-4 11:1.5552963395E-4 12:0.00188857412653 13:4.22151863578E-4 14:6.66555574071E-5 15:1.22201855246E-4 16:0.00162195189691 17:0.0012775648503 18:3.88824084875E-4 19:1.99966672221E-4 20:1.5552963395E-4 21:3.66605565739E-4 22:1.11092595678E-4 23:0.00119980003333 24:0.00212186857746 25:2.66622229628E-4 26:8.88740765428E-5 27:8.88740765428E-5 28:1.5552963395E-4 29:9.99833361106E-5 30:2.22185191357E-5 31:9.99833361106E-5 32:0.00398822418486 33:0.00111092595678 34:3.66605565739E-4 35:3.22168527468E-4 36:7.77648169749E-5 37:1.44420374382E-4 38:1.5552963395E-4 39:5.55462978392E-5 40:4.44370382714E-5 41:2.99950008332E-4 42:6.221185358E-4 43:5.55462978392E-5 44:0.00265511303672 45:1.33311114814E-4 46:5.55462978392E-5 47:6.66555574071E-5 48:0.00219963339443 49:3.33277787035E-4 50:1.77748153086E-4 51:1.22201855246E-4 52:1.44420374382E-4 53:1.5552963395E-4 54:4.44370382714E-5 55:1.11092595678E-4 56:1.88857412653E-4 57:1.22201855246E-4 58:7.77648169749E-5 59:6.66555574071E-5 60:2.11075931789E-4 61:5.55462978392E-5 62:7.77648169749E-5 63:1.88857412653E-4 64:0.00235516302838 65:0.00104427039938 66:3.22168527468E-4 67:3.44387046603E-4 68:1.44420374382E-4 69:3.110592679E-4 70:1.5552963395E-4 71:1.66638893518E-4 72:1.11092595678E-5 73:1.99966672221E-4 74:1.33311114814E-4 75:6.66555574071E-5 76:1.33311114814E-4 77:1.5552963395E-4 78:8.88740765428E-5 79:4.44370382714E-5 80:1.44420374382E-4 81:2.66622229628E-4 82:9.99833361106E-5 83:8.88740765428E-5 84:3.33277787035E-5 85:1.11092595678E-4 86:8.88740765428E-5 87:1.44420374382E-4 88:3.33277787035E-5 89:3.33277787035E-5 90:1.11092595678E-5 91:2.22185191357E-5 92:3.33277787035E-5 93:4.44370382714E-5 94:4.44370382714E-5 95:6.66555574071E-5 96:4.6658890185E-4 97:2.88840748764E-4 98:8.88740765428E-5 99:1.5552963395E-4 100:3.33277787035E-5 101:8.88740765428E-5 102:8.88740765428E-5 103:3.33277787035E-5 104:6.66555574071E-5 105:0.00143309448425 106:0.00175526301172 107:1.77748153086E-4 108:0.00444370382714 109:7.77648169749E-5 110:1.66638893518E-4 111:1.5552963395E-4 112:0.0025218019219 113:7.77648169749E-5 114:7.77648169749E-5 115:8.88740765428E-5 116:7.77648169749E-5 117:6.66555574071E-5 118:1.11092595678E-4 119:1.5552963395E-4 120:3.22168527468E-4 121:1.66638893518E-4 122:1.66638893518E-4 123:6.66555574071E-5 124:5.44353718825E-4 125:1.44420374382E-4 126:1.77748153086E-4 127:2.77731489196E-4 128:0.00651002610676 129:0.00117758151419 130:2.33294450925E-4 131:2.33294450925E-4 132:1.22201855246E-4 133:4.77698161418E-4 134:1.77748153086E-4 135:1.88857412653E-4 136:5.55462978392E-5 137:3.77714825307E-4 138:1.33311114814E-4 139:2.44403710493E-4 140:1.11092595678E-4 141:2.33294450925E-4 142:6.66555574071E-5 143:1.44420374382E-4 144:7.77648169749E-5 145:4.77698161418E-4 146:1.33311114814E-4 147:1.66638893518E-4 148:9.99833361106E-5 149:6.33227795367E-4 150:6.66555574071E-5 151:0.00195522968394 152:0.00174415375215 153:9.99833361106E-5 154:8.88740765428E-5 155:4.44370382714E-5 156:1.11092595678E-4 157:8.88740765428E-5 158:6.66555574071E-5 159:9.99833361106E-5 160:0.00187746486697 161:3.99933344443E-4 162:1.66638893518E-4 163:9.99833361106E-5 164:5.55462978392E-5 165:2.44403710493E-4 166:1.66638893518E-4 167:8.88740765428E-5 168:9.99833361106E-5 169:7.77648169749E-5 170:5.55462978392E-5 171:5.55462978392E-5 172:5.55462978392E-5 173:1.11092595678E-4 174:1.11092595678E-5 175:6.66555574071E-5 176:1.44420374382E-4 177:7.77648169749E-5 178:4.44370382714E-5 179:4.44370382714E-5 180:1.22201855246E-4 181:6.66555574071E-5 182:7.77648169749E-5 183:1.77748153086E-4 184:1.77748153086E-4 185:2.22185191357E-5 186:3.33277787035E-5 187:8.88740765428E-5 188:2.66622229628E-4 189:4.44370382714E-5 190:1.44420374382E-4 191:1.77748153086E-4 192:0.00203299450092 193:3.22168527468E-4 194:9.99833361106E-5 195:1.66638893518E-4 196:3.33277787035E-5 197:1.22201855246E-4 198:8.88740765428E-5 199:5.55462978392E-5 200:8.88740765428E-5 201:1.44420374382E-4 202:1.77748153086E-4 203:5.55462978392E-5 204:7.77648169749E-5 205:1.33311114814E-4 206:1.11092595678E-4 207:8.88740765428E-5 208:2.55512970061E-4 209:0.00185524634783 210:9.99833361106E-5 211:1.88857412653E-4 212:1.66638893518E-4 213:0.00255512970061 214:1.44420374382E-4 215:0.00381047603177 216:0.00196633894351 217:9.99833361106E-5 218:1.33311114814E-4 219:5.55462978392E-5 220:2.66622229628E-4 221:1.44420374382E-4 222:2.33294450925E-4 223:6.99883352775E-4 224:0.00554352052436 225:2.77731489196E-4 226:6.66555574071E-5 227:6.66555574071E-5 228:5.55462978392E-5 229:5.55462978392E-5 230:3.33277787035E-5 231:5.55462978392E-5 232:7.77648169749E-5 233:0.00224407043271 234:0.00219963339443 235:7.77648169749E-5 236:0.00212186857746 237:1.11092595678E-4 238:1.11092595678E-4 239:3.110592679E-4 240:0.00218852413487 241:0.00154418707993 242:7.77648169749E-5 243:1.66638893518E-4 244:1.99966672221E-4 245:0.00208854079876 246:2.22185191357E-4 247:0.00219963339443 248:0.00233294450925 249:0.00477698161418 250:0.00249958340277 251:3.99933344443E-4 252:0.00647669832806 253:0.00213297783703 254:0.00203299450092 255:0.00586568905182 256:0.852457923679 
82.78474530629474 1:0.0187707904324 2:0.00221764612704 3:0.00269285601141 4:4.75209884366E-4 5:0.00253445271662 6:7.92016473943E-4 7:3.96008236971E-4 8:7.92016473943E-4 9:0.00166323459528 10:4.75209884366E-4 11:2.37604942183E-4 12:0.00269285601141 13:9.50419768731E-4 14:4.75209884366E-4 15:7.92016473943E-5 16:0.00316806589577 17:0.00190083953746 18:0.00118802471091 19:4.75209884366E-4 20:7.92016473943E-5 21:5.5441153176E-4 22:4.75209884366E-4 23:0.00221764612704 24:0.0041976873119 25:0.00102962141613 26:3.96008236971E-4 27:7.92016473943E-5 28:3.96008236971E-4 29:1.58403294789E-4 30:1.58403294789E-4 31:2.37604942183E-4 32:0.00649453508633 33:0.00190083953746 34:8.71218121337E-4 35:0.00126722635831 36:3.96008236971E-4 37:0.00102962141613 38:3.16806589577E-4 39:1.58403294789E-4 40:0.0 41:4.75209884366E-4 42:0.00118802471091 43:3.96008236971E-4 44:0.00681134167591 45:7.92016473943E-5 46:2.37604942183E-4 47:2.37604942183E-4 48:0.00380167907492 49:6.33613179154E-4 50:7.12814826548E-4 51:2.37604942183E-4 52:7.92016473943E-5 53:2.37604942183E-4 54:1.58403294789E-4 55:1.58403294789E-4 56:3.16806589577E-4 57:3.16806589577E-4 58:0.0 59:0.0 60:5.5441153176E-4 61:1.58403294789E-4 62:2.37604942183E-4 63:2.37604942183E-4 64:0.00190083953746 65:0.00182163789007 66:2.37604942183E-4 67:7.92016473943E-4 68:7.92016473943E-5 69:0.00118802471091 70:1.58403294789E-4 71:2.37604942183E-4 72:7.92016473943E-5 73:4.75209884366E-4 74:7.92016473943E-5 75:2.37604942183E-4 76:3.96008236971E-4 77:4.75209884366E-4 78:3.96008236971E-4 79:0.0 80:3.16806589577E-4 81:8.71218121337E-4 82:2.37604942183E-4 83:3.16806589577E-4 84:7.92016473943E-5 85:1.58403294789E-4 86:1.58403294789E-4 87:1.58403294789E-4 88:7.92016473943E-5 89:1.58403294789E-4 90:3.16806589577E-4 91:2.37604942183E-4 92:0.0 93:7.92016473943E-5 94:3.96008236971E-4 95:7.92016473943E-5 96:0.0014256296531 97:6.33613179154E-4 98:4.75209884366E-4 99:1.58403294789E-4 100:3.96008236971E-4 101:2.37604942183E-4 102:7.92016473943E-5 103:7.92016473943E-5 104:0.0 105:0.0013464280057 106:0.00253445271662 107:2.37604942183E-4 108:0.00269285601141 109:1.58403294789E-4 110:3.96008236971E-4 111:1.58403294789E-4 112:0.00213844447965 113:7.12814826548E-4 114:7.92016473943E-5 115:1.58403294789E-4 116:3.16806589577E-4 117:1.58403294789E-4 118:7.92016473943E-5 119:0.0 120:3.96008236971E-4 121:3.16806589577E-4 122:2.37604942183E-4 123:2.37604942183E-4 124:0.00174243624267 125:0.0 126:5.5441153176E-4 127:5.5441153176E-4 128:0.00720734991288 129:0.00221764612704 130:7.92016473943E-4 131:9.50419768731E-4 132:2.37604942183E-4 133:7.92016473943E-4 134:3.96008236971E-4 135:1.58403294789E-4 136:1.58403294789E-4 137:7.92016473943E-4 138:4.75209884366E-4 139:3.16806589577E-4 140:3.16806589577E-4 141:3.96008236971E-4 142:3.96008236971E-4 143:7.92016473943E-5 144:1.58403294789E-4 145:6.33613179154E-4 146:3.16806589577E-4 147:7.92016473943E-5 148:2.37604942183E-4 149:0.0014256296531 150:1.58403294789E-4 151:0.00332646919056 152:0.00364327578014 153:7.92016473943E-5 154:7.92016473943E-5 155:2.37604942183E-4 156:1.58403294789E-4 157:7.92016473943E-5 158:7.92016473943E-5 159:6.33613179154E-4 160:0.00269285601141 161:9.50419768731E-4 162:2.37604942183E-4 163:2.37604942183E-4 164:7.92016473943E-5 165:3.96008236971E-4 166:3.96008236971E-4 167:2.37604942183E-4 168:2.37604942183E-4 169:3.96008236971E-4 170:2.37604942183E-4 171:1.58403294789E-4 172:3.16806589577E-4 173:3.16806589577E-4 174:3.16806589577E-4 175:3.16806589577E-4 176:3.16806589577E-4 177:2.37604942183E-4 178:7.92016473943E-5 179:7.92016473943E-5 180:1.58403294789E-4 181:3.96008236971E-4 182:2.37604942183E-4 183:2.37604942183E-4 184:7.12814826548E-4 185:7.92016473943E-5 186:7.92016473943E-5 187:1.58403294789E-4 188:5.5441153176E-4 189:3.16806589577E-4 190:4.75209884366E-4 191:7.12814826548E-4 192:0.00324726754316 193:3.96008236971E-4 194:1.58403294789E-4 195:5.5441153176E-4 196:3.16806589577E-4 197:3.96008236971E-4 198:1.58403294789E-4 199:1.58403294789E-4 200:0.0 201:1.58403294789E-4 202:1.58403294789E-4 203:7.92016473943E-5 204:7.92016473943E-5 205:2.37604942183E-4 206:1.58403294789E-4 207:2.37604942183E-4 208:3.96008236971E-4 209:0.0027720576588 210:3.16806589577E-4 211:3.16806589577E-4 212:2.37604942183E-4 213:0.00467289719626 214:1.58403294789E-4 215:0.00522730872802 216:0.00190083953746 217:2.37604942183E-4 218:2.37604942183E-4 219:7.92016473943E-5 220:3.16806589577E-4 221:3.96008236971E-4 222:3.16806589577E-4 223:0.00126722635831 224:0.00847457627119 225:2.37604942183E-4 226:3.16806589577E-4 227:1.58403294789E-4 228:7.92016473943E-5 229:0.0 230:2.37604942183E-4 231:2.37604942183E-4 232:4.75209884366E-4 233:0.00285125930619 234:0.00182163789007 235:3.16806589577E-4 236:9.50419768731E-4 237:4.75209884366E-4 238:3.96008236971E-4 239:6.33613179154E-4 240:0.00396008236971 241:0.00475209884366 242:4.75209884366E-4 243:3.96008236971E-4 244:7.92016473943E-4 245:0.00467289719626 246:0.00102962141613 247:0.00261365436401 248:0.00340567083795 249:0.00617772849675 250:0.00118802471091 251:0.00102962141613 252:0.00586092190718 253:0.00356407413274 254:0.00388088072232 255:0.00910818945034 256:0.752178045303 
256.0 1:0.0082337883959 2:0.0011803185438 3:8.39021615472E-4 4:3.41296928328E-4 5:0.00120875995449 6:2.98634812287E-4 7:2.27531285552E-4 8:9.52787258248E-4 9:0.0011803185438 10:5.54607508532E-4 11:1.84869169511E-4 12:0.00226109215017 13:3.12855517634E-4 14:9.95449374289E-5 15:4.2662116041E-5 16:0.00285836177474 17:0.00115187713311 18:4.40841865757E-4 19:2.98634812287E-4 20:1.13765642776E-4 21:2.70193401593E-4 22:1.27986348123E-4 23:0.00160693970421 24:0.00189135381115 25:0.00129408418658 26:2.41751990899E-4 27:7.11035267349E-5 28:2.13310580205E-4 29:1.13765642776E-4 30:7.11035267349E-5 31:2.70193401593E-4 32:0.00735210466439 33:0.00106655290102 34:3.98179749716E-4 35:3.27076222981E-4 36:1.4220705347E-4 37:2.55972696246E-4 38:9.95449374289E-5 39:1.4220705347E-4 40:9.95449374289E-5 41:3.69738339022E-4 42:3.55517633675E-4 43:8.53242320819E-5 44:0.00194823663254 45:9.95449374289E-5 46:1.4220705347E-4 47:9.95449374289E-5 48:0.00261660978385 49:3.27076222981E-4 50:2.13310580205E-4 51:8.53242320819E-5 52:5.68828213879E-5 53:1.27986348123E-4 54:7.11035267349E-5 55:1.56427758817E-4 56:1.13765642776E-4 57:1.13765642776E-4 58:4.2662116041E-5 59:9.95449374289E-5 60:2.55972696246E-4 61:5.68828213879E-5 62:5.68828213879E-5 63:1.84869169511E-4 64:0.00278725824801 65:8.10580204778E-4 66:2.13310580205E-4 67:2.55972696246E-4 68:5.68828213879E-5 69:2.8441410694E-4 70:1.4220705347E-4 71:1.13765642776E-4 72:7.11035267349E-5 73:2.27531285552E-4 74:1.27986348123E-4 75:4.2662116041E-5 76:1.13765642776E-4 77:1.84869169511E-4 78:8.53242320819E-5 79:1.4220705347E-5 80:1.99089874858E-4 81:2.27531285552E-4 82:7.11035267349E-5 83:7.11035267349E-5 84:7.11035267349E-5 85:8.53242320819E-5 86:7.11035267349E-5 87:1.99089874858E-4 88:1.70648464164E-4 89:9.95449374289E-5 90:2.8441410694E-5 91:4.2662116041E-5 92:2.8441410694E-5 93:5.68828213879E-5 94:1.4220705347E-4 95:1.4220705347E-5 96:7.96359499431E-4 97:2.8441410694E-4 98:8.53242320819E-5 99:1.56427758817E-4 100:5.68828213879E-5 101:1.56427758817E-4 102:4.2662116041E-5 103:4.2662116041E-5 104:2.8441410694E-5 105:0.00170648464164 106:0.00145051194539 107:1.84869169511E-4 108:0.00294368600683 109:1.4220705347E-4 110:9.95449374289E-5 111:9.95449374289E-5 112:0.00213310580205 113:8.53242320819E-5 114:1.70648464164E-4 115:7.11035267349E-5 116:5.68828213879E-5 117:1.4220705347E-4 118:9.95449374289E-5 119:1.13765642776E-4 120:1.4220705347E-4 121:1.84869169511E-4 122:8.53242320819E-5 123:8.53242320819E-5 124:6.1149032992E-4 125:1.13765642776E-4 126:2.13310580205E-4 127:2.70193401593E-4 128:0.00699658703072 129:0.00119453924915 130:2.98634812287E-4 131:2.41751990899E-4 132:7.11035267349E-5 133:3.69738339022E-4 134:1.13765642776E-4 135:4.2662116041E-5 136:1.13765642776E-4 137:2.41751990899E-4 138:5.68828213879E-5 139:8.53242320819E-5 140:2.8441410694E-5 141:2.55972696246E-4 142:5.68828213879E-5 143:1.13765642776E-4 144:9.95449374289E-5 145:4.2662116041E-4 146:1.70648464164E-4 147:9.95449374289E-5 148:9.95449374289E-5 149:5.68828213879E-4 150:8.53242320819E-5 151:0.0018771331058 152:0.00184869169511 153:8.53242320819E-5 154:0.0 155:7.11035267349E-5 156:1.84869169511E-4 157:1.4220705347E-4 158:5.68828213879E-5 159:1.84869169511E-4 160:0.00288680318544 161:3.83959044369E-4 162:1.99089874858E-4 163:1.27986348123E-4 164:8.53242320819E-5 165:1.70648464164E-4 166:1.84869169511E-4 167:9.95449374289E-5 168:5.68828213879E-5 169:4.2662116041E-5 170:1.4220705347E-5 171:5.68828213879E-5 172:1.27986348123E-4 173:2.8441410694E-5 174:5.68828213879E-5 175:1.13765642776E-4 176:1.4220705347E-4 177:7.11035267349E-5 178:7.11035267349E-5 179:8.53242320819E-5 180:1.70648464164E-4 181:2.8441410694E-5 182:5.68828213879E-5 183:9.95449374289E-5 184:1.56427758817E-4 185:2.8441410694E-5 186:8.53242320819E-5 187:7.11035267349E-5 188:1.27986348123E-4 189:8.53242320819E-5 190:7.11035267349E-5 191:2.13310580205E-4 192:0.00228953356086 193:3.12855517634E-4 194:7.11035267349E-5 195:2.13310580205E-4 196:7.11035267349E-5 197:9.95449374289E-5 198:8.53242320819E-5 199:1.4220705347E-4 200:7.11035267349E-5 201:7.11035267349E-5 202:5.68828213879E-5 203:5.68828213879E-5 204:1.70648464164E-4 205:9.95449374289E-5 206:9.95449374289E-5 207:1.4220705347E-4 208:2.70193401593E-4 209:0.0016638225256 210:1.27986348123E-4 211:1.84869169511E-4 212:1.70648464164E-4 213:0.00280147895336 214:1.4220705347E-4 215:0.00453640500569 216:0.00280147895336 217:1.99089874858E-4 218:1.4220705347E-4 219:4.2662116041E-5 220:1.70648464164E-4 221:1.27986348123E-4 222:2.13310580205E-4 223:7.82138794084E-4 224:0.00701080773606 225:4.40841865757E-4 226:7.11035267349E-5 227:8.53242320819E-5 228:9.95449374289E-5 229:5.68828213879E-5 230:8.53242320819E-5 231:7.11035267349E-5 232:1.99089874858E-4 233:0.00220420932878 234:0.00209044368601 235:1.13765642776E-4 236:0.00194823663254 237:1.4220705347E-4 238:8.53242320819E-5 239:2.13310580205E-4 240:0.00233219567691 241:0.00217576791809 242:5.68828213879E-5 243:1.99089874858E-4 244:2.27531285552E-4 245:0.00264505119454 246:1.27986348123E-4 247:0.00246018202503 248:0.00241751990899 249:0.0063850967008 250:0.00243174061433 251:4.97724687144E-4 252:0.00583048919226 253:0.0028156996587 254:0.00213310580205 255:0.00760807736064 256:0.837343572241 
256.0 1:0.00935418693407 2:0.001371947417 3:0.0010975579336 4:2.74389483399E-4 5:0.00187083738681 6:2.74389483399E-4 7:7.48334954726E-4 8:0.00122228042605 9:0.00152161440794 10:4.49000972835E-4 11:2.9933398189E-4 12:0.00152161440794 13:3.74167477363E-4 14:1.74611489436E-4 15:1.24722492454E-4 16:0.00261917234154 17:0.00139689191549 18:5.48778966799E-4 19:2.24500486418E-4 20:2.24500486418E-4 21:4.49000972835E-4 22:1.99555987927E-4 23:0.00231983835965 24:0.00364189677967 25:0.001371947417 26:2.24500486418E-4 27:1.74611489436E-4 28:1.49666990945E-4 29:2.49444984909E-4 30:9.97779939634E-5 31:2.9933398189E-4 32:0.00725884906084 33:0.00144678091247 34:2.9933398189E-4 35:4.24056474345E-4 36:2.24500486418E-4 37:3.49222978872E-4 38:1.49666990945E-4 39:1.24722492454E-4 40:2.9933398189E-4 41:4.24056474345E-4 42:6.23612462271E-4 43:7.48334954726E-5 44:0.0019207263838 45:2.49444984909E-5 46:4.98889969817E-5 47:7.48334954726E-5 48:0.00251939434758 49:4.73945471326E-4 50:2.74389483399E-4 51:1.49666990945E-4 52:7.48334954726E-5 53:1.24722492454E-4 54:9.97779939634E-5 55:9.97779939634E-5 56:2.74389483399E-4 57:1.74611489436E-4 58:7.48334954726E-5 59:4.98889969817E-5 60:2.24500486418E-4 61:9.97779939634E-5 62:2.49444984909E-5 63:2.24500486418E-4 64:0.00281872832947 65:0.00102272443813 66:2.74389483399E-4 67:2.24500486418E-4 68:2.49444984909E-5 69:3.99111975854E-4 70:2.49444984909E-4 71:1.49666990945E-4 72:1.24722492454E-4 73:3.24278480381E-4 74:1.74611489436E-4 75:2.49444984909E-5 76:4.98889969817E-5 77:1.49666990945E-4 78:9.97779939634E-5 79:2.49444984909E-5 80:1.49666990945E-4 81:2.9933398189E-4 82:1.74611489436E-4 83:2.49444984909E-5 84:0.0 85:9.97779939634E-5 86:9.97779939634E-5 87:2.9933398189E-4 88:1.99555987927E-4 89:7.48334954726E-5 90:2.49444984909E-5 91:0.0 92:1.74611489436E-4 93:7.48334954726E-5 94:7.48334954726E-5 95:9.97779939634E-5 96:6.73501459253E-4 97:4.24056474345E-4 98:4.98889969817E-5 99:7.48334954726E-5 100:9.97779939634E-5 101:1.24722492454E-4 102:1.24722492454E-4 103:4.98889969817E-5 104:7.48334954726E-5 105:0.00154655890643 106:0.00152161440794 107:1.49666990945E-4 108:0.00376661927212 109:7.48334954726E-5 110:7.48334954726E-5 111:1.24722492454E-4 112:0.00234478285814 113:7.48334954726E-5 114:7.48334954726E-5 115:7.48334954726E-5 116:4.98889969817E-5 117:4.98889969817E-5 118:2.49444984909E-5 119:9.97779939634E-5 120:2.24500486418E-4 121:2.74389483399E-4 122:1.49666990945E-4 123:1.49666990945E-4 124:6.23612462271E-4 125:1.99555987927E-4 126:1.99555987927E-4 127:4.49000972835E-4 128:0.00730873805782 129:0.00132205842002 130:1.74611489436E-4 131:1.74611489436E-4 132:9.97779939634E-5 133:5.23834468308E-4 134:1.74611489436E-4 135:1.49666990945E-4 136:1.49666990945E-4 137:4.98889969817E-4 138:9.97779939634E-5 139:2.74389483399E-4 140:1.24722492454E-4 141:3.99111975854E-4 142:9.97779939634E-5 143:9.97779939634E-5 144:1.24722492454E-4 145:3.49222978872E-4 146:1.49666990945E-4 147:9.97779939634E-5 148:7.48334954726E-5 149:4.24056474345E-4 150:9.97779939634E-5 151:0.00134700291851 152:0.00294345082192 153:2.49444984909E-4 154:9.97779939634E-5 155:1.24722492454E-4 156:9.97779939634E-5 157:7.48334954726E-5 158:7.48334954726E-5 159:2.74389483399E-4 160:0.00309311781287 161:4.24056474345E-4 162:1.99555987927E-4 163:4.98889969817E-5 164:9.97779939634E-5 165:1.99555987927E-4 166:1.74611489436E-4 167:4.98889969817E-5 168:1.74611489436E-4 169:9.97779939634E-5 170:1.24722492454E-4 171:0.0 172:1.49666990945E-4 173:7.48334954726E-5 174:9.97779939634E-5 175:4.98889969817E-5 176:7.48334954726E-5 177:1.49666990945E-4 178:4.98889969817E-5 179:7.48334954726E-5 180:7.48334954726E-5 181:1.24722492454E-4 182:2.49444984909E-5 183:1.24722492454E-4 184:3.24278480381E-4 185:1.74611489436E-4 186:7.48334954726E-5 187:0.0 188:1.74611489436E-4 189:7.48334954726E-5 190:2.49444984909E-4 191:4.98889969817E-5 192:0.00231983835965 193:4.98889969817E-4 194:7.48334954726E-5 195:1.49666990945E-4 196:1.49666990945E-4 197:7.48334954726E-5 198:4.98889969817E-5 199:9.97779939634E-5 200:4.98889969817E-5 201:1.24722492454E-4 202:1.24722492454E-4 203:2.49444984909E-5 204:9.97779939634E-5 205:4.98889969817E-5 206:7.48334954726E-5 207:2.49444984909E-5 208:2.74389483399E-4 209:0.00256928334456 210:1.24722492454E-4 211:1.74611489436E-4 212:4.98889969817E-5 213:0.00222006036569 214:9.97779939634E-5 215:0.00434034273741 216:0.0021951158672 217:4.49000972835E-4 218:4.98889969817E-5 219:7.48334954726E-5 220:2.74389483399E-4 221:1.74611489436E-4 222:1.74611489436E-4 223:5.98667963781E-4 224:0.00675995909102 225:0.00127216942303 226:2.24500486418E-4 227:0.0 228:1.49666990945E-4 229:1.74611489436E-4 230:1.74611489436E-4 231:1.24722492454E-4 232:1.99555987927E-4 233:0.00266906133852 234:0.00229489386116 235:1.74611489436E-4 236:0.00202050437776 237:1.99555987927E-4 238:2.49444984909E-4 239:1.49666990945E-4 240:0.0027189503355 241:0.00476439921175 242:1.24722492454E-4 243:2.74389483399E-4 244:2.49444984909E-4 245:0.00404100875552 246:1.99555987927E-4 247:0.00349222978872 248:0.00301828431739 249:0.0125720272394 250:0.00296839532041 251:6.48556960762E-4 252:0.00673501459253 253:0.00626106912121 254:0.00234478285814 255:0.0124223602484 256:0.801691236998 
256.0 1:0.00794196258114 2:0.00119638538883 3:0.00124729540537 4:3.18187603411E-4 5:0.00115820287642 6:3.81825124093E-4 7:2.67277586865E-4 8:4.70917653048E-4 9:8.14560264732E-4 10:2.16367570319E-4 11:2.29095074456E-4 12:0.00204912816597 13:3.69097619957E-4 14:8.90925289551E-5 15:7.63650248186E-5 16:0.00203640066183 17:0.00110729285987 18:3.30915107547E-4 19:1.52730049637E-4 20:6.36375206822E-5 21:3.43642611684E-4 22:0.0 23:9.92745322642E-4 24:0.00104365533919 25:5.3455517373E-4 26:8.90925289551E-5 27:3.81825124093E-5 28:1.01820033092E-4 29:3.81825124093E-5 30:3.81825124093E-5 31:1.14547537228E-4 32:0.00337278859616 33:0.00117093038055 34:5.09100165458E-4 35:4.20007636502E-4 36:1.27275041364E-4 37:1.7818505791E-4 38:1.65457553774E-4 39:7.63650248186E-5 40:8.90925289551E-5 41:2.67277586865E-4 42:6.23647702686E-4 43:1.27275041364E-4 44:0.00175639557083 45:1.01820033092E-4 46:1.27275041364E-4 47:7.63650248186E-5 48:0.00249459081074 49:5.09100165458E-4 50:1.65457553774E-4 51:7.63650248186E-5 52:1.52730049637E-4 53:1.40002545501E-4 54:1.27275041364E-4 55:6.36375206822E-5 56:1.27275041364E-4 57:7.63650248186E-5 58:7.63650248186E-5 59:5.09100165458E-5 60:7.63650248186E-5 61:2.54550082729E-5 62:6.36375206822E-5 63:1.14547537228E-4 64:0.00161639302533 65:0.00123456790123 66:2.29095074456E-4 67:7.00012727504E-4 68:6.36375206822E-5 69:3.18187603411E-4 70:2.54550082729E-4 71:2.03640066183E-4 72:6.36375206822E-5 73:2.67277586865E-4 74:8.90925289551E-5 75:2.54550082729E-5 76:1.27275041364E-4 77:2.41822578592E-4 78:5.09100165458E-5 79:3.81825124093E-5 80:1.14547537228E-4 81:2.41822578592E-4 82:6.36375206822E-5 83:1.01820033092E-4 84:7.63650248186E-5 85:1.40002545501E-4 86:1.27275041364E-5 87:1.40002545501E-4 88:7.63650248186E-5 89:1.52730049637E-4 90:5.09100165458E-5 91:1.27275041364E-5 92:5.09100165458E-5 93:5.09100165458E-5 94:5.09100165458E-5 95:6.36375206822E-5 96:3.69097619957E-4 97:2.29095074456E-4 98:1.01820033092E-4 99:8.90925289551E-5 100:3.81825124093E-5 101:8.90925289551E-5 102:1.52730049637E-4 103:5.09100165458E-5 104:1.01820033092E-4 105:0.00141275295914 106:0.00104365533919 107:1.7818505791E-4 108:0.00369097619957 109:6.36375206822E-5 110:1.27275041364E-4 111:2.54550082729E-5 112:0.00148911798396 113:1.01820033092E-4 114:2.54550082729E-5 115:6.36375206822E-5 116:6.36375206822E-5 117:1.90912562047E-4 118:1.14547537228E-4 119:6.36375206822E-5 120:8.90925289551E-5 121:1.14547537228E-4 122:6.36375206822E-5 123:1.14547537228E-4 124:5.09100165458E-4 125:1.65457553774E-4 126:2.03640066183E-4 127:1.65457553774E-4 128:0.00500190912562 129:0.00101820033092 130:2.41822578592E-4 131:3.30915107547E-4 132:1.01820033092E-4 133:3.18187603411E-4 134:1.65457553774E-4 135:6.36375206822E-5 136:2.54550082729E-5 137:4.07280132366E-4 138:2.54550082729E-5 139:1.52730049637E-4 140:8.90925289551E-5 141:2.03640066183E-4 142:6.36375206822E-5 143:5.09100165458E-5 144:1.52730049637E-4 145:4.07280132366E-4 146:1.27275041364E-5 147:8.90925289551E-5 148:2.54550082729E-5 149:7.76377752323E-4 150:6.36375206822E-5 151:0.00138729795087 152:0.00127275041364 153:1.65457553774E-4 154:7.63650248186E-5 155:7.63650248186E-5 156:2.54550082729E-5 157:1.40002545501E-4 158:1.14547537228E-4 159:1.27275041364E-4 160:0.0016418480336 161:3.81825124093E-4 162:1.27275041364E-4 163:1.65457553774E-4 164:2.54550082729E-5 165:1.27275041364E-4 166:1.90912562047E-4 167:3.81825124093E-5 168:1.27275041364E-4 169:3.81825124093E-5 170:1.27275041364E-4 171:1.27275041364E-5 172:6.36375206822E-5 173:1.14547537228E-4 174:6.36375206822E-5 175:5.09100165458E-5 176:2.41822578592E-4 177:1.27275041364E-4 178:1.27275041364E-4 179:6.36375206822E-5 180:8.90925289551E-5 181:8.90925289551E-5 182:2.54550082729E-5 183:1.14547537228E-4 184:1.14547537228E-4 185:5.09100165458E-5 186:2.54550082729E-5 187:5.09100165458E-5 188:2.03640066183E-4 189:2.54550082729E-5 190:7.63650248186E-5 191:2.54550082729E-4 192:0.00169275805015 193:3.81825124093E-4 194:8.90925289551E-5 195:1.7818505791E-4 196:3.81825124093E-5 197:1.01820033092E-4 198:8.90925289551E-5 199:1.40002545501E-4 200:7.63650248186E-5 201:1.90912562047E-4 202:6.36375206822E-5 203:6.36375206822E-5 204:1.65457553774E-4 205:3.81825124093E-5 206:5.09100165458E-5 207:5.09100165458E-5 208:1.65457553774E-4 209:0.00238004327351 210:1.14547537228E-4 211:2.16367570319E-4 212:7.63650248186E-5 213:0.00374188621611 214:6.36375206822E-5 215:0.00659284714268 216:0.00211276568665 217:2.03640066183E-4 218:1.40002545501E-4 219:3.81825124093E-5 220:1.27275041364E-4 221:8.90925289551E-5 222:1.65457553774E-4 223:6.49102710958E-4 224:0.00512918416698 225:6.23647702686E-4 226:1.01820033092E-4 227:7.63650248186E-5 228:5.09100165458E-5 229:6.36375206822E-5 230:1.14547537228E-4 231:1.14547537228E-4 232:1.27275041364E-4 233:0.00145093547155 234:0.00154002800051 235:6.36375206822E-5 236:0.00155275550465 237:1.01820033092E-4 238:1.27275041364E-4 239:2.41822578592E-4 240:0.00183276059565 241:0.00283823342243 242:8.90925289551E-5 243:1.14547537228E-4 244:2.80005091002E-4 245:0.00295278095965 246:2.16367570319E-4 247:0.00336006109202 248:0.00222731322388 249:0.00472190403462 250:0.00204912816597 251:6.61830215095E-4 252:0.00474735904289 253:0.00365279368716 254:0.00185821560392 255:0.00838742522591 256:0.854486445208 
256.0 1:0.01472 2:0.00256 3:0.001472 4:1.92E-4 5:0.00192 6:6.4E-4 7:7.04E-4 8:9.6E-4 9:0.001408 10:4.48E-4 11:3.2E-4 12:0.002432 13:0.001088 14:3.2E-4 15:1.92E-4 16:0.002752 17:0.0016 18:7.68E-4 19:4.48E-4 20:3.2E-4 21:2.56E-4 22:1.28E-4 23:0.00192 24:0.00352 25:6.4E-4 26:2.56E-4 27:2.56E-4 28:3.2E-4 29:3.84E-4 30:1.28E-4 31:1.92E-4 32:0.007488 33:0.00192 34:7.04E-4 35:8.96E-4 36:6.4E-5 37:5.76E-4 38:1.28E-4 39:1.92E-4 40:3.84E-4 41:6.4E-4 42:8.96E-4 43:6.4E-5 44:0.002944 45:1.28E-4 46:1.28E-4 47:0.0 48:0.00352 49:4.48E-4 50:7.68E-4 51:2.56E-4 52:6.4E-5 53:2.56E-4 54:2.56E-4 55:2.56E-4 56:1.28E-4 57:2.56E-4 58:1.28E-4 59:6.4E-5 60:3.2E-4 61:1.92E-4 62:6.4E-5 63:6.4E-5 64:0.001792 65:0.001984 66:5.12E-4 67:0.001344 68:3.84E-4 69:5.12E-4 70:3.84E-4 71:1.92E-4 72:1.92E-4 73:5.76E-4 74:1.92E-4 75:6.4E-5 76:1.28E-4 77:2.56E-4 78:5.12E-4 79:6.4E-5 80:2.56E-4 81:5.12E-4 82:2.56E-4 83:1.92E-4 84:1.28E-4 85:6.4E-5 86:0.0 87:1.92E-4 88:1.92E-4 89:1.92E-4 90:1.28E-4 91:6.4E-5 92:3.2E-4 93:0.0 94:1.92E-4 95:0.0 96:0.001024 97:4.48E-4 98:2.56E-4 99:1.28E-4 100:1.28E-4 101:1.92E-4 102:6.4E-5 103:1.28E-4 104:6.4E-5 105:0.001664 106:0.0016 107:1.28E-4 108:0.005632 109:6.4E-5 110:1.92E-4 111:2.56E-4 112:0.00192 113:1.28E-4 114:1.28E-4 115:1.92E-4 116:1.28E-4 117:2.56E-4 118:0.0 119:1.92E-4 120:4.48E-4 121:3.84E-4 122:3.84E-4 123:6.4E-5 124:0.001216 125:2.56E-4 126:4.48E-4 127:5.76E-4 128:0.005376 129:0.00224 130:5.76E-4 131:7.68E-4 132:2.56E-4 133:7.04E-4 134:1.92E-4 135:2.56E-4 136:1.28E-4 137:7.04E-4 138:2.56E-4 139:1.28E-4 140:1.28E-4 141:3.2E-4 142:6.4E-5 143:3.2E-4 144:1.92E-4 145:7.04E-4 146:1.92E-4 147:1.28E-4 148:2.56E-4 149:2.56E-4 150:0.0 151:0.001472 152:0.002112 153:4.48E-4 154:1.92E-4 155:3.84E-4 156:2.56E-4 157:6.4E-5 158:1.28E-4 159:1.92E-4 160:0.002112 161:7.04E-4 162:3.2E-4 163:3.84E-4 164:1.92E-4 165:1.92E-4 166:3.84E-4 167:1.92E-4 168:1.92E-4 169:3.84E-4 170:1.28E-4 171:1.28E-4 172:1.92E-4 173:1.28E-4 174:2.56E-4 175:1.28E-4 176:3.84E-4 177:1.28E-4 178:6.4E-5 179:1.92E-4 180:3.2E-4 181:6.4E-5 182:0.0 183:3.84E-4 184:2.56E-4 185:1.28E-4 186:1.28E-4 187:1.28E-4 188:3.2E-4 189:2.56E-4 190:6.4E-5 191:6.4E-5 192:0.002944 193:3.84E-4 194:1.28E-4 195:2.56E-4 196:1.28E-4 197:1.92E-4 198:1.92E-4 199:6.4E-5 200:1.28E-4 201:1.92E-4 202:1.28E-4 203:0.0 204:2.56E-4 205:1.92E-4 206:1.28E-4 207:2.56E-4 208:1.92E-4 209:0.002368 210:0.0 211:3.84E-4 212:6.4E-5 213:0.001856 214:3.84E-4 215:0.001472 216:0.0016 217:2.56E-4 218:1.92E-4 219:3.2E-4 220:6.4E-5 221:1.92E-4 222:3.2E-4 223:8.32E-4 224:0.006016 225:7.68E-4 226:6.4E-5 227:1.28E-4 228:6.4E-5 229:2.56E-4 230:1.92E-4 231:1.92E-4 232:1.92E-4 233:0.004288 234:0.002368 235:1.28E-4 236:0.0016 237:2.56E-4 238:5.12E-4 239:3.84E-4 240:0.00352 241:0.00416 242:3.84E-4 243:6.4E-5 244:4.48E-4 245:0.003776 246:4.48E-4 247:0.001536 248:0.003136 249:0.0048 250:0.001728 251:8.96E-4 252:0.00608 253:0.00224 254:0.003136 255:0.007488 256:0.79648 
256.0 1:0.0164613015017 2:0.00259915286869 3:0.00182903350019 4:6.73854447439E-4 5:0.00279168271082 6:7.70119368502E-4 7:0.00125144397382 8:5.77589526377E-4 9:0.00269541778976 10:6.73854447439E-4 11:3.85059684251E-4 12:0.00317674239507 13:7.70119368502E-4 14:3.85059684251E-4 15:1.92529842126E-4 16:0.00404312668464 17:0.00259915286869 18:8.66384289565E-4 19:8.66384289565E-4 20:1.92529842126E-4 21:0.00125144397382 22:0.0 23:0.00442818636889 24:0.00385059684251 25:1.92529842126E-4 26:2.88794763188E-4 27:9.62649210628E-5 28:5.77589526377E-4 29:3.85059684251E-4 30:9.62649210628E-5 31:5.77589526377E-4 32:0.00635348479014 33:0.00240662302657 34:0.00105891413169 35:5.77589526377E-4 36:2.88794763188E-4 37:6.73854447439E-4 38:2.88794763188E-4 39:9.62649210628E-5 40:1.92529842126E-4 41:6.73854447439E-4 42:0.00105891413169 43:9.62649210628E-5 44:0.0033692722372 45:4.81324605314E-4 46:1.92529842126E-4 47:3.85059684251E-4 48:0.00375433192145 49:9.62649210628E-4 50:6.73854447439E-4 51:9.62649210628E-5 52:1.92529842126E-4 53:3.85059684251E-4 54:1.92529842126E-4 55:9.62649210628E-5 56:2.88794763188E-4 57:2.88794763188E-4 58:0.0 59:1.92529842126E-4 60:0.0 61:9.62649210628E-5 62:1.92529842126E-4 63:9.62649210628E-5 64:0.00471698113208 65:0.00182903350019 66:3.85059684251E-4 67:5.77589526377E-4 68:9.62649210628E-5 69:0.00115517905275 70:6.73854447439E-4 71:1.92529842126E-4 72:2.88794763188E-4 73:2.88794763188E-4 74:4.81324605314E-4 75:9.62649210628E-5 76:1.92529842126E-4 77:4.81324605314E-4 78:9.62649210628E-5 79:3.85059684251E-4 80:2.88794763188E-4 81:5.77589526377E-4 82:1.92529842126E-4 83:3.85059684251E-4 84:1.92529842126E-4 85:1.92529842126E-4 86:1.92529842126E-4 87:0.0 88:2.88794763188E-4 89:1.92529842126E-4 90:3.85059684251E-4 91:9.62649210628E-5 92:1.92529842126E-4 93:4.81324605314E-4 94:1.92529842126E-4 95:1.92529842126E-4 96:0.00163650365807 97:4.81324605314E-4 98:4.81324605314E-4 99:2.88794763188E-4 100:0.0 101:2.88794763188E-4 102:9.62649210628E-5 103:0.0 104:9.62649210628E-5 105:0.00317674239507 106:0.00433192144782 107:0.0 108:0.00288794763188 109:2.88794763188E-4 110:7.70119368502E-4 111:5.77589526377E-4 112:0.00250288794763 113:3.85059684251E-4 114:1.92529842126E-4 115:2.88794763188E-4 116:1.92529842126E-4 117:1.92529842126E-4 118:4.81324605314E-4 119:4.81324605314E-4 120:1.92529842126E-4 121:2.88794763188E-4 122:9.62649210628E-5 123:1.92529842126E-4 124:0.00105891413169 125:9.62649210628E-5 126:8.66384289565E-4 127:4.81324605314E-4 128:0.0112629957643 129:0.00279168271082 130:5.77589526377E-4 131:7.70119368502E-4 132:2.88794763188E-4 133:9.62649210628E-4 134:3.85059684251E-4 135:2.88794763188E-4 136:4.81324605314E-4 137:8.66384289565E-4 138:9.62649210628E-5 139:3.85059684251E-4 140:1.92529842126E-4 141:3.85059684251E-4 142:4.81324605314E-4 143:1.92529842126E-4 144:3.85059684251E-4 145:1.92529842126E-4 146:5.77589526377E-4 147:2.88794763188E-4 148:0.00105891413169 149:4.81324605314E-4 150:2.88794763188E-4 151:0.00596842510589 152:0.00548710050058 153:2.88794763188E-4 154:9.62649210628E-5 155:1.92529842126E-4 156:9.62649210628E-5 157:1.92529842126E-4 158:9.62649210628E-5 159:6.73854447439E-4 160:0.00269541778976 161:4.81324605314E-4 162:2.88794763188E-4 163:3.85059684251E-4 164:2.88794763188E-4 165:2.88794763188E-4 166:2.88794763188E-4 167:1.92529842126E-4 168:9.62649210628E-5 169:5.77589526377E-4 170:0.0 171:1.92529842126E-4 172:4.81324605314E-4 173:1.92529842126E-4 174:9.62649210628E-5 175:9.62649210628E-5 176:5.77589526377E-4 177:4.81324605314E-4 178:2.88794763188E-4 179:2.88794763188E-4 180:9.62649210628E-5 181:0.0 182:1.92529842126E-4 183:3.85059684251E-4 184:7.70119368502E-4 185:2.88794763188E-4 186:1.92529842126E-4 187:2.88794763188E-4 188:4.81324605314E-4 189:9.62649210628E-5 190:9.62649210628E-5 191:7.70119368502E-4 192:0.00404312668464 193:5.77589526377E-4 194:3.85059684251E-4 195:4.81324605314E-4 196:9.62649210628E-5 197:1.92529842126E-4 198:1.92529842126E-4 199:1.92529842126E-4 200:9.62649210628E-5 201:6.73854447439E-4 202:9.62649210628E-5 203:2.88794763188E-4 204:4.81324605314E-4 205:9.62649210628E-5 206:1.92529842126E-4 207:3.85059684251E-4 208:9.62649210628E-4 209:0.00375433192145 210:0.0 211:3.85059684251E-4 212:4.81324605314E-4 213:0.00231035810551 214:5.77589526377E-4 215:0.00558336542164 216:0.00327300731613 217:2.88794763188E-4 218:0.0 219:9.62649210628E-5 220:7.70119368502E-4 221:9.62649210628E-5 222:5.77589526377E-4 223:7.70119368502E-4 224:0.00953022718521 225:7.70119368502E-4 226:1.92529842126E-4 227:0.0 228:1.92529842126E-4 229:0.0 230:1.92529842126E-4 231:1.92529842126E-4 232:9.62649210628E-5 233:0.00298421255295 234:0.00365806700039 235:2.88794763188E-4 236:0.00163650365807 237:3.85059684251E-4 238:5.77589526377E-4 239:3.85059684251E-4 240:0.0049095109742 241:0.00500577589526 242:7.70119368502E-4 243:1.92529842126E-4 244:0.00105891413169 245:0.00433192144782 246:4.81324605314E-4 247:0.00423565652676 248:0.00471698113208 249:0.0056796303427 250:0.00279168271082 251:0.00115517905275 252:0.00731613400077 253:0.00625721986908 254:0.00394686176357 255:0.012225644975 256:0.716114747786 
256.0 1:0.0112177963685 2:0.00177456665716 3:0.00101403808981 4:3.48575593371E-4 5:0.00186963272808 6:4.75330354596E-4 7:5.07019044903E-4 8:8.8728332858E-4 9:0.00123585892195 10:6.33773806129E-4 11:2.85198212758E-4 12:9.18972018886E-4 13:7.92217257661E-4 14:3.16886903064E-5 15:6.33773806129E-5 16:0.00171118927655 17:0.00167950058624 18:6.65462496435E-4 19:4.4364166429E-4 20:2.53509522451E-4 21:5.07019044903E-4 22:2.85198212758E-4 23:0.00291535950819 24:0.00516525651995 25:0.00133092499287 26:1.58443451532E-4 27:1.26754761226E-4 28:2.53509522451E-4 29:1.58443451532E-4 30:1.26754761226E-4 31:3.48575593371E-4 32:0.00633773806129 33:0.0024717178439 34:4.75330354596E-4 35:2.53509522451E-4 36:1.90132141839E-4 37:3.80264283677E-4 38:9.50660709193E-5 39:1.90132141839E-4 40:1.90132141839E-4 41:4.75330354596E-4 42:8.23905947967E-4 43:1.90132141839E-4 44:7.60528567354E-4 45:2.21820832145E-4 46:1.26754761226E-4 47:1.58443451532E-4 48:0.00110910416073 49:4.11952973984E-4 50:2.53509522451E-4 51:1.90132141839E-4 52:1.90132141839E-4 53:2.21820832145E-4 54:2.21820832145E-4 55:9.50660709193E-5 56:2.21820832145E-4 57:3.16886903064E-4 58:6.33773806129E-5 59:3.16886903064E-5 60:1.58443451532E-4 61:3.16886903064E-5 62:1.26754761226E-4 63:1.26754761226E-4 64:0.00190132141839 65:9.18972018886E-4 66:3.48575593371E-4 67:5.38707735209E-4 68:1.58443451532E-4 69:3.48575593371E-4 70:1.26754761226E-4 71:1.26754761226E-4 72:9.50660709193E-5 73:2.85198212758E-4 74:2.21820832145E-4 75:1.90132141839E-4 76:1.58443451532E-4 77:1.58443451532E-4 78:1.90132141839E-4 79:3.16886903064E-5 80:1.26754761226E-4 81:2.21820832145E-4 82:2.53509522451E-4 83:3.16886903064E-5 84:3.16886903064E-5 85:1.58443451532E-4 86:6.33773806129E-5 87:1.58443451532E-4 88:1.90132141839E-4 89:3.16886903064E-5 90:1.26754761226E-4 91:1.26754761226E-4 92:1.26754761226E-4 93:1.58443451532E-4 94:6.33773806129E-5 95:1.26754761226E-4 96:0.00104572678011 97:4.11952973984E-4 98:2.53509522451E-4 99:1.90132141839E-4 100:9.50660709193E-5 101:2.21820832145E-4 102:1.58443451532E-4 103:6.33773806129E-5 104:3.16886903064E-5 105:0.00259847260513 106:0.00415121843014 107:1.58443451532E-4 108:0.00342237855309 109:9.50660709193E-5 110:2.53509522451E-4 111:3.16886903064E-5 112:0.00190132141839 113:1.26754761226E-4 114:1.90132141839E-4 115:9.50660709193E-5 116:9.50660709193E-5 117:9.50660709193E-5 118:1.58443451532E-4 119:6.33773806129E-5 120:1.58443451532E-4 121:2.85198212758E-4 122:6.33773806129E-5 123:1.90132141839E-4 124:8.23905947967E-4 125:1.90132141839E-4 126:3.16886903064E-4 127:2.21820832145E-4 128:0.0059257850873 129:0.00158443451532 130:4.4364166429E-4 131:4.75330354596E-4 132:1.90132141839E-4 133:5.07019044903E-4 134:2.21820832145E-4 135:1.26754761226E-4 136:1.26754761226E-4 137:7.28839877048E-4 138:1.90132141839E-4 139:4.11952973984E-4 140:6.33773806129E-5 141:2.53509522451E-4 142:9.50660709193E-5 143:2.21820832145E-4 144:9.50660709193E-5 145:4.4364166429E-4 146:2.85198212758E-4 147:1.26754761226E-4 148:1.90132141839E-4 149:3.48575593371E-4 150:0.0 151:0.00126754761226 152:0.00348575593371 153:1.26754761226E-4 154:6.33773806129E-5 155:2.21820832145E-4 156:1.90132141839E-4 157:1.26754761226E-4 158:3.16886903064E-5 159:1.58443451532E-4 160:0.0024400291536 161:6.02085115822E-4 162:1.90132141839E-4 163:1.90132141839E-4 164:1.58443451532E-4 165:1.90132141839E-4 166:1.90132141839E-4 167:9.50660709193E-5 168:1.90132141839E-4 169:2.21820832145E-4 170:9.50660709193E-5 171:1.26754761226E-4 172:1.90132141839E-4 173:6.33773806129E-5 174:2.21820832145E-4 175:1.58443451532E-4 176:1.90132141839E-4 177:9.50660709193E-5 178:9.50660709193E-5 179:2.53509522451E-4 180:1.26754761226E-4 181:9.50660709193E-5 182:9.50660709193E-5 183:1.26754761226E-4 184:3.48575593371E-4 185:6.33773806129E-5 186:1.58443451532E-4 187:2.53509522451E-4 188:2.85198212758E-4 189:6.33773806129E-5 190:2.53509522451E-4 191:3.16886903064E-4 192:0.00278860474697 193:5.38707735209E-4 194:3.16886903064E-4 195:2.85198212758E-4 196:9.50660709193E-5 197:3.16886903064E-4 198:6.33773806129E-5 199:9.50660709193E-5 200:9.50660709193E-5 201:1.90132141839E-4 202:1.90132141839E-4 203:9.50660709193E-5 204:1.58443451532E-4 205:1.26754761226E-4 206:2.21820832145E-4 207:9.50660709193E-5 208:3.48575593371E-4 209:0.00129923630256 210:1.90132141839E-4 211:1.26754761226E-4 212:1.26754761226E-4 213:0.00107741547042 214:3.16886903064E-5 215:0.00212314225053 216:0.00183794403777 217:2.53509522451E-4 218:1.58443451532E-4 219:1.90132141839E-4 220:3.16886903064E-4 221:1.58443451532E-4 222:2.85198212758E-4 223:0.00110910416073 224:0.00703488924803 225:0.00136261368318 226:3.16886903064E-5 227:6.33773806129E-5 228:9.50660709193E-5 229:1.26754761226E-4 230:2.53509522451E-4 231:0.0 232:1.58443451532E-4 233:0.00263016129543 234:0.00282029343727 235:2.21820832145E-4 236:0.0024717178439 237:1.58443451532E-4 238:3.48575593371E-4 239:3.48575593371E-4 240:0.00275691605666 241:0.00332731248218 242:2.53509522451E-4 243:2.21820832145E-4 244:4.4364166429E-4 245:0.00133092499287 246:9.50660709193E-5 247:0.00186963272808 248:0.00285198212758 249:0.00706657793833 250:0.00269353867605 251:0.00101403808981 252:0.00703488924803 253:0.00250340653421 254:0.0024400291536 255:0.00583071901638 256:0.816712615268 
256.0 1:0.00768162485895 2:0.00117177328357 3:7.81182189046E-4 4:3.03793073518E-4 5:0.00122963863091 6:3.18259410352E-4 7:3.18259410352E-4 8:5.93119810202E-4 9:9.40311894222E-4 10:2.60394063015E-4 11:2.7486039985E-4 12:0.00208315250412 13:3.76124757689E-4 14:1.30197031508E-4 15:1.01264357839E-4 16:0.0016925614096 17:8.82446546885E-4 18:3.90591094523E-4 19:1.44663368342E-4 20:2.89326736684E-5 21:1.88062378844E-4 22:8.67980210051E-5 23:5.06321789197E-4 24:9.25845557388E-4 25:5.06321789197E-4 26:1.15730694673E-4 27:1.15730694673E-4 28:4.33990105026E-5 29:1.01264357839E-4 30:1.15730694673E-4 31:1.01264357839E-4 32:0.0034719208402 33:0.00117177328357 34:5.06321789197E-4 35:3.32725747186E-4 36:2.45927726181E-4 37:2.16995052513E-4 38:8.67980210051E-5 39:7.23316841709E-5 40:7.23316841709E-5 41:1.88062378844E-4 42:7.37783178544E-4 43:7.23316841709E-5 44:0.00195295547262 45:4.33990105026E-5 46:1.7359604201E-4 47:5.78653473367E-5 48:0.00244481092498 49:4.62922778694E-4 50:2.31461389347E-4 51:1.7359604201E-4 52:1.15730694673E-4 53:2.89326736684E-5 54:4.33990105026E-5 55:2.89326736684E-5 56:1.30197031508E-4 57:8.67980210051E-5 58:8.67980210051E-5 59:4.33990105026E-5 60:8.67980210051E-5 61:7.23316841709E-5 62:1.44663368342E-5 63:1.44663368342E-5 64:0.00162022972543 65:7.81182189046E-4 66:2.02528715679E-4 67:7.23316841709E-5 68:8.67980210051E-5 69:3.03793073518E-4 70:1.30197031508E-4 71:7.23316841709E-5 72:7.23316841709E-5 73:1.44663368342E-4 74:1.44663368342E-4 75:7.23316841709E-5 76:1.44663368342E-4 77:1.15730694673E-4 78:7.23316841709E-5 79:7.23316841709E-5 80:1.44663368342E-4 81:2.02528715679E-4 82:1.88062378844E-4 83:4.33990105026E-5 84:4.33990105026E-5 85:4.33990105026E-5 86:4.33990105026E-5 87:1.01264357839E-4 88:8.67980210051E-5 89:5.78653473367E-5 90:8.67980210051E-5 91:4.33990105026E-5 92:0.0 93:7.23316841709E-5 94:7.23316841709E-5 95:8.67980210051E-5 96:6.07586147036E-4 97:2.60394063015E-4 98:1.59129705176E-4 99:7.23316841709E-5 100:1.15730694673E-4 101:8.67980210051E-5 102:1.44663368342E-5 103:2.89326736684E-5 104:2.89326736684E-5 105:7.23316841709E-4 106:5.35254462865E-4 107:8.67980210051E-5 108:0.00231461389347 109:8.67980210051E-5 110:1.15730694673E-4 111:2.89326736684E-5 112:0.00156236437809 113:1.30197031508E-4 114:8.67980210051E-5 115:4.33990105026E-5 116:2.89326736684E-5 117:4.33990105026E-5 118:5.78653473367E-5 119:5.78653473367E-5 120:1.88062378844E-4 121:1.7359604201E-4 122:5.78653473367E-5 123:8.67980210051E-5 124:7.08850504875E-4 125:1.44663368342E-5 126:1.44663368342E-4 127:1.15730694673E-4 128:0.0040216416399 129:0.0010560425889 130:1.88062378844E-4 131:2.89326736684E-4 132:2.89326736684E-5 133:5.20788126031E-4 134:1.30197031508E-4 135:1.44663368342E-5 136:1.15730694673E-4 137:4.05057431357E-4 138:7.23316841709E-5 139:1.59129705176E-4 140:7.23316841709E-5 141:1.44663368342E-4 142:5.78653473367E-5 143:4.33990105026E-5 144:1.15730694673E-4 145:1.88062378844E-4 146:5.78653473367E-5 147:7.23316841709E-5 148:4.33990105026E-5 149:2.7486039985E-4 150:5.78653473367E-5 151:5.93119810202E-4 152:6.79917831207E-4 153:1.30197031508E-4 154:1.44663368342E-5 155:2.89326736684E-5 156:2.89326736684E-5 157:7.23316841709E-5 158:1.44663368342E-5 159:2.89326736684E-5 160:8.39047536383E-4 161:3.76124757689E-4 162:7.23316841709E-5 163:7.23316841709E-5 164:4.33990105026E-5 165:1.88062378844E-4 166:1.30197031508E-4 167:2.89326736684E-5 168:5.78653473367E-5 169:7.23316841709E-5 170:1.44663368342E-5 171:4.33990105026E-5 172:7.23316841709E-5 173:8.67980210051E-5 174:8.67980210051E-5 175:7.23316841709E-5 176:2.7486039985E-4 177:1.44663368342E-4 178:7.23316841709E-5 179:0.0 180:2.89326736684E-5 181:5.78653473367E-5 182:5.78653473367E-5 183:7.23316841709E-5 184:1.01264357839E-4 185:2.89326736684E-5 186:0.0 187:8.67980210051E-5 188:1.7359604201E-4 189:4.33990105026E-5 190:1.44663368342E-4 191:1.01264357839E-4 192:0.00163469606226 193:2.02528715679E-4 194:1.59129705176E-4 195:1.01264357839E-4 196:5.78653473367E-5 197:1.88062378844E-4 198:5.78653473367E-5 199:4.33990105026E-5 200:5.78653473367E-5 201:1.59129705176E-4 202:2.89326736684E-5 203:4.33990105026E-5 204:8.67980210051E-5 205:4.33990105026E-5 206:2.89326736684E-5 207:4.33990105026E-5 208:5.78653473367E-5 209:0.00134536932558 210:5.78653473367E-5 211:5.78653473367E-5 212:8.67980210051E-5 213:9.25845557388E-4 214:7.23316841709E-5 215:0.00131643665191 216:5.78653473367E-4 217:2.02528715679E-4 218:2.89326736684E-5 219:7.23316841709E-5 220:1.30197031508E-4 221:1.59129705176E-4 222:1.15730694673E-4 223:4.19523768191E-4 224:0.00222781587246 225:5.06321789197E-4 226:4.33990105026E-5 227:7.23316841709E-5 228:4.33990105026E-5 229:1.44663368342E-4 230:7.23316841709E-5 231:5.78653473367E-5 232:1.88062378844E-4 233:9.69244567891E-4 234:8.39047536383E-4 235:2.89326736684E-5 236:0.0010560425889 237:1.30197031508E-4 238:1.15730694673E-4 239:1.15730694673E-4 240:0.00147556635709 241:0.00216995052513 242:1.01264357839E-4 243:8.67980210051E-5 244:1.44663368342E-4 245:0.00162022972543 246:1.59129705176E-4 247:8.9691288372E-4 248:0.00120070595724 249:0.00539594363915 250:0.00133090298875 251:3.90591094523E-4 252:0.00318259410352 253:0.00150449903076 254:0.00133090298875 255:0.00315366142985 256:0.897144345109 
256.0 1:0.0110518620452 2:0.00232218113013 3:0.0011180872108 4:3.87030188355E-4 5:0.00159112410768 6:4.73036896878E-4 7:4.73036896878E-4 8:7.74060376709E-4 9:0.00150511739916 10:5.59043605401E-4 11:4.73036896878E-4 12:0.00184914423325 13:7.31057022448E-4 14:1.29010062785E-4 15:8.60067085233E-5 16:0.00318224821536 17:0.0016771308162 18:4.30033542616E-4 19:4.73036896878E-4 20:1.72013417047E-4 21:4.30033542616E-4 22:3.44026834093E-4 23:0.0022361744216 24:0.0036982884665 25:4.30033542616E-4 26:2.15016771308E-4 27:1.29010062785E-4 28:1.72013417047E-4 29:8.60067085233E-5 30:4.30033542616E-5 31:2.5802012557E-4 32:0.00395630859207 33:0.00172013417047 34:3.87030188355E-4 35:3.01023479831E-4 36:8.60067085233E-5 37:4.30033542616E-4 38:1.29010062785E-4 39:8.60067085233E-5 40:8.60067085233E-5 41:4.30033542616E-4 42:2.15016771308E-4 43:1.29010062785E-4 44:0.00159112410768 45:1.29010062785E-4 46:1.29010062785E-4 47:4.30033542616E-5 48:0.00249419454717 49:4.73036896878E-4 50:3.87030188355E-4 51:1.29010062785E-4 52:1.72013417047E-4 53:4.30033542616E-5 54:8.60067085233E-5 55:4.30033542616E-5 56:8.60067085233E-5 57:1.72013417047E-4 58:1.29010062785E-4 59:8.60067085233E-5 60:2.5802012557E-4 61:8.60067085233E-5 62:8.60067085233E-5 63:2.15016771308E-4 64:0.00266620796422 65:0.00103208050228 66:2.5802012557E-4 67:4.73036896878E-4 68:1.29010062785E-4 69:3.44026834093E-4 70:1.72013417047E-4 71:8.60067085233E-5 72:4.30033542616E-5 73:3.44026834093E-4 74:8.60067085233E-5 75:0.0 76:1.72013417047E-4 77:2.15016771308E-4 78:8.60067085233E-5 79:1.72013417047E-4 80:8.60067085233E-5 81:2.5802012557E-4 82:2.5802012557E-4 83:8.60067085233E-5 84:1.29010062785E-4 85:1.29010062785E-4 86:1.29010062785E-4 87:8.60067085233E-5 88:1.29010062785E-4 89:1.29010062785E-4 90:2.15016771308E-4 91:1.72013417047E-4 92:8.60067085233E-5 93:1.29010062785E-4 94:8.60067085233E-5 95:8.60067085233E-5 96:8.17063730971E-4 97:5.59043605401E-4 98:2.5802012557E-4 99:8.60067085233E-5 100:8.60067085233E-5 101:8.60067085233E-5 102:1.29010062785E-4 103:8.60067085233E-5 104:2.15016771308E-4 105:0.00197815429604 106:0.00206416100456 107:1.29010062785E-4 108:0.0031392448611 109:8.60067085233E-5 110:8.60067085233E-5 111:8.60067085233E-5 112:0.00154812075342 113:1.72013417047E-4 114:8.60067085233E-5 115:8.60067085233E-5 116:4.30033542616E-5 117:2.15016771308E-4 118:2.15016771308E-4 119:4.30033542616E-5 120:6.02046959663E-4 121:1.29010062785E-4 122:8.60067085233E-5 123:1.72013417047E-4 124:5.59043605401E-4 125:2.15016771308E-4 126:3.44026834093E-4 127:4.30033542616E-4 128:0.00653650984777 129:0.00133310398211 130:3.87030188355E-4 131:3.87030188355E-4 132:8.60067085233E-5 133:6.02046959663E-4 134:3.01023479831E-4 135:2.5802012557E-4 136:2.5802012557E-4 137:3.87030188355E-4 138:2.15016771308E-4 139:1.72013417047E-4 140:4.30033542616E-5 141:3.87030188355E-4 142:2.5802012557E-4 143:2.15016771308E-4 144:3.01023479831E-4 145:4.73036896878E-4 146:1.72013417047E-4 147:3.44026834093E-4 148:2.15016771308E-4 149:5.1604025114E-4 150:4.30033542616E-5 151:0.00150511739916 152:0.00219317106734 153:2.5802012557E-4 154:8.60067085233E-5 155:4.30033542616E-5 156:2.15016771308E-4 157:1.72013417047E-4 158:8.60067085233E-5 159:8.60067085233E-5 160:0.00184914423325 161:4.30033542616E-4 162:2.5802012557E-4 163:2.5802012557E-4 164:1.29010062785E-4 165:3.87030188355E-4 166:1.72013417047E-4 167:4.30033542616E-5 168:1.29010062785E-4 169:1.72013417047E-4 170:8.60067085233E-5 171:1.29010062785E-4 172:2.5802012557E-4 173:4.30033542616E-5 174:4.30033542616E-5 175:3.44026834093E-4 176:1.72013417047E-4 177:2.5802012557E-4 178:0.0 179:8.60067085233E-5 180:2.15016771308E-4 181:1.29010062785E-4 182:4.30033542616E-5 183:3.01023479831E-4 184:8.60067085233E-5 185:1.72013417047E-4 186:4.30033542616E-5 187:1.29010062785E-4 188:2.15016771308E-4 189:4.30033542616E-5 190:1.72013417047E-4 191:3.87030188355E-4 192:0.0020211576503 193:5.1604025114E-4 194:1.72013417047E-4 195:1.29010062785E-4 196:1.72013417047E-4 197:3.44026834093E-4 198:8.60067085233E-5 199:8.60067085233E-5 200:4.30033542616E-5 201:3.87030188355E-4 202:1.72013417047E-4 203:0.0 204:1.29010062785E-4 205:2.15016771308E-4 206:1.72013417047E-4 207:8.60067085233E-5 208:2.5802012557E-4 209:0.0022361744216 210:1.29010062785E-4 211:8.60067085233E-5 212:8.60067085233E-5 213:0.00288122473553 214:1.72013417047E-4 215:0.00296723144405 216:0.00107508385654 217:1.29010062785E-4 218:1.29010062785E-4 219:8.60067085233E-5 220:1.72013417047E-4 221:3.44026834093E-4 222:3.01023479831E-4 223:0.00137610733637 224:0.00554743269975 225:5.1604025114E-4 226:1.29010062785E-4 227:8.60067085233E-5 228:8.60067085233E-5 229:1.72013417047E-4 230:1.72013417047E-4 231:4.30033542616E-5 232:3.01023479831E-4 233:0.00210716435882 234:0.0016771308162 235:8.60067085233E-5 236:0.0011180872108 237:3.44026834093E-4 238:3.01023479831E-4 239:3.44026834093E-4 240:0.00236518448439 241:0.00262320460996 242:2.5802012557E-4 243:1.29010062785E-4 244:6.02046959663E-4 245:0.0025802012557 246:4.73036896878E-4 247:0.00176313752473 248:0.00301023479831 249:0.00520340586566 250:0.00184914423325 251:8.17063730971E-4 252:0.0048163756773 253:0.0020211576503 254:0.0025802012557 255:0.00636449643072 256:0.831039821106 
256.0 1:0.00780507187762 2:0.00127719357997 3:9.79181744646E-4 4:2.69629755772E-4 5:0.00127719357997 6:2.69629755772E-4 7:4.11540153547E-4 8:4.96686392212E-4 9:9.36608625314E-4 10:3.54775994437E-4 11:1.98674556885E-4 12:0.0020151276484 13:4.68304312657E-4 14:9.93372784424E-5 15:4.25731193325E-5 16:0.00188740829041 17:0.00124881150042 18:3.68967034215E-4 19:1.84483517107E-4 20:7.09551988874E-5 21:3.4058495466E-4 22:9.93372784424E-5 23:0.00167454269374 24:0.00164616061419 25:4.11540153547E-4 26:4.25731193325E-5 27:7.09551988874E-5 28:1.41910397775E-4 29:1.1352831822E-4 30:7.09551988874E-5 31:1.84483517107E-4 32:0.0049810549619 33:0.00124881150042 34:5.39259511544E-4 35:3.4058495466E-4 36:1.98674556885E-4 37:3.26393914882E-4 38:1.56101437552E-4 39:7.09551988874E-5 40:1.41910397775E-4 41:4.5411327288E-4 42:8.79844466204E-4 43:1.27719357997E-4 44:0.00175968893241 45:7.09551988874E-5 46:1.7029247733E-4 47:5.67641591099E-5 48:0.00208608284729 49:5.53450551322E-4 50:2.69629755772E-4 51:1.84483517107E-4 52:7.09551988874E-5 53:8.51462386649E-5 54:1.41910397775E-5 55:4.25731193325E-5 56:9.93372784424E-5 57:9.93372784424E-5 58:8.51462386649E-5 59:7.09551988874E-5 60:7.09551988874E-5 61:2.8382079555E-5 62:9.93372784424E-5 63:5.67641591099E-5 64:0.00256857819972 65:9.64990704869E-4 66:2.8382079555E-4 67:6.81169909319E-4 68:1.27719357997E-4 69:3.4058495466E-4 70:1.41910397775E-4 71:1.56101437552E-4 72:7.09551988874E-5 73:2.8382079555E-4 74:9.93372784424E-5 75:7.09551988874E-5 76:2.12865596662E-4 77:1.41910397775E-4 78:9.93372784424E-5 79:2.8382079555E-5 80:7.09551988874E-5 81:2.12865596662E-4 82:1.41910397775E-4 83:7.09551988874E-5 84:1.41910397775E-5 85:1.27719357997E-4 86:7.09551988874E-5 87:2.2705663644E-4 88:9.93372784424E-5 89:1.27719357997E-4 90:7.09551988874E-5 91:7.09551988874E-5 92:7.09551988874E-5 93:8.51462386649E-5 94:1.41910397775E-5 95:4.25731193325E-5 96:4.96686392212E-4 97:2.2705663644E-4 98:4.25731193325E-5 99:1.27719357997E-4 100:8.51462386649E-5 101:9.93372784424E-5 102:1.7029247733E-4 103:1.41910397775E-5 104:5.67641591099E-5 105:0.00154682333575 106:0.0020151276484 107:1.7029247733E-4 108:0.00439922233102 109:1.1352831822E-4 110:1.41910397775E-4 111:9.93372784424E-5 112:0.0025827692395 113:1.27719357997E-4 114:9.93372784424E-5 115:5.67641591099E-5 116:2.8382079555E-5 117:5.67641591099E-5 118:1.84483517107E-4 119:7.09551988874E-5 120:2.2705663644E-4 121:1.41910397775E-4 122:1.7029247733E-4 123:7.09551988874E-5 124:9.08226545759E-4 125:7.09551988874E-5 126:1.41910397775E-4 127:1.41910397775E-4 128:0.00621567542254 129:0.00140491293797 130:3.4058495466E-4 131:4.39922233102E-4 132:4.25731193325E-5 133:5.10877431989E-4 134:1.27719357997E-4 135:1.1352831822E-4 136:2.8382079555E-5 137:4.11540153547E-4 138:5.67641591099E-5 139:1.84483517107E-4 140:8.51462386649E-5 141:2.2705663644E-4 142:7.09551988874E-5 143:7.09551988874E-5 144:8.51462386649E-5 145:3.26393914882E-4 146:5.67641591099E-5 147:8.51462386649E-5 148:4.25731193325E-5 149:5.96023670654E-4 150:7.09551988874E-5 151:0.00194417244952 152:0.00187321725063 153:1.41910397775E-4 154:1.41910397775E-5 155:4.25731193325E-5 156:1.56101437552E-4 157:1.27719357997E-4 158:7.09551988874E-5 159:1.27719357997E-4 160:0.00224218428484 161:2.69629755772E-4 162:1.7029247733E-4 163:1.27719357997E-4 164:2.8382079555E-5 165:1.1352831822E-4 166:1.41910397775E-4 167:4.25731193325E-5 168:5.67641591099E-5 169:8.51462386649E-5 170:9.93372784424E-5 171:1.41910397775E-5 172:7.09551988874E-5 173:1.41910397775E-4 174:5.67641591099E-5 175:8.51462386649E-5 176:2.2705663644E-4 177:1.41910397775E-4 178:8.51462386649E-5 179:1.1352831822E-4 180:4.25731193325E-5 181:1.41910397775E-4 182:9.93372784424E-5 183:1.27719357997E-4 184:1.84483517107E-4 185:8.51462386649E-5 186:9.93372784424E-5 187:7.09551988874E-5 188:1.27719357997E-4 189:2.8382079555E-5 190:5.67641591099E-5 191:2.41247676217E-4 192:0.00185902621085 193:4.25731193325E-4 194:9.93372784424E-5 195:1.98674556885E-4 196:7.09551988874E-5 197:5.67641591099E-5 198:7.09551988874E-5 199:7.09551988874E-5 200:4.25731193325E-5 201:1.27719357997E-4 202:8.51462386649E-5 203:7.09551988874E-5 204:1.27719357997E-4 205:7.09551988874E-5 206:2.8382079555E-5 207:1.41910397775E-5 208:8.51462386649E-5 209:0.00198674556885 210:8.51462386649E-5 211:2.2705663644E-4 212:1.41910397775E-4 213:0.00246924092128 214:8.51462386649E-5 215:0.00557707863255 216:0.00236990364284 217:1.27719357997E-4 218:1.56101437552E-4 219:4.25731193325E-5 220:1.7029247733E-4 221:2.55438715995E-4 222:1.56101437552E-4 223:7.80507187762E-4 224:0.00561965175188 225:5.53450551322E-4 226:9.93372784424E-5 227:5.67641591099E-5 228:2.8382079555E-5 229:7.09551988874E-5 230:8.51462386649E-5 231:5.67641591099E-5 232:1.56101437552E-4 233:0.00191579036996 234:0.00210027388707 235:7.09551988874E-5 236:0.00212865596662 237:7.09551988874E-5 238:1.41910397775E-4 239:2.12865596662E-4 240:0.00239828572239 241:0.00208608284729 242:8.51462386649E-5 243:9.93372784424E-5 244:1.84483517107E-4 245:0.0027104885975 246:1.7029247733E-4 247:0.00313621979082 248:0.00215703804618 249:0.00578994422921 250:0.00239828572239 251:6.38596789987E-4 252:0.0058608994281 253:0.0030226914726 254:0.00192998140974 255:0.0074361048434 256:0.84310386422 
256.0 1:0.0242467463006 2:0.0028525583883 3:0.0028525583883 4:8.91424496345E-4 5:0.00338741308611 6:7.13139597076E-4 7:8.91424496345E-4 8:0.00213941879123 9:0.00481369228026 10:0.00142627919415 11:0.00106970939561 12:0.00410055268319 13:0.00178284899269 14:3.56569798538E-4 15:3.56569798538E-4 16:0.00338741308611 17:0.00392226778392 18:0.00142627919415 19:5.34854697807E-4 20:8.91424496345E-4 21:8.91424496345E-4 22:1.78284899269E-4 23:0.00303084328757 24:0.00463540738099 25:7.13139597076E-4 26:5.34854697807E-4 27:3.56569798538E-4 28:5.34854697807E-4 29:5.34854697807E-4 30:5.34854697807E-4 31:5.34854697807E-4 32:0.00730968087003 33:0.00303084328757 34:0.00142627919415 35:5.34854697807E-4 36:1.78284899269E-4 37:5.34854697807E-4 38:0.0 39:1.78284899269E-4 40:0.0 41:3.56569798538E-4 42:3.56569798538E-4 43:0.00106970939561 44:0.00374398288465 45:1.78284899269E-4 46:1.78284899269E-4 47:1.78284899269E-4 48:0.00713139597076 49:0.00106970939561 50:5.34854697807E-4 51:3.56569798538E-4 52:0.0 53:1.78284899269E-4 54:1.78284899269E-4 55:1.78284899269E-4 56:1.78284899269E-4 57:1.78284899269E-4 58:1.78284899269E-4 59:3.56569798538E-4 60:7.13139597076E-4 61:1.78284899269E-4 62:0.0 63:1.78284899269E-4 64:0.00392226778392 65:0.0028525583883 66:8.91424496345E-4 67:5.34854697807E-4 68:5.34854697807E-4 69:1.78284899269E-4 70:0.0 71:5.34854697807E-4 72:1.78284899269E-4 73:7.13139597076E-4 74:5.34854697807E-4 75:5.34854697807E-4 76:1.78284899269E-4 77:3.56569798538E-4 78:0.0 79:1.78284899269E-4 80:3.56569798538E-4 81:3.56569798538E-4 82:3.56569798538E-4 83:3.56569798538E-4 84:0.0 85:1.78284899269E-4 86:1.78284899269E-4 87:0.0 88:3.56569798538E-4 89:3.56569798538E-4 90:3.56569798538E-4 91:1.78284899269E-4 92:0.0 93:1.78284899269E-4 94:1.78284899269E-4 95:3.56569798538E-4 96:0.00124799429488 97:7.13139597076E-4 98:8.91424496345E-4 99:5.34854697807E-4 100:1.78284899269E-4 101:1.78284899269E-4 102:5.34854697807E-4 103:1.78284899269E-4 104:1.78284899269E-4 105:0.00410055268319 106:0.00534854697807 107:3.56569798538E-4 108:0.00410055268319 109:3.56569798538E-4 110:0.0 111:5.34854697807E-4 112:0.00356569798538 113:1.78284899269E-4 114:5.34854697807E-4 115:0.0 116:5.34854697807E-4 117:5.34854697807E-4 118:0.0 119:1.78284899269E-4 120:8.91424496345E-4 121:3.56569798538E-4 122:3.56569798538E-4 123:1.78284899269E-4 124:0.0023177036905 125:7.13139597076E-4 126:1.78284899269E-4 127:3.56569798538E-4 128:0.0108753788554 129:0.00338741308611 130:1.78284899269E-4 131:0.00106970939561 132:3.56569798538E-4 133:0.00106970939561 134:0.0 135:3.56569798538E-4 136:1.78284899269E-4 137:0.00106970939561 138:0.0 139:7.13139597076E-4 140:3.56569798538E-4 141:5.34854697807E-4 142:5.34854697807E-4 143:1.78284899269E-4 144:0.0 145:5.34854697807E-4 146:1.78284899269E-4 147:5.34854697807E-4 148:1.78284899269E-4 149:3.56569798538E-4 150:0.0 151:0.00196113389196 152:0.00267427348904 153:1.78284899269E-4 154:3.56569798538E-4 155:3.56569798538E-4 156:1.78284899269E-4 157:1.78284899269E-4 158:3.56569798538E-4 159:3.56569798538E-4 160:0.00267427348904 161:0.00142627919415 162:0.0 163:3.56569798538E-4 164:0.0 165:5.34854697807E-4 166:5.34854697807E-4 167:3.56569798538E-4 168:0.0 169:1.78284899269E-4 170:7.13139597076E-4 171:3.56569798538E-4 172:3.56569798538E-4 173:3.56569798538E-4 174:3.56569798538E-4 175:1.78284899269E-4 176:3.56569798538E-4 177:0.00106970939561 178:0.0 179:3.56569798538E-4 180:1.78284899269E-4 181:3.56569798538E-4 182:1.78284899269E-4 183:3.56569798538E-4 184:1.78284899269E-4 185:1.78284899269E-4 186:1.78284899269E-4 187:0.0 188:5.34854697807E-4 189:3.56569798538E-4 190:3.56569798538E-4 191:5.34854697807E-4 192:0.00463540738099 193:8.91424496345E-4 194:8.91424496345E-4 195:1.78284899269E-4 196:5.34854697807E-4 197:3.56569798538E-4 198:0.0 199:0.0 200:1.78284899269E-4 201:1.78284899269E-4 202:3.56569798538E-4 203:0.0 204:1.78284899269E-4 205:3.56569798538E-4 206:3.56569798538E-4 207:7.13139597076E-4 208:5.34854697807E-4 209:0.00623997147442 210:3.56569798538E-4 211:1.78284899269E-4 212:0.0 213:0.00534854697807 214:5.34854697807E-4 215:0.00106970939561 216:0.00267427348904 217:3.56569798538E-4 218:5.34854697807E-4 219:3.56569798538E-4 220:7.13139597076E-4 221:3.56569798538E-4 222:7.13139597076E-4 223:0.00178284899269 224:0.00730968087003 225:8.91424496345E-4 226:5.34854697807E-4 227:3.56569798538E-4 228:0.0 229:1.78284899269E-4 230:1.78284899269E-4 231:1.78284899269E-4 232:7.13139597076E-4 233:0.00499197717953 234:0.00588340167588 235:3.56569798538E-4 236:0.00374398288465 237:3.56569798538E-4 238:0.00106970939561 239:8.91424496345E-4 240:0.00445712248173 241:0.00427883758246 242:0.0 243:7.13139597076E-4 244:5.34854697807E-4 245:0.00641825637369 246:1.78284899269E-4 247:0.00427883758246 248:0.00445712248173 249:0.00374398288465 250:0.00303084328757 251:0.00142627919415 252:0.0115885184525 253:0.0028525583883 254:0.00570511677661 255:0.00998395435907 256:0.6828311642 
256.0 1:0.0103735438529 2:0.00175700394724 3:0.00134783864446 4:5.29508038895E-4 5:0.00158852411668 6:4.09165302782E-4 7:4.8137094445E-4 8:8.18330605565E-4 9:0.0013959757389 10:4.57302397227E-4 11:2.8882256667E-4 12:0.00211803215558 13:7.94262058342E-4 14:1.68479830557E-4 15:1.20342736112E-4 16:0.00163666121113 17:0.00127563300279 18:5.29508038895E-4 19:3.61028208337E-4 20:2.16616925002E-4 21:3.36959661115E-4 22:9.627418889E-5 23:0.0017088668528 24:0.00178107249446 25:5.7764513334E-4 26:1.9254837778E-4 27:2.40685472225E-5 28:2.16616925002E-4 29:1.44411283335E-4 30:1.68479830557E-4 31:1.9254837778E-4 32:0.00382689900838 33:0.0019254837778 34:7.46124963897E-4 35:4.57302397227E-4 36:1.68479830557E-4 37:3.36959661115E-4 38:1.20342736112E-4 39:1.20342736112E-4 40:2.40685472225E-5 41:2.8882256667E-4 42:0.00115529026668 43:1.9254837778E-4 44:0.00368248772504 45:4.8137094445E-5 46:7.22056416675E-5 47:1.20342736112E-4 48:0.00252719745836 49:3.61028208337E-4 50:2.8882256667E-4 51:1.68479830557E-4 52:1.68479830557E-4 53:2.16616925002E-4 54:9.627418889E-5 55:9.627418889E-5 56:7.22056416675E-5 57:9.627418889E-5 58:1.44411283335E-4 59:1.20342736112E-4 60:1.68479830557E-4 61:2.40685472225E-5 62:7.22056416675E-5 63:1.9254837778E-4 64:0.00238278617503 65:0.0011793588139 66:4.57302397227E-4 67:2.16616925002E-4 68:1.44411283335E-4 69:6.49850775007E-4 70:1.9254837778E-4 71:9.627418889E-5 72:9.627418889E-5 73:4.09165302782E-4 74:1.20342736112E-4 75:2.40685472225E-5 76:1.20342736112E-4 77:2.40685472225E-5 78:1.20342736112E-4 79:1.44411283335E-4 80:7.22056416675E-5 81:3.61028208337E-4 82:1.9254837778E-4 83:7.22056416675E-5 84:1.44411283335E-4 85:1.9254837778E-4 86:1.68479830557E-4 87:1.68479830557E-4 88:1.9254837778E-4 89:1.44411283335E-4 90:2.40685472225E-5 91:7.22056416675E-5 92:7.22056416675E-5 93:9.627418889E-5 94:3.8509675556E-4 95:4.8137094445E-5 96:6.25782227785E-4 97:2.64754019447E-4 98:1.68479830557E-4 99:1.9254837778E-4 100:1.20342736112E-4 101:4.8137094445E-5 102:9.627418889E-5 103:1.44411283335E-4 104:9.627418889E-5 105:0.00142004428613 106:0.00180514104169 107:9.627418889E-5 108:0.00327332242226 109:7.22056416675E-5 110:1.9254837778E-4 111:1.44411283335E-4 112:0.00221430634447 113:9.627418889E-5 114:7.22056416675E-5 115:9.627418889E-5 116:9.627418889E-5 117:1.44411283335E-4 118:1.9254837778E-4 119:1.44411283335E-4 120:4.33233850005E-4 121:1.68479830557E-4 122:1.20342736112E-4 123:9.627418889E-5 124:8.18330605565E-4 125:4.8137094445E-5 126:4.09165302782E-4 127:2.40685472225E-4 128:0.00637816501396 129:0.00187734668335 130:4.09165302782E-4 131:4.09165302782E-4 132:7.22056416675E-5 133:6.25782227785E-4 134:1.20342736112E-4 135:1.44411283335E-4 136:9.627418889E-5 137:5.05439491672E-4 138:1.68479830557E-4 139:3.36959661115E-4 140:1.44411283335E-4 141:2.64754019447E-4 142:9.627418889E-5 143:1.20342736112E-4 144:7.22056416675E-5 145:5.7764513334E-4 146:2.40685472225E-4 147:1.68479830557E-4 148:1.20342736112E-4 149:4.8137094445E-4 150:4.8137094445E-5 151:0.00142004428613 152:0.00173293540002 153:9.627418889E-5 154:4.8137094445E-5 155:1.20342736112E-4 156:1.20342736112E-4 157:4.8137094445E-5 158:1.44411283335E-4 159:4.8137094445E-5 160:0.00199768941947 161:3.8509675556E-4 162:1.20342736112E-4 163:2.64754019447E-4 164:9.627418889E-5 165:2.64754019447E-4 166:9.627418889E-5 167:1.20342736112E-4 168:4.8137094445E-5 169:1.44411283335E-4 170:1.20342736112E-4 171:1.44411283335E-4 172:7.22056416675E-5 173:7.22056416675E-5 174:4.8137094445E-5 175:2.16616925002E-4 176:2.64754019447E-4 177:1.68479830557E-4 178:1.68479830557E-4 179:2.40685472225E-5 180:1.20342736112E-4 181:9.627418889E-5 182:1.44411283335E-4 183:1.9254837778E-4 184:1.68479830557E-4 185:9.627418889E-5 186:7.22056416675E-5 187:9.627418889E-5 188:2.8882256667E-4 189:1.44411283335E-4 190:7.22056416675E-5 191:3.36959661115E-4 192:0.00204582651391 193:3.61028208337E-4 194:1.44411283335E-4 195:1.44411283335E-4 196:4.8137094445E-5 197:2.40685472225E-4 198:7.22056416675E-5 199:1.44411283335E-4 200:1.68479830557E-4 201:1.20342736112E-4 202:1.20342736112E-4 203:1.20342736112E-4 204:2.40685472225E-4 205:3.36959661115E-4 206:2.16616925002E-4 207:2.40685472225E-4 208:3.36959661115E-4 209:0.00269567728892 210:9.627418889E-5 211:1.68479830557E-4 212:1.44411283335E-4 213:0.00327332242226 214:1.9254837778E-4 215:0.0019254837778 216:0.00178107249446 217:1.9254837778E-4 218:9.627418889E-5 219:1.9254837778E-4 220:3.36959661115E-4 221:9.627418889E-5 222:4.09165302782E-4 223:8.6646770001E-4 224:0.00488591508617 225:4.8137094445E-4 226:9.627418889E-5 227:4.8137094445E-5 228:4.8137094445E-5 229:1.20342736112E-4 230:4.8137094445E-5 231:4.8137094445E-5 232:1.44411283335E-4 233:0.00115529026668 234:0.00144411283335 235:1.20342736112E-4 236:0.00154038702224 237:1.68479830557E-4 238:1.44411283335E-4 239:3.61028208337E-4 240:0.00257533455281 241:0.00291229421392 242:2.16616925002E-4 243:1.44411283335E-4 244:2.40685472225E-4 245:0.00334552806393 246:3.61028208337E-4 247:0.00219023779725 248:0.00228651198614 249:0.00382689900838 250:0.00180514104169 251:5.7764513334E-4 252:0.00529508038895 253:0.00231058053336 254:0.00240685472225 255:0.00666698758063 256:0.83734475787 
256.0 1:0.00692657827033 2:0.00107856718781 3:6.33287156145E-4 4:1.68216900851E-4 5:9.40035622403E-4 6:3.85909360776E-4 7:3.06748466258E-4 8:3.46328913517E-4 9:7.61923609737E-4 10:2.2758757174E-4 11:1.78112012666E-4 12:0.0012764694241 13:2.0779734811E-4 14:7.91608945181E-5 15:1.97902236295E-5 16:0.00130615475955 17:8.70769839699E-4 18:3.56224025331E-4 19:1.68216900851E-4 20:7.91608945181E-5 21:3.56224025331E-4 22:6.92657827033E-5 23:0.00148426677221 24:0.00201860281021 25:4.25489808035E-4 26:1.28636453592E-4 27:8.90560063329E-5 28:1.08846229962E-4 29:9.89511181476E-5 30:2.96853354443E-5 31:1.48426677221E-4 32:0.00533346526816 33:8.90560063329E-4 34:3.76014248961E-4 35:1.88007124481E-4 36:9.89511181476E-5 37:2.37482683554E-4 38:1.88007124481E-4 39:7.91608945181E-5 40:5.93706708886E-5 41:3.66119137146E-4 42:5.93706708886E-4 43:7.91608945181E-5 44:0.0012072036414 45:7.91608945181E-5 46:7.91608945181E-5 47:8.90560063329E-5 48:0.00164258856125 49:4.1559469622E-4 50:2.0779734811E-4 51:1.58321789036E-4 52:2.96853354443E-5 53:1.08846229962E-4 54:5.93706708886E-5 55:1.38531565407E-4 56:1.18741341777E-4 57:1.18741341777E-4 58:4.94755590738E-5 59:6.92657827033E-5 60:1.18741341777E-4 61:6.92657827033E-5 62:9.89511181476E-5 63:9.89511181476E-5 64:0.00222640015832 65:6.82762715219E-4 66:1.28636453592E-4 67:3.26538689887E-4 68:3.95804472591E-5 69:2.96853354443E-4 70:1.18741341777E-4 71:1.18741341777E-4 72:8.90560063329E-5 73:1.78112012666E-4 74:8.90560063329E-5 75:4.94755590738E-5 76:9.89511181476E-5 77:8.90560063329E-5 78:9.89511181476E-5 79:3.95804472591E-5 80:7.91608945181E-5 81:2.2758757174E-4 82:1.58321789036E-4 83:2.96853354443E-5 84:1.97902236295E-5 85:3.95804472591E-5 86:3.95804472591E-5 87:1.58321789036E-4 88:9.89511181476E-5 89:7.91608945181E-5 90:2.96853354443E-5 91:2.96853354443E-5 92:4.94755590738E-5 93:4.94755590738E-5 94:6.92657827033E-5 95:5.93706708886E-5 96:4.1559469622E-4 97:3.46328913517E-4 98:1.68216900851E-4 99:5.93706708886E-5 100:3.95804472591E-5 101:7.91608945181E-5 102:4.94755590738E-5 103:6.92657827033E-5 104:1.97902236295E-5 105:0.00195923213932 106:0.00160300811399 107:1.28636453592E-4 108:0.00323570156343 109:1.58321789036E-4 110:5.93706708886E-5 111:1.18741341777E-4 112:0.00192954680388 113:1.28636453592E-4 114:7.91608945181E-5 115:1.97902236295E-5 116:9.89511181476E-5 117:4.94755590738E-5 118:4.94755590738E-5 119:7.91608945181E-5 120:1.08846229962E-4 121:1.78112012666E-4 122:9.89511181476E-5 123:8.90560063329E-5 124:6.4318226796E-4 125:1.18741341777E-4 126:1.48426677221E-4 127:2.17692459925E-4 128:0.00528398970908 129:0.00123688897685 130:3.46328913517E-4 131:2.37482683554E-4 132:5.93706708886E-5 133:2.77063130813E-4 134:3.95804472591E-5 135:1.08846229962E-4 136:6.92657827033E-5 137:4.45280031664E-4 138:1.08846229962E-4 139:1.38531565407E-4 140:1.08846229962E-4 141:9.89511181476E-5 142:6.92657827033E-5 143:5.93706708886E-5 144:1.28636453592E-4 145:3.06748466258E-4 146:1.18741341777E-4 147:1.08846229962E-4 148:8.90560063329E-5 149:5.34336037997E-4 150:5.93706708886E-5 151:0.00156342766673 152:0.00224619038195 153:1.68216900851E-4 154:3.95804472591E-5 155:5.93706708886E-5 156:9.89511181476E-5 157:1.38531565407E-4 158:4.94755590738E-5 159:1.08846229962E-4 160:0.00274094597269 161:2.2758757174E-4 162:1.48426677221E-4 163:1.08846229962E-4 164:7.91608945181E-5 165:1.18741341777E-4 166:7.91608945181E-5 167:5.93706708886E-5 168:9.89511181476E-5 169:7.91608945181E-5 170:6.92657827033E-5 171:8.90560063329E-5 172:7.91608945181E-5 173:5.93706708886E-5 174:4.94755590738E-5 175:3.95804472591E-5 176:1.48426677221E-4 177:4.94755590738E-5 178:5.93706708886E-5 179:5.93706708886E-5 180:8.90560063329E-5 181:9.89511181476E-5 182:5.93706708886E-5 183:9.89511181476E-5 184:1.38531565407E-4 185:5.93706708886E-5 186:4.94755590738E-5 187:2.96853354443E-5 188:1.58321789036E-4 189:7.91608945181E-5 190:1.08846229962E-4 191:1.08846229962E-4 192:0.00171185434395 193:3.06748466258E-4 194:1.08846229962E-4 195:1.48426677221E-4 196:8.90560063329E-5 197:4.94755590738E-5 198:9.89511181476E-6 199:5.93706708886E-5 200:3.95804472591E-5 201:1.08846229962E-4 202:1.28636453592E-4 203:9.89511181476E-6 204:7.91608945181E-5 205:1.58321789036E-4 206:9.89511181476E-5 207:5.93706708886E-5 208:1.48426677221E-4 209:0.00133584009499 210:1.38531565407E-4 211:8.90560063329E-5 212:7.91608945181E-5 213:0.00137542054225 214:1.08846229962E-4 215:0.00286958242628 216:0.00228577082921 217:2.17692459925E-4 218:1.18741341777E-4 219:2.96853354443E-5 220:1.97902236295E-4 221:1.18741341777E-4 222:1.18741341777E-4 223:5.34336037997E-4 224:0.00615475954878 225:6.62972491589E-4 226:1.38531565407E-4 227:4.94755590738E-5 228:1.08846229962E-4 229:1.28636453592E-4 230:5.93706708886E-5 231:2.96853354443E-5 232:1.48426677221E-4 233:0.00296853354443 234:0.00240451217099 235:1.28636453592E-4 236:0.00228577082921 237:8.90560063329E-5 238:1.08846229962E-4 239:1.38531565407E-4 240:0.00237482683554 241:0.00203839303384 242:1.18741341777E-4 243:6.92657827033E-5 244:1.58321789036E-4 245:0.00159311300218 246:1.18741341777E-4 247:0.00198891747477 248:0.00217692459925 249:0.00774787255096 250:0.0035523451415 251:5.64021373442E-4 252:0.00718385117752 253:0.00303779932713 254:0.00187017613299 255:0.00591727686523 256:0.857767662775 
256.0 1:0.0118243822189 2:0.00150803715255 3:0.00137094286596 4:5.48377146382E-4 5:0.00143949000925 6:4.11282859787E-4 7:3.0846214484E-4 8:0.00126812215101 9:0.00178222572574 10:2.39915001542E-4 11:2.74188573191E-4 12:0.00191932001234 13:6.85471432978E-4 14:1.02820714947E-4 15:2.05641429893E-4 16:0.00226205572883 17:0.00137094286596 18:4.79830003085E-4 19:2.39915001542E-4 20:2.39915001542E-4 21:3.77009288138E-4 22:2.05641429893E-4 23:0.00281043287521 24:0.00353017787984 25:5.82650718031E-4 26:2.74188573191E-4 27:1.71367858245E-4 28:2.05641429893E-4 29:2.39915001542E-4 30:6.85471432978E-5 31:1.37094286596E-4 32:0.00582650718031 33:0.00133666929431 34:6.85471432978E-4 35:3.77009288138E-4 36:6.85471432978E-5 37:1.71367858245E-4 38:1.37094286596E-4 39:2.74188573191E-4 40:3.0846214484E-4 41:4.11282859787E-4 42:6.1692428968E-4 43:3.42735716489E-5 44:0.00123384857936 45:1.02820714947E-4 46:1.37094286596E-4 47:3.42735716489E-5 48:0.00171367858245 49:6.1692428968E-4 50:3.0846214484E-4 51:1.71367858245E-4 52:1.37094286596E-4 53:3.42735716489E-5 54:3.42735716489E-5 55:6.85471432978E-5 56:1.02820714947E-4 57:6.85471432978E-5 58:1.02820714947E-4 59:2.74188573191E-4 60:3.42735716489E-5 61:3.42735716489E-5 62:1.02820714947E-4 63:6.85471432978E-5 64:0.003221715735 65:0.00130239572266 66:3.0846214484E-4 67:7.19745004627E-4 68:2.74188573191E-4 69:4.11282859787E-4 70:4.45556431436E-4 71:1.71367858245E-4 72:2.05641429893E-4 73:5.82650718031E-4 74:1.71367858245E-4 75:2.05641429893E-4 76:2.05641429893E-4 77:2.05641429893E-4 78:1.71367858245E-4 79:3.42735716489E-5 80:2.05641429893E-4 81:3.77009288138E-4 82:2.05641429893E-4 83:2.05641429893E-4 84:3.42735716489E-5 85:1.71367858245E-4 86:2.05641429893E-4 87:2.39915001542E-4 88:1.37094286596E-4 89:2.05641429893E-4 90:6.85471432978E-5 91:1.02820714947E-4 92:3.0846214484E-4 93:1.02820714947E-4 94:6.85471432978E-5 95:1.02820714947E-4 96:0.00106248072112 97:5.14103574734E-4 98:1.71367858245E-4 99:1.71367858245E-4 100:1.37094286596E-4 101:1.02820714947E-4 102:1.37094286596E-4 103:0.0 104:0.0 105:0.00332453644994 106:0.00281043287521 107:1.71367858245E-4 108:0.00377009288138 109:1.02820714947E-4 110:1.02820714947E-4 111:1.37094286596E-4 112:0.00260479144532 113:2.05641429893E-4 114:1.71367858245E-4 115:1.02820714947E-4 116:1.02820714947E-4 117:3.42735716489E-5 118:6.85471432978E-5 119:3.42735716489E-5 120:5.82650718031E-4 121:3.0846214484E-4 122:1.37094286596E-4 123:1.37094286596E-4 124:7.88292147925E-4 125:6.85471432978E-5 126:3.0846214484E-4 127:5.14103574734E-4 128:0.0061006957535 129:0.0016108578675 130:4.79830003085E-4 131:3.42735716489E-4 132:2.39915001542E-4 133:3.77009288138E-4 134:4.11282859787E-4 135:2.74188573191E-4 136:2.05641429893E-4 137:5.48377146382E-4 138:1.02820714947E-4 139:1.37094286596E-4 140:1.02820714947E-4 141:3.0846214484E-4 142:6.85471432978E-5 143:1.37094286596E-4 144:1.71367858245E-4 145:5.48377146382E-4 146:1.37094286596E-4 147:2.05641429893E-4 148:2.05641429893E-4 149:8.91112862871E-4 150:3.42735716489E-5 151:0.00270761216026 152:0.00404428145457 153:2.74188573191E-4 154:1.37094286596E-4 155:6.85471432978E-5 156:6.85471432978E-5 157:1.37094286596E-4 158:3.42735716489E-5 159:6.85471432978E-5 160:0.00387291359633 161:6.1692428968E-4 162:3.77009288138E-4 163:3.42735716489E-4 164:1.71367858245E-4 165:3.42735716489E-4 166:4.79830003085E-4 167:1.02820714947E-4 168:1.71367858245E-4 169:1.71367858245E-4 170:6.85471432978E-5 171:0.0 172:6.85471432978E-5 173:3.0846214484E-4 174:6.85471432978E-5 175:6.85471432978E-5 176:6.85471432978E-5 177:6.85471432978E-5 178:2.05641429893E-4 179:2.74188573191E-4 180:1.71367858245E-4 181:1.02820714947E-4 182:3.42735716489E-5 183:2.05641429893E-4 184:2.39915001542E-4 185:3.42735716489E-5 186:2.39915001542E-4 187:1.02820714947E-4 188:3.42735716489E-4 189:6.85471432978E-5 190:1.71367858245E-4 191:2.05641429893E-4 192:0.0031531685917 193:2.05641429893E-4 194:2.74188573191E-4 195:1.37094286596E-4 196:1.71367858245E-4 197:3.42735716489E-5 198:1.71367858245E-4 199:2.39915001542E-4 200:3.42735716489E-5 201:1.71367858245E-4 202:1.37094286596E-4 203:6.85471432978E-5 204:2.39915001542E-4 205:3.42735716489E-5 206:2.05641429893E-4 207:1.71367858245E-4 208:3.42735716489E-4 209:0.00133666929431 210:6.85471432978E-5 211:1.71367858245E-4 212:3.42735716489E-4 213:0.00109675429276 214:0.0 215:0.00332453644994 216:0.00294752716181 217:1.71367858245E-4 218:6.85471432978E-5 219:1.37094286596E-4 220:6.1692428968E-4 221:3.42735716489E-5 222:1.37094286596E-4 223:5.14103574734E-4 224:0.00822565719574 225:0.00102820714947 226:3.0846214484E-4 227:1.02820714947E-4 228:0.0 229:2.05641429893E-4 230:6.85471432978E-5 231:3.42735716489E-5 232:4.11282859787E-4 233:0.00339308359324 234:0.00387291359633 235:1.37094286596E-4 236:0.00270761216026 237:1.71367858245E-4 238:3.42735716489E-4 239:4.11282859787E-4 240:0.00257051787367 241:0.00133666929431 242:2.74188573191E-4 243:1.71367858245E-4 244:3.77009288138E-4 245:0.00123384857936 246:1.71367858245E-4 247:0.00130239572266 248:0.00215923501388 249:0.00411282859787 250:0.00277615930356 251:7.54018576276E-4 252:0.00747163861946 253:0.0016108578675 254:0.003221715735 255:0.00418137574117 256:0.81416869452 
256.0 1:0.013339070568 2:0.00224708357238 3:0.00186460126219 4:6.69344042838E-4 5:0.00172117039587 6:3.82482310193E-4 7:4.30292598967E-4 8:8.60585197935E-4 9:0.0016733601071 10:4.30292598967E-4 11:3.34672021419E-4 12:0.00162554981832 13:4.78102887741E-4 14:2.86861732645E-4 15:1.91241155097E-4 16:0.00243832472748 17:0.00157773952955 18:7.64964620386E-4 19:2.39051443871E-4 20:2.39051443871E-4 21:7.17154331612E-4 22:1.43430866322E-4 23:0.00200803212851 24:0.00267737617135 25:3.34672021419E-4 26:9.56205775483E-5 27:2.39051443871E-4 28:9.56205775483E-5 29:1.43430866322E-4 30:1.43430866322E-4 31:1.91241155097E-4 32:0.00396825396825 33:0.0016733601071 34:5.7372346529E-4 35:8.1277490916E-4 36:1.43430866322E-4 37:5.25913176516E-4 38:1.91241155097E-4 39:9.56205775483E-5 40:1.43430866322E-4 41:4.30292598967E-4 42:0.00138649837445 43:3.34672021419E-4 44:0.00224708357238 45:2.86861732645E-4 46:9.56205775483E-5 47:2.39051443871E-4 48:0.00248613501626 49:5.25913176516E-4 50:2.39051443871E-4 51:4.78102887741E-4 52:1.91241155097E-4 53:1.43430866322E-4 54:9.56205775483E-5 55:9.56205775483E-5 56:9.56205775483E-5 57:1.91241155097E-4 58:4.78102887741E-5 59:9.56205775483E-5 60:2.86861732645E-4 61:4.78102887741E-5 62:0.0 63:1.91241155097E-4 64:0.00191241155097 65:0.00215146299484 66:3.82482310193E-4 67:5.25913176516E-4 68:9.56205775483E-5 69:4.78102887741E-4 70:3.34672021419E-4 71:2.86861732645E-4 72:1.43430866322E-4 73:3.34672021419E-4 74:2.39051443871E-4 75:1.43430866322E-4 76:2.86861732645E-4 77:4.30292598967E-4 78:1.91241155097E-4 79:1.43430866322E-4 80:2.39051443871E-4 81:3.34672021419E-4 82:3.82482310193E-4 83:1.91241155097E-4 84:1.43430866322E-4 85:9.56205775483E-5 86:1.91241155097E-4 87:1.91241155097E-4 88:9.56205775483E-5 89:1.91241155097E-4 90:1.43430866322E-4 91:9.56205775483E-5 92:4.78102887741E-5 93:4.78102887741E-5 94:1.91241155097E-4 95:9.56205775483E-5 96:0.00105182635303 97:5.7372346529E-4 98:2.39051443871E-4 99:1.43430866322E-4 100:0.0 101:2.86861732645E-4 102:9.56205775483E-5 103:4.78102887741E-5 104:9.56205775483E-5 105:0.00315547905909 106:0.00329890992542 107:2.86861732645E-4 108:0.00903614457831 109:0.0 110:1.91241155097E-4 111:4.78102887741E-5 112:0.00248613501626 113:3.34672021419E-4 114:2.39051443871E-4 115:4.78102887741E-5 116:1.91241155097E-4 117:1.91241155097E-4 118:3.34672021419E-4 119:1.91241155097E-4 120:5.25913176516E-4 121:2.39051443871E-4 122:9.56205775483E-5 123:4.78102887741E-5 124:0.00109963664181 125:1.91241155097E-4 126:2.39051443871E-4 127:3.34672021419E-4 128:0.00736278447122 129:0.00224708357238 130:5.25913176516E-4 131:8.60585197935E-4 132:1.91241155097E-4 133:6.69344042838E-4 134:2.39051443871E-4 135:1.91241155097E-4 136:4.78102887741E-5 137:4.78102887741E-4 138:3.82482310193E-4 139:3.34672021419E-4 140:2.39051443871E-4 141:3.82482310193E-4 142:4.78102887741E-5 143:1.43430866322E-4 144:1.91241155097E-4 145:7.17154331612E-4 146:1.43430866322E-4 147:1.91241155097E-4 148:9.56205775483E-5 149:9.08395486709E-4 150:1.91241155097E-4 151:0.0057372346529 152:0.00215146299484 153:1.91241155097E-4 154:9.56205775483E-5 155:9.56205775483E-5 156:1.91241155097E-4 157:1.43430866322E-4 158:4.78102887741E-5 159:1.43430866322E-4 160:0.00239051443871 161:5.25913176516E-4 162:4.78102887741E-5 163:2.39051443871E-4 164:9.56205775483E-5 165:2.39051443871E-4 166:2.39051443871E-4 167:1.43430866322E-4 168:9.56205775483E-5 169:9.56205775483E-5 170:2.86861732645E-4 171:1.91241155097E-4 172:3.82482310193E-4 173:4.78102887741E-5 174:4.78102887741E-5 175:2.86861732645E-4 176:4.78102887741E-5 177:0.0 178:9.56205775483E-5 179:1.91241155097E-4 180:1.91241155097E-4 181:2.39051443871E-4 182:4.78102887741E-5 183:3.34672021419E-4 184:5.25913176516E-4 185:1.91241155097E-4 186:9.56205775483E-5 187:1.91241155097E-4 188:2.39051443871E-4 189:4.78102887741E-5 190:1.43430866322E-4 191:5.7372346529E-4 192:0.00377701281316 193:4.30292598967E-4 194:0.0 195:2.86861732645E-4 196:9.56205775483E-5 197:1.43430866322E-4 198:0.0 199:1.43430866322E-4 200:1.43430866322E-4 201:2.86861732645E-4 202:2.39051443871E-4 203:9.56205775483E-5 204:4.78102887741E-5 205:9.56205775483E-5 206:4.78102887741E-5 207:4.78102887741E-5 208:4.30292598967E-4 209:0.004446356856 210:2.86861732645E-4 211:1.91241155097E-4 212:1.43430866322E-4 213:0.0053547523427 214:9.56205775483E-5 215:0.00741059475999 216:0.00282080703767 217:3.82482310193E-4 218:9.56205775483E-5 219:9.56205775483E-5 220:2.39051443871E-4 221:2.39051443871E-4 222:4.78102887741E-4 223:0.00124306750813 224:0.0083189902467 225:8.60585197935E-4 226:1.91241155097E-4 227:1.91241155097E-4 228:0.0 229:4.78102887741E-5 230:1.43430866322E-4 231:1.91241155097E-4 232:3.34672021419E-4 233:0.00301204819277 234:0.00315547905909 235:1.43430866322E-4 236:0.00334672021419 237:1.91241155097E-4 238:3.34672021419E-4 239:1.91241155097E-4 240:0.00349015108051 241:0.00616752725186 242:1.91241155097E-4 243:2.39051443871E-4 244:3.82482310193E-4 245:0.00798431822528 246:2.86861732645E-4 247:0.00731497418244 248:0.00334672021419 249:0.010374832664 250:0.0042551157009 251:0.00133868808568 252:0.00951424746605 253:0.0085102314018 254:0.00392044367948 255:0.0206540447504 256:0.73441384586 
256.0 1:0.00782290995057 2:0.00109606705351 3:7.52202879862E-4 4:2.57898130239E-4 5:0.00148291424887 6:3.86847195358E-4 7:4.08338706211E-4 8:6.44745325596E-4 9:0.00120352460778 10:6.23253814743E-4 11:2.14915108532E-4 12:0.00126799914034 13:4.08338706211E-4 14:8.59660434129E-5 15:1.50440575972E-4 16:0.00217064259617 17:9.88609499248E-4 18:4.08338706211E-4 19:2.57898130239E-4 20:1.71932086826E-4 21:2.36406619385E-4 22:2.57898130239E-4 23:8.81151944982E-4 24:0.00397592950784 25:6.23253814743E-4 26:1.28949065119E-4 27:8.59660434129E-5 28:2.79389641092E-4 29:1.71932086826E-4 30:0.0 31:1.07457554266E-4 32:0.00382548893187 33:0.00126799914034 34:4.29830217064E-4 35:2.79389641092E-4 36:8.59660434129E-5 37:1.93423597679E-4 38:1.71932086826E-4 39:8.59660434129E-5 40:6.44745325596E-5 41:3.65355684505E-4 42:9.24134966688E-4 43:2.36406619385E-4 44:0.00412637008382 45:8.59660434129E-5 46:4.29830217064E-5 47:1.07457554266E-4 48:0.002342574683 49:3.65355684505E-4 50:1.28949065119E-4 51:1.93423597679E-4 52:8.59660434129E-5 53:8.59660434129E-5 54:8.59660434129E-5 55:6.44745325596E-5 56:2.14915108532E-4 57:2.36406619385E-4 58:1.28949065119E-4 59:8.59660434129E-5 60:2.57898130239E-4 61:8.59660434129E-5 62:2.14915108532E-5 63:0.0 64:0.00210616806361 65:6.87728347303E-4 66:2.14915108532E-4 67:2.14915108532E-4 68:1.07457554266E-4 69:1.71932086826E-4 70:1.50440575972E-4 71:1.07457554266E-4 72:4.29830217064E-5 73:2.36406619385E-4 74:1.07457554266E-4 75:6.44745325596E-5 76:1.71932086826E-4 77:1.28949065119E-4 78:4.29830217064E-5 79:6.44745325596E-5 80:8.59660434129E-5 81:1.28949065119E-4 82:2.36406619385E-4 83:0.0 84:2.14915108532E-5 85:1.28949065119E-4 86:6.44745325596E-5 87:1.07457554266E-4 88:8.59660434129E-5 89:6.44745325596E-5 90:1.07457554266E-4 91:6.44745325596E-5 92:6.44745325596E-5 93:6.44745325596E-5 94:6.44745325596E-5 95:4.29830217064E-5 96:5.3728777133E-4 97:2.14915108532E-4 98:1.93423597679E-4 99:6.44745325596E-5 100:1.07457554266E-4 101:8.59660434129E-5 102:4.29830217064E-5 103:2.14915108532E-5 104:8.59660434129E-5 105:0.002342574683 106:0.00644745325596 107:1.50440575972E-4 108:0.0142918547174 109:1.71932086826E-4 110:1.93423597679E-4 111:1.28949065119E-4 112:0.00380399742102 113:1.28949065119E-4 114:8.59660434129E-5 115:4.29830217064E-5 116:1.07457554266E-4 117:8.59660434129E-5 118:4.29830217064E-5 119:1.07457554266E-4 120:2.36406619385E-4 121:2.79389641092E-4 122:1.93423597679E-4 123:2.14915108532E-5 124:0.0010101010101 125:4.29830217064E-5 126:2.57898130239E-4 127:1.71932086826E-4 128:0.00808080808081 129:0.00137545669461 130:1.28949065119E-4 131:1.07457554266E-4 132:6.44745325596E-5 133:3.22372662798E-4 134:2.14915108532E-4 135:1.07457554266E-4 136:1.28949065119E-4 137:5.3728777133E-4 138:2.36406619385E-4 139:6.44745325596E-5 140:1.07457554266E-4 141:1.71932086826E-4 142:0.0 143:8.59660434129E-5 144:1.28949065119E-4 145:2.14915108532E-4 146:6.44745325596E-5 147:1.28949065119E-4 148:8.59660434129E-5 149:1.93423597679E-4 150:6.44745325596E-5 151:5.80270793037E-4 152:0.00120352460778 153:8.59660434129E-5 154:0.0 155:2.14915108532E-5 156:8.59660434129E-5 157:6.44745325596E-5 158:0.0 159:1.50440575972E-4 160:9.88609499248E-4 161:2.36406619385E-4 162:2.36406619385E-4 163:1.50440575972E-4 164:1.07457554266E-4 165:1.71932086826E-4 166:6.44745325596E-5 167:6.44745325596E-5 168:6.44745325596E-5 169:8.59660434129E-5 170:2.14915108532E-5 171:8.59660434129E-5 172:1.93423597679E-4 173:8.59660434129E-5 174:4.29830217064E-5 175:1.28949065119E-4 176:1.93423597679E-4 177:1.28949065119E-4 178:6.44745325596E-5 179:6.44745325596E-5 180:6.44745325596E-5 181:4.29830217064E-5 182:2.14915108532E-5 183:1.07457554266E-4 184:1.50440575972E-4 185:2.14915108532E-5 186:6.44745325596E-5 187:1.28949065119E-4 188:1.71932086826E-4 189:2.14915108532E-5 190:8.59660434129E-5 191:1.71932086826E-4 192:0.00238555770471 193:2.79389641092E-4 194:2.14915108532E-5 195:0.0 196:1.71932086826E-4 197:1.07457554266E-4 198:4.29830217064E-5 199:4.29830217064E-5 200:1.07457554266E-4 201:1.07457554266E-4 202:1.50440575972E-4 203:1.28949065119E-4 204:1.50440575972E-4 205:6.44745325596E-5 206:2.14915108532E-5 207:4.29830217064E-5 208:1.28949065119E-4 209:3.86847195358E-4 210:1.71932086826E-4 211:2.14915108532E-5 212:8.59660434129E-5 213:7.52202879862E-4 214:1.07457554266E-4 215:7.52202879862E-4 216:6.44745325596E-4 217:8.59660434129E-5 218:4.29830217064E-5 219:4.29830217064E-5 220:1.50440575972E-4 221:6.44745325596E-5 222:3.00881151945E-4 223:4.29830217064E-4 224:0.00343864173651 225:3.00881151945E-4 226:6.44745325596E-5 227:6.44745325596E-5 228:4.29830217064E-5 229:1.07457554266E-4 230:8.59660434129E-5 231:4.29830217064E-5 232:1.93423597679E-4 233:0.00255748979153 234:0.00365355684505 235:1.07457554266E-4 236:0.00668385987535 237:1.07457554266E-4 238:2.14915108532E-4 239:1.93423597679E-4 240:0.00285837094348 241:0.00116054158607 242:4.29830217064E-5 243:2.14915108532E-5 244:2.57898130239E-4 245:6.23253814743E-4 246:1.07457554266E-4 247:7.95185901569E-4 248:0.00180528691167 249:0.0043197936815 250:0.00343864173651 251:4.72813238771E-4 252:0.0123146357189 253:0.00105308403181 254:0.00174081237911 255:0.0029873200086 256:0.839222007307 
