svm_type c_svc
kernel_type rbf
gamma 16.0
nr_class 2
total_sv 492
rho 21.204636985249078
label 1 0
nr_sv 245 247
SV
1024.0 1:0.0100780480412 2:0.00126291328837 3:9.85072364931E-4 4:2.77840923442E-4 5:0.00169230380642 6:3.78873986512E-4 7:5.30423581117E-4 8:5.55681846884E-4 9:0.00189436993256 10:2.77840923442E-4 11:3.28357454977E-4 12:0.00113662195954 13:4.0413225228E-4 14:1.26291328837E-4 15:2.0206612614E-4 16:0.00207117779293 17:0.00189436993256 18:4.79907049582E-4 19:3.0309918921E-4 20:2.27324391907E-4 21:6.31456644187E-4 22:1.76807860372E-4 23:0.00282892576596 24:0.00548104367154 25:4.79907049582E-4 26:2.0206612614E-4 27:1.51549594605E-4 28:2.27324391907E-4 29:1.51549594605E-4 30:0.0 31:3.28357454977E-4 32:0.0133111060595 33:0.0019448864641 34:3.78873986512E-4 35:2.77840923442E-4 36:7.57747973024E-5 37:2.27324391907E-4 38:1.51549594605E-4 39:2.0206612614E-4 40:1.26291328837E-4 41:3.78873986512E-4 42:3.28357454977E-4 43:1.26291328837E-4 44:8.33522770327E-4 45:1.76807860372E-4 46:0.0 47:1.0103306307E-4 48:0.00131342981991 49:3.78873986512E-4 50:3.28357454977E-4 51:1.51549594605E-4 52:7.57747973024E-5 53:1.0103306307E-4 54:1.26291328837E-4 55:2.27324391907E-4 56:1.76807860372E-4 57:1.76807860372E-4 58:1.0103306307E-4 59:7.57747973024E-5 60:5.05165315349E-5 61:7.57747973024E-5 62:1.0103306307E-4 63:1.51549594605E-4 64:0.00270263443712 65:0.00103558889647 66:2.52582657675E-4 67:1.76807860372E-4 68:1.26291328837E-4 69:2.27324391907E-4 70:1.51549594605E-4 71:1.0103306307E-4 72:1.26291328837E-4 73:3.28357454977E-4 74:5.05165315349E-5 75:7.57747973024E-5 76:2.0206612614E-4 77:1.76807860372E-4 78:7.57747973024E-5 79:5.05165315349E-5 80:1.0103306307E-4 81:2.27324391907E-4 82:2.27324391907E-4 83:5.05165315349E-5 84:7.57747973024E-5 85:1.51549594605E-4 86:5.05165315349E-5 87:2.77840923442E-4 88:1.76807860372E-4 89:1.76807860372E-4 90:5.05165315349E-5 91:2.52582657675E-5 92:2.52582657675E-5 93:5.05165315349E-5 94:1.26291328837E-4 95:7.57747973024E-5 96:5.05165315349E-4 97:6.56714909954E-4 98:2.52582657675E-4 99:7.57747973024E-5 100:5.05165315349E-5 101:1.51549594605E-4 102:1.76807860372E-4 103:7.57747973024E-5 104:5.05165315349E-5 105:0.00356141547321 106:0.00242479351368 107:7.57747973024E-5 108:0.00376348159935 109:2.0206612614E-4 110:1.51549594605E-4 111:5.05165315349E-5 112:0.00161652900912 113:1.0103306307E-4 114:2.0206612614E-4 115:1.51549594605E-4 116:1.76807860372E-4 117:1.26291328837E-4 118:1.0103306307E-4 119:1.26291328837E-4 120:3.28357454977E-4 121:1.51549594605E-4 122:2.0206612614E-4 123:1.76807860372E-4 124:5.55681846884E-4 125:1.26291328837E-4 126:3.28357454977E-4 127:2.27324391907E-4 128:0.00671869869415 129:0.00149023768028 130:4.0413225228E-4 131:3.53615720745E-4 132:7.57747973024E-5 133:4.54648783815E-4 134:2.0206612614E-4 135:7.57747973024E-5 136:1.76807860372E-4 137:6.06198378419E-4 138:0.0 139:1.51549594605E-4 140:5.05165315349E-5 141:3.0309918921E-4 142:1.26291328837E-4 143:1.76807860372E-4 144:1.76807860372E-4 145:5.55681846884E-4 146:7.57747973024E-5 147:2.52582657675E-5 148:2.0206612614E-4 149:5.55681846884E-4 150:5.05165315349E-5 151:0.00229850218484 152:0.0040413225228 153:1.76807860372E-4 154:7.57747973024E-5 155:2.52582657675E-5 156:2.77840923442E-4 157:0.0 158:1.51549594605E-4 159:1.51549594605E-4 160:0.00474855396428 161:4.29390518047E-4 162:1.26291328837E-4 163:2.52582657675E-4 164:5.05165315349E-5 165:2.52582657675E-4 166:2.27324391907E-4 167:5.05165315349E-5 168:2.52582657675E-5 169:2.0206612614E-4 170:1.0103306307E-4 171:1.0103306307E-4 172:1.0103306307E-4 173:1.76807860372E-4 174:1.26291328837E-4 175:2.52582657675E-4 176:1.26291328837E-4 177:1.26291328837E-4 178:1.51549594605E-4 179:7.57747973024E-5 180:1.0103306307E-4 181:1.51549594605E-4 182:5.05165315349E-5 183:1.0103306307E-4 184:5.05165315349E-5 185:5.05165315349E-5 186:1.26291328837E-4 187:1.26291328837E-4 188:2.27324391907E-4 189:1.0103306307E-4 190:1.26291328837E-4 191:5.05165315349E-5 192:0.00229850218484 193:5.55681846884E-4 194:1.51549594605E-4 195:7.57747973024E-5 196:7.57747973024E-5 197:2.0206612614E-4 198:7.57747973024E-5 199:1.26291328837E-4 200:1.51549594605E-4 201:2.77840923442E-4 202:1.51549594605E-4 203:2.52582657675E-5 204:1.0103306307E-4 205:2.27324391907E-4 206:2.0206612614E-4 207:7.57747973024E-5 208:3.78873986512E-4 209:0.00197014472986 210:1.51549594605E-4 211:1.26291328837E-4 212:1.26291328837E-4 213:0.00156601247758 214:2.0206612614E-4 215:0.00308150842363 216:0.00300573362633 217:2.77840923442E-4 218:2.52582657675E-4 219:1.0103306307E-4 220:5.80940112652E-4 221:1.0103306307E-4 222:4.0413225228E-4 223:9.34555833396E-4 224:0.0105832133566 225:8.84039301862E-4 226:7.57747973024E-5 227:7.57747973024E-5 228:7.57747973024E-5 229:1.26291328837E-4 230:1.0103306307E-4 231:1.0103306307E-4 232:7.57747973024E-5 233:0.00742593013564 234:0.00482432876159 235:3.53615720745E-4 236:0.00295521709479 237:2.0206612614E-4 238:3.53615720745E-4 239:3.78873986512E-4 240:0.00295521709479 241:0.00285418403172 242:3.0309918921E-4 243:1.0103306307E-4 244:3.78873986512E-4 245:0.00247531004521 246:3.28357454977E-4 247:0.00204591952717 248:0.00308150842363 249:0.00884039301862 250:0.00502639488773 251:0.00103558889647 252:0.0108863125458 253:0.00305625015786 254:0.00295521709479 255:0.00732489707257 256:0.787881084085 
1024.0 1:0.0115880586469 2:0.00211976682565 3:0.00113054230701 4:4.94612259318E-4 5:0.00148383677795 6:5.65271153506E-4 7:6.00600600601E-4 8:9.18565624448E-4 9:0.00141317788377 10:5.29941706412E-4 11:1.76647235471E-4 12:0.00339162692104 13:7.77247836071E-4 14:2.47306129659E-4 15:1.41317788377E-4 16:0.00597067655891 17:0.0018018018018 18:3.88623918036E-4 19:1.76647235471E-4 20:2.47306129659E-4 21:7.41918388977E-4 22:1.05988341282E-4 23:0.003003003003 24:0.00508744038156 25:0.00102455396573 26:2.47306129659E-4 27:3.17965023847E-4 28:3.53294470942E-4 29:2.47306129659E-4 30:3.53294470942E-5 31:5.65271153506E-4 32:0.0131072248719 33:0.00144850733086 34:4.94612259318E-4 35:4.94612259318E-4 36:1.41317788377E-4 37:4.2395336513E-4 38:3.17965023847E-4 39:3.53294470942E-4 40:2.47306129659E-4 41:3.17965023847E-4 42:9.89224518636E-4 43:7.06588941883E-5 44:0.00215509627274 45:1.41317788377E-4 46:2.11976682565E-4 47:7.06588941883E-5 48:0.00452216922805 49:3.17965023847E-4 50:4.59282812224E-4 51:1.41317788377E-4 52:1.05988341282E-4 53:1.05988341282E-4 54:1.05988341282E-4 55:1.05988341282E-4 56:2.82635576753E-4 57:1.05988341282E-4 58:1.41317788377E-4 59:1.05988341282E-4 60:1.76647235471E-4 61:7.06588941883E-5 62:3.53294470942E-5 63:7.06588941883E-5 64:0.00632397102985 65:0.00127186009539 66:4.59282812224E-4 67:7.41918388977E-4 68:3.53294470942E-5 69:2.47306129659E-4 70:7.06588941883E-5 71:1.41317788377E-4 72:7.06588941883E-5 73:3.17965023847E-4 74:1.05988341282E-4 75:7.06588941883E-5 76:1.41317788377E-4 77:1.41317788377E-4 78:1.05988341282E-4 79:0.0 80:7.06588941883E-5 81:1.05988341282E-4 82:2.82635576753E-4 83:1.05988341282E-4 84:3.53294470942E-5 85:7.06588941883E-5 86:7.06588941883E-5 87:1.41317788377E-4 88:3.17965023847E-4 89:7.06588941883E-5 90:1.41317788377E-4 91:3.53294470942E-5 92:0.0 93:7.06588941883E-5 94:3.53294470942E-5 95:7.06588941883E-5 96:7.77247836071E-4 97:4.2395336513E-4 98:1.76647235471E-4 99:7.06588941883E-5 100:1.41317788377E-4 101:1.76647235471E-4 102:3.53294470942E-5 103:3.53294470942E-5 104:1.41317788377E-4 105:0.00176647235471 106:0.00173114290761 107:1.05988341282E-4 108:0.00473414591062 109:1.05988341282E-4 110:1.05988341282E-4 111:7.06588941883E-5 112:0.00406288641583 113:7.06588941883E-5 114:3.53294470942E-5 115:3.53294470942E-5 116:7.06588941883E-5 117:2.11976682565E-4 118:1.05988341282E-4 119:1.76647235471E-4 120:3.88623918036E-4 121:3.17965023847E-4 122:1.41317788377E-4 123:1.41317788377E-4 124:9.18565624448E-4 125:1.76647235471E-4 126:1.76647235471E-4 127:2.82635576753E-4 128:0.013142554319 129:0.00155449567214 130:4.2395336513E-4 131:4.59282812224E-4 132:2.11976682565E-4 133:6.71259494789E-4 134:1.05988341282E-4 135:1.76647235471E-4 136:1.05988341282E-4 137:6.35930047695E-4 138:7.06588941883E-5 139:1.05988341282E-4 140:1.05988341282E-4 141:3.17965023847E-4 142:2.47306129659E-4 143:0.0 144:2.11976682565E-4 145:3.88623918036E-4 146:2.47306129659E-4 147:1.05988341282E-4 148:0.0 149:6.71259494789E-4 150:7.06588941883E-5 151:0.0030383324501 152:0.0036389330507 153:2.82635576753E-4 154:1.05988341282E-4 155:3.53294470942E-5 156:1.05988341282E-4 157:1.76647235471E-4 158:1.41317788377E-4 159:1.76647235471E-4 160:0.00498145204028 161:6.35930047695E-4 162:2.11976682565E-4 163:1.05988341282E-4 164:3.53294470942E-5 165:3.53294470942E-5 166:7.06588941883E-5 167:1.05988341282E-4 168:1.05988341282E-4 169:1.76647235471E-4 170:7.06588941883E-5 171:2.11976682565E-4 172:1.41317788377E-4 173:7.06588941883E-5 174:1.41317788377E-4 175:3.53294470942E-5 176:2.47306129659E-4 177:1.05988341282E-4 178:1.05988341282E-4 179:1.05988341282E-4 180:0.0 181:2.47306129659E-4 182:1.05988341282E-4 183:2.11976682565E-4 184:2.82635576753E-4 185:3.53294470942E-5 186:1.05988341282E-4 187:7.06588941883E-5 188:1.05988341282E-4 189:1.05988341282E-4 190:2.11976682565E-4 191:4.2395336513E-4 192:0.00296767355591 193:3.53294470942E-4 194:7.06588941883E-5 195:1.41317788377E-4 196:1.05988341282E-4 197:1.05988341282E-4 198:1.05988341282E-4 199:1.05988341282E-4 200:1.41317788377E-4 201:1.41317788377E-4 202:3.53294470942E-5 203:0.0 204:2.82635576753E-4 205:7.06588941883E-5 206:1.05988341282E-4 207:3.53294470942E-5 208:2.47306129659E-4 209:0.00226108461403 210:7.06588941883E-5 211:1.76647235471E-4 212:3.53294470942E-5 213:0.00236707295531 214:2.11976682565E-4 215:0.00529941706412 216:0.00388623918036 217:2.82635576753E-4 218:2.82635576753E-4 219:7.06588941883E-5 220:3.17965023847E-4 221:3.17965023847E-4 222:1.05988341282E-4 223:8.4790673026E-4 224:0.0103868574457 225:9.53895071542E-4 226:2.11976682565E-4 227:1.05988341282E-4 228:3.53294470942E-5 229:1.41317788377E-4 230:2.82635576753E-4 231:7.06588941883E-5 232:2.11976682565E-4 233:0.0024377318495 234:0.00247306129659 235:1.76647235471E-4 236:0.00190779014308 237:1.41317788377E-4 238:2.11976682565E-4 239:4.2395336513E-4 240:0.0030383324501 241:0.00335629747394 242:1.05988341282E-4 243:1.05988341282E-4 244:2.11976682565E-4 245:0.00293234410881 246:1.41317788377E-4 247:0.00339162692104 248:0.00307366189719 249:0.0143084260731 250:0.003003003003 251:6.00600600601E-4 252:0.00717187776011 253:0.00448683978096 254:0.00215509627274 255:0.00939763292704 256:0.759936406995 
1024.0 1:0.0147833474936 2:0.00314358538658 3:0.00195412064571 4:7.64655904843E-4 5:0.00237892948173 6:4.24808836024E-4 7:5.94732370433E-4 8:5.09770603229E-4 9:0.0017841971113 10:6.79694137638E-4 11:4.24808836024E-4 12:0.00229396771453 13:2.54885301614E-4 14:2.54885301614E-4 15:2.54885301614E-4 16:0.00280373831776 17:0.00237892948173 18:0.00118946474087 19:6.79694137638E-4 20:1.6992353441E-4 21:4.24808836024E-4 22:2.54885301614E-4 23:0.00288870008496 24:0.00373831775701 25:8.49617672048E-4 26:2.54885301614E-4 27:0.0 28:1.6992353441E-4 29:8.49617672048E-5 30:1.6992353441E-4 31:1.6992353441E-4 32:0.00526762956669 33:0.0036533559898 34:0.00101954120646 35:5.09770603229E-4 36:8.49617672048E-5 37:2.54885301614E-4 38:4.24808836024E-4 39:2.54885301614E-4 40:1.6992353441E-4 41:0.00101954120646 42:7.64655904843E-4 43:8.49617672048E-5 44:0.00135938827528 45:3.39847068819E-4 46:1.6992353441E-4 47:8.49617672048E-5 48:0.00229396771453 49:7.64655904843E-4 50:4.24808836024E-4 51:3.39847068819E-4 52:3.39847068819E-4 53:8.49617672048E-5 54:8.49617672048E-5 55:2.54885301614E-4 56:3.39847068819E-4 57:2.54885301614E-4 58:1.6992353441E-4 59:2.54885301614E-4 60:2.54885301614E-4 61:8.49617672048E-5 62:0.0 63:1.6992353441E-4 64:0.0018691588785 65:0.00212404418012 66:6.79694137638E-4 67:4.24808836024E-4 68:8.49617672048E-5 69:5.94732370433E-4 70:0.0 71:0.0 72:0.0 73:0.00101954120646 74:8.49617672048E-5 75:1.6992353441E-4 76:8.49617672048E-5 77:1.6992353441E-4 78:2.54885301614E-4 79:8.49617672048E-5 80:1.6992353441E-4 81:5.94732370433E-4 82:2.54885301614E-4 83:0.0 84:8.49617672048E-5 85:1.6992353441E-4 86:8.49617672048E-5 87:3.39847068819E-4 88:1.6992353441E-4 89:1.6992353441E-4 90:8.49617672048E-5 91:8.49617672048E-5 92:1.6992353441E-4 93:8.49617672048E-5 94:0.0 95:0.0 96:0.00118946474087 97:4.24808836024E-4 98:3.39847068819E-4 99:0.0 100:2.54885301614E-4 101:0.0 102:8.49617672048E-5 103:0.0 104:2.54885301614E-4 105:0.00390824129142 106:0.00322854715378 107:2.54885301614E-4 108:0.0035683942226 109:8.49617672048E-5 110:5.09770603229E-4 111:8.49617672048E-5 112:0.00220900594732 113:0.0 114:8.49617672048E-5 115:8.49617672048E-5 116:1.6992353441E-4 117:1.6992353441E-4 118:4.24808836024E-4 119:1.6992353441E-4 120:4.24808836024E-4 121:5.09770603229E-4 122:1.6992353441E-4 123:4.24808836024E-4 124:0.00118946474087 125:1.6992353441E-4 126:2.54885301614E-4 127:2.54885301614E-4 128:0.0054375531011 129:0.00229396771453 130:8.49617672048E-4 131:0.00101954120646 132:2.54885301614E-4 133:6.79694137638E-4 134:0.0 135:5.94732370433E-4 136:1.6992353441E-4 137:0.00135938827528 138:2.54885301614E-4 139:2.54885301614E-4 140:2.54885301614E-4 141:4.24808836024E-4 142:0.0 143:0.0 144:0.0 145:4.24808836024E-4 146:5.09770603229E-4 147:1.6992353441E-4 148:2.54885301614E-4 149:0.00101954120646 150:1.6992353441E-4 151:0.0036533559898 152:0.00611724723874 153:1.6992353441E-4 154:8.49617672048E-5 155:0.0 156:1.6992353441E-4 157:0.0 158:8.49617672048E-5 159:2.54885301614E-4 160:0.00314358538658 161:7.64655904843E-4 162:5.09770603229E-4 163:2.54885301614E-4 164:3.39847068819E-4 165:1.6992353441E-4 166:1.6992353441E-4 167:1.6992353441E-4 168:1.6992353441E-4 169:3.39847068819E-4 170:3.39847068819E-4 171:8.49617672048E-5 172:2.54885301614E-4 173:1.6992353441E-4 174:0.0 175:2.54885301614E-4 176:2.54885301614E-4 177:8.49617672048E-5 178:0.0 179:1.6992353441E-4 180:8.49617672048E-5 181:3.39847068819E-4 182:1.6992353441E-4 183:4.24808836024E-4 184:4.24808836024E-4 185:2.54885301614E-4 186:2.54885301614E-4 187:2.54885301614E-4 188:1.6992353441E-4 189:8.49617672048E-5 190:4.24808836024E-4 191:1.6992353441E-4 192:0.00322854715378 193:3.39847068819E-4 194:1.6992353441E-4 195:5.09770603229E-4 196:3.39847068819E-4 197:1.6992353441E-4 198:1.6992353441E-4 199:3.39847068819E-4 200:8.49617672048E-5 201:2.54885301614E-4 202:1.6992353441E-4 203:8.49617672048E-5 204:1.6992353441E-4 205:8.49617672048E-5 206:5.94732370433E-4 207:2.54885301614E-4 208:5.09770603229E-4 209:0.00110450297366 210:1.6992353441E-4 211:1.6992353441E-4 212:2.54885301614E-4 213:0.00161427357689 214:4.24808836024E-4 215:0.00254885301614 216:0.00263381478335 217:1.6992353441E-4 218:0.0 219:1.6992353441E-4 220:5.94732370433E-4 221:0.0 222:2.54885301614E-4 223:0.00110450297366 224:0.00875106202209 225:0.00118946474087 226:3.39847068819E-4 227:8.49617672048E-5 228:0.0 229:2.54885301614E-4 230:3.39847068819E-4 231:1.6992353441E-4 232:8.49617672048E-5 233:0.00577740016992 234:0.00509770603229 235:4.24808836024E-4 236:0.00271877655055 237:0.0 238:7.64655904843E-4 239:5.09770603229E-4 240:0.00373831775701 241:0.00135938827528 242:0.0 243:8.49617672048E-5 244:3.39847068819E-4 245:0.0017841971113 246:1.6992353441E-4 247:0.00144435004248 248:0.00288870008496 249:0.0090059473237 250:0.00501274426508 251:0.00152931180969 252:0.00943075615973 253:0.00161427357689 254:0.00331350892099 255:0.00475785896347 256:0.771367884452 
441.0517545507044 1:0.0130279898219 2:0.00208651399491 3:0.00137404580153 4:4.58015267176E-4 5:0.00162849872774 6:6.10687022901E-4 7:7.63358778626E-4 8:6.10687022901E-4 9:0.00162849872774 10:3.0534351145E-4 11:3.56234096692E-4 12:0.00101781170483 13:6.61577608142E-4 14:2.54452926209E-4 15:2.54452926209E-4 16:0.00239185750636 17:0.00178117048346 18:4.07124681934E-4 19:2.54452926209E-4 20:2.03562340967E-4 21:4.58015267176E-4 22:3.56234096692E-4 23:0.00208651399491 24:0.00447837150127 25:7.63358778626E-4 26:1.52671755725E-4 27:1.01781170483E-4 28:1.52671755725E-4 29:1.01781170483E-4 30:0.0 31:5.08905852417E-5 32:0.00483460559796 33:0.0018320610687 34:7.12468193384E-4 35:5.59796437659E-4 36:1.52671755725E-4 37:7.12468193384E-4 38:2.03562340967E-4 39:2.03562340967E-4 40:1.01781170483E-4 41:5.59796437659E-4 42:9.16030534351E-4 43:2.03562340967E-4 44:0.00198473282443 45:2.03562340967E-4 46:5.08905852417E-5 47:1.52671755725E-4 48:0.00137404580153 49:0.00106870229008 50:5.08905852417E-4 51:2.54452926209E-4 52:2.54452926209E-4 53:2.03562340967E-4 54:1.01781170483E-4 55:1.01781170483E-4 56:0.0 57:2.03562340967E-4 58:1.01781170483E-4 59:0.0 60:3.56234096692E-4 61:1.52671755725E-4 62:0.0 63:5.08905852417E-5 64:0.00127226463104 65:0.00132315521628 66:4.58015267176E-4 67:4.58015267176E-4 68:2.03562340967E-4 69:4.58015267176E-4 70:2.03562340967E-4 71:1.01781170483E-4 72:0.0 73:6.10687022901E-4 74:2.03562340967E-4 75:5.08905852417E-5 76:0.0 77:1.01781170483E-4 78:5.08905852417E-5 79:0.0 80:1.52671755725E-4 81:2.54452926209E-4 82:6.61577608142E-4 83:0.0 84:1.01781170483E-4 85:2.03562340967E-4 86:2.54452926209E-4 87:3.0534351145E-4 88:2.54452926209E-4 89:1.01781170483E-4 90:5.08905852417E-5 91:5.08905852417E-5 92:5.08905852417E-5 93:2.54452926209E-4 94:5.08905852417E-5 95:5.08905852417E-5 96:8.65139949109E-4 97:4.58015267176E-4 98:4.07124681934E-4 99:1.52671755725E-4 100:1.52671755725E-4 101:3.0534351145E-4 102:2.03562340967E-4 103:2.54452926209E-4 104:5.08905852417E-5 105:0.00351145038168 106:0.00666666666667 107:4.58015267176E-4 108:0.0173027989822 109:2.03562340967E-4 110:2.03562340967E-4 111:5.08905852417E-5 112:0.00132315521628 113:2.03562340967E-4 114:2.54452926209E-4 115:1.52671755725E-4 116:2.54452926209E-4 117:1.52671755725E-4 118:1.01781170483E-4 119:1.01781170483E-4 120:3.0534351145E-4 121:1.01781170483E-4 122:3.0534351145E-4 123:2.03562340967E-4 124:7.63358778626E-4 125:1.52671755725E-4 126:4.58015267176E-4 127:1.52671755725E-4 128:0.00422391857506 129:0.00239185750636 130:6.61577608142E-4 131:2.54452926209E-4 132:1.52671755725E-4 133:8.65139949109E-4 134:2.03562340967E-4 135:2.54452926209E-4 136:1.01781170483E-4 137:5.59796437659E-4 138:2.03562340967E-4 139:2.54452926209E-4 140:1.01781170483E-4 141:4.58015267176E-4 142:2.54452926209E-4 143:1.01781170483E-4 144:1.01781170483E-4 145:4.07124681934E-4 146:3.0534351145E-4 147:1.01781170483E-4 148:5.08905852417E-5 149:0.00106870229008 150:2.54452926209E-4 151:0.00218829516539 152:0.00274809160305 153:1.01781170483E-4 154:5.08905852417E-5 155:1.01781170483E-4 156:2.03562340967E-4 157:1.52671755725E-4 158:1.01781170483E-4 159:2.03562340967E-4 160:0.00239185750636 161:8.65139949109E-4 162:2.03562340967E-4 163:3.56234096692E-4 164:2.03562340967E-4 165:2.03562340967E-4 166:1.52671755725E-4 167:2.03562340967E-4 168:2.54452926209E-4 169:3.56234096692E-4 170:3.0534351145E-4 171:0.0 172:1.01781170483E-4 173:5.08905852417E-5 174:5.08905852417E-5 175:1.52671755725E-4 176:2.03562340967E-4 177:2.03562340967E-4 178:0.0 179:2.03562340967E-4 180:1.01781170483E-4 181:2.54452926209E-4 182:0.0 183:2.03562340967E-4 184:1.52671755725E-4 185:1.52671755725E-4 186:5.08905852417E-5 187:1.01781170483E-4 188:2.03562340967E-4 189:0.0 190:3.0534351145E-4 191:3.56234096692E-4 192:0.00203562340967 193:7.12468193384E-4 194:5.08905852417E-5 195:0.0 196:2.03562340967E-4 197:2.03562340967E-4 198:0.0 199:1.52671755725E-4 200:1.01781170483E-4 201:5.08905852417E-5 202:1.01781170483E-4 203:1.01781170483E-4 204:1.01781170483E-4 205:1.01781170483E-4 206:1.52671755725E-4 207:1.52671755725E-4 208:3.0534351145E-4 209:0.00239185750636 210:2.03562340967E-4 211:3.0534351145E-4 212:1.52671755725E-4 213:0.00371501272265 214:0.0 215:0.00773536895674 216:0.00274809160305 217:1.01781170483E-4 218:5.08905852417E-5 219:2.03562340967E-4 220:1.52671755725E-4 221:3.0534351145E-4 222:3.0534351145E-4 223:0.00137404580153 224:0.00804071246819 225:7.63358778626E-4 226:1.52671755725E-4 227:5.08905852417E-5 228:1.52671755725E-4 229:1.01781170483E-4 230:0.0 231:1.01781170483E-4 232:3.0534351145E-4 233:0.00437659033079 234:0.00493638676845 235:1.52671755725E-4 236:0.00554707379135 237:4.07124681934E-4 238:1.52671755725E-4 239:4.58015267176E-4 240:0.00218829516539 241:0.00320610687023 242:1.52671755725E-4 243:2.03562340967E-4 244:2.03562340967E-4 245:0.00330788804071 246:2.54452926209E-4 247:0.00162849872774 248:0.0030534351145 249:0.004631043257 250:0.00488549618321 251:9.66921119593E-4 252:0.0137404580153 253:0.00213740458015 254:0.00193384223919 255:0.00564885496183 256:0.772926208651 
1024.0 1:0.00899774543964 2:0.00161918425907 3:0.00108628817381 4:3.89424062308E-4 5:0.00172166427547 6:4.71408075425E-4 7:5.12400081984E-4 8:6.5587210494E-4 9:0.00125025620004 10:2.86944045911E-4 11:3.0744004919E-4 12:0.00114777618364 13:3.89424062308E-4 14:6.14880098381E-5 15:1.63968026235E-4 16:0.0011887681902 17:0.00122976019676 18:5.94384095101E-4 19:2.45952039352E-4 20:2.66448042632E-4 21:4.50912072146E-4 22:1.43472022956E-4 23:0.00172166427547 24:0.00217257634761 25:4.71408075425E-4 26:4.09920065587E-5 27:8.19840131174E-5 28:8.19840131174E-5 29:6.14880098381E-5 30:1.22976019676E-4 31:1.43472022956E-4 32:0.00200860832138 33:0.00153720024595 34:3.68928059028E-4 35:3.48432055749E-4 36:1.22976019676E-4 37:2.04960032794E-4 38:1.43472022956E-4 39:1.84464029514E-4 40:1.43472022956E-4 41:4.50912072146E-4 42:5.32896085263E-4 43:1.84464029514E-4 44:0.00125025620004 45:2.04960032794E-4 46:6.14880098381E-5 47:1.22976019676E-4 48:0.00116827218692 49:6.14880098381E-4 50:1.84464029514E-4 51:2.25456036073E-4 52:8.19840131174E-5 53:1.84464029514E-4 54:1.02480016397E-4 55:2.04960032794E-5 56:1.63968026235E-4 57:1.02480016397E-4 58:8.19840131174E-5 59:2.04960032794E-5 60:8.19840131174E-5 61:8.19840131174E-5 62:6.14880098381E-5 63:1.02480016397E-4 64:8.60832137733E-4 65:9.42816150851E-4 66:3.89424062308E-4 67:4.91904078705E-4 68:1.43472022956E-4 69:3.0744004919E-4 70:4.09920065587E-5 71:8.19840131174E-5 72:6.14880098381E-5 73:4.71408075425E-4 74:8.19840131174E-5 75:6.14880098381E-5 76:1.22976019676E-4 77:2.66448042632E-4 78:1.22976019676E-4 79:0.0 80:1.02480016397E-4 81:3.2793605247E-4 82:2.66448042632E-4 83:6.14880098381E-5 84:1.22976019676E-4 85:1.02480016397E-4 86:1.02480016397E-4 87:1.02480016397E-4 88:1.22976019676E-4 89:1.63968026235E-4 90:1.02480016397E-4 91:4.09920065587E-5 92:1.22976019676E-4 93:1.02480016397E-4 94:2.25456036073E-4 95:1.02480016397E-4 96:5.32896085263E-4 97:3.68928059028E-4 98:1.22976019676E-4 99:6.14880098381E-5 100:2.04960032794E-4 101:2.04960032794E-5 102:1.02480016397E-4 103:1.02480016397E-4 104:4.09920065587E-5 105:0.00100430416069 106:0.00155769624923 107:8.19840131174E-5 108:0.00194712031154 109:1.22976019676E-4 110:8.19840131174E-5 111:1.43472022956E-4 112:7.99344127895E-4 113:1.63968026235E-4 114:1.43472022956E-4 115:8.19840131174E-5 116:1.22976019676E-4 117:1.22976019676E-4 118:4.09920065587E-5 119:1.84464029514E-4 120:3.2793605247E-4 121:1.43472022956E-4 122:1.43472022956E-4 123:2.04960032794E-5 124:5.73888091822E-4 125:1.02480016397E-4 126:3.2793605247E-4 127:3.0744004919E-4 128:0.00295142447223 129:0.00161918425907 130:2.86944045911E-4 131:3.68928059028E-4 132:8.19840131174E-5 133:4.09920065587E-4 134:1.22976019676E-4 135:8.19840131174E-5 136:1.22976019676E-4 137:4.91904078705E-4 138:1.84464029514E-4 139:1.43472022956E-4 140:1.02480016397E-4 141:2.45952039352E-4 142:1.02480016397E-4 143:8.19840131174E-5 144:2.04960032794E-4 145:4.30416068867E-4 146:2.04960032794E-4 147:2.45952039352E-4 148:2.66448042632E-4 149:1.84464029514E-4 150:8.19840131174E-5 151:0.00151670424267 152:0.0019881123181 153:8.19840131174E-5 154:1.02480016397E-4 155:0.0 156:8.19840131174E-5 157:0.0 158:6.14880098381E-5 159:8.19840131174E-5 160:7.99344127895E-4 161:4.30416068867E-4 162:1.84464029514E-4 163:2.25456036073E-4 164:6.14880098381E-5 165:1.84464029514E-4 166:6.14880098381E-5 167:4.09920065587E-5 168:1.02480016397E-4 169:2.45952039352E-4 170:6.14880098381E-5 171:6.14880098381E-5 172:1.63968026235E-4 173:1.02480016397E-4 174:8.19840131174E-5 175:1.63968026235E-4 176:2.04960032794E-4 177:8.19840131174E-5 178:1.22976019676E-4 179:6.14880098381E-5 180:1.22976019676E-4 181:2.04960032794E-5 182:8.19840131174E-5 183:1.22976019676E-4 184:3.2793605247E-4 185:8.19840131174E-5 186:1.22976019676E-4 187:1.84464029514E-4 188:3.48432055749E-4 189:1.02480016397E-4 190:2.25456036073E-4 191:2.04960032794E-4 192:0.00184464029514 193:3.68928059028E-4 194:1.22976019676E-4 195:6.14880098381E-5 196:6.14880098381E-5 197:1.84464029514E-4 198:4.09920065587E-5 199:8.19840131174E-5 200:6.14880098381E-5 201:2.66448042632E-4 202:2.25456036073E-4 203:1.02480016397E-4 204:1.43472022956E-4 205:8.19840131174E-5 206:1.43472022956E-4 207:1.63968026235E-4 208:2.66448042632E-4 209:0.00151670424267 210:1.02480016397E-4 211:8.19840131174E-5 212:1.02480016397E-4 213:6.76368108219E-4 214:1.22976019676E-4 215:0.00120926419348 216:9.22320147571E-4 217:2.04960032794E-4 218:1.63968026235E-4 219:8.19840131174E-5 220:2.04960032794E-4 221:4.09920065587E-5 222:2.86944045911E-4 223:4.50912072146E-4 224:0.00323836851814 225:5.32896085263E-4 226:6.14880098381E-5 227:2.04960032794E-5 228:8.19840131174E-5 229:1.63968026235E-4 230:8.19840131174E-5 231:1.02480016397E-4 232:1.63968026235E-4 233:0.00155769624923 234:0.00145521623283 235:2.25456036073E-4 236:7.78848124616E-4 237:1.63968026235E-4 238:2.45952039352E-4 239:3.68928059028E-4 240:0.00174216027875 241:0.00219307235089 242:2.45952039352E-4 243:1.22976019676E-4 244:2.45952039352E-4 245:0.00168067226891 246:1.02480016397E-4 247:8.40336134454E-4 248:0.00202910432466 249:0.00143472022956 250:7.37856118057E-4 251:6.14880098381E-4 252:0.00272596843615 253:0.00112728018036 254:0.00190612830498 255:0.0031768805083 256:0.885160893626 
1024.0 1:0.0164660568127 2:0.00284063553202 3:0.00129995185364 4:8.18488204141E-4 5:0.00226287915262 6:9.62927298989E-4 7:6.25902744343E-4 8:0.00197400096293 9:0.00380356283101 10:7.70341839191E-4 11:5.77756379393E-4 12:0.00259990370727 13:5.77756379393E-4 14:3.37024554646E-4 15:5.29610014444E-4 16:0.00669234472797 17:0.00361097737121 18:8.6663456909E-4 19:2.40731824747E-4 20:2.88878189697E-4 21:5.29610014444E-4 22:2.88878189697E-4 23:8.6663456909E-4 24:0.00337024554646 25:0.00211844005778 26:1.92585459798E-4 27:2.40731824747E-4 28:3.85170919596E-4 29:5.29610014444E-4 30:2.40731824747E-4 31:2.88878189697E-4 32:0.00832932113625 33:0.00298507462687 34:8.6663456909E-4 35:5.29610014444E-4 36:3.37024554646E-4 37:4.81463649494E-4 38:4.33317284545E-4 39:2.88878189697E-4 40:3.85170919596E-4 41:9.14780934039E-4 42:0.00110736639384 43:3.37024554646E-4 44:0.00341839191141 45:3.37024554646E-4 46:9.62927298989E-5 47:9.62927298989E-5 48:0.00404429465575 49:0.00125180548869 50:3.85170919596E-4 51:3.85170919596E-4 52:1.92585459798E-4 53:0.0 54:9.62927298989E-5 55:4.81463649494E-5 56:4.33317284545E-4 57:2.40731824747E-4 58:2.40731824747E-4 59:1.92585459798E-4 60:4.81463649494E-4 61:1.44439094848E-4 62:2.40731824747E-4 63:4.81463649494E-5 64:0.00394800192585 65:0.00105922002889 66:5.29610014444E-4 67:4.81463649494E-4 68:1.92585459798E-4 69:8.18488204141E-4 70:4.33317284545E-4 71:9.62927298989E-5 72:1.92585459798E-4 73:4.81463649494E-4 74:4.81463649494E-5 75:4.81463649494E-5 76:2.88878189697E-4 77:1.92585459798E-4 78:2.40731824747E-4 79:0.0 80:4.33317284545E-4 81:7.70341839191E-4 82:2.88878189697E-4 83:9.62927298989E-5 84:4.81463649494E-5 85:3.37024554646E-4 86:0.0 87:9.62927298989E-5 88:1.44439094848E-4 89:1.92585459798E-4 90:1.92585459798E-4 91:0.0 92:1.44439094848E-4 93:1.44439094848E-4 94:2.40731824747E-4 95:9.62927298989E-5 96:6.74049109292E-4 97:5.29610014444E-4 98:2.40731824747E-4 99:9.62927298989E-5 100:2.40731824747E-4 101:2.40731824747E-4 102:1.92585459798E-4 103:4.81463649494E-5 104:1.44439094848E-4 105:0.00197400096293 106:0.00192585459798 107:1.92585459798E-4 108:0.0040924410207 109:1.92585459798E-4 110:4.81463649494E-5 111:2.88878189697E-4 112:0.00255175734232 113:2.40731824747E-4 114:2.88878189697E-4 115:0.0 116:4.33317284545E-4 117:1.44439094848E-4 118:2.88878189697E-4 119:1.92585459798E-4 120:4.33317284545E-4 121:1.44439094848E-4 122:1.92585459798E-4 123:9.62927298989E-5 124:0.00149253731343 125:1.44439094848E-4 126:3.37024554646E-4 127:6.74049109292E-4 128:0.00909966297545 129:0.00259990370727 130:8.6663456909E-4 131:7.70341839191E-4 132:2.88878189697E-4 133:9.14780934039E-4 134:3.37024554646E-4 135:2.40731824747E-4 136:1.44439094848E-4 137:0.00129995185364 138:1.44439094848E-4 139:2.88878189697E-4 140:1.92585459798E-4 141:4.33317284545E-4 142:2.40731824747E-4 143:9.62927298989E-5 144:3.37024554646E-4 145:7.22195474242E-4 146:2.40731824747E-4 147:1.44439094848E-4 148:1.44439094848E-4 149:0.00101107366394 150:4.81463649494E-5 151:0.00144439094848 152:0.00202214732788 153:1.92585459798E-4 154:9.62927298989E-5 155:4.81463649494E-5 156:2.88878189697E-4 157:9.62927298989E-5 158:4.81463649494E-5 159:3.37024554646E-4 160:0.00197400096293 161:8.18488204141E-4 162:3.85170919596E-4 163:2.88878189697E-4 164:2.40731824747E-4 165:3.85170919596E-4 166:4.81463649494E-4 167:2.40731824747E-4 168:2.88878189697E-4 169:2.40731824747E-4 170:0.0 171:2.40731824747E-4 172:1.92585459798E-4 173:1.44439094848E-4 174:2.88878189697E-4 175:1.92585459798E-4 176:2.88878189697E-4 177:2.88878189697E-4 178:2.88878189697E-4 179:1.44439094848E-4 180:1.92585459798E-4 181:1.92585459798E-4 182:1.44439094848E-4 183:9.62927298989E-5 184:2.40731824747E-4 185:2.40731824747E-4 186:1.92585459798E-4 187:1.92585459798E-4 188:1.44439094848E-4 189:1.44439094848E-4 190:4.33317284545E-4 191:1.92585459798E-4 192:0.00284063553202 193:5.77756379393E-4 194:1.44439094848E-4 195:2.88878189697E-4 196:1.92585459798E-4 197:1.44439094848E-4 198:9.62927298989E-5 199:1.44439094848E-4 200:1.92585459798E-4 201:4.81463649494E-4 202:4.81463649494E-5 203:1.44439094848E-4 204:1.44439094848E-4 205:2.88878189697E-4 206:1.92585459798E-4 207:2.88878189697E-4 208:4.81463649494E-4 209:0.00235917188252 210:2.40731824747E-4 211:3.37024554646E-4 212:2.40731824747E-4 213:0.00240731824747 214:9.62927298989E-5 215:0.00259990370727 216:0.00101107366394 217:5.77756379393E-4 218:9.62927298989E-5 219:0.0 220:5.29610014444E-4 221:1.92585459798E-4 222:2.40731824747E-4 223:0.00101107366394 224:0.00553683196919 225:0.00187770823303 226:1.44439094848E-4 227:9.62927298989E-5 228:9.62927298989E-5 229:3.37024554646E-4 230:0.0 231:9.62927298989E-5 232:6.25902744343E-4 233:0.00240731824747 234:0.00192585459798 235:1.44439094848E-4 236:0.00173326913818 237:1.92585459798E-4 238:3.37024554646E-4 239:3.85170919596E-4 240:0.00414058738565 241:0.00736639383727 242:3.85170919596E-4 243:2.88878189697E-4 244:3.37024554646E-4 245:0.00361097737121 246:4.33317284545E-4 247:0.00144439094848 248:0.00394800192585 249:0.0134809821858 250:0.00221473278767 251:9.62927298989E-4 252:0.00563312469909 253:0.00255175734232 254:0.00178141550313 255:0.00616273471353 256:0.758064516129 
1024.0 1:0.00794196258114 2:0.00119638538883 3:0.00124729540537 4:3.18187603411E-4 5:0.00115820287642 6:3.81825124093E-4 7:2.67277586865E-4 8:4.70917653048E-4 9:8.14560264732E-4 10:2.16367570319E-4 11:2.29095074456E-4 12:0.00204912816597 13:3.69097619957E-4 14:8.90925289551E-5 15:7.63650248186E-5 16:0.00203640066183 17:0.00110729285987 18:3.30915107547E-4 19:1.52730049637E-4 20:6.36375206822E-5 21:3.43642611684E-4 22:0.0 23:9.92745322642E-4 24:0.00104365533919 25:5.3455517373E-4 26:8.90925289551E-5 27:3.81825124093E-5 28:1.01820033092E-4 29:3.81825124093E-5 30:3.81825124093E-5 31:1.14547537228E-4 32:0.00337278859616 33:0.00117093038055 34:5.09100165458E-4 35:4.20007636502E-4 36:1.27275041364E-4 37:1.7818505791E-4 38:1.65457553774E-4 39:7.63650248186E-5 40:8.90925289551E-5 41:2.67277586865E-4 42:6.23647702686E-4 43:1.27275041364E-4 44:0.00175639557083 45:1.01820033092E-4 46:1.27275041364E-4 47:7.63650248186E-5 48:0.00249459081074 49:5.09100165458E-4 50:1.65457553774E-4 51:7.63650248186E-5 52:1.52730049637E-4 53:1.40002545501E-4 54:1.27275041364E-4 55:6.36375206822E-5 56:1.27275041364E-4 57:7.63650248186E-5 58:7.63650248186E-5 59:5.09100165458E-5 60:7.63650248186E-5 61:2.54550082729E-5 62:6.36375206822E-5 63:1.14547537228E-4 64:0.00161639302533 65:0.00123456790123 66:2.29095074456E-4 67:7.00012727504E-4 68:6.36375206822E-5 69:3.18187603411E-4 70:2.54550082729E-4 71:2.03640066183E-4 72:6.36375206822E-5 73:2.67277586865E-4 74:8.90925289551E-5 75:2.54550082729E-5 76:1.27275041364E-4 77:2.41822578592E-4 78:5.09100165458E-5 79:3.81825124093E-5 80:1.14547537228E-4 81:2.41822578592E-4 82:6.36375206822E-5 83:1.01820033092E-4 84:7.63650248186E-5 85:1.40002545501E-4 86:1.27275041364E-5 87:1.40002545501E-4 88:7.63650248186E-5 89:1.52730049637E-4 90:5.09100165458E-5 91:1.27275041364E-5 92:5.09100165458E-5 93:5.09100165458E-5 94:5.09100165458E-5 95:6.36375206822E-5 96:3.69097619957E-4 97:2.29095074456E-4 98:1.01820033092E-4 99:8.90925289551E-5 100:3.81825124093E-5 101:8.90925289551E-5 102:1.52730049637E-4 103:5.09100165458E-5 104:1.01820033092E-4 105:0.00141275295914 106:0.00104365533919 107:1.7818505791E-4 108:0.00369097619957 109:6.36375206822E-5 110:1.27275041364E-4 111:2.54550082729E-5 112:0.00148911798396 113:1.01820033092E-4 114:2.54550082729E-5 115:6.36375206822E-5 116:6.36375206822E-5 117:1.90912562047E-4 118:1.14547537228E-4 119:6.36375206822E-5 120:8.90925289551E-5 121:1.14547537228E-4 122:6.36375206822E-5 123:1.14547537228E-4 124:5.09100165458E-4 125:1.65457553774E-4 126:2.03640066183E-4 127:1.65457553774E-4 128:0.00500190912562 129:0.00101820033092 130:2.41822578592E-4 131:3.30915107547E-4 132:1.01820033092E-4 133:3.18187603411E-4 134:1.65457553774E-4 135:6.36375206822E-5 136:2.54550082729E-5 137:4.07280132366E-4 138:2.54550082729E-5 139:1.52730049637E-4 140:8.90925289551E-5 141:2.03640066183E-4 142:6.36375206822E-5 143:5.09100165458E-5 144:1.52730049637E-4 145:4.07280132366E-4 146:1.27275041364E-5 147:8.90925289551E-5 148:2.54550082729E-5 149:7.76377752323E-4 150:6.36375206822E-5 151:0.00138729795087 152:0.00127275041364 153:1.65457553774E-4 154:7.63650248186E-5 155:7.63650248186E-5 156:2.54550082729E-5 157:1.40002545501E-4 158:1.14547537228E-4 159:1.27275041364E-4 160:0.0016418480336 161:3.81825124093E-4 162:1.27275041364E-4 163:1.65457553774E-4 164:2.54550082729E-5 165:1.27275041364E-4 166:1.90912562047E-4 167:3.81825124093E-5 168:1.27275041364E-4 169:3.81825124093E-5 170:1.27275041364E-4 171:1.27275041364E-5 172:6.36375206822E-5 173:1.14547537228E-4 174:6.36375206822E-5 175:5.09100165458E-5 176:2.41822578592E-4 177:1.27275041364E-4 178:1.27275041364E-4 179:6.36375206822E-5 180:8.90925289551E-5 181:8.90925289551E-5 182:2.54550082729E-5 183:1.14547537228E-4 184:1.14547537228E-4 185:5.09100165458E-5 186:2.54550082729E-5 187:5.09100165458E-5 188:2.03640066183E-4 189:2.54550082729E-5 190:7.63650248186E-5 191:2.54550082729E-4 192:0.00169275805015 193:3.81825124093E-4 194:8.90925289551E-5 195:1.7818505791E-4 196:3.81825124093E-5 197:1.01820033092E-4 198:8.90925289551E-5 199:1.40002545501E-4 200:7.63650248186E-5 201:1.90912562047E-4 202:6.36375206822E-5 203:6.36375206822E-5 204:1.65457553774E-4 205:3.81825124093E-5 206:5.09100165458E-5 207:5.09100165458E-5 208:1.65457553774E-4 209:0.00238004327351 210:1.14547537228E-4 211:2.16367570319E-4 212:7.63650248186E-5 213:0.00374188621611 214:6.36375206822E-5 215:0.00659284714268 216:0.00211276568665 217:2.03640066183E-4 218:1.40002545501E-4 219:3.81825124093E-5 220:1.27275041364E-4 221:8.90925289551E-5 222:1.65457553774E-4 223:6.49102710958E-4 224:0.00512918416698 225:6.23647702686E-4 226:1.01820033092E-4 227:7.63650248186E-5 228:5.09100165458E-5 229:6.36375206822E-5 230:1.14547537228E-4 231:1.14547537228E-4 232:1.27275041364E-4 233:0.00145093547155 234:0.00154002800051 235:6.36375206822E-5 236:0.00155275550465 237:1.01820033092E-4 238:1.27275041364E-4 239:2.41822578592E-4 240:0.00183276059565 241:0.00283823342243 242:8.90925289551E-5 243:1.14547537228E-4 244:2.80005091002E-4 245:0.00295278095965 246:2.16367570319E-4 247:0.00336006109202 248:0.00222731322388 249:0.00472190403462 250:0.00204912816597 251:6.61830215095E-4 252:0.00474735904289 253:0.00365279368716 254:0.00185821560392 255:0.00838742522591 256:0.854486445208 
246.322012989773 1:0.0164581961817 2:0.00279789335089 3:0.00131665569454 4:3.29163923634E-4 5:0.00238643844635 6:6.58327847268E-4 7:0.00115207373272 8:0.00213956550362 9:0.00205727452271 10:5.76036866359E-4 11:4.11454904542E-4 12:0.00106978275181 13:6.58327847268E-4 14:8.22909809085E-5 15:1.64581961817E-4 16:0.00222185648453 17:0.00271560236998 18:7.40618828176E-4 19:3.29163923634E-4 20:1.64581961817E-4 21:4.11454904542E-4 22:4.11454904542E-4 23:0.00255102040816 24:0.00625411454905 25:3.29163923634E-4 26:1.64581961817E-4 27:1.64581961817E-4 28:4.11454904542E-4 29:1.64581961817E-4 30:2.46872942725E-4 31:3.29163923634E-4 32:0.00699473337722 33:0.00279789335089 34:5.76036866359E-4 35:2.46872942725E-4 36:1.64581961817E-4 37:2.46872942725E-4 38:3.29163923634E-4 39:3.29163923634E-4 40:2.46872942725E-4 41:5.76036866359E-4 42:9.05200789993E-4 43:1.64581961817E-4 44:0.0018926925609 45:0.0 46:0.0 47:0.0 48:0.00139894667544 49:0.00106978275181 50:4.93745885451E-4 51:2.46872942725E-4 52:4.11454904542E-4 53:2.46872942725E-4 54:0.0 55:8.22909809085E-5 56:2.46872942725E-4 57:1.64581961817E-4 58:8.22909809085E-5 59:1.64581961817E-4 60:1.64581961817E-4 61:3.29163923634E-4 62:1.64581961817E-4 63:1.64581961817E-4 64:0.00238643844635 65:0.00131665569454 66:5.76036866359E-4 67:4.93745885451E-4 68:8.22909809085E-5 69:4.11454904542E-4 70:2.46872942725E-4 71:0.0 72:8.22909809085E-5 73:2.46872942725E-4 74:1.64581961817E-4 75:3.29163923634E-4 76:8.22909809085E-5 77:1.64581961817E-4 78:1.64581961817E-4 79:0.0 80:2.46872942725E-4 81:4.11454904542E-4 82:5.76036866359E-4 83:1.64581961817E-4 84:8.22909809085E-5 85:1.64581961817E-4 86:8.22909809085E-5 87:0.0 88:3.29163923634E-4 89:3.29163923634E-4 90:2.46872942725E-4 91:0.0 92:0.0 93:1.64581961817E-4 94:2.46872942725E-4 95:0.0 96:0.00139894667544 97:4.93745885451E-4 98:8.22909809085E-4 99:1.64581961817E-4 100:0.0 101:1.64581961817E-4 102:3.29163923634E-4 103:5.76036866359E-4 104:8.22909809085E-5 105:0.00246872942725 106:0.00329163923634 107:1.64581961817E-4 108:0.00444371296906 109:2.46872942725E-4 110:8.22909809085E-5 111:1.64581961817E-4 112:0.00148123765635 113:4.11454904542E-4 114:1.64581961817E-4 115:2.46872942725E-4 116:1.64581961817E-4 117:3.29163923634E-4 118:2.46872942725E-4 119:3.29163923634E-4 120:4.93745885451E-4 121:2.46872942725E-4 122:1.64581961817E-4 123:8.22909809085E-5 124:0.00106978275181 125:2.46872942725E-4 126:3.29163923634E-4 127:4.11454904542E-4 128:0.00559578670178 129:0.00279789335089 130:4.93745885451E-4 131:8.22909809085E-4 132:8.22909809085E-5 133:7.40618828176E-4 134:3.29163923634E-4 135:1.64581961817E-4 136:2.46872942725E-4 137:0.00106978275181 138:1.64581961817E-4 139:5.76036866359E-4 140:1.64581961817E-4 141:8.22909809085E-4 142:1.64581961817E-4 143:4.11454904542E-4 144:4.93745885451E-4 145:6.58327847268E-4 146:1.64581961817E-4 147:2.46872942725E-4 148:2.46872942725E-4 149:2.46872942725E-4 150:1.64581961817E-4 151:0.00115207373272 152:0.00279789335089 153:2.46872942725E-4 154:3.29163923634E-4 155:0.0 156:1.64581961817E-4 157:1.64581961817E-4 158:1.64581961817E-4 159:1.64581961817E-4 160:0.00329163923634 161:3.29163923634E-4 162:2.46872942725E-4 163:8.22909809085E-5 164:2.46872942725E-4 165:4.93745885451E-4 166:4.93745885451E-4 167:0.0 168:1.64581961817E-4 169:2.46872942725E-4 170:0.0 171:1.64581961817E-4 172:3.29163923634E-4 173:4.11454904542E-4 174:8.22909809085E-5 175:3.29163923634E-4 176:2.46872942725E-4 177:3.29163923634E-4 178:8.22909809085E-5 179:8.22909809085E-5 180:3.29163923634E-4 181:0.0 182:0.0 183:8.22909809085E-5 184:4.93745885451E-4 185:2.46872942725E-4 186:8.22909809085E-5 187:8.22909809085E-5 188:3.29163923634E-4 189:8.22909809085E-5 190:8.22909809085E-5 191:4.93745885451E-4 192:0.00246872942725 193:4.11454904542E-4 194:2.46872942725E-4 195:0.0 196:8.22909809085E-5 197:3.29163923634E-4 198:8.22909809085E-5 199:1.64581961817E-4 200:0.0 201:8.22909809085E-5 202:4.11454904542E-4 203:1.64581961817E-4 204:8.22909809085E-5 205:3.29163923634E-4 206:0.0 207:4.11454904542E-4 208:4.93745885451E-4 209:0.00345622119816 210:3.29163923634E-4 211:8.22909809085E-5 212:0.0 213:0.0028801843318 214:1.64581961817E-4 215:9.05200789993E-4 216:0.00115207373272 217:3.29163923634E-4 218:1.64581961817E-4 219:2.46872942725E-4 220:3.29163923634E-4 221:2.46872942725E-4 222:4.11454904542E-4 223:0.00115207373272 224:0.00740618828176 225:0.00106978275181 226:0.0 227:8.22909809085E-5 228:1.64581961817E-4 229:3.29163923634E-4 230:0.0 231:8.22909809085E-5 232:8.22909809085E-5 233:0.00444371296906 234:0.00320934825543 235:2.46872942725E-4 236:0.00222185648453 237:3.29163923634E-4 238:9.05200789993E-4 239:5.76036866359E-4 240:0.0028801843318 241:0.00576036866359 242:2.46872942725E-4 243:3.29163923634E-4 244:8.22909809085E-4 245:0.00444371296906 246:9.05200789993E-4 247:0.00148123765635 248:0.00370309414088 249:0.00518433179724 250:0.00329163923634 251:0.00148123765635 252:0.00921658986175 253:0.00263331138907 254:0.00345622119816 255:0.00740618828176 256:0.774111257406 
1024.0 1:0.0105064808999 2:0.00162736253069 3:0.00134186033232 4:3.4260263804E-4 5:0.00165591275053 6:6.56655056244E-4 7:3.14052418204E-4 8:8.56506595101E-4 9:0.00148461143151 10:4.2825329755E-4 11:3.14052418204E-4 12:0.00208416604808 13:5.1390395706E-4 14:1.14200879347E-4 15:1.14200879347E-4 16:0.00376862901844 17:0.00165591275053 18:4.56803517387E-4 19:3.14052418204E-4 20:8.56506595101E-5 21:4.56803517387E-4 22:8.56506595101E-5 23:0.00157026209102 24:0.00259807000514 25:9.99257694284E-4 26:2.28401758694E-4 27:5.71004396734E-5 28:2.5695197853E-4 29:1.14200879347E-4 30:1.14200879347E-4 31:2.5695197853E-4 32:0.0082510135328 33:0.00179866384971 34:4.85353737224E-4 35:5.1390395706E-4 36:8.56506595101E-5 37:4.2825329755E-4 38:1.99851538857E-4 39:1.42751099183E-4 40:1.14200879347E-4 41:4.56803517387E-4 42:8.56506595101E-4 43:1.14200879347E-4 44:0.00196996516873 45:1.7130131902E-4 46:1.14200879347E-4 47:1.14200879347E-4 48:0.00271227088449 49:6.28104836407E-4 50:3.71152857877E-4 51:2.28401758694E-4 52:5.71004396734E-5 53:5.71004396734E-5 54:5.71004396734E-5 55:1.14200879347E-4 56:1.42751099183E-4 57:2.28401758694E-4 58:1.14200879347E-4 59:5.71004396734E-5 60:1.7130131902E-4 61:1.14200879347E-4 62:8.56506595101E-5 63:8.56506595101E-5 64:0.00319762462171 65:0.00114200879347 66:3.4260263804E-4 67:4.56803517387E-4 68:1.42751099183E-4 69:4.85353737224E-4 70:1.7130131902E-4 71:1.14200879347E-4 72:8.56506595101E-5 73:4.56803517387E-4 74:2.85502198367E-5 75:1.14200879347E-4 76:1.42751099183E-4 77:1.14200879347E-4 78:0.0 79:2.85502198367E-5 80:1.7130131902E-4 81:2.28401758694E-4 82:2.5695197853E-4 83:1.14200879347E-4 84:5.71004396734E-5 85:1.42751099183E-4 86:8.56506595101E-5 87:5.71004396734E-5 88:1.14200879347E-4 89:1.7130131902E-4 90:8.56506595101E-5 91:8.56506595101E-5 92:1.42751099183E-4 93:2.85502198367E-5 94:5.71004396734E-5 95:1.14200879347E-4 96:6.56655056244E-4 97:2.85502198367E-4 98:1.7130131902E-4 99:8.56506595101E-5 100:1.7130131902E-4 101:1.42751099183E-4 102:5.71004396734E-5 103:1.42751099183E-4 104:5.71004396734E-5 105:0.00157026209102 106:0.00196996516873 107:8.56506595101E-5 108:0.0039684805573 109:1.7130131902E-4 110:1.7130131902E-4 111:1.7130131902E-4 112:0.00245531890596 113:2.5695197853E-4 114:8.56506595101E-5 115:5.71004396734E-5 116:2.85502198367E-4 117:5.71004396734E-5 118:0.0 119:0.0 120:3.14052418204E-4 121:1.42751099183E-4 122:2.5695197853E-4 123:1.14200879347E-4 124:8.56506595101E-4 125:0.0 126:3.4260263804E-4 127:3.4260263804E-4 128:0.0073945069377 129:0.00174156341004 130:1.99851538857E-4 131:2.28401758694E-4 132:2.85502198367E-5 133:3.14052418204E-4 134:1.99851538857E-4 135:1.99851538857E-4 136:1.42751099183E-4 137:5.42454176897E-4 138:8.56506595101E-5 139:3.4260263804E-4 140:2.28401758694E-4 141:5.1390395706E-4 142:1.14200879347E-4 143:5.71004396734E-5 144:1.14200879347E-4 145:4.2825329755E-4 146:1.14200879347E-4 147:5.71004396734E-5 148:8.56506595101E-5 149:7.70855935591E-4 150:5.71004396734E-5 151:0.00177011362987 152:0.00202706560841 153:1.14200879347E-4 154:5.71004396734E-5 155:8.56506595101E-5 156:8.56506595101E-5 157:8.56506595101E-5 158:1.14200879347E-4 159:1.42751099183E-4 160:0.00305487352253 161:3.71152857877E-4 162:1.7130131902E-4 163:2.28401758694E-4 164:1.14200879347E-4 165:8.56506595101E-5 166:1.14200879347E-4 167:8.56506595101E-5 168:5.71004396734E-5 169:0.0 170:2.85502198367E-5 171:2.85502198367E-5 172:1.14200879347E-4 173:8.56506595101E-5 174:2.85502198367E-5 175:5.71004396734E-5 176:1.14200879347E-4 177:1.99851538857E-4 178:0.0 179:5.71004396734E-5 180:8.56506595101E-5 181:1.14200879347E-4 182:1.42751099183E-4 183:8.56506595101E-5 184:2.85502198367E-4 185:1.7130131902E-4 186:2.85502198367E-4 187:8.56506595101E-5 188:2.5695197853E-4 189:5.71004396734E-5 190:1.14200879347E-4 191:3.14052418204E-4 192:0.00208416604808 193:5.99554616571E-4 194:1.42751099183E-4 195:5.71004396734E-5 196:8.56506595101E-5 197:2.5695197853E-4 198:1.14200879347E-4 199:5.71004396734E-5 200:5.71004396734E-5 201:1.14200879347E-4 202:8.56506595101E-5 203:5.71004396734E-5 204:1.14200879347E-4 205:1.7130131902E-4 206:1.14200879347E-4 207:5.71004396734E-5 208:2.5695197853E-4 209:0.00168446297036 210:8.56506595101E-5 211:1.42751099183E-4 212:0.0 213:0.00188431450922 214:1.99851538857E-4 215:0.00359732769942 216:0.00188431450922 217:1.42751099183E-4 218:5.71004396734E-5 219:1.14200879347E-4 220:1.42751099183E-4 221:2.5695197853E-4 222:2.28401758694E-4 223:6.56655056244E-4 224:0.00628104836407 225:8.85056814937E-4 226:2.28401758694E-4 227:8.56506595101E-5 228:5.71004396734E-5 229:1.7130131902E-4 230:1.14200879347E-4 231:8.56506595101E-5 232:1.7130131902E-4 233:0.00285502198367 234:0.00214126648775 235:1.42751099183E-4 236:0.00236966824645 237:1.99851538857E-4 238:2.28401758694E-4 239:3.14052418204E-4 240:0.00285502198367 241:0.00251241934563 242:1.14200879347E-4 243:1.42751099183E-4 244:1.7130131902E-4 245:0.00282647176383 246:1.7130131902E-4 247:0.00208416604808 248:0.00271227088449 249:0.00679495232113 250:0.00234111802661 251:5.99554616571E-4 252:0.00625249814424 253:0.00276937132416 254:0.00248386912579 255:0.00705190429966 256:0.820047964369 
632.9023425219124 1:0.0253833950291 2:0.00502379693284 3:0.00237969328398 4:0.0 5:0.00237969328398 6:2.64410364886E-4 7:7.93231094659E-4 8:0.00105764145955 9:0.00264410364886 10:0.00105764145955 11:0.00158646218932 12:0.00423056583818 13:0.00105764145955 14:7.93231094659E-4 15:5.28820729773E-4 16:0.00819672131148 17:0.00396615547329 18:0.00132205182443 19:0.00105764145955 20:2.64410364886E-4 21:0.00237969328398 22:7.93231094659E-4 23:0.0058170280275 24:0.00396615547329 25:5.28820729773E-4 26:0.0 27:0.0 28:5.28820729773E-4 29:2.64410364886E-4 30:0.0 31:2.64410364886E-4 32:0.0103120042306 33:0.00502379693284 34:0.00132205182443 35:7.93231094659E-4 36:0.0 37:5.28820729773E-4 38:5.28820729773E-4 39:7.93231094659E-4 40:0.0 41:0.0018508725542 42:5.28820729773E-4 43:2.64410364886E-4 44:0.00555261766261 45:0.0 46:2.64410364886E-4 47:5.28820729773E-4 48:0.00502379693284 49:2.64410364886E-4 50:0.0 51:7.93231094659E-4 52:0.0 53:5.28820729773E-4 54:5.28820729773E-4 55:0.0 56:5.28820729773E-4 57:5.28820729773E-4 58:2.64410364886E-4 59:0.0 60:2.64410364886E-4 61:5.28820729773E-4 62:2.64410364886E-4 63:5.28820729773E-4 64:0.00528820729773 65:0.00237969328398 66:0.00132205182443 67:7.93231094659E-4 68:0.0 69:7.93231094659E-4 70:0.00105764145955 71:2.64410364886E-4 72:2.64410364886E-4 73:5.28820729773E-4 74:2.64410364886E-4 75:0.0 76:0.0 77:5.28820729773E-4 78:2.64410364886E-4 79:2.64410364886E-4 80:5.28820729773E-4 81:2.64410364886E-4 82:0.0 83:0.0 84:0.0 85:5.28820729773E-4 86:5.28820729773E-4 87:5.28820729773E-4 88:2.64410364886E-4 89:2.64410364886E-4 90:5.28820729773E-4 91:0.0 92:2.64410364886E-4 93:0.0 94:0.0 95:0.0 96:0.00211528291909 97:2.64410364886E-4 98:7.93231094659E-4 99:0.0 100:2.64410364886E-4 101:5.28820729773E-4 102:5.28820729773E-4 103:0.0 104:5.28820729773E-4 105:0.00555261766261 106:0.00475938656795 107:2.64410364886E-4 108:0.00528820729773 109:5.28820729773E-4 110:0.0 111:2.64410364886E-4 112:0.00290851401375 113:5.28820729773E-4 114:2.64410364886E-4 115:0.0 116:5.28820729773E-4 117:5.28820729773E-4 118:7.93231094659E-4 119:0.0 120:0.00105764145955 121:7.93231094659E-4 122:0.0 123:2.64410364886E-4 124:0.00264410364886 125:2.64410364886E-4 126:7.93231094659E-4 127:5.28820729773E-4 128:0.0113696456901 129:0.00423056583818 130:2.64410364886E-4 131:7.93231094659E-4 132:2.64410364886E-4 133:7.93231094659E-4 134:2.64410364886E-4 135:2.64410364886E-4 136:0.0 137:0.00132205182443 138:2.64410364886E-4 139:5.28820729773E-4 140:5.28820729773E-4 141:0.00264410364886 142:5.28820729773E-4 143:7.93231094659E-4 144:7.93231094659E-4 145:7.93231094659E-4 146:0.0 147:5.28820729773E-4 148:0.00132205182443 149:2.64410364886E-4 150:5.28820729773E-4 151:0.00713907985193 152:0.00687466948704 153:5.28820729773E-4 154:0.0 155:2.64410364886E-4 156:5.28820729773E-4 157:2.64410364886E-4 158:0.0 159:0.00105764145955 160:0.00475938656795 161:5.28820729773E-4 162:5.28820729773E-4 163:0.0 164:7.93231094659E-4 165:2.64410364886E-4 166:5.28820729773E-4 167:2.64410364886E-4 168:2.64410364886E-4 169:0.0 170:0.0 171:7.93231094659E-4 172:2.64410364886E-4 173:0.0 174:0.0 175:0.00105764145955 176:2.64410364886E-4 177:5.28820729773E-4 178:0.0 179:2.64410364886E-4 180:2.64410364886E-4 181:2.64410364886E-4 182:2.64410364886E-4 183:5.28820729773E-4 184:7.93231094659E-4 185:2.64410364886E-4 186:2.64410364886E-4 187:0.0 188:5.28820729773E-4 189:2.64410364886E-4 190:0.0 191:2.64410364886E-4 192:0.00370174510841 193:0.00105764145955 194:5.28820729773E-4 195:5.28820729773E-4 196:2.64410364886E-4 197:2.64410364886E-4 198:2.64410364886E-4 199:0.0 200:0.0 201:2.64410364886E-4 202:7.93231094659E-4 203:0.0 204:2.64410364886E-4 205:0.0 206:5.28820729773E-4 207:0.0 208:7.93231094659E-4 209:0.00264410364886 210:0.0 211:5.28820729773E-4 212:2.64410364886E-4 213:0.00370174510841 214:0.00105764145955 215:0.00846113167636 216:0.00370174510841 217:5.28820729773E-4 218:0.00132205182443 219:0.0 220:2.64410364886E-4 221:2.64410364886E-4 222:7.93231094659E-4 223:0.00317292437864 224:0.0132205182443 225:0.00105764145955 226:2.64410364886E-4 227:0.0 228:2.64410364886E-4 229:5.28820729773E-4 230:0.0 231:0.0 232:5.28820729773E-4 233:0.00819672131148 234:0.00793231094659 235:7.93231094659E-4 236:0.00290851401375 237:2.64410364886E-4 238:5.28820729773E-4 239:7.93231094659E-4 240:0.00555261766261 241:0.00343733474352 242:0.00105764145955 243:2.64410364886E-4 244:7.93231094659E-4 245:0.00396615547329 246:0.00105764145955 247:0.00343733474352 248:0.0058170280275 249:0.00687466948704 250:0.00396615547329 251:0.00158646218932 252:0.0132205182443 253:0.00396615547329 254:0.00449497620307 255:0.0111052353252 256:0.627445795875 
1024.0 1:0.0116594259404 2:0.00148527718986 3:0.0015224091196 4:3.71319297464E-5 5:0.00248783929301 6:4.45583156957E-4 7:2.97055437971E-4 8:8.54034384167E-4 9:0.00159667297909 10:4.0845122721E-4 11:2.59923508225E-4 12:0.00122535368163 13:4.0845122721E-4 14:3.71319297464E-5 15:1.11395789239E-4 16:0.00141101333036 17:0.00170806876833 18:6.68374735435E-4 19:4.0845122721E-4 20:2.97055437971E-4 21:4.82715086703E-4 22:1.85659648732E-4 23:0.00308195016895 24:0.00441869963982 25:5.56978946196E-4 26:2.59923508225E-4 27:1.11395789239E-4 28:1.11395789239E-4 29:2.59923508225E-4 30:1.48527718986E-4 31:2.59923508225E-4 32:0.00430730385058 33:0.0020793880658 34:3.34187367718E-4 35:2.59923508225E-4 36:1.85659648732E-4 37:1.85659648732E-4 38:1.85659648732E-4 39:1.11395789239E-4 40:1.11395789239E-4 41:4.0845122721E-4 42:3.71319297464E-4 43:3.71319297464E-5 44:0.00189372841707 45:1.48527718986E-4 46:3.71319297464E-5 47:7.42638594928E-5 48:0.00144814526011 49:6.68374735435E-4 50:2.97055437971E-4 51:3.71319297464E-4 52:2.59923508225E-4 53:1.48527718986E-4 54:7.42638594928E-5 55:4.0845122721E-4 56:2.22791578478E-4 57:2.59923508225E-4 58:1.11395789239E-4 59:3.71319297464E-5 60:1.48527718986E-4 61:1.11395789239E-4 62:3.71319297464E-5 63:2.22791578478E-4 64:0.00163380490884 65:0.0015224091196 66:5.56978946196E-4 67:4.45583156957E-4 68:2.59923508225E-4 69:4.82715086703E-4 70:1.85659648732E-4 71:1.48527718986E-4 72:1.11395789239E-4 73:2.97055437971E-4 74:1.48527718986E-4 75:1.11395789239E-4 76:1.11395789239E-4 77:1.11395789239E-4 78:7.42638594928E-5 79:1.11395789239E-4 80:1.48527718986E-4 81:2.59923508225E-4 82:1.85659648732E-4 83:1.48527718986E-4 84:1.11395789239E-4 85:1.85659648732E-4 86:2.59923508225E-4 87:1.85659648732E-4 88:1.11395789239E-4 89:1.11395789239E-4 90:1.11395789239E-4 91:7.42638594928E-5 92:1.85659648732E-4 93:3.71319297464E-5 94:7.42638594928E-5 95:3.71319297464E-5 96:9.2829824366E-4 97:4.0845122721E-4 98:2.22791578478E-4 99:3.71319297464E-5 100:1.85659648732E-4 101:7.42638594928E-5 102:3.71319297464E-5 103:7.42638594928E-5 104:1.85659648732E-4 105:0.00170806876833 106:0.00193086034681 107:3.71319297464E-5 108:0.00167093683859 109:1.48527718986E-4 110:7.42638594928E-5 111:1.11395789239E-4 112:0.00129961754112 113:1.85659648732E-4 114:2.59923508225E-4 115:3.71319297464E-5 116:1.11395789239E-4 117:7.42638594928E-5 118:1.11395789239E-4 119:7.42638594928E-5 120:4.45583156957E-4 121:2.22791578478E-4 122:1.48527718986E-4 123:3.71319297464E-5 124:8.54034384167E-4 125:1.48527718986E-4 126:4.82715086703E-4 127:2.97055437971E-4 128:0.00508707437526 129:0.00189372841707 130:5.56978946196E-4 131:4.0845122721E-4 132:1.48527718986E-4 133:7.05506665181E-4 134:2.59923508225E-4 135:1.85659648732E-4 136:7.42638594928E-5 137:7.42638594928E-4 138:1.11395789239E-4 139:1.48527718986E-4 140:1.48527718986E-4 141:3.71319297464E-4 142:7.42638594928E-5 143:1.48527718986E-4 144:1.48527718986E-4 145:3.34187367718E-4 146:7.42638594928E-5 147:3.71319297464E-5 148:4.0845122721E-4 149:2.59923508225E-4 150:2.97055437971E-4 151:0.00434443578033 152:0.00367606104489 153:1.85659648732E-4 154:1.11395789239E-4 155:0.0 156:1.11395789239E-4 157:1.85659648732E-4 158:1.11395789239E-4 159:1.48527718986E-4 160:0.00226504771453 161:4.45583156957E-4 162:2.59923508225E-4 163:1.11395789239E-4 164:3.71319297464E-5 165:2.97055437971E-4 166:1.11395789239E-4 167:1.48527718986E-4 168:1.48527718986E-4 169:1.48527718986E-4 170:1.11395789239E-4 171:7.42638594928E-5 172:7.42638594928E-5 173:7.42638594928E-5 174:3.71319297464E-5 175:2.22791578478E-4 176:3.34187367718E-4 177:1.11395789239E-4 178:1.48527718986E-4 179:2.22791578478E-4 180:1.48527718986E-4 181:7.42638594928E-5 182:2.22791578478E-4 183:1.48527718986E-4 184:1.85659648732E-4 185:3.71319297464E-5 186:7.42638594928E-5 187:7.42638594928E-5 188:4.0845122721E-4 189:3.71319297464E-5 190:4.0845122721E-4 191:4.45583156957E-4 192:0.0030448182392 193:2.97055437971E-4 194:1.85659648732E-4 195:1.85659648732E-4 196:2.22791578478E-4 197:1.48527718986E-4 198:1.11395789239E-4 199:7.42638594928E-5 200:1.11395789239E-4 201:2.97055437971E-4 202:1.48527718986E-4 203:1.11395789239E-4 204:2.59923508225E-4 205:1.85659648732E-4 206:1.48527718986E-4 207:1.11395789239E-4 208:5.94110875942E-4 209:0.00167093683859 210:1.85659648732E-4 211:7.42638594928E-5 212:1.11395789239E-4 213:7.42638594928E-4 214:1.11395789239E-4 215:0.00174520069808 216:0.00233931157402 217:1.48527718986E-4 218:1.11395789239E-4 219:0.0 220:3.71319297464E-4 221:1.11395789239E-4 222:2.22791578478E-4 223:9.65430173406E-4 224:0.00701793472207 225:7.42638594928E-4 226:1.85659648732E-4 227:3.71319297464E-5 228:2.22791578478E-4 229:7.42638594928E-5 230:1.11395789239E-4 231:3.71319297464E-5 232:2.97055437971E-4 233:0.00397311648286 234:0.00211651999554 235:2.22791578478E-4 236:0.00163380490884 237:1.85659648732E-4 238:3.34187367718E-4 239:3.34187367718E-4 240:0.00241357543352 241:0.00278489473098 242:1.11395789239E-4 243:1.48527718986E-4 244:3.71319297464E-4 245:0.00204225613605 246:1.11395789239E-4 247:0.0025621031525 248:0.00263636701199 249:0.0147785080391 250:0.00252497122275 251:9.2829824366E-4 252:0.00530986595373 253:0.00419590806134 254:0.00233931157402 255:0.00820615647395 256:0.812780810219 
1024.0 1:0.00985530985531 2:0.0013923013923 3:0.0010101010101 4:3.822003822E-4 5:0.0015834015834 6:6.00600600601E-4 7:5.46000546001E-4 8:9.00900900901E-4 9:0.0014196014196 10:4.641004641E-4 11:4.095004095E-4 12:0.0018837018837 13:4.095004095E-4 14:2.73000273E-5 15:5.46000546001E-5 16:0.0030576030576 17:0.0013377013377 18:6.55200655201E-4 19:3.003003003E-4 20:2.73000273E-4 21:3.003003003E-4 22:5.46000546001E-5 23:0.0017472017472 24:0.0028392028392 25:7.37100737101E-4 26:2.184002184E-4 27:5.46000546001E-5 28:2.457002457E-4 29:1.911001911E-4 30:1.365001365E-4 31:2.73000273E-4 32:0.00862680862681 33:0.001365001365 34:6.00600600601E-4 35:3.549003549E-4 36:1.638001638E-4 37:3.276003276E-4 38:1.911001911E-4 39:1.365001365E-4 40:1.911001911E-4 41:5.46000546001E-4 42:6.27900627901E-4 43:2.457002457E-4 44:0.001911001911 45:1.092001092E-4 46:5.46000546001E-5 47:2.73000273E-5 48:0.0030303030303 49:4.914004914E-4 50:2.73000273E-4 51:1.365001365E-4 52:5.46000546001E-5 53:5.46000546001E-5 54:1.365001365E-4 55:1.911001911E-4 56:2.457002457E-4 57:8.19000819001E-5 58:1.092001092E-4 59:5.46000546001E-5 60:1.092001092E-4 61:0.0 62:8.19000819001E-5 63:1.911001911E-4 64:0.0037947037947 65:8.73600873601E-4 66:3.003003003E-4 67:6.27900627901E-4 68:8.19000819001E-5 69:3.276003276E-4 70:1.365001365E-4 71:1.365001365E-4 72:5.46000546001E-5 73:4.095004095E-4 74:5.46000546001E-5 75:5.46000546001E-5 76:1.638001638E-4 77:1.365001365E-4 78:1.092001092E-4 79:1.365001365E-4 80:1.092001092E-4 81:2.457002457E-4 82:1.638001638E-4 83:1.092001092E-4 84:5.46000546001E-5 85:8.19000819001E-5 86:2.73000273E-5 87:1.092001092E-4 88:2.184002184E-4 89:1.911001911E-4 90:8.19000819001E-5 91:5.46000546001E-5 92:5.46000546001E-5 93:8.19000819001E-5 94:1.638001638E-4 95:8.19000819001E-5 96:6.55200655201E-4 97:4.095004095E-4 98:1.365001365E-4 99:8.19000819001E-5 100:1.911001911E-4 101:1.365001365E-4 102:8.19000819001E-5 103:5.46000546001E-5 104:2.73000273E-5 105:0.0016653016653 106:0.0020748020748 107:1.365001365E-4 108:0.0043134043134 109:2.184002184E-4 110:5.46000546001E-5 111:1.365001365E-4 112:0.0023751023751 113:1.911001911E-4 114:8.19000819001E-5 115:5.46000546001E-5 116:8.19000819001E-5 117:2.73000273E-5 118:8.19000819001E-5 119:1.092001092E-4 120:3.276003276E-4 121:1.911001911E-4 122:1.911001911E-4 123:1.092001092E-4 124:7.37100737101E-4 125:1.092001092E-4 126:1.911001911E-4 127:2.184002184E-4 128:0.00821730821731 129:0.0014469014469 130:1.365001365E-4 131:4.095004095E-4 132:5.46000546001E-5 133:4.368004368E-4 134:1.092001092E-4 135:1.638001638E-4 136:1.092001092E-4 137:5.18700518701E-4 138:1.092001092E-4 139:1.911001911E-4 140:1.911001911E-4 141:2.73000273E-4 142:8.19000819001E-5 143:1.911001911E-4 144:2.457002457E-4 145:4.641004641E-4 146:8.19000819001E-5 147:5.46000546001E-5 148:5.46000546001E-5 149:6.00600600601E-4 150:8.19000819001E-5 151:0.0022659022659 152:0.0025662025662 153:2.457002457E-4 154:5.46000546001E-5 155:0.0 156:3.276003276E-4 157:8.19000819001E-5 158:8.19000819001E-5 159:1.365001365E-4 160:0.0034398034398 161:4.368004368E-4 162:5.46000546001E-5 163:1.092001092E-4 164:1.638001638E-4 165:1.365001365E-4 166:1.092001092E-4 167:1.092001092E-4 168:1.638001638E-4 169:1.638001638E-4 170:8.19000819001E-5 171:2.73000273E-5 172:5.46000546001E-5 173:5.46000546001E-5 174:1.092001092E-4 175:1.092001092E-4 176:1.092001092E-4 177:1.638001638E-4 178:5.46000546001E-5 179:2.73000273E-5 180:8.19000819001E-5 181:1.911001911E-4 182:1.092001092E-4 183:5.46000546001E-5 184:5.46000546001E-5 185:1.365001365E-4 186:8.19000819001E-5 187:5.46000546001E-5 188:1.638001638E-4 189:5.46000546001E-5 190:8.19000819001E-5 191:1.638001638E-4 192:0.0025116025116 193:3.549003549E-4 194:5.46000546001E-5 195:1.092001092E-4 196:1.092001092E-4 197:1.638001638E-4 198:8.19000819001E-5 199:1.638001638E-4 200:8.19000819001E-5 201:1.638001638E-4 202:1.365001365E-4 203:5.46000546001E-5 204:1.911001911E-4 205:8.19000819001E-5 206:1.092001092E-4 207:1.638001638E-4 208:5.46000546001E-5 209:0.0018837018837 210:3.276003276E-4 211:1.365001365E-4 212:1.365001365E-4 213:0.0019656019656 214:5.46000546001E-5 215:0.0033306033306 216:0.0025935025935 217:1.638001638E-4 218:1.911001911E-4 219:1.638001638E-4 220:8.19000819001E-5 221:1.911001911E-4 222:1.092001092E-4 223:7.09800709801E-4 224:0.00832650832651 225:7.09800709801E-4 226:8.19000819001E-5 227:1.092001092E-4 228:5.46000546001E-5 229:1.365001365E-4 230:8.19000819001E-5 231:1.092001092E-4 232:3.003003003E-4 233:0.0022386022386 234:0.0025389025389 235:1.365001365E-4 236:0.0021294021294 237:8.19000819001E-5 238:1.911001911E-4 239:1.092001092E-4 240:0.0030849030849 241:0.0025662025662 242:0.0 243:5.46000546001E-5 244:1.911001911E-4 245:0.0028938028938 246:2.184002184E-4 247:0.0019656019656 248:0.0028665028665 249:0.00597870597871 250:0.003003003003 251:6.82500682501E-4 252:0.00731640731641 253:0.003003003003 254:0.0022386022386 255:0.00731640731641 256:0.817007917008 
1024.0 1:0.0239165329053 2:0.00353130016051 3:0.00208667736758 4:6.42054574639E-4 5:0.00353130016051 6:0.00112359550562 7:0.00128410914928 8:0.00128410914928 9:0.00337078651685 10:4.81540930979E-4 11:4.81540930979E-4 12:0.00385232744783 13:0.00128410914928 14:3.21027287319E-4 15:6.42054574639E-4 16:0.00321027287319 17:0.00321027287319 18:0.00112359550562 19:4.81540930979E-4 20:1.6051364366E-4 21:0.00128410914928 22:0.0 23:0.00497592295345 24:0.00626003210273 25:4.81540930979E-4 26:0.0 27:1.6051364366E-4 28:1.6051364366E-4 29:1.6051364366E-4 30:0.0 31:1.6051364366E-4 32:0.0110754414125 33:0.00224719101124 34:9.63081861958E-4 35:8.02568218299E-4 36:3.21027287319E-4 37:0.00128410914928 38:6.42054574639E-4 39:1.6051364366E-4 40:3.21027287319E-4 41:0.00112359550562 42:0.00208667736758 43:8.02568218299E-4 44:0.00561797752809 45:4.81540930979E-4 46:1.6051364366E-4 47:3.21027287319E-4 48:0.00545746388443 49:9.63081861958E-4 50:8.02568218299E-4 51:1.6051364366E-4 52:1.6051364366E-4 53:8.02568218299E-4 54:4.81540930979E-4 55:1.6051364366E-4 56:4.81540930979E-4 57:4.81540930979E-4 58:3.21027287319E-4 59:3.21027287319E-4 60:6.42054574639E-4 61:3.21027287319E-4 62:1.6051364366E-4 63:0.0 64:0.00433386837881 65:0.0016051364366 66:9.63081861958E-4 67:0.00112359550562 68:1.6051364366E-4 69:8.02568218299E-4 70:0.0 71:0.0 72:1.6051364366E-4 73:8.02568218299E-4 74:6.42054574639E-4 75:1.6051364366E-4 76:1.6051364366E-4 77:1.6051364366E-4 78:3.21027287319E-4 79:1.6051364366E-4 80:1.6051364366E-4 81:4.81540930979E-4 82:6.42054574639E-4 83:1.6051364366E-4 84:0.0 85:1.6051364366E-4 86:1.6051364366E-4 87:0.0 88:3.21027287319E-4 89:1.6051364366E-4 90:0.0 91:0.0 92:6.42054574639E-4 93:0.0 94:1.6051364366E-4 95:3.21027287319E-4 96:0.00176565008026 97:4.81540930979E-4 98:0.0 99:0.0 100:1.6051364366E-4 101:1.6051364366E-4 102:3.21027287319E-4 103:1.6051364366E-4 104:0.0 105:0.00513643659711 106:0.00658105939005 107:0.0 108:0.00866773675762 109:1.6051364366E-4 110:3.21027287319E-4 111:4.81540930979E-4 112:0.00545746388443 113:1.6051364366E-4 114:4.81540930979E-4 115:4.81540930979E-4 116:1.6051364366E-4 117:1.6051364366E-4 118:4.81540930979E-4 119:3.21027287319E-4 120:9.63081861958E-4 121:3.21027287319E-4 122:8.02568218299E-4 123:1.6051364366E-4 124:0.00256821829856 125:1.6051364366E-4 126:0.0 127:0.00112359550562 128:0.0134831460674 129:0.00337078651685 130:0.00144462279294 131:3.21027287319E-4 132:4.81540930979E-4 133:0.00112359550562 134:1.6051364366E-4 135:1.6051364366E-4 136:6.42054574639E-4 137:0.0024077046549 138:1.6051364366E-4 139:4.81540930979E-4 140:0.0 141:6.42054574639E-4 142:1.6051364366E-4 143:3.21027287319E-4 144:0.0 145:0.0 146:1.6051364366E-4 147:1.6051364366E-4 148:4.81540930979E-4 149:0.00128410914928 150:3.21027287319E-4 151:0.00337078651685 152:0.00626003210273 153:1.6051364366E-4 154:0.0 155:0.0 156:1.6051364366E-4 157:1.6051364366E-4 158:0.0 159:4.81540930979E-4 160:0.00208667736758 161:8.02568218299E-4 162:1.6051364366E-4 163:4.81540930979E-4 164:0.0 165:3.21027287319E-4 166:1.6051364366E-4 167:6.42054574639E-4 168:0.0 169:4.81540930979E-4 170:8.02568218299E-4 171:0.0 172:0.0 173:4.81540930979E-4 174:1.6051364366E-4 175:4.81540930979E-4 176:3.21027287319E-4 177:3.21027287319E-4 178:1.6051364366E-4 179:1.6051364366E-4 180:1.6051364366E-4 181:0.0 182:1.6051364366E-4 183:4.81540930979E-4 184:6.42054574639E-4 185:3.21027287319E-4 186:3.21027287319E-4 187:0.0 188:4.81540930979E-4 189:6.42054574639E-4 190:1.6051364366E-4 191:6.42054574639E-4 192:0.00545746388443 193:3.21027287319E-4 194:0.0 195:3.21027287319E-4 196:1.6051364366E-4 197:3.21027287319E-4 198:4.81540930979E-4 199:3.21027287319E-4 200:0.0 201:3.21027287319E-4 202:0.0 203:0.0 204:4.81540930979E-4 205:3.21027287319E-4 206:0.0 207:4.81540930979E-4 208:1.6051364366E-4 209:0.00385232744783 210:1.6051364366E-4 211:3.21027287319E-4 212:1.6051364366E-4 213:0.0024077046549 214:1.6051364366E-4 215:0.00593900481541 216:0.00192616372392 217:6.42054574639E-4 218:3.21027287319E-4 219:3.21027287319E-4 220:3.21027287319E-4 221:4.81540930979E-4 222:8.02568218299E-4 223:8.02568218299E-4 224:0.00979133226324 225:0.00208667736758 226:4.81540930979E-4 227:1.6051364366E-4 228:0.0 229:3.21027287319E-4 230:1.6051364366E-4 231:1.6051364366E-4 232:1.6051364366E-4 233:0.00674157303371 234:0.00593900481541 235:1.6051364366E-4 236:0.00690208667737 237:4.81540930979E-4 238:9.63081861958E-4 239:4.81540930979E-4 240:0.00497592295345 241:0.00561797752809 242:1.6051364366E-4 243:3.21027287319E-4 244:4.81540930979E-4 245:0.00353130016051 246:1.6051364366E-4 247:0.00192616372392 248:0.00577849117175 249:0.00898876404494 250:0.00417335473515 251:6.42054574639E-4 252:0.014606741573 253:0.00321027287319 254:0.00401284109149 255:0.00754414125201 256:0.657784911717 
1024.0 1:0.0151181968114 2:0.00284038849185 3:0.00210738501008 4:3.66501740883E-4 5:0.00238226131574 6:5.49752611325E-4 7:4.58127176104E-4 8:8.24628916987E-4 9:0.00201575957486 10:7.33003481767E-4 11:3.66501740883E-4 12:0.00238226131574 13:3.66501740883E-4 14:2.74876305662E-4 15:2.74876305662E-4 16:0.00348176653839 17:0.00137438152831 18:3.66501740883E-4 19:4.58127176104E-4 20:0.0 21:7.33003481767E-4 22:2.74876305662E-4 23:0.00119113065787 24:0.00229063588052 25:0.00128275609309 26:4.58127176104E-4 27:1.83250870442E-4 28:3.66501740883E-4 29:1.83250870442E-4 30:1.83250870442E-4 31:2.74876305662E-4 32:0.00320689023273 33:0.00256551218618 34:5.49752611325E-4 35:0.00100787978743 36:0.0 37:2.74876305662E-4 38:5.49752611325E-4 39:1.83250870442E-4 40:1.83250870442E-4 41:5.49752611325E-4 42:0.00128275609309 43:1.83250870442E-4 44:0.00366501740883 45:3.66501740883E-4 46:1.83250870442E-4 47:2.74876305662E-4 48:0.00329851566795 49:0.00119113065787 50:4.58127176104E-4 51:9.16254352208E-5 52:1.83250870442E-4 53:9.16254352208E-5 54:4.58127176104E-4 55:1.83250870442E-4 56:1.83250870442E-4 57:9.16254352208E-5 58:1.83250870442E-4 59:0.0 60:9.16254352208E-5 61:0.0 62:2.74876305662E-4 63:9.16254352208E-5 64:0.00274876305662 65:0.00183250870442 66:2.74876305662E-4 67:0.00100787978743 68:9.16254352208E-5 69:3.66501740883E-4 70:7.33003481767E-4 71:1.83250870442E-4 72:2.74876305662E-4 73:3.66501740883E-4 74:9.16254352208E-5 75:0.0 76:4.58127176104E-4 77:2.74876305662E-4 78:0.0 79:0.0 80:9.16254352208E-5 81:9.16254352208E-5 82:2.74876305662E-4 83:1.83250870442E-4 84:3.66501740883E-4 85:3.66501740883E-4 86:9.16254352208E-5 87:4.58127176104E-4 88:2.74876305662E-4 89:3.66501740883E-4 90:9.16254352208E-5 91:1.83250870442E-4 92:0.0 93:0.0 94:9.16254352208E-5 95:9.16254352208E-5 96:0.00155763239875 97:4.58127176104E-4 98:9.16254352208E-5 99:9.16254352208E-5 100:9.16254352208E-5 101:9.16254352208E-5 102:9.16254352208E-5 103:1.83250870442E-4 104:2.74876305662E-4 105:0.00201575957486 106:0.00201575957486 107:4.58127176104E-4 108:0.00751328568811 109:1.83250870442E-4 110:9.16254352208E-5 111:1.83250870442E-4 112:0.00238226131574 113:9.16254352208E-5 114:0.0 115:0.0 116:2.74876305662E-4 117:1.83250870442E-4 118:2.74876305662E-4 119:2.74876305662E-4 120:3.66501740883E-4 121:1.83250870442E-4 122:4.58127176104E-4 123:2.74876305662E-4 124:0.00100787978743 125:0.0 126:3.66501740883E-4 127:3.66501740883E-4 128:0.00861279091076 129:0.0026571376214 130:2.74876305662E-4 131:3.66501740883E-4 132:1.83250870442E-4 133:0.00146600696353 134:2.74876305662E-4 135:1.83250870442E-4 136:9.16254352208E-5 137:1.83250870442E-4 138:9.16254352208E-5 139:2.74876305662E-4 140:2.74876305662E-4 141:3.66501740883E-4 142:9.16254352208E-5 143:9.16254352208E-5 144:9.16254352208E-5 145:0.00109950522265 146:0.0 147:9.16254352208E-5 148:9.16254352208E-5 149:0.00155763239875 150:1.83250870442E-4 151:0.00146600696353 152:0.0021990104453 153:3.66501740883E-4 154:1.83250870442E-4 155:1.83250870442E-4 156:4.58127176104E-4 157:9.16254352208E-5 158:2.74876305662E-4 159:3.66501740883E-4 160:0.00256551218618 161:6.41378046546E-4 162:9.16254352208E-5 163:9.16254352208E-5 164:1.83250870442E-4 165:2.74876305662E-4 166:2.74876305662E-4 167:4.58127176104E-4 168:9.16254352208E-5 169:0.0 170:9.16254352208E-5 171:9.16254352208E-5 172:9.16254352208E-5 173:1.83250870442E-4 174:0.0 175:9.16254352208E-5 176:5.49752611325E-4 177:9.16254352208E-5 178:1.83250870442E-4 179:0.0 180:1.83250870442E-4 181:1.83250870442E-4 182:0.0 183:9.16254352208E-5 184:4.58127176104E-4 185:0.0 186:0.0 187:1.83250870442E-4 188:3.66501740883E-4 189:9.16254352208E-5 190:1.83250870442E-4 191:6.41378046546E-4 192:0.00476452263148 193:0.00109950522265 194:9.16254352208E-5 195:3.66501740883E-4 196:2.74876305662E-4 197:9.16254352208E-5 198:0.0 199:9.16254352208E-5 200:2.74876305662E-4 201:2.74876305662E-4 202:5.49752611325E-4 203:0.0 204:1.83250870442E-4 205:0.0 206:1.83250870442E-4 207:1.83250870442E-4 208:1.83250870442E-4 209:0.00274876305662 210:1.83250870442E-4 211:2.74876305662E-4 212:1.83250870442E-4 213:0.00412314458494 214:9.16254352208E-5 215:0.00476452263148 216:0.00247388675096 217:1.83250870442E-4 218:9.16254352208E-5 219:1.83250870442E-4 220:3.66501740883E-4 221:1.83250870442E-4 222:3.66501740883E-4 223:0.00100787978743 224:0.00815466373465 225:0.00109950522265 226:2.74876305662E-4 227:9.16254352208E-5 228:1.83250870442E-4 229:9.16254352208E-5 230:9.16254352208E-5 231:2.74876305662E-4 232:4.58127176104E-4 233:0.00247388675096 234:0.00339014110317 235:1.83250870442E-4 236:0.00201575957486 237:9.16254352208E-5 238:6.41378046546E-4 239:7.33003481767E-4 240:0.00375664284405 241:0.00430639545538 242:1.83250870442E-4 243:5.49752611325E-4 244:1.83250870442E-4 245:0.00458127176104 246:4.58127176104E-4 247:0.00320689023273 248:0.00348176653839 249:0.0065970313359 250:0.00320689023273 251:0.00100787978743 252:0.00852116547554 253:0.00384826827927 254:0.00403151914972 255:0.0107201759208 256:0.762964999084 
14.621879283824253 1:0.0139133350096 2:0.00209538177856 3:0.00167630542285 4:4.19076355712E-4 5:0.00234682759199 6:6.70522169139E-4 7:5.86706897997E-4 8:0.00100578325371 9:0.00167630542285 10:2.51445813427E-4 11:5.02891626854E-4 12:0.00343642611684 13:6.70522169139E-4 14:1.67630542285E-4 15:2.51445813427E-4 16:0.00192775123628 17:0.00226301232084 18:4.19076355712E-4 19:3.3526108457E-4 20:1.67630542285E-4 21:6.70522169139E-4 22:3.3526108457E-4 23:0.00192775123628 24:0.00243064286313 25:9.21967982566E-4 26:8.38152711424E-5 27:8.38152711424E-5 28:2.51445813427E-4 29:3.3526108457E-4 30:8.38152711424E-5 31:4.19076355712E-4 32:0.00796245075853 33:0.0027659039477 34:5.86706897997E-4 35:8.38152711424E-4 36:3.3526108457E-4 37:2.51445813427E-4 38:3.3526108457E-4 39:3.3526108457E-4 40:8.38152711424E-5 41:2.51445813427E-4 42:0.00100578325371 43:1.67630542285E-4 44:0.00578325370883 45:2.51445813427E-4 46:1.67630542285E-4 47:0.0 48:0.00419076355712 49:4.19076355712E-4 50:1.67630542285E-4 51:1.67630542285E-4 52:3.3526108457E-4 53:1.67630542285E-4 54:3.3526108457E-4 55:1.67630542285E-4 56:1.67630542285E-4 57:8.38152711424E-5 58:3.3526108457E-4 59:8.38152711424E-5 60:8.38152711424E-5 61:1.67630542285E-4 62:1.67630542285E-4 63:1.67630542285E-4 64:0.00209538177856 65:0.00184393596513 66:7.54337440282E-4 67:0.0021791970497 68:0.0 69:7.54337440282E-4 70:8.38152711424E-5 71:4.19076355712E-4 72:8.38152711424E-5 73:5.02891626854E-4 74:1.67630542285E-4 75:8.38152711424E-5 76:2.51445813427E-4 77:5.02891626854E-4 78:2.51445813427E-4 79:8.38152711424E-5 80:2.51445813427E-4 81:6.70522169139E-4 82:8.38152711424E-5 83:4.19076355712E-4 84:8.38152711424E-5 85:3.3526108457E-4 86:4.19076355712E-4 87:8.38152711424E-5 88:8.38152711424E-5 89:8.38152711424E-5 90:1.67630542285E-4 91:0.0 92:3.3526108457E-4 93:8.38152711424E-5 94:8.38152711424E-5 95:0.0 96:0.00117341379599 97:2.51445813427E-4 98:3.3526108457E-4 99:8.38152711424E-5 100:2.51445813427E-4 101:2.51445813427E-4 102:8.38152711424E-5 103:1.67630542285E-4 104:1.67630542285E-4 105:5.86706897997E-4 106:0.00209538177856 107:1.67630542285E-4 108:0.0106445394351 109:1.67630542285E-4 110:5.02891626854E-4 111:1.67630542285E-4 112:0.00226301232084 113:2.51445813427E-4 114:0.0 115:1.67630542285E-4 116:2.51445813427E-4 117:3.3526108457E-4 118:2.51445813427E-4 119:8.38152711424E-5 120:1.67630542285E-4 121:1.67630542285E-4 122:8.38152711424E-5 123:4.19076355712E-4 124:5.02891626854E-4 125:0.0 126:3.3526108457E-4 127:8.38152711424E-5 128:0.00804626602967 129:0.00293353448998 130:5.02891626854E-4 131:5.86706897997E-4 132:0.0 133:9.21967982566E-4 134:0.0 135:2.51445813427E-4 136:8.38152711424E-5 137:3.3526108457E-4 138:2.51445813427E-4 139:4.19076355712E-4 140:4.19076355712E-4 141:3.3526108457E-4 142:3.3526108457E-4 143:1.67630542285E-4 144:1.67630542285E-4 145:5.86706897997E-4 146:3.3526108457E-4 147:5.02891626854E-4 148:2.51445813427E-4 149:0.00167630542285 150:0.0 151:0.00251445813427 152:0.00243064286313 153:4.19076355712E-4 154:8.38152711424E-5 155:2.51445813427E-4 156:8.38152711424E-5 157:1.67630542285E-4 158:8.38152711424E-5 159:8.38152711424E-5 160:0.00234682759199 161:7.54337440282E-4 162:4.19076355712E-4 163:3.3526108457E-4 164:1.67630542285E-4 165:8.38152711424E-5 166:3.3526108457E-4 167:4.19076355712E-4 168:8.38152711424E-5 169:1.67630542285E-4 170:8.38152711424E-5 171:8.38152711424E-5 172:2.51445813427E-4 173:8.38152711424E-5 174:8.38152711424E-5 175:1.67630542285E-4 176:3.3526108457E-4 177:1.67630542285E-4 178:2.51445813427E-4 179:0.0 180:1.67630542285E-4 181:2.51445813427E-4 182:3.3526108457E-4 183:3.3526108457E-4 184:4.19076355712E-4 185:0.0 186:1.67630542285E-4 187:2.51445813427E-4 188:2.51445813427E-4 189:1.67630542285E-4 190:4.19076355712E-4 191:3.3526108457E-4 192:0.0033526108457 193:4.19076355712E-4 194:8.38152711424E-5 195:3.3526108457E-4 196:1.67630542285E-4 197:4.19076355712E-4 198:8.38152711424E-5 199:4.19076355712E-4 200:8.38152711424E-5 201:0.0 202:2.51445813427E-4 203:2.51445813427E-4 204:8.38152711424E-5 205:1.67630542285E-4 206:3.3526108457E-4 207:2.51445813427E-4 208:3.3526108457E-4 209:0.00301734976113 210:3.3526108457E-4 211:5.02891626854E-4 212:2.51445813427E-4 213:0.00804626602967 214:3.3526108457E-4 215:0.00905204928338 216:0.00310116503227 217:3.3526108457E-4 218:0.0 219:1.67630542285E-4 220:4.19076355712E-4 221:4.19076355712E-4 222:5.86706897997E-4 223:0.00117341379599 224:0.00804626602967 225:6.70522169139E-4 226:8.38152711424E-5 227:1.67630542285E-4 228:2.51445813427E-4 229:5.86706897997E-4 230:2.51445813427E-4 231:8.38152711424E-5 232:8.38152711424E-5 233:0.00201156650742 234:0.00125722906714 235:2.51445813427E-4 236:0.00159249015171 237:1.67630542285E-4 238:0.0 239:5.02891626854E-4 240:0.00284971921884 241:0.00410694828598 242:8.38152711424E-5 243:8.38152711424E-5 244:5.02891626854E-4 245:0.00502891626854 246:5.86706897997E-4 247:0.00377168720141 248:0.00402313301484 249:0.00578325370883 250:0.00150867488056 251:8.38152711424E-4 252:0.00544799262426 253:0.00310116503227 254:0.00377168720141 255:0.0112312463331 256:0.755175592993 
1024.0 1:0.0157543391188 2:0.00273698264352 3:0.0018691588785 4:6.67556742323E-4 5:0.00200267022697 6:5.34045393858E-4 7:0.00106809078772 8:0.00100133511348 9:0.00193591455274 10:4.00534045394E-4 11:3.33778371162E-4 12:0.00300400534045 13:6.00801068091E-4 14:2.67022696929E-4 15:1.33511348465E-4 16:0.00360480640854 17:0.0022696929239 18:3.33778371162E-4 19:2.00267022697E-4 20:1.33511348465E-4 21:8.01068090788E-4 22:3.33778371162E-4 23:0.00340453938585 24:0.00333778371162 25:8.6782376502E-4 26:1.33511348465E-4 27:2.00267022697E-4 28:6.67556742323E-5 29:3.33778371162E-4 30:1.33511348465E-4 31:2.00267022697E-4 32:0.00487316421896 33:0.00273698264352 34:0.00133511348465 35:3.33778371162E-4 36:4.00534045394E-4 37:6.00801068091E-4 38:2.67022696929E-4 39:2.00267022697E-4 40:0.0 41:6.00801068091E-4 42:0.00146862483311 43:3.33778371162E-4 44:0.00367156208278 45:2.00267022697E-4 46:1.33511348465E-4 47:0.0 48:0.00360480640854 49:7.34312416555E-4 50:8.6782376502E-4 51:6.67556742323E-5 52:1.33511348465E-4 53:4.00534045394E-4 54:6.67556742323E-5 55:3.33778371162E-4 56:2.00267022697E-4 57:2.67022696929E-4 58:6.67556742323E-5 59:6.67556742323E-5 60:3.33778371162E-4 61:1.33511348465E-4 62:2.67022696929E-4 63:1.33511348465E-4 64:0.00260347129506 65:0.00140186915888 66:9.34579439252E-4 67:0.00120160213618 68:2.67022696929E-4 69:4.00534045394E-4 70:3.33778371162E-4 71:2.00267022697E-4 72:0.0 73:6.00801068091E-4 74:4.00534045394E-4 75:1.33511348465E-4 76:2.00267022697E-4 77:2.67022696929E-4 78:6.67556742323E-5 79:6.67556742323E-5 80:2.67022696929E-4 81:8.01068090788E-4 82:3.33778371162E-4 83:1.33511348465E-4 84:2.00267022697E-4 85:2.67022696929E-4 86:6.67556742323E-5 87:2.67022696929E-4 88:2.00267022697E-4 89:6.67556742323E-5 90:2.00267022697E-4 91:2.00267022697E-4 92:2.67022696929E-4 93:2.00267022697E-4 94:2.00267022697E-4 95:2.67022696929E-4 96:0.00120160213618 97:6.00801068091E-4 98:4.00534045394E-4 99:3.33778371162E-4 100:3.33778371162E-4 101:2.67022696929E-4 102:2.00267022697E-4 103:1.33511348465E-4 104:1.33511348465E-4 105:0.00293724966622 106:0.0043391188251 107:2.67022696929E-4 108:0.00567423230975 109:2.67022696929E-4 110:2.67022696929E-4 111:0.0 112:0.00327102803738 113:3.33778371162E-4 114:2.00267022697E-4 115:6.67556742323E-5 116:2.67022696929E-4 117:0.0 118:2.00267022697E-4 119:2.00267022697E-4 120:4.00534045394E-4 121:3.33778371162E-4 122:4.67289719626E-4 123:1.33511348465E-4 124:0.00160213618158 125:1.33511348465E-4 126:3.33778371162E-4 127:2.67022696929E-4 128:0.00901201602136 129:0.00280373831776 130:4.00534045394E-4 131:8.01068090788E-4 132:0.0 133:7.34312416555E-4 134:8.6782376502E-4 135:2.00267022697E-4 136:6.67556742323E-5 137:5.34045393858E-4 138:1.33511348465E-4 139:5.34045393858E-4 140:0.0 141:2.67022696929E-4 142:3.33778371162E-4 143:2.00267022697E-4 144:5.34045393858E-4 145:4.00534045394E-4 146:4.00534045394E-4 147:1.33511348465E-4 148:2.00267022697E-4 149:0.00106809078772 150:2.00267022697E-4 151:0.00467289719626 152:0.00420560747664 153:2.67022696929E-4 154:0.0 155:6.67556742323E-5 156:4.67289719626E-4 157:4.67289719626E-4 158:1.33511348465E-4 159:3.33778371162E-4 160:0.00253671562083 161:7.34312416555E-4 162:2.67022696929E-4 163:3.33778371162E-4 164:6.67556742323E-5 165:3.33778371162E-4 166:6.67556742323E-5 167:6.67556742323E-5 168:2.00267022697E-4 169:4.00534045394E-4 170:1.33511348465E-4 171:0.0 172:2.67022696929E-4 173:2.00267022697E-4 174:1.33511348465E-4 175:1.33511348465E-4 176:4.00534045394E-4 177:2.00267022697E-4 178:2.67022696929E-4 179:1.33511348465E-4 180:3.33778371162E-4 181:6.67556742323E-5 182:6.67556742323E-5 183:1.33511348465E-4 184:3.33778371162E-4 185:2.00267022697E-4 186:1.33511348465E-4 187:1.33511348465E-4 188:3.33778371162E-4 189:6.67556742323E-5 190:3.33778371162E-4 191:5.34045393858E-4 192:0.00340453938585 193:4.00534045394E-4 194:1.33511348465E-4 195:2.67022696929E-4 196:6.67556742323E-5 197:3.33778371162E-4 198:1.33511348465E-4 199:6.67556742323E-5 200:1.33511348465E-4 201:1.33511348465E-4 202:6.67556742323E-5 203:1.33511348465E-4 204:1.33511348465E-4 205:4.00534045394E-4 206:2.67022696929E-4 207:2.67022696929E-4 208:4.67289719626E-4 209:0.00300400534045 210:4.00534045394E-4 211:1.33511348465E-4 212:1.33511348465E-4 213:0.00327102803738 214:4.00534045394E-4 215:0.00687583444593 216:0.00300400534045 217:3.33778371162E-4 218:4.67289719626E-4 219:6.67556742323E-5 220:2.00267022697E-4 221:3.33778371162E-4 222:3.33778371162E-4 223:0.00153538050734 224:0.00881174899866 225:7.34312416555E-4 226:1.33511348465E-4 227:6.67556742323E-5 228:1.33511348465E-4 229:1.33511348465E-4 230:2.67022696929E-4 231:6.67556742323E-5 232:1.33511348465E-4 233:0.00360480640854 234:0.00253671562083 235:2.67022696929E-4 236:0.00360480640854 237:1.33511348465E-4 238:4.00534045394E-4 239:3.33778371162E-4 240:0.00333778371162 241:0.00387182910547 242:2.00267022697E-4 243:5.34045393858E-4 244:2.00267022697E-4 245:0.00313751668892 246:4.00534045394E-4 247:0.00273698264352 248:0.00340453938585 249:0.00580774365821 250:0.00307076101469 251:0.00120160213618 252:0.00874499332443 253:0.00380507343124 254:0.00273698264352 255:0.00941255006676 256:0.746662216288 
376.8949435779679 1:0.0179506933744 2:0.00277349768875 3:0.00192604006163 4:3.08166409861E-4 5:0.00254237288136 6:8.47457627119E-4 7:4.62249614792E-4 8:8.47457627119E-4 9:0.00261941448382 10:3.85208012327E-4 11:6.16332819723E-4 12:0.00285053929122 13:0.00100154083205 14:3.08166409861E-4 15:6.16332819723E-4 16:0.00246533127889 17:0.00254237288136 18:8.47457627119E-4 19:6.16332819723E-4 20:2.31124807396E-4 21:9.24499229584E-4 22:4.62249614792E-4 23:0.00308166409861 24:0.00654853620955 25:3.85208012327E-4 26:3.85208012327E-4 27:3.08166409861E-4 28:3.85208012327E-4 29:2.31124807396E-4 30:3.08166409861E-4 31:3.08166409861E-4 32:0.00338983050847 33:0.00338983050847 34:9.24499229584E-4 35:7.70416024653E-4 36:1.54083204931E-4 37:7.70416024653E-4 38:3.85208012327E-4 39:2.31124807396E-4 40:2.31124807396E-4 41:6.16332819723E-4 42:8.47457627119E-4 43:4.62249614792E-4 44:0.00308166409861 45:4.62249614792E-4 46:1.54083204931E-4 47:1.54083204931E-4 48:0.00308166409861 49:0.00100154083205 50:4.62249614792E-4 51:4.62249614792E-4 52:4.62249614792E-4 53:3.08166409861E-4 54:1.54083204931E-4 55:1.54083204931E-4 56:3.08166409861E-4 57:3.08166409861E-4 58:7.70416024653E-5 59:7.70416024653E-5 60:2.31124807396E-4 61:0.0 62:1.54083204931E-4 63:7.70416024653E-5 64:0.00146379044684 65:0.00254237288136 66:6.16332819723E-4 67:6.16332819723E-4 68:3.08166409861E-4 69:7.70416024653E-4 70:5.39291217257E-4 71:7.70416024653E-5 72:3.08166409861E-4 73:5.39291217257E-4 74:7.70416024653E-5 75:7.70416024653E-5 76:1.54083204931E-4 77:5.39291217257E-4 78:2.31124807396E-4 79:1.54083204931E-4 80:7.70416024653E-5 81:4.62249614792E-4 82:7.70416024653E-5 83:1.54083204931E-4 84:0.0 85:3.85208012327E-4 86:3.85208012327E-4 87:3.08166409861E-4 88:2.31124807396E-4 89:7.70416024653E-5 90:7.70416024653E-5 91:2.31124807396E-4 92:0.0 93:7.70416024653E-5 94:3.85208012327E-4 95:7.70416024653E-5 96:0.0020030816641 97:9.24499229584E-4 98:1.54083204931E-4 99:7.70416024653E-5 100:3.85208012327E-4 101:5.39291217257E-4 102:1.54083204931E-4 103:3.08166409861E-4 104:7.70416024653E-5 105:0.00300462249615 106:0.00539291217257 107:0.0 108:0.00277349768875 109:7.70416024653E-5 110:1.54083204931E-4 111:1.54083204931E-4 112:0.00154083204931 113:3.08166409861E-4 114:3.08166409861E-4 115:3.85208012327E-4 116:3.08166409861E-4 117:3.08166409861E-4 118:2.31124807396E-4 119:7.70416024653E-5 120:4.62249614792E-4 121:1.54083204931E-4 122:2.31124807396E-4 123:1.54083204931E-4 124:9.24499229584E-4 125:2.31124807396E-4 126:2.31124807396E-4 127:5.39291217257E-4 128:0.00701078582435 129:0.00292758089368 130:0.00115562403698 131:9.24499229584E-4 132:1.54083204931E-4 133:8.47457627119E-4 134:3.85208012327E-4 135:6.16332819723E-4 136:3.08166409861E-4 137:9.24499229584E-4 138:7.70416024653E-5 139:3.08166409861E-4 140:1.54083204931E-4 141:7.70416024653E-4 142:3.08166409861E-4 143:2.31124807396E-4 144:3.85208012327E-4 145:6.93374422188E-4 146:0.0 147:7.70416024653E-5 148:2.31124807396E-4 149:6.16332819723E-4 150:7.70416024653E-5 151:0.00315870570108 152:0.00362095531587 153:3.08166409861E-4 154:2.31124807396E-4 155:2.31124807396E-4 156:2.31124807396E-4 157:0.0 158:1.54083204931E-4 159:3.85208012327E-4 160:0.00208012326656 161:7.70416024653E-4 162:3.08166409861E-4 163:1.54083204931E-4 164:4.62249614792E-4 165:2.31124807396E-4 166:7.70416024653E-5 167:3.08166409861E-4 168:2.31124807396E-4 169:2.31124807396E-4 170:1.54083204931E-4 171:7.70416024653E-5 172:4.62249614792E-4 173:1.54083204931E-4 174:1.54083204931E-4 175:3.08166409861E-4 176:6.16332819723E-4 177:4.62249614792E-4 178:7.70416024653E-5 179:7.70416024653E-5 180:3.08166409861E-4 181:7.70416024653E-5 182:3.08166409861E-4 183:3.08166409861E-4 184:9.24499229584E-4 185:3.85208012327E-4 186:0.0 187:6.93374422188E-4 188:4.62249614792E-4 189:0.0 190:1.54083204931E-4 191:6.16332819723E-4 192:0.0037750385208 193:3.85208012327E-4 194:0.0 195:2.31124807396E-4 196:1.54083204931E-4 197:3.08166409861E-4 198:2.31124807396E-4 199:2.31124807396E-4 200:3.85208012327E-4 201:3.85208012327E-4 202:1.54083204931E-4 203:0.0 204:3.85208012327E-4 205:3.08166409861E-4 206:7.70416024653E-5 207:3.08166409861E-4 208:5.39291217257E-4 209:0.00231124807396 210:7.70416024653E-5 211:1.54083204931E-4 212:7.70416024653E-5 213:0.0020030816641 214:3.08166409861E-4 215:0.00246533127889 216:0.00246533127889 217:4.62249614792E-4 218:1.54083204931E-4 219:7.70416024653E-5 220:5.39291217257E-4 221:3.08166409861E-4 222:6.16332819723E-4 223:0.00115562403698 224:0.00685670261941 225:0.00115562403698 226:1.54083204931E-4 227:7.70416024653E-5 228:1.54083204931E-4 229:7.70416024653E-5 230:1.54083204931E-4 231:3.08166409861E-4 232:3.85208012327E-4 233:0.00392912172573 234:0.00354391371341 235:3.08166409861E-4 236:0.00208012326656 237:3.08166409861E-4 238:8.47457627119E-4 239:3.85208012327E-4 240:0.0037750385208 241:0.0037750385208 242:2.31124807396E-4 243:1.54083204931E-4 244:3.85208012327E-4 245:0.00261941448382 246:4.62249614792E-4 247:0.00154083204931 248:0.00354391371341 249:0.00500770416025 250:0.00254237288136 251:0.00146379044684 252:0.00801232665639 253:0.00254237288136 254:0.00346687211094 255:0.00670261941448 256:0.758859784284 
1024.0 1:0.0177511244378 2:0.00335832083958 3:0.00275862068966 4:6.59670164918E-4 5:0.00335832083958 6:5.39730134933E-4 7:7.79610194903E-4 8:0.00173913043478 9:0.00257871064468 10:5.99700149925E-4 11:7.79610194903E-4 12:0.00305847076462 13:8.39580209895E-4 14:2.3988005997E-4 15:5.99700149925E-5 16:0.00443778110945 17:0.00257871064468 18:3.59820089955E-4 19:4.19790104948E-4 20:3.59820089955E-4 21:8.39580209895E-4 22:2.3988005997E-4 23:0.00173913043478 24:0.0023988005997 25:0.00101949025487 26:1.79910044978E-4 27:1.19940029985E-4 28:3.59820089955E-4 29:1.79910044978E-4 30:4.19790104948E-4 31:5.99700149925E-5 32:0.00707646176912 33:0.00263868065967 34:0.00149925037481 35:8.99550224888E-4 36:2.3988005997E-4 37:8.39580209895E-4 38:1.19940029985E-4 39:2.99850074963E-4 40:2.3988005997E-4 41:6.59670164918E-4 42:0.00167916041979 43:4.19790104948E-4 44:0.00191904047976 45:1.19940029985E-4 46:2.3988005997E-4 47:1.19940029985E-4 48:0.00365817091454 49:9.5952023988E-4 50:8.39580209895E-4 51:2.3988005997E-4 52:2.99850074963E-4 53:4.19790104948E-4 54:1.19940029985E-4 55:1.19940029985E-4 56:2.3988005997E-4 57:1.79910044978E-4 58:4.19790104948E-4 59:1.19940029985E-4 60:2.3988005997E-4 61:5.99700149925E-5 62:1.19940029985E-4 63:2.3988005997E-4 64:0.00269865067466 65:0.00233883058471 66:6.59670164918E-4 67:0.0016191904048 68:2.99850074963E-4 69:8.39580209895E-4 70:5.39730134933E-4 71:1.19940029985E-4 72:2.99850074963E-4 73:4.7976011994E-4 74:1.19940029985E-4 75:1.79910044978E-4 76:2.3988005997E-4 77:1.79910044978E-4 78:1.19940029985E-4 79:0.0 80:1.79910044978E-4 81:3.59820089955E-4 82:1.19940029985E-4 83:2.3988005997E-4 84:2.3988005997E-4 85:1.79910044978E-4 86:1.19940029985E-4 87:3.59820089955E-4 88:1.19940029985E-4 89:5.99700149925E-4 90:1.19940029985E-4 91:1.19940029985E-4 92:2.3988005997E-4 93:1.79910044978E-4 94:1.19940029985E-4 95:1.79910044978E-4 96:0.00101949025487 97:4.7976011994E-4 98:2.3988005997E-4 99:3.59820089955E-4 100:1.79910044978E-4 101:1.19940029985E-4 102:3.59820089955E-4 103:1.19940029985E-4 104:5.99700149925E-5 105:0.00257871064468 106:0.00245877061469 107:2.99850074963E-4 108:0.0055772113943 109:3.59820089955E-4 110:2.3988005997E-4 111:1.19940029985E-4 112:0.00245877061469 113:2.3988005997E-4 114:4.19790104948E-4 115:1.19940029985E-4 116:1.19940029985E-4 117:0.0 118:0.0 119:5.99700149925E-5 120:5.39730134933E-4 121:2.99850074963E-4 122:2.3988005997E-4 123:1.79910044978E-4 124:0.00131934032984 125:2.3988005997E-4 126:4.19790104948E-4 127:2.3988005997E-4 128:0.00731634182909 129:0.00311844077961 130:7.79610194903E-4 131:4.19790104948E-4 132:1.19940029985E-4 133:0.00131934032984 134:1.79910044978E-4 135:0.0 136:2.3988005997E-4 137:5.99700149925E-4 138:1.19940029985E-4 139:2.99850074963E-4 140:1.19940029985E-4 141:3.59820089955E-4 142:0.0 143:2.99850074963E-4 144:2.99850074963E-4 145:7.79610194903E-4 146:1.19940029985E-4 147:1.79910044978E-4 148:1.19940029985E-4 149:0.00155922038981 150:3.59820089955E-4 151:0.00227886056972 152:0.00311844077961 153:3.59820089955E-4 154:2.3988005997E-4 155:2.3988005997E-4 156:1.19940029985E-4 157:2.3988005997E-4 158:5.99700149925E-5 159:2.3988005997E-4 160:0.00191904047976 161:4.7976011994E-4 162:2.99850074963E-4 163:4.19790104948E-4 164:1.19940029985E-4 165:2.99850074963E-4 166:1.79910044978E-4 167:2.3988005997E-4 168:4.7976011994E-4 169:5.99700149925E-5 170:1.19940029985E-4 171:1.19940029985E-4 172:1.19940029985E-4 173:3.59820089955E-4 174:0.0 175:2.3988005997E-4 176:5.99700149925E-4 177:2.3988005997E-4 178:0.0 179:1.79910044978E-4 180:1.19940029985E-4 181:5.99700149925E-5 182:1.19940029985E-4 183:2.99850074963E-4 184:4.7976011994E-4 185:1.19940029985E-4 186:1.79910044978E-4 187:1.19940029985E-4 188:3.59820089955E-4 189:2.99850074963E-4 190:4.19790104948E-4 191:3.59820089955E-4 192:0.00347826086957 193:8.39580209895E-4 194:5.99700149925E-5 195:1.79910044978E-4 196:0.0 197:1.19940029985E-4 198:5.99700149925E-5 199:2.3988005997E-4 200:2.3988005997E-4 201:2.3988005997E-4 202:5.99700149925E-5 203:2.3988005997E-4 204:2.3988005997E-4 205:2.3988005997E-4 206:2.99850074963E-4 207:4.19790104948E-4 208:5.39730134933E-4 209:0.00359820089955 210:2.3988005997E-4 211:1.19940029985E-4 212:2.3988005997E-4 213:0.00425787106447 214:2.3988005997E-4 215:0.00731634182909 216:0.00251874062969 217:1.19940029985E-4 218:3.59820089955E-4 219:1.19940029985E-4 220:5.39730134933E-4 221:2.99850074963E-4 222:2.99850074963E-4 223:5.39730134933E-4 224:0.00623688155922 225:7.1964017991E-4 226:2.99850074963E-4 227:5.99700149925E-5 228:1.79910044978E-4 229:2.3988005997E-4 230:1.19940029985E-4 231:1.19940029985E-4 232:4.19790104948E-4 233:0.00275862068966 234:0.00287856071964 235:5.99700149925E-5 236:0.00263868065967 237:4.19790104948E-4 238:4.19790104948E-4 239:1.19940029985E-4 240:0.0031784107946 241:0.0032383808096 242:5.99700149925E-5 243:1.19940029985E-4 244:4.19790104948E-4 245:0.0040179910045 246:2.3988005997E-4 247:0.00335832083958 248:0.00305847076462 249:0.00581709145427 250:0.00257871064468 251:0.00107946026987 252:0.00551724137931 253:0.00281859070465 254:0.00257871064468 255:0.00695652173913 256:0.75616191904 
1024.0 1:0.00805041152263 2:0.00129886831276 3:9.25925925926E-4 4:3.21502057613E-4 5:0.00128600823045 6:3.08641975309E-4 7:2.44341563786E-4 8:5.27263374486E-4 9:9.90226337449E-4 10:4.24382716049E-4 11:2.31481481481E-4 12:0.00209619341564 13:4.62962962963E-4 14:1.4146090535E-4 15:9.00205761317E-5 16:0.002829218107 17:0.00102880658436 18:4.37242798354E-4 19:2.70061728395E-4 20:2.05761316872E-4 21:3.47222222222E-4 22:1.02880658436E-4 23:0.00147890946502 24:0.00182613168724 25:4.75823045267E-4 26:1.54320987654E-4 27:5.14403292181E-5 28:1.15740740741E-4 29:1.54320987654E-4 30:2.57201646091E-5 31:1.15740740741E-4 32:0.0048353909465 33:0.00128600823045 34:3.9866255144E-4 35:3.08641975309E-4 36:9.00205761317E-5 37:2.44341563786E-4 38:2.57201646091E-4 39:1.28600823045E-4 40:1.15740740741E-4 41:2.70061728395E-4 42:4.88683127572E-4 43:7.71604938272E-5 44:0.00252057613169 45:1.54320987654E-4 46:7.71604938272E-5 47:1.28600823045E-4 48:0.00286779835391 49:4.24382716049E-4 50:2.44341563786E-4 51:9.00205761317E-5 52:9.00205761317E-5 53:7.71604938272E-5 54:7.71604938272E-5 55:1.54320987654E-4 56:1.54320987654E-4 57:1.4146090535E-4 58:5.14403292181E-5 59:3.85802469136E-5 60:1.54320987654E-4 61:2.57201646091E-5 62:5.14403292181E-5 63:7.71604938272E-5 64:0.00315072016461 65:7.45884773663E-4 66:4.11522633745E-4 67:2.05761316872E-4 68:1.02880658436E-4 69:3.21502057613E-4 70:1.02880658436E-4 71:7.71604938272E-5 72:7.71604938272E-5 73:3.21502057613E-4 74:1.80041152263E-4 75:3.85802469136E-5 76:1.80041152263E-4 77:2.05761316872E-4 78:9.00205761317E-5 79:5.14403292181E-5 80:9.00205761317E-5 81:1.92901234568E-4 82:1.54320987654E-4 83:6.43004115226E-5 84:1.02880658436E-4 85:9.00205761317E-5 86:7.71604938272E-5 87:2.05761316872E-4 88:1.15740740741E-4 89:6.43004115226E-5 90:9.00205761317E-5 91:7.71604938272E-5 92:6.43004115226E-5 93:5.14403292181E-5 94:9.00205761317E-5 95:6.43004115226E-5 96:7.33024691358E-4 97:2.95781893004E-4 98:1.02880658436E-4 99:6.43004115226E-5 100:6.43004115226E-5 101:1.28600823045E-4 102:5.14403292181E-5 103:1.02880658436E-4 104:1.28600823045E-4 105:0.00176183127572 106:0.00185185185185 107:1.80041152263E-4 108:0.0045524691358 109:1.4146090535E-4 110:1.28600823045E-4 111:1.4146090535E-4 112:0.00307355967078 113:9.00205761317E-5 114:1.02880658436E-4 115:6.43004115226E-5 116:9.00205761317E-5 117:9.00205761317E-5 118:1.28600823045E-4 119:9.00205761317E-5 120:3.47222222222E-4 121:1.4146090535E-4 122:1.28600823045E-4 123:5.14403292181E-5 124:7.97325102881E-4 125:1.67181069959E-4 126:1.92901234568E-4 127:2.18621399177E-4 128:0.00805041152263 129:0.0014146090535 130:4.37242798354E-4 131:2.57201646091E-4 132:1.4146090535E-4 133:4.62962962963E-4 134:1.4146090535E-4 135:9.00205761317E-5 136:7.71604938272E-5 137:3.60082304527E-4 138:7.71604938272E-5 139:2.18621399177E-4 140:1.92901234568E-4 141:1.92901234568E-4 142:9.00205761317E-5 143:1.28600823045E-4 144:1.28600823045E-4 145:3.60082304527E-4 146:9.00205761317E-5 147:1.4146090535E-4 148:1.54320987654E-4 149:3.60082304527E-4 150:3.85802469136E-5 151:0.00275205761317 152:0.00212191358025 153:6.43004115226E-5 154:6.43004115226E-5 155:7.71604938272E-5 156:1.28600823045E-4 157:1.15740740741E-4 158:2.57201646091E-5 159:1.02880658436E-4 160:0.00223765432099 161:2.31481481481E-4 162:1.15740740741E-4 163:1.4146090535E-4 164:1.4146090535E-4 165:9.00205761317E-5 166:1.02880658436E-4 167:6.43004115226E-5 168:0.0 169:6.43004115226E-5 170:5.14403292181E-5 171:6.43004115226E-5 172:3.85802469136E-5 173:7.71604938272E-5 174:7.71604938272E-5 175:1.02880658436E-4 176:1.28600823045E-4 177:1.02880658436E-4 178:7.71604938272E-5 179:9.00205761317E-5 180:1.15740740741E-4 181:1.02880658436E-4 182:9.00205761317E-5 183:6.43004115226E-5 184:1.67181069959E-4 185:9.00205761317E-5 186:3.85802469136E-5 187:7.71604938272E-5 188:2.57201646091E-4 189:3.85802469136E-5 190:7.71604938272E-5 191:7.71604938272E-5 192:0.00216049382716 193:2.70061728395E-4 194:9.00205761317E-5 195:1.15740740741E-4 196:3.85802469136E-5 197:3.85802469136E-5 198:6.43004115226E-5 199:5.14403292181E-5 200:6.43004115226E-5 201:1.92901234568E-4 202:1.4146090535E-4 203:1.02880658436E-4 204:7.71604938272E-5 205:9.00205761317E-5 206:1.02880658436E-4 207:1.4146090535E-4 208:1.4146090535E-4 209:0.00155606995885 210:1.15740740741E-4 211:6.43004115226E-5 212:9.00205761317E-5 213:0.00127314814815 214:9.00205761317E-5 215:0.00357510288066 216:0.00205761316872 217:1.80041152263E-4 218:1.4146090535E-4 219:7.71604938272E-5 220:1.15740740741E-4 221:9.00205761317E-5 222:2.31481481481E-4 223:6.17283950617E-4 224:0.00594135802469 225:7.20164609053E-4 226:6.43004115226E-5 227:2.57201646091E-5 228:5.14403292181E-5 229:9.00205761317E-5 230:1.02880658436E-4 231:3.85802469136E-5 232:1.02880658436E-4 233:0.00243055555556 234:0.00246913580247 235:2.57201646091E-5 236:0.00249485596708 237:7.71604938272E-5 238:2.57201646091E-4 239:2.57201646091E-4 240:0.00218621399177 241:0.00240483539095 242:1.15740740741E-4 243:1.54320987654E-4 244:2.70061728395E-4 245:0.00236625514403 246:1.4146090535E-4 247:0.00208333333333 248:0.00208333333333 249:0.00477109053498 250:0.00249485596708 251:6.04423868313E-4 252:0.00668724279835 253:0.00234053497942 254:0.00218621399177 255:0.00643004115226 256:0.841936728395 
