svm_type c_svc
kernel_type rbf
gamma 16.0
nr_class 2
total_sv 494
rho 16.22413681243076
label 1 0
nr_sv 238 256
SV
1024.0 1:0.0179506933744 2:0.00323574730354 3:0.0020030816641 4:3.08166409861E-4 5:0.00369799691834 6:0.00115562403698 7:6.93374422188E-4 8:0.00130970724191 9:0.00215716486903 10:0.00115562403698 11:3.08166409861E-4 12:0.00308166409861 13:6.93374422188E-4 14:1.54083204931E-4 15:1.54083204931E-4 16:0.0060092449923 17:0.00184899845917 18:0.00123266563945 19:5.39291217257E-4 20:6.16332819723E-4 21:3.08166409861E-4 22:4.62249614792E-4 23:0.00254237288136 24:0.00439137134052 25:9.24499229584E-4 26:7.70416024653E-5 27:3.08166409861E-4 28:3.85208012327E-4 29:1.54083204931E-4 30:7.70416024653E-5 31:4.62249614792E-4 32:0.00901386748844 33:0.00346687211094 34:0.00215716486903 35:6.93374422188E-4 36:5.39291217257E-4 37:7.70416024653E-4 38:2.31124807396E-4 39:3.08166409861E-4 40:3.08166409861E-4 41:6.93374422188E-4 42:0.0017719568567 43:3.08166409861E-4 44:0.00469953775039 45:4.62249614792E-4 46:4.62249614792E-4 47:2.31124807396E-4 48:0.00477657935285 49:8.47457627119E-4 50:6.16332819723E-4 51:2.31124807396E-4 52:0.0 53:3.08166409861E-4 54:3.85208012327E-4 55:1.54083204931E-4 56:2.31124807396E-4 57:2.31124807396E-4 58:0.0 59:7.70416024653E-5 60:1.54083204931E-4 61:0.0 62:7.70416024653E-5 63:1.54083204931E-4 64:0.00408320493066 65:0.00246533127889 66:2.31124807396E-4 67:0.00138674884438 68:1.54083204931E-4 69:6.16332819723E-4 70:3.08166409861E-4 71:3.85208012327E-4 72:2.31124807396E-4 73:6.93374422188E-4 74:3.08166409861E-4 75:2.31124807396E-4 76:3.85208012327E-4 77:2.31124807396E-4 78:1.54083204931E-4 79:7.70416024653E-5 80:3.08166409861E-4 81:9.24499229584E-4 82:2.31124807396E-4 83:1.54083204931E-4 84:3.08166409861E-4 85:3.85208012327E-4 86:0.0 87:3.85208012327E-4 88:6.93374422188E-4 89:2.31124807396E-4 90:0.0 91:0.0 92:3.85208012327E-4 93:1.54083204931E-4 94:3.85208012327E-4 95:1.54083204931E-4 96:0.00100154083205 97:1.54083204931E-4 98:2.31124807396E-4 99:0.0 100:7.70416024653E-5 101:7.70416024653E-5 102:7.70416024653E-5 103:0.0 104:0.0 105:0.00130970724191 106:0.00192604006163 107:7.70416024653E-5 108:0.00693374422188 109:7.70416024653E-5 110:1.54083204931E-4 111:1.54083204931E-4 112:0.00362095531587 113:2.31124807396E-4 114:2.31124807396E-4 115:1.54083204931E-4 116:2.31124807396E-4 117:1.54083204931E-4 118:2.31124807396E-4 119:7.70416024653E-5 120:2.31124807396E-4 121:4.62249614792E-4 122:4.62249614792E-4 123:7.70416024653E-5 124:0.00100154083205 125:3.85208012327E-4 126:1.54083204931E-4 127:3.08166409861E-4 128:0.0116332819723 129:0.00231124807396 130:8.47457627119E-4 131:0.00107858243451 132:2.31124807396E-4 133:9.24499229584E-4 134:3.85208012327E-4 135:3.85208012327E-4 136:3.08166409861E-4 137:0.0017719568567 138:7.70416024653E-5 139:2.31124807396E-4 140:3.08166409861E-4 141:6.16332819723E-4 142:7.70416024653E-5 143:2.31124807396E-4 144:3.08166409861E-4 145:2.31124807396E-4 146:5.39291217257E-4 147:3.85208012327E-4 148:0.0 149:0.00107858243451 150:2.31124807396E-4 151:0.00308166409861 152:0.00269645608629 153:2.31124807396E-4 154:7.70416024653E-5 155:3.08166409861E-4 156:1.54083204931E-4 157:1.54083204931E-4 158:0.0 159:3.85208012327E-4 160:0.00269645608629 161:6.16332819723E-4 162:3.85208012327E-4 163:7.70416024653E-5 164:1.54083204931E-4 165:3.85208012327E-4 166:3.08166409861E-4 167:7.70416024653E-5 168:6.16332819723E-4 169:2.31124807396E-4 170:2.31124807396E-4 171:7.70416024653E-5 172:2.31124807396E-4 173:1.54083204931E-4 174:0.0 175:1.54083204931E-4 176:7.70416024653E-4 177:4.62249614792E-4 178:2.31124807396E-4 179:7.70416024653E-5 180:7.70416024653E-5 181:3.08166409861E-4 182:2.31124807396E-4 183:7.70416024653E-5 184:3.08166409861E-4 185:1.54083204931E-4 186:7.70416024653E-5 187:1.54083204931E-4 188:5.39291217257E-4 189:7.70416024653E-5 190:7.70416024653E-5 191:2.31124807396E-4 192:0.00423728813559 193:6.16332819723E-4 194:7.70416024653E-5 195:3.85208012327E-4 196:1.54083204931E-4 197:7.70416024653E-5 198:0.0 199:2.31124807396E-4 200:0.0 201:3.85208012327E-4 202:1.54083204931E-4 203:0.0 204:2.31124807396E-4 205:1.54083204931E-4 206:1.54083204931E-4 207:2.31124807396E-4 208:3.85208012327E-4 209:0.00192604006163 210:2.31124807396E-4 211:2.31124807396E-4 212:0.0 213:0.00169491525424 214:3.08166409861E-4 215:0.00677966101695 216:0.00215716486903 217:3.85208012327E-4 218:2.31124807396E-4 219:7.70416024653E-5 220:2.31124807396E-4 221:3.08166409861E-4 222:5.39291217257E-4 223:0.00107858243451 224:0.0075500770416 225:0.00300462249615 226:3.08166409861E-4 227:1.54083204931E-4 228:1.54083204931E-4 229:7.70416024653E-5 230:6.93374422188E-4 231:2.31124807396E-4 232:3.08166409861E-4 233:0.00277349768875 234:0.00169491525424 235:2.31124807396E-4 236:0.00138674884438 237:0.0 238:3.08166409861E-4 239:5.39291217257E-4 240:0.0040061633282 241:0.00539291217257 242:3.85208012327E-4 243:0.0 244:3.08166409861E-4 245:0.00246533127889 246:4.62249614792E-4 247:0.00208012326656 248:0.00315870570108 249:0.00878274268105 250:0.00184899845917 251:0.00100154083205 252:0.00639445300462 253:0.00238828967643 254:0.00285053929122 255:0.00685670261941 256:0.737365177196 
730.2184255823073 1:0.016687016687 2:0.00271333604667 3:0.001221001221 4:1.35666802333E-4 5:0.002442002442 6:9.49667616334E-4 7:0.00108533441867 8:0.00176366843034 9:0.00339167005834 10:6.78334011667E-4 11:2.71333604667E-4 12:0.002442002442 13:6.78334011667E-4 14:1.35666802333E-4 15:1.35666802333E-4 16:0.0100393433727 17:0.00217066883734 18:9.49667616334E-4 19:5.42667209334E-4 20:2.71333604667E-4 21:0.00108533441867 22:0.0 23:0.00474833808167 24:0.00461267127934 25:0.00461267127934 26:5.42667209334E-4 27:0.0 28:5.42667209334E-4 29:0.0 30:4.07000407E-4 31:4.07000407E-4 32:0.029304029304 33:0.002035002035 34:9.49667616334E-4 35:8.14000814001E-4 36:2.71333604667E-4 37:8.14000814001E-4 38:4.07000407E-4 39:0.0 40:1.35666802333E-4 41:8.14000814001E-4 42:0.001221001221 43:1.35666802333E-4 44:0.00189933523267 45:2.71333604667E-4 46:2.71333604667E-4 47:2.71333604667E-4 48:0.00515533848867 49:5.42667209334E-4 50:2.71333604667E-4 51:2.71333604667E-4 52:1.35666802333E-4 53:2.71333604667E-4 54:0.0 55:5.42667209334E-4 56:5.42667209334E-4 57:4.07000407E-4 58:4.07000407E-4 59:1.35666802333E-4 60:4.07000407E-4 61:0.0 62:0.0 63:5.42667209334E-4 64:0.0103106769773 65:0.00189933523267 66:5.42667209334E-4 67:9.49667616334E-4 68:1.35666802333E-4 69:5.42667209334E-4 70:0.0 71:1.35666802333E-4 72:2.71333604667E-4 73:4.07000407E-4 74:2.71333604667E-4 75:1.35666802333E-4 76:0.0 77:1.35666802333E-4 78:2.71333604667E-4 79:0.0 80:2.71333604667E-4 81:8.14000814001E-4 82:5.42667209334E-4 83:2.71333604667E-4 84:0.0 85:0.0 86:2.71333604667E-4 87:2.71333604667E-4 88:4.07000407E-4 89:0.0 90:0.0 91:0.0 92:1.35666802333E-4 93:4.07000407E-4 94:2.71333604667E-4 95:0.0 96:0.00135666802333 97:4.07000407E-4 98:2.71333604667E-4 99:1.35666802333E-4 100:0.0 101:2.71333604667E-4 102:1.35666802333E-4 103:1.35666802333E-4 104:1.35666802333E-4 105:0.00393433726767 106:0.00298466965134 107:2.71333604667E-4 108:0.00529100529101 109:1.35666802333E-4 110:0.0 111:1.35666802333E-4 112:0.00339167005834 113:0.0 114:0.0 115:2.71333604667E-4 116:1.35666802333E-4 117:4.07000407E-4 118:0.0 119:1.35666802333E-4 120:2.71333604667E-4 121:4.07000407E-4 122:8.14000814001E-4 123:0.0 124:0.00135666802333 125:5.42667209334E-4 126:2.71333604667E-4 127:4.07000407E-4 128:0.0180436847104 129:0.002442002442 130:2.71333604667E-4 131:8.14000814001E-4 132:2.71333604667E-4 133:0.00149233482567 134:6.78334011667E-4 135:2.71333604667E-4 136:4.07000407E-4 137:4.07000407E-4 138:1.35666802333E-4 139:2.71333604667E-4 140:1.35666802333E-4 141:2.71333604667E-4 142:0.0 143:2.71333604667E-4 144:5.42667209334E-4 145:8.14000814001E-4 146:2.71333604667E-4 147:0.0 148:1.35666802333E-4 149:0.00108533441867 150:1.35666802333E-4 151:0.00569800569801 152:0.00610500610501 153:4.07000407E-4 154:1.35666802333E-4 155:1.35666802333E-4 156:1.35666802333E-4 157:1.35666802333E-4 158:1.35666802333E-4 159:1.35666802333E-4 160:0.00515533848867 161:5.42667209334E-4 162:5.42667209334E-4 163:2.71333604667E-4 164:1.35666802333E-4 165:6.78334011667E-4 166:1.35666802333E-4 167:4.07000407E-4 168:1.35666802333E-4 169:1.35666802333E-4 170:0.0 171:0.0 172:4.07000407E-4 173:2.71333604667E-4 174:0.0 175:2.71333604667E-4 176:2.71333604667E-4 177:2.71333604667E-4 178:0.0 179:2.71333604667E-4 180:1.35666802333E-4 181:1.35666802333E-4 182:6.78334011667E-4 183:5.42667209334E-4 184:8.14000814001E-4 185:5.42667209334E-4 186:0.0 187:1.35666802333E-4 188:6.78334011667E-4 189:1.35666802333E-4 190:4.07000407E-4 191:5.42667209334E-4 192:0.00298466965134 193:1.35666802333E-4 194:0.0 195:1.35666802333E-4 196:2.71333604667E-4 197:2.71333604667E-4 198:1.35666802333E-4 199:1.35666802333E-4 200:1.35666802333E-4 201:2.71333604667E-4 202:1.35666802333E-4 203:1.35666802333E-4 204:2.71333604667E-4 205:1.35666802333E-4 206:0.0 207:1.35666802333E-4 208:9.49667616334E-4 209:0.00230633563967 210:0.0 211:5.42667209334E-4 212:1.35666802333E-4 213:0.00298466965134 214:0.0 215:0.00895400895401 216:0.00434133767467 217:2.71333604667E-4 218:0.0 219:0.0 220:1.35666802333E-4 221:5.42667209334E-4 222:0.0 223:8.14000814001E-4 224:0.013431013431 225:0.00176366843034 226:0.0 227:2.71333604667E-4 228:2.71333604667E-4 229:1.35666802333E-4 230:1.35666802333E-4 231:1.35666802333E-4 232:1.35666802333E-4 233:0.00624067290734 234:0.00379867046534 235:2.71333604667E-4 236:0.002849002849 237:5.42667209334E-4 238:2.71333604667E-4 239:4.07000407E-4 240:0.004477004477 241:0.00298466965134 242:8.14000814001E-4 243:1.35666802333E-4 244:6.78334011667E-4 245:0.00298466965134 246:1.35666802333E-4 247:0.00298466965134 248:0.00407000407 249:0.0147876814543 250:0.00420567087234 251:6.78334011667E-4 252:0.00936100936101 253:0.003256003256 254:0.00339167005834 255:0.00800434133767 256:0.663681997015 
655.2169123754273 1:0.0166450644655 2:0.00266048161539 3:0.00163721945562 4:2.72869909271E-4 5:0.00177365441026 6:4.09304863906E-4 7:4.09304863906E-4 8:6.13957295859E-4 9:0.0019100893649 10:6.13957295859E-4 11:2.04652431953E-4 12:0.00197830684221 13:4.09304863906E-4 14:6.82174773177E-5 15:0.0 16:0.00204652431953 17:0.00204652431953 18:6.82174773177E-4 19:4.09304863906E-4 20:1.36434954635E-4 21:2.04652431953E-4 22:2.04652431953E-4 23:9.55044682448E-4 24:0.00211474179685 25:7.50392250495E-4 26:4.09304863906E-4 27:1.36434954635E-4 28:3.41087386588E-4 29:0.0 30:6.82174773177E-5 31:2.72869909271E-4 32:0.00163721945562 33:0.00320622143393 34:9.55044682448E-4 35:7.50392250495E-4 36:4.09304863906E-4 37:4.77522341224E-4 38:3.41087386588E-4 39:1.36434954635E-4 40:2.04652431953E-4 41:9.55044682448E-4 42:0.00170543693294 43:2.04652431953E-4 44:0.00511631079883 45:1.36434954635E-4 46:6.82174773177E-5 47:1.36434954635E-4 48:0.00334265638857 49:4.09304863906E-4 50:3.41087386588E-4 51:3.41087386588E-4 52:4.09304863906E-4 53:1.36434954635E-4 54:6.82174773177E-5 55:2.72869909271E-4 56:6.82174773177E-5 57:3.41087386588E-4 58:4.09304863906E-4 59:6.82174773177E-5 60:2.72869909271E-4 61:2.72869909271E-4 62:2.72869909271E-4 63:0.0 64:0.00163721945562 65:0.00177365441026 66:4.09304863906E-4 67:4.77522341224E-4 68:1.36434954635E-4 69:4.09304863906E-4 70:4.09304863906E-4 71:6.82174773177E-5 72:2.04652431953E-4 73:3.41087386588E-4 74:3.41087386588E-4 75:1.36434954635E-4 76:2.72869909271E-4 77:2.04652431953E-4 78:0.0 79:1.36434954635E-4 80:1.36434954635E-4 81:3.41087386588E-4 82:6.82174773177E-5 83:2.72869909271E-4 84:2.72869909271E-4 85:4.09304863906E-4 86:2.04652431953E-4 87:6.82174773177E-5 88:2.72869909271E-4 89:6.82174773177E-5 90:2.04652431953E-4 91:0.0 92:1.36434954635E-4 93:6.82174773177E-5 94:6.82174773177E-5 95:2.72869909271E-4 96:6.82174773177E-4 97:6.13957295859E-4 98:7.50392250495E-4 99:4.09304863906E-4 100:3.41087386588E-4 101:1.36434954635E-4 102:1.36434954635E-4 103:1.36434954635E-4 104:1.36434954635E-4 105:0.00648066034518 106:0.0189644586943 107:6.13957295859E-4 108:0.0201241558087 109:6.13957295859E-4 110:4.77522341224E-4 111:3.41087386588E-4 112:0.00491165836687 113:4.77522341224E-4 114:2.72869909271E-4 115:6.82174773177E-5 116:2.72869909271E-4 117:6.82174773177E-5 118:1.36434954635E-4 119:0.0 120:2.72869909271E-4 121:6.13957295859E-4 122:8.8682720513E-4 123:2.04652431953E-4 124:0.00259226413807 125:6.82174773177E-5 126:2.04652431953E-4 127:2.72869909271E-4 128:0.00777679241422 129:0.00204652431953 130:6.82174773177E-5 131:6.82174773177E-4 132:6.82174773177E-5 133:4.09304863906E-4 134:2.72869909271E-4 135:6.82174773177E-5 136:0.0 137:0.00143256702367 138:2.04652431953E-4 139:6.82174773177E-4 140:2.72869909271E-4 141:4.77522341224E-4 142:6.82174773177E-5 143:2.04652431953E-4 144:6.82174773177E-5 145:8.18609727812E-4 146:2.72869909271E-4 147:2.72869909271E-4 148:6.82174773177E-5 149:0.0019100893649 150:1.36434954635E-4 151:0.00382017872979 152:0.00204652431953 153:1.36434954635E-4 154:0.0 155:2.04652431953E-4 156:2.04652431953E-4 157:2.72869909271E-4 158:1.36434954635E-4 159:2.04652431953E-4 160:5.45739818542E-4 161:4.77522341224E-4 162:5.45739818542E-4 163:1.36434954635E-4 164:2.72869909271E-4 165:2.04652431953E-4 166:2.04652431953E-4 167:2.72869909271E-4 168:3.41087386588E-4 169:6.13957295859E-4 170:4.77522341224E-4 171:3.41087386588E-4 172:2.04652431953E-4 173:2.72869909271E-4 174:0.0 175:1.36434954635E-4 176:6.82174773177E-5 177:6.82174773177E-5 178:6.82174773177E-5 179:2.72869909271E-4 180:6.82174773177E-5 181:1.36434954635E-4 182:2.72869909271E-4 183:2.72869909271E-4 184:2.72869909271E-4 185:3.41087386588E-4 186:4.77522341224E-4 187:1.36434954635E-4 188:4.77522341224E-4 189:1.36434954635E-4 190:2.04652431953E-4 191:2.72869909271E-4 192:0.00197830684221 193:5.45739818542E-4 194:1.36434954635E-4 195:2.04652431953E-4 196:1.36434954635E-4 197:2.72869909271E-4 198:2.72869909271E-4 199:4.09304863906E-4 200:2.04652431953E-4 201:3.41087386588E-4 202:6.82174773177E-4 203:2.04652431953E-4 204:6.82174773177E-5 205:2.72869909271E-4 206:2.72869909271E-4 207:1.36434954635E-4 208:2.04652431953E-4 209:0.00197830684221 210:2.04652431953E-4 211:1.36434954635E-4 212:6.82174773177E-5 213:0.00443413602565 214:3.41087386588E-4 215:0.00559383314005 216:0.00163721945562 217:1.36434954635E-4 218:0.0 219:2.04652431953E-4 220:6.82174773177E-5 221:1.36434954635E-4 222:4.09304863906E-4 223:0.00150078450099 224:0.00382017872979 225:7.50392250495E-4 226:2.72869909271E-4 227:4.09304863906E-4 228:1.36434954635E-4 229:4.09304863906E-4 230:2.72869909271E-4 231:2.72869909271E-4 232:2.04652431953E-4 233:0.00777679241422 234:0.0185551538304 235:6.13957295859E-4 236:0.0182822839211 237:5.45739818542E-4 238:6.82174773177E-4 239:6.13957295859E-4 240:0.00477522341224 241:0.00177365441026 242:2.04652431953E-4 243:3.41087386588E-4 244:2.72869909271E-4 245:0.00368374377516 246:2.04652431953E-4 247:0.00238761170612 248:0.00252404666075 249:0.0053891807081 250:0.0102326215977 251:0.00122791459172 252:0.0411351388226 253:0.00245582918344 254:0.00341087386588 255:0.00627600791323 256:0.667030493212 
1024.0 1:0.011296969697 2:0.0017696969697 3:0.00138181818182 4:3.39393939394E-4 5:0.00164848484848 6:4.84848484848E-4 7:4.36363636364E-4 8:0.00140606060606 9:0.00162424242424 10:4.60606060606E-4 11:4.36363636364E-4 12:0.00298181818182 13:7.0303030303E-4 14:2.18181818182E-4 15:3.15151515152E-4 16:0.0054303030303 17:0.00140606060606 18:7.0303030303E-4 19:1.69696969697E-4 20:2.42424242424E-4 21:4.84848484848E-4 22:2.18181818182E-4 23:0.00133333333333 24:0.00310303030303 25:8.0E-4 26:1.93939393939E-4 27:2.18181818182E-4 28:4.60606060606E-4 29:1.21212121212E-4 30:9.69696969697E-5 31:2.18181818182E-4 32:0.00758787878788 33:0.0017696969697 34:6.30303030303E-4 35:4.36363636364E-4 36:1.93939393939E-4 37:3.15151515152E-4 38:2.18181818182E-4 39:4.84848484848E-5 40:2.18181818182E-4 41:4.60606060606E-4 42:3.87878787879E-4 43:2.18181818182E-4 44:0.00203636363636 45:4.84848484848E-5 46:1.21212121212E-4 47:1.69696969697E-4 48:0.00470303030303 49:6.30303030303E-4 50:2.18181818182E-4 51:2.66666666667E-4 52:2.18181818182E-4 53:2.18181818182E-4 54:9.69696969697E-5 55:1.93939393939E-4 56:2.18181818182E-4 57:9.69696969697E-5 58:1.93939393939E-4 59:1.45454545455E-4 60:1.69696969697E-4 61:9.69696969697E-5 62:7.27272727273E-5 63:3.15151515152E-4 64:0.00433939393939 65:0.00128484848485 66:3.63636363636E-4 67:4.12121212121E-4 68:1.21212121212E-4 69:2.42424242424E-4 70:1.69696969697E-4 71:1.21212121212E-4 72:1.93939393939E-4 73:2.90909090909E-4 74:1.45454545455E-4 75:7.27272727273E-5 76:1.21212121212E-4 77:9.69696969697E-5 78:9.69696969697E-5 79:7.27272727273E-5 80:1.93939393939E-4 81:3.39393939394E-4 82:1.93939393939E-4 83:1.21212121212E-4 84:1.45454545455E-4 85:2.18181818182E-4 86:1.21212121212E-4 87:1.69696969697E-4 88:1.21212121212E-4 89:2.66666666667E-4 90:7.27272727273E-5 91:2.42424242424E-5 92:7.27272727273E-5 93:1.69696969697E-4 94:1.21212121212E-4 95:1.93939393939E-4 96:7.51515151515E-4 97:3.63636363636E-4 98:1.93939393939E-4 99:1.93939393939E-4 100:1.21212121212E-4 101:1.21212121212E-4 102:1.69696969697E-4 103:1.21212121212E-4 104:1.21212121212E-4 105:0.00164848484848 106:0.00210909090909 107:4.84848484848E-5 108:0.00339393939394 109:4.84848484848E-5 110:9.69696969697E-5 111:1.93939393939E-4 112:0.00322424242424 113:3.39393939394E-4 114:1.69696969697E-4 115:2.42424242424E-5 116:1.93939393939E-4 117:2.18181818182E-4 118:2.90909090909E-4 119:9.69696969697E-5 120:6.06060606061E-4 121:2.66666666667E-4 122:9.69696969697E-5 123:1.45454545455E-4 124:8.72727272727E-4 125:1.45454545455E-4 126:1.21212121212E-4 127:1.93939393939E-4 128:0.0108121212121 129:0.0016 130:3.39393939394E-4 131:2.66666666667E-4 132:7.27272727273E-5 133:3.39393939394E-4 134:1.45454545455E-4 135:1.21212121212E-4 136:1.45454545455E-4 137:5.57575757576E-4 138:1.45454545455E-4 139:1.69696969697E-4 140:1.45454545455E-4 141:3.39393939394E-4 142:1.45454545455E-4 143:1.21212121212E-4 144:3.87878787879E-4 145:4.12121212121E-4 146:1.69696969697E-4 147:2.42424242424E-4 148:4.84848484848E-5 149:4.60606060606E-4 150:2.42424242424E-5 151:9.93939393939E-4 152:0.0017696969697 153:1.45454545455E-4 154:2.42424242424E-5 155:4.84848484848E-5 156:1.93939393939E-4 157:4.84848484848E-5 158:0.0 159:2.42424242424E-5 160:0.00237575757576 161:6.30303030303E-4 162:2.42424242424E-4 163:1.93939393939E-4 164:1.21212121212E-4 165:2.18181818182E-4 166:1.21212121212E-4 167:1.69696969697E-4 168:2.18181818182E-4 169:1.45454545455E-4 170:1.69696969697E-4 171:2.42424242424E-5 172:1.21212121212E-4 173:1.45454545455E-4 174:9.69696969697E-5 175:1.21212121212E-4 176:1.21212121212E-4 177:2.66666666667E-4 178:1.69696969697E-4 179:1.21212121212E-4 180:1.69696969697E-4 181:1.21212121212E-4 182:4.84848484848E-5 183:0.0 184:2.66666666667E-4 185:2.18181818182E-4 186:7.27272727273E-5 187:1.21212121212E-4 188:2.66666666667E-4 189:9.69696969697E-5 190:1.69696969697E-4 191:2.42424242424E-4 192:0.00271515151515 193:3.39393939394E-4 194:9.69696969697E-5 195:9.69696969697E-5 196:7.27272727273E-5 197:1.93939393939E-4 198:7.27272727273E-5 199:7.27272727273E-5 200:1.21212121212E-4 201:2.90909090909E-4 202:4.84848484848E-5 203:4.84848484848E-5 204:1.45454545455E-4 205:1.45454545455E-4 206:2.18181818182E-4 207:9.69696969697E-5 208:3.63636363636E-4 209:0.00307878787879 210:1.45454545455E-4 211:4.84848484848E-5 212:1.45454545455E-4 213:0.00232727272727 214:1.21212121212E-4 215:0.00317575757576 216:0.00201212121212 217:1.69696969697E-4 218:3.15151515152E-4 219:9.69696969697E-5 220:2.42424242424E-4 221:2.66666666667E-4 222:2.90909090909E-4 223:8.72727272727E-4 224:0.0065696969697 225:0.00179393939394 226:1.93939393939E-4 227:1.21212121212E-4 228:4.84848484848E-5 229:9.69696969697E-5 230:4.84848484848E-5 231:9.69696969697E-5 232:2.18181818182E-4 233:0.00283636363636 234:0.00198787878788 235:1.93939393939E-4 236:0.00218181818182 237:2.66666666667E-4 238:1.45454545455E-4 239:3.87878787879E-4 240:0.00298181818182 241:0.00404848484848 242:1.21212121212E-4 243:1.45454545455E-4 244:2.66666666667E-4 245:0.00349090909091 246:3.63636363636E-4 247:0.00249696969697 248:0.00254545454545 249:0.00501818181818 250:0.00201212121212 251:0.00113939393939 252:0.0064 253:0.00295757575758 254:0.00269090909091 255:0.00775757575758 256:0.801066666667 
1024.0 1:0.0216584158416 2:0.00402227722772 3:0.00262995049505 4:6.18811881188E-4 5:0.00340346534653 6:9.28217821782E-4 7:0.0 8:0.00123762376238 9:0.00247524752475 10:4.64108910891E-4 11:3.09405940594E-4 12:0.00293935643564 13:0.00108292079208 14:0.0 15:1.54702970297E-4 16:0.00758044554455 17:0.00262995049505 18:6.18811881188E-4 19:3.09405940594E-4 20:3.09405940594E-4 21:6.18811881188E-4 22:0.0 23:0.00185643564356 24:0.00108292079208 25:0.00108292079208 26:3.09405940594E-4 27:1.54702970297E-4 28:4.64108910891E-4 29:0.0 30:3.09405940594E-4 31:3.09405940594E-4 32:0.0051051980198 33:0.00355816831683 34:0.00139232673267 35:9.28217821782E-4 36:1.54702970297E-4 37:9.28217821782E-4 38:4.64108910891E-4 39:3.09405940594E-4 40:4.64108910891E-4 41:0.00123762376238 42:9.28217821782E-4 43:7.73514851485E-4 44:9.28217821782E-4 45:4.64108910891E-4 46:0.0 47:7.73514851485E-4 48:0.00324876237624 49:7.73514851485E-4 50:4.64108910891E-4 51:4.64108910891E-4 52:4.64108910891E-4 53:3.09405940594E-4 54:3.09405940594E-4 55:4.64108910891E-4 56:1.54702970297E-4 57:3.09405940594E-4 58:0.0 59:3.09405940594E-4 60:7.73514851485E-4 61:1.54702970297E-4 62:1.54702970297E-4 63:3.09405940594E-4 64:0.00247524752475 65:0.00247524752475 66:9.28217821782E-4 67:7.73514851485E-4 68:1.54702970297E-4 69:0.00108292079208 70:0.00123762376238 71:1.54702970297E-4 72:1.54702970297E-4 73:4.64108910891E-4 74:1.54702970297E-4 75:1.54702970297E-4 76:0.0 77:3.09405940594E-4 78:4.64108910891E-4 79:0.0 80:1.54702970297E-4 81:4.64108910891E-4 82:6.18811881188E-4 83:1.54702970297E-4 84:1.54702970297E-4 85:6.18811881188E-4 86:1.54702970297E-4 87:0.0 88:1.54702970297E-4 89:3.09405940594E-4 90:3.09405940594E-4 91:1.54702970297E-4 92:1.54702970297E-4 93:0.0 94:4.64108910891E-4 95:1.54702970297E-4 96:9.28217821782E-4 97:7.73514851485E-4 98:6.18811881188E-4 99:0.0 100:0.0 101:3.09405940594E-4 102:1.54702970297E-4 103:1.54702970297E-4 104:0.0 105:0.00696163366337 106:0.0051051980198 107:4.64108910891E-4 108:0.0054146039604 109:1.54702970297E-4 110:0.0 111:6.18811881188E-4 112:0.00201113861386 113:3.09405940594E-4 114:1.54702970297E-4 115:4.64108910891E-4 116:1.54702970297E-4 117:1.54702970297E-4 118:4.64108910891E-4 119:1.54702970297E-4 120:0.00108292079208 121:1.54702970297E-4 122:0.0 123:0.0 124:0.00185643564356 125:9.28217821782E-4 126:6.18811881188E-4 127:4.64108910891E-4 128:0.00758044554455 129:0.00371287128713 130:0.00108292079208 131:7.73514851485E-4 132:4.64108910891E-4 133:0.00139232673267 134:3.09405940594E-4 135:1.54702970297E-4 136:6.18811881188E-4 137:0.00170173267327 138:3.09405940594E-4 139:0.0 140:0.0 141:6.18811881188E-4 142:3.09405940594E-4 143:3.09405940594E-4 144:0.0 145:4.64108910891E-4 146:4.64108910891E-4 147:0.0 148:0.0 149:3.09405940594E-4 150:0.0 151:0.00108292079208 152:0.00154702970297 153:7.73514851485E-4 154:1.54702970297E-4 155:1.54702970297E-4 156:3.09405940594E-4 157:0.0 158:0.0 159:1.54702970297E-4 160:0.00170173267327 161:0.00108292079208 162:4.64108910891E-4 163:6.18811881188E-4 164:6.18811881188E-4 165:4.64108910891E-4 166:7.73514851485E-4 167:4.64108910891E-4 168:6.18811881188E-4 169:3.09405940594E-4 170:1.54702970297E-4 171:4.64108910891E-4 172:4.64108910891E-4 173:3.09405940594E-4 174:0.0 175:3.09405940594E-4 176:9.28217821782E-4 177:6.18811881188E-4 178:1.54702970297E-4 179:6.18811881188E-4 180:4.64108910891E-4 181:4.64108910891E-4 182:3.09405940594E-4 183:4.64108910891E-4 184:7.73514851485E-4 185:1.54702970297E-4 186:0.0 187:4.64108910891E-4 188:6.18811881188E-4 189:3.09405940594E-4 190:4.64108910891E-4 191:9.28217821782E-4 192:0.00278465346535 193:7.73514851485E-4 194:4.64108910891E-4 195:1.54702970297E-4 196:1.54702970297E-4 197:4.64108910891E-4 198:1.54702970297E-4 199:1.54702970297E-4 200:0.0 201:3.09405940594E-4 202:3.09405940594E-4 203:0.0 204:4.64108910891E-4 205:6.18811881188E-4 206:0.0 207:0.0 208:3.09405940594E-4 209:0.00479579207921 210:9.28217821782E-4 211:3.09405940594E-4 212:1.54702970297E-4 213:0.00680693069307 214:7.73514851485E-4 215:7.73514851485E-4 216:0.00154702970297 217:1.54702970297E-4 218:1.54702970297E-4 219:6.18811881188E-4 220:4.64108910891E-4 221:4.64108910891E-4 222:6.18811881188E-4 223:0.00170173267327 224:0.00556930693069 225:9.28217821782E-4 226:9.28217821782E-4 227:3.09405940594E-4 228:1.54702970297E-4 229:4.64108910891E-4 230:1.54702970297E-4 231:1.54702970297E-4 232:4.64108910891E-4 233:0.00696163366337 234:0.00881806930693 235:1.54702970297E-4 236:0.00618811881188 237:0.0 238:0.0 239:7.73514851485E-4 240:0.00587871287129 241:0.00371287128713 242:1.54702970297E-4 243:1.54702970297E-4 244:4.64108910891E-4 245:0.00618811881188 246:9.28217821782E-4 247:0.00185643564356 248:0.00464108910891 249:0.00448638613861 250:0.00572400990099 251:0.00201113861386 252:0.0176361386139 253:0.00247524752475 254:0.00479579207921 255:0.00928217821782 256:0.696627475248 
1024.0 1:0.00720266780962 2:9.09480550706E-4 3:8.36303954672E-4 4:2.71798785269E-4 5:9.72203347307E-4 6:2.09075988668E-4 7:2.71798785269E-4 8:5.33143771104E-4 9:7.31765960338E-4 10:2.82252584702E-4 11:1.56806991501E-4 12:0.00164124651104 13:4.18151977336E-4 14:1.04537994334E-4 15:8.36303954672E-5 16:0.00234165107308 17:9.72203347307E-4 18:2.19529788101E-4 19:1.46353192068E-4 20:1.25445593201E-4 21:3.76336779603E-4 22:1.04537994334E-4 23:0.00213257508441 24:0.00208030608725 25:0.00105583374277 26:1.56806991501E-4 27:1.04537994334E-4 28:1.35899392634E-4 29:9.40841949006E-5 30:8.36303954672E-5 31:2.09075988668E-4 32:0.00651271704701 33:7.94488756939E-4 34:3.24067782436E-4 35:1.98622189235E-4 36:1.46353192068E-4 37:2.19529788101E-4 38:1.14991793767E-4 39:4.18151977336E-5 40:6.27227966004E-5 41:3.97244378469E-4 42:4.49513375636E-4 43:1.14991793767E-4 44:0.00201758329065 45:1.14991793767E-4 46:2.09075988668E-5 47:6.27227966004E-5 48:0.00259254225948 49:2.50891186402E-4 50:2.19529788101E-4 51:1.35899392634E-4 52:6.27227966004E-5 53:6.27227966004E-5 54:5.2268997167E-5 55:4.18151977336E-5 56:8.36303954672E-5 57:1.04537994334E-4 58:1.25445593201E-4 59:4.18151977336E-5 60:1.14991793767E-4 61:4.18151977336E-5 62:8.36303954672E-5 63:1.25445593201E-4 64:0.00316750122832 65:7.63127358638E-4 66:2.09075988668E-4 67:1.77714590368E-4 68:5.2268997167E-5 69:1.88168389801E-4 70:7.31765960338E-5 71:7.31765960338E-5 72:1.14991793767E-4 73:2.09075988668E-4 74:8.36303954672E-5 75:7.31765960338E-5 76:1.67260790934E-4 77:6.27227966004E-5 78:9.40841949006E-5 79:5.2268997167E-5 80:1.35899392634E-4 81:2.50891186402E-4 82:9.40841949006E-5 83:4.18151977336E-5 84:1.04537994334E-5 85:6.27227966004E-5 86:3.13613983002E-5 87:9.40841949006E-5 88:1.14991793767E-4 89:1.14991793767E-4 90:2.09075988668E-5 91:7.31765960338E-5 92:2.09075988668E-5 93:7.31765960338E-5 94:4.18151977336E-5 95:3.13613983002E-5 96:4.80874773937E-4 97:3.24067782436E-4 98:1.35899392634E-4 99:1.25445593201E-4 100:7.31765960338E-5 101:6.27227966004E-5 102:6.27227966004E-5 103:1.04537994334E-5 104:6.27227966004E-5 105:0.00159943131331 106:0.00142171672294 107:1.14991793767E-4 108:0.00401425898243 109:7.31765960338E-5 110:4.18151977336E-5 111:1.35899392634E-4 112:0.00257163466062 113:8.36303954672E-5 114:5.2268997167E-5 115:2.09075988668E-5 116:1.04537994334E-4 117:4.18151977336E-5 118:5.2268997167E-5 119:1.25445593201E-4 120:1.14991793767E-4 121:2.40437386968E-4 122:8.36303954672E-5 123:8.36303954672E-5 124:4.49513375636E-4 125:1.35899392634E-4 126:1.46353192068E-4 127:1.56806991501E-4 128:0.00771490398185 129:9.30388149573E-4 130:2.09075988668E-4 131:1.77714590368E-4 132:5.2268997167E-5 133:3.76336779603E-4 134:7.31765960338E-5 135:9.40841949006E-5 136:1.35899392634E-4 137:4.18151977336E-4 138:9.40841949006E-5 139:1.25445593201E-4 140:1.04537994334E-5 141:2.29983587535E-4 142:7.31765960338E-5 143:3.13613983002E-5 144:9.40841949006E-5 145:2.09075988668E-4 146:5.2268997167E-5 147:6.27227966004E-5 148:1.14991793767E-4 149:8.15396355806E-4 150:1.35899392634E-4 151:0.00255072706175 152:0.00290615624249 153:1.35899392634E-4 154:6.27227966004E-5 155:6.27227966004E-5 156:6.27227966004E-5 157:8.36303954672E-5 158:2.09075988668E-5 159:1.14991793767E-4 160:0.00298978663795 161:1.88168389801E-4 162:9.40841949006E-5 163:7.31765960338E-5 164:1.04537994334E-5 165:8.36303954672E-5 166:1.67260790934E-4 167:5.2268997167E-5 168:9.40841949006E-5 169:1.14991793767E-4 170:4.18151977336E-5 171:3.13613983002E-5 172:6.27227966004E-5 173:6.27227966004E-5 174:5.2268997167E-5 175:4.18151977336E-5 176:1.04537994334E-4 177:1.04537994334E-4 178:7.31765960338E-5 179:5.2268997167E-5 180:5.2268997167E-5 181:1.46353192068E-4 182:1.14991793767E-4 183:9.40841949006E-5 184:1.14991793767E-4 185:5.2268997167E-5 186:7.31765960338E-5 187:7.31765960338E-5 188:9.40841949006E-5 189:2.09075988668E-5 190:1.14991793767E-4 191:1.67260790934E-4 192:0.00175623830481 193:2.40437386968E-4 194:5.2268997167E-5 195:6.27227966004E-5 196:7.31765960338E-5 197:8.36303954672E-5 198:4.18151977336E-5 199:1.04537994334E-4 200:7.31765960338E-5 201:1.25445593201E-4 202:9.40841949006E-5 203:4.18151977336E-5 204:8.36303954672E-5 205:3.13613983002E-5 206:6.27227966004E-5 207:8.36303954672E-5 208:2.82252584702E-4 209:9.61749547873E-4 210:5.2268997167E-5 211:1.04537994334E-4 212:6.27227966004E-5 213:0.00123354833314 214:3.13613983002E-5 215:0.00413970457563 216:0.00238346627082 217:1.46353192068E-4 218:7.31765960338E-5 219:4.18151977336E-5 220:1.25445593201E-4 221:9.40841949006E-5 222:1.88168389801E-4 223:6.37681765438E-4 224:0.00703540701868 225:7.52673559205E-4 226:9.40841949006E-5 227:8.36303954672E-5 228:5.2268997167E-5 229:1.04537994334E-4 230:6.27227966004E-5 231:5.2268997167E-5 232:1.67260790934E-4 233:0.00304205563512 234:0.00223711307875 235:1.14991793767E-4 236:0.00214302888385 237:1.04537994334E-4 238:1.77714590368E-4 239:1.14991793767E-4 240:0.00214302888385 241:0.00170396930764 242:6.27227966004E-5 243:9.40841949006E-5 244:1.67260790934E-4 245:0.00153670851671 246:9.40841949006E-5 247:0.00197576809291 248:0.00224756687818 249:0.00771490398185 250:0.00298978663795 251:5.33143771104E-4 252:0.00656498604418 253:0.00277025684985 254:0.00185032249971 255:0.00636636385494 256:0.846757754106 
342.882362771711 1:0.0323955669224 2:0.00724637681159 3:0.00341005967604 4:8.52514919011E-4 5:0.00511508951407 6:0.0 7:0.0 8:0.00341005967604 9:0.00596760443308 10:0.00170502983802 11:4.26257459506E-4 12:0.00468883205456 13:0.00127877237852 14:4.26257459506E-4 15:0.0 16:0.00426257459506 17:0.00554134697357 18:0.00127877237852 19:0.00127877237852 20:0.0 21:4.26257459506E-4 22:0.0 23:0.00554134697357 24:0.00639386189258 25:0.00213128729753 26:0.00170502983802 27:4.26257459506E-4 28:4.26257459506E-4 29:4.26257459506E-4 30:8.52514919011E-4 31:4.26257459506E-4 32:0.00596760443308 33:0.00682011935209 34:0.00170502983802 35:0.0 36:0.00127877237852 37:8.52514919011E-4 38:4.26257459506E-4 39:4.26257459506E-4 40:4.26257459506E-4 41:8.52514919011E-4 42:0.00255754475703 43:8.52514919011E-4 44:0.00511508951407 45:0.0 46:8.52514919011E-4 47:4.26257459506E-4 48:0.00383631713555 49:0.00255754475703 50:8.52514919011E-4 51:0.00170502983802 52:0.0 53:4.26257459506E-4 54:0.0 55:4.26257459506E-4 56:4.26257459506E-4 57:8.52514919011E-4 58:0.0 59:8.52514919011E-4 60:8.52514919011E-4 61:0.0 62:0.0 63:0.0 64:0.00255754475703 65:0.00383631713555 66:0.00127877237852 67:0.00170502983802 68:0.00127877237852 69:8.52514919011E-4 70:0.00127877237852 71:0.0 72:0.0 73:4.26257459506E-4 74:4.26257459506E-4 75:4.26257459506E-4 76:8.52514919011E-4 77:8.52514919011E-4 78:4.26257459506E-4 79:4.26257459506E-4 80:0.0 81:0.0 82:4.26257459506E-4 83:0.0 84:4.26257459506E-4 85:0.0 86:0.0 87:0.0 88:4.26257459506E-4 89:4.26257459506E-4 90:0.0 91:4.26257459506E-4 92:0.00127877237852 93:4.26257459506E-4 94:0.0 95:0.0 96:0.00213128729753 97:0.00213128729753 98:4.26257459506E-4 99:0.0 100:0.0 101:0.0 102:0.0 103:0.0 104:4.26257459506E-4 105:0.0115089514066 106:0.0123614663257 107:8.52514919011E-4 108:0.0102301790281 109:4.26257459506E-4 110:0.00170502983802 111:0.00127877237852 112:0.00511508951407 113:4.26257459506E-4 114:0.00127877237852 115:0.0 116:4.26257459506E-4 117:0.0 118:4.26257459506E-4 119:8.52514919011E-4 120:4.26257459506E-4 121:8.52514919011E-4 122:0.00127877237852 123:8.52514919011E-4 124:0.00298380221654 125:0.0 126:8.52514919011E-4 127:0.0 128:0.0144927536232 129:0.00511508951407 130:4.26257459506E-4 131:0.00170502983802 132:4.26257459506E-4 133:0.0 134:0.00170502983802 135:0.0 136:8.52514919011E-4 137:0.00255754475703 138:8.52514919011E-4 139:4.26257459506E-4 140:4.26257459506E-4 141:4.26257459506E-4 142:4.26257459506E-4 143:0.00127877237852 144:0.0 145:8.52514919011E-4 146:0.0 147:0.0 148:8.52514919011E-4 149:0.00298380221654 150:0.0 151:0.00724637681159 152:0.00596760443308 153:4.26257459506E-4 154:0.0 155:0.0 156:4.26257459506E-4 157:8.52514919011E-4 158:8.52514919011E-4 159:0.0 160:0.00298380221654 161:8.52514919011E-4 162:8.52514919011E-4 163:0.0 164:0.0 165:0.0 166:4.26257459506E-4 167:8.52514919011E-4 168:0.0 169:4.26257459506E-4 170:4.26257459506E-4 171:4.26257459506E-4 172:4.26257459506E-4 173:4.26257459506E-4 174:0.00127877237852 175:0.0 176:0.00127877237852 177:4.26257459506E-4 178:4.26257459506E-4 179:8.52514919011E-4 180:4.26257459506E-4 181:4.26257459506E-4 182:0.0 183:0.0 184:4.26257459506E-4 185:8.52514919011E-4 186:4.26257459506E-4 187:0.0 188:4.26257459506E-4 189:4.26257459506E-4 190:0.00127877237852 191:8.52514919011E-4 192:0.0076726342711 193:0.00170502983802 194:0.00170502983802 195:0.00127877237852 196:0.0 197:4.26257459506E-4 198:4.26257459506E-4 199:4.26257459506E-4 200:4.26257459506E-4 201:8.52514919011E-4 202:4.26257459506E-4 203:4.26257459506E-4 204:4.26257459506E-4 205:4.26257459506E-4 206:4.26257459506E-4 207:4.26257459506E-4 208:0.0 209:0.00213128729753 210:4.26257459506E-4 211:8.52514919011E-4 212:0.0 213:0.00127877237852 214:4.26257459506E-4 215:0.0076726342711 216:0.00639386189258 217:0.0 218:8.52514919011E-4 219:8.52514919011E-4 220:8.52514919011E-4 221:0.00127877237852 222:0.0 223:0.00255754475703 224:0.0106564364876 225:0.00255754475703 226:0.0 227:8.52514919011E-4 228:0.00127877237852 229:4.26257459506E-4 230:8.52514919011E-4 231:0.0 232:8.52514919011E-4 233:0.00980392156863 234:0.0166240409207 235:0.0 236:0.0119352088662 237:0.00127877237852 238:0.00170502983802 239:4.26257459506E-4 240:0.0123614663257 241:0.00213128729753 242:4.26257459506E-4 243:4.26257459506E-4 244:0.00213128729753 245:0.00298380221654 246:8.52514919011E-4 247:0.00383631713555 248:0.00639386189258 249:0.00895140664962 250:0.0106564364876 251:0.00298380221654 252:0.0319693094629 253:0.00383631713555 254:0.00937766410912 255:0.0115089514066 256:0.498294970162 
1024.0 1:0.00870934719269 2:0.00129144027089 3:9.76454838964E-4 4:4.09481061501E-4 5:0.00148043153004 6:2.99236160328E-4 7:2.83486888731E-4 8:5.03976691078E-4 9:0.00127569099929 10:3.93731789905E-4 11:2.20489802347E-4 12:0.00184266477675 13:3.62233246712E-4 14:1.88991259154E-4 15:2.0474053075E-4 16:0.00515001181195 17:0.00135443735727 18:3.14985431924E-4 19:2.67737617135E-4 20:1.10244901173E-4 21:4.09481061501E-4 22:7.87463579809E-5 23:0.00138593590046 24:0.00242538782581 25:4.40979604693E-4 26:1.57492715962E-4 27:1.10244901173E-4 28:2.36239073943E-4 29:9.44956295771E-5 30:3.14985431924E-5 31:1.88991259154E-4 32:0.00982754547602 33:0.00149618080164 34:4.72478147886E-4 35:4.09481061501E-4 36:1.73241987558E-4 37:2.99236160328E-4 38:1.2599417277E-4 39:1.57492715962E-4 40:1.10244901173E-4 41:2.83486888731E-4 42:7.40215765021E-4 43:7.87463579809E-5 44:0.00195290967793 45:1.2599417277E-4 46:1.57492715962E-5 47:4.72478147886E-5 48:0.00349633829435 49:4.40979604693E-4 50:3.46483975116E-4 51:1.10244901173E-4 52:7.87463579809E-5 53:1.10244901173E-4 54:6.29970863848E-5 55:1.2599417277E-4 56:9.44956295771E-5 57:1.2599417277E-4 58:1.88991259154E-4 59:3.14985431924E-5 60:2.0474053075E-4 61:1.10244901173E-4 62:1.10244901173E-4 63:1.57492715962E-4 64:0.00552799433026 65:8.97708480983E-4 66:2.36239073943E-4 67:2.67737617135E-4 68:1.73241987558E-4 69:3.62233246712E-4 70:1.88991259154E-4 71:1.10244901173E-4 72:1.10244901173E-4 73:1.57492715962E-4 74:1.2599417277E-4 75:1.57492715962E-5 76:1.41743444366E-4 77:1.2599417277E-4 78:1.57492715962E-5 79:7.87463579809E-5 80:1.88991259154E-4 81:2.51988345539E-4 82:2.0474053075E-4 83:1.2599417277E-4 84:1.10244901173E-4 85:3.14985431924E-5 86:6.29970863848E-5 87:1.2599417277E-4 88:1.10244901173E-4 89:1.2599417277E-4 90:7.87463579809E-5 91:6.29970863848E-5 92:9.44956295771E-5 93:6.29970863848E-5 94:7.87463579809E-5 95:6.29970863848E-5 96:7.40215765021E-4 97:1.88991259154E-4 98:1.73241987558E-4 99:7.87463579809E-5 100:7.87463579809E-5 101:7.87463579809E-5 102:7.87463579809E-5 103:7.87463579809E-5 104:4.72478147886E-5 105:0.00138593590046 106:0.00209465312229 107:4.72478147886E-5 108:0.00313410504764 109:9.44956295771E-5 110:9.44956295771E-5 111:1.73241987558E-4 112:0.00322860067722 113:1.10244901173E-4 114:1.57492715962E-4 115:6.29970863848E-5 116:1.2599417277E-4 117:1.10244901173E-4 118:7.87463579809E-5 119:6.29970863848E-5 120:2.99236160328E-4 121:1.57492715962E-4 122:1.10244901173E-4 123:1.2599417277E-4 124:6.14221592251E-4 125:9.44956295771E-5 126:1.73241987558E-4 127:3.46483975116E-4 128:0.0114812189936 129:0.00149618080164 130:2.51988345539E-4 131:3.3073470352E-4 132:1.10244901173E-4 133:3.62233246712E-4 134:1.57492715962E-4 135:1.2599417277E-4 136:1.57492715962E-5 137:3.62233246712E-4 138:1.10244901173E-4 139:2.99236160328E-4 140:7.87463579809E-5 141:2.20489802347E-4 142:1.2599417277E-4 143:4.72478147886E-5 144:6.29970863848E-5 145:4.88227419482E-4 146:1.10244901173E-4 147:9.44956295771E-5 148:1.2599417277E-4 149:5.03976691078E-4 150:9.44956295771E-5 151:0.00212615166549 152:0.00190566186314 153:6.29970863848E-5 154:4.72478147886E-5 155:6.29970863848E-5 156:7.87463579809E-5 157:1.10244901173E-4 158:1.57492715962E-5 159:1.41743444366E-4 160:0.00281911961572 161:3.14985431924E-4 162:1.73241987558E-4 163:2.36239073943E-4 164:7.87463579809E-5 165:2.0474053075E-4 166:2.0474053075E-4 167:1.10244901173E-4 168:7.87463579809E-5 169:1.10244901173E-4 170:0.0 171:1.57492715962E-5 172:1.10244901173E-4 173:6.29970863848E-5 174:1.2599417277E-4 175:7.87463579809E-5 176:1.88991259154E-4 177:1.2599417277E-4 178:6.29970863848E-5 179:3.14985431924E-5 180:1.57492715962E-4 181:1.73241987558E-4 182:6.29970863848E-5 183:1.88991259154E-4 184:1.73241987558E-4 185:3.14985431924E-5 186:7.87463579809E-5 187:1.10244901173E-4 188:2.0474053075E-4 189:9.44956295771E-5 190:1.2599417277E-4 191:1.88991259154E-4 192:0.00236239073943 193:3.93731789905E-4 194:1.41743444366E-4 195:7.87463579809E-5 196:7.87463579809E-5 197:7.87463579809E-5 198:1.10244901173E-4 199:6.29970863848E-5 200:6.29970863848E-5 201:9.44956295771E-5 202:1.2599417277E-4 203:4.72478147886E-5 204:1.10244901173E-4 205:1.73241987558E-4 206:6.29970863848E-5 207:6.29970863848E-5 208:3.62233246712E-4 209:0.00143318371525 210:1.10244901173E-4 211:1.10244901173E-4 212:7.87463579809E-5 213:0.0020631545791 214:1.2599417277E-4 215:0.00242538782581 216:0.0020789038507 217:1.57492715962E-4 218:7.87463579809E-5 219:1.10244901173E-4 220:1.41743444366E-4 221:2.0474053075E-4 222:1.2599417277E-4 223:7.40215765021E-4 224:0.00639420426805 225:6.92967950232E-4 226:7.87463579809E-5 227:3.14985431924E-5 228:9.44956295771E-5 229:7.87463579809E-5 230:1.2599417277E-4 231:1.10244901173E-4 232:9.44956295771E-5 233:0.00182691550516 234:0.00140168517206 235:6.29970863848E-5 236:0.0016536735176 237:2.0474053075E-4 238:1.88991259154E-4 239:3.3073470352E-4 240:0.00236239073943 241:0.00259862981337 242:1.2599417277E-4 243:1.88991259154E-4 244:1.88991259154E-4 245:0.00209465312229 246:2.51988345539E-4 247:0.00228364438145 248:0.00242538782581 249:0.00365383101032 250:0.00177966769037 251:5.3547523427E-4 252:0.00459878730609 253:0.00264587762816 254:0.00217339948027 255:0.0065989447988 256:0.831341050476 
1024.0 1:0.0154002026342 2:0.00263424518744 3:0.00172239108409 4:3.03951367781E-4 5:0.00293819655522 6:7.09219858156E-4 7:2.02634245187E-4 8:0.00111448834853 9:0.00253292806484 10:7.09219858156E-4 11:4.05268490375E-4 12:0.00263424518744 13:7.09219858156E-4 14:0.0 15:4.05268490375E-4 16:0.00435663627153 17:0.00263424518744 18:1.01317122594E-4 19:7.09219858156E-4 20:4.05268490375E-4 21:9.11854103343E-4 22:2.02634245187E-4 23:0.00233029381966 24:0.00283687943262 25:0.00354609929078 26:1.01317122594E-4 27:1.01317122594E-4 28:1.01317122594E-4 29:0.0 30:0.0 31:1.01317122594E-4 32:0.00668693009119 33:0.00283687943262 34:0.00101317122594 35:7.09219858156E-4 36:1.01317122594E-4 37:2.02634245187E-4 38:3.03951367781E-4 39:0.0 40:2.02634245187E-4 41:3.03951367781E-4 42:0.00172239108409 43:2.02634245187E-4 44:0.0047619047619 45:2.02634245187E-4 46:2.02634245187E-4 47:1.01317122594E-4 48:0.00496453900709 49:5.06585612969E-4 50:8.1053698075E-4 51:1.01317122594E-4 52:1.01317122594E-4 53:4.05268490375E-4 54:2.02634245187E-4 55:3.03951367781E-4 56:1.01317122594E-4 57:4.05268490375E-4 58:1.01317122594E-4 59:0.0 60:3.03951367781E-4 61:1.01317122594E-4 62:1.01317122594E-4 63:5.06585612969E-4 64:0.00253292806484 65:0.00202634245187 66:4.05268490375E-4 67:0.00101317122594 68:2.02634245187E-4 69:8.1053698075E-4 70:7.09219858156E-4 71:0.0 72:2.02634245187E-4 73:6.07902735562E-4 74:2.02634245187E-4 75:0.0 76:1.01317122594E-4 77:1.01317122594E-4 78:0.0 79:1.01317122594E-4 80:2.02634245187E-4 81:2.02634245187E-4 82:3.03951367781E-4 83:4.05268490375E-4 84:1.01317122594E-4 85:1.01317122594E-4 86:0.0 87:6.07902735562E-4 88:1.01317122594E-4 89:2.02634245187E-4 90:1.01317122594E-4 91:1.01317122594E-4 92:3.03951367781E-4 93:0.0 94:0.0 95:1.01317122594E-4 96:6.07902735562E-4 97:5.06585612969E-4 98:2.02634245187E-4 99:4.05268490375E-4 100:1.01317122594E-4 101:1.01317122594E-4 102:3.03951367781E-4 103:1.01317122594E-4 104:3.03951367781E-4 105:0.00192502532928 106:0.00131712259372 107:1.01317122594E-4 108:0.0047619047619 109:0.0 110:2.02634245187E-4 111:2.02634245187E-4 112:0.00334346504559 113:3.03951367781E-4 114:1.01317122594E-4 115:0.0 116:3.03951367781E-4 117:0.0 118:1.01317122594E-4 119:0.0 120:2.02634245187E-4 121:2.02634245187E-4 122:1.01317122594E-4 123:1.01317122594E-4 124:9.11854103343E-4 125:0.0 126:4.05268490375E-4 127:6.07902735562E-4 128:0.0107396149949 129:0.00253292806484 130:2.02634245187E-4 131:5.06585612969E-4 132:2.02634245187E-4 133:8.1053698075E-4 134:0.0 135:4.05268490375E-4 136:2.02634245187E-4 137:2.02634245187E-4 138:2.02634245187E-4 139:6.07902735562E-4 140:3.03951367781E-4 141:7.09219858156E-4 142:1.01317122594E-4 143:1.01317122594E-4 144:2.02634245187E-4 145:3.03951367781E-4 146:3.03951367781E-4 147:2.02634245187E-4 148:3.03951367781E-4 149:0.00273556231003 150:2.02634245187E-4 151:0.00283687943262 152:0.00354609929078 153:3.03951367781E-4 154:1.01317122594E-4 155:2.02634245187E-4 156:1.01317122594E-4 157:2.02634245187E-4 158:1.01317122594E-4 159:2.02634245187E-4 160:0.00303951367781 161:8.1053698075E-4 162:3.03951367781E-4 163:2.02634245187E-4 164:4.05268490375E-4 165:5.06585612969E-4 166:4.05268490375E-4 167:4.05268490375E-4 168:2.02634245187E-4 169:2.02634245187E-4 170:0.0 171:1.01317122594E-4 172:3.03951367781E-4 173:2.02634245187E-4 174:1.01317122594E-4 175:1.01317122594E-4 176:4.05268490375E-4 177:2.02634245187E-4 178:1.01317122594E-4 179:1.01317122594E-4 180:0.0 181:4.05268490375E-4 182:6.07902735562E-4 183:4.05268490375E-4 184:8.1053698075E-4 185:2.02634245187E-4 186:1.01317122594E-4 187:0.0 188:1.01317122594E-4 189:1.01317122594E-4 190:4.05268490375E-4 191:3.03951367781E-4 192:0.00334346504559 193:1.01317122594E-4 194:1.01317122594E-4 195:2.02634245187E-4 196:1.01317122594E-4 197:4.05268490375E-4 198:1.01317122594E-4 199:5.06585612969E-4 200:1.01317122594E-4 201:4.05268490375E-4 202:3.03951367781E-4 203:2.02634245187E-4 204:1.01317122594E-4 205:1.01317122594E-4 206:0.0 207:2.02634245187E-4 208:6.07902735562E-4 209:2.02634245187E-4 210:0.0 211:2.02634245187E-4 212:2.02634245187E-4 213:0.00222897669706 214:1.01317122594E-4 215:0.00982776089159 216:0.00243161094225 217:1.01317122594E-4 218:0.0 219:0.0 220:0.0 221:2.02634245187E-4 222:2.02634245187E-4 223:0.00141843971631 224:0.00770010131712 225:9.11854103343E-4 226:0.0 227:0.0 228:0.0 229:1.01317122594E-4 230:2.02634245187E-4 231:3.03951367781E-4 232:2.02634245187E-4 233:0.00334346504559 234:0.00243161094225 235:2.02634245187E-4 236:0.00151975683891 237:2.02634245187E-4 238:6.07902735562E-4 239:2.02634245187E-4 240:0.00293819655522 241:0.00172239108409 242:2.02634245187E-4 243:2.02634245187E-4 244:5.06585612969E-4 245:8.1053698075E-4 246:2.02634245187E-4 247:0.00182370820669 248:0.00374873353597 249:0.0227963525836 250:0.003242147923 251:4.05268490375E-4 252:0.00749746707194 253:0.00202634245187 254:0.00202634245187 255:0.00607902735562 256:0.751469098278 
1024.0 1:0.00960866526904 2:0.00155291559904 3:0.00110645236431 4:1.35880114916E-4 5:0.00174703004892 6:3.68817454771E-4 7:3.29994564795E-4 8:0.00114527525429 9:0.00139762403913 10:3.29994564795E-4 11:3.29994564795E-4 12:0.00118409814427 13:3.68817454771E-4 14:7.76457799519E-5 15:2.13525894868E-4 16:0.00172761860393 17:0.00141703548412 18:4.46463234723E-4 19:2.71760229832E-4 20:2.71760229832E-4 21:2.71760229832E-4 22:1.35880114916E-4 23:0.00104821802935 24:0.00269819085333 25:4.65874679711E-4 26:9.70572249398E-5 27:1.35880114916E-4 28:1.55291559904E-4 29:2.13525894868E-4 30:1.16468669928E-4 31:9.70572249398E-5 32:0.00300877397313 33:0.00155291559904 34:4.46463234723E-4 35:5.24109014675E-4 36:9.70572249398E-5 37:3.49406009783E-4 38:1.74703004892E-4 39:3.88228899759E-5 40:7.76457799519E-5 41:3.29994564795E-4 42:5.62931904651E-4 43:7.76457799519E-5 44:0.00203820172374 45:9.70572249398E-5 46:7.76457799519E-5 47:1.55291559904E-4 48:0.00135880114916 49:5.43520459663E-4 50:2.52348784844E-4 51:2.91171674819E-4 52:2.13525894868E-4 53:9.70572249398E-5 54:5.82343349639E-5 55:9.70572249398E-5 56:2.32937339856E-4 57:1.16468669928E-4 58:3.88228899759E-5 59:7.76457799519E-5 60:1.16468669928E-4 61:7.76457799519E-5 62:7.76457799519E-5 63:9.70572249398E-5 64:0.00153350415405 65:0.00110645236431 66:3.68817454771E-4 67:5.43520459663E-4 68:2.52348784844E-4 69:4.27051789735E-4 70:1.9411444988E-4 71:9.70572249398E-5 72:7.76457799519E-5 73:4.46463234723E-4 74:9.70572249398E-5 75:5.82343349639E-5 76:5.82343349639E-5 77:1.74703004892E-4 78:3.88228899759E-5 79:9.70572249398E-5 80:3.88228899759E-5 81:3.29994564795E-4 82:2.13525894868E-4 83:5.82343349639E-5 84:1.35880114916E-4 85:7.76457799519E-5 86:7.76457799519E-5 87:1.55291559904E-4 88:1.16468669928E-4 89:7.76457799519E-5 90:5.82343349639E-5 91:5.82343349639E-5 92:7.76457799519E-5 93:9.70572249398E-5 94:7.76457799519E-5 95:5.82343349639E-5 96:6.59989129591E-4 97:3.88228899759E-4 98:1.35880114916E-4 99:1.16468669928E-4 100:1.16468669928E-4 101:3.88228899759E-5 102:5.82343349639E-5 103:7.76457799519E-5 104:1.9411444988E-5 105:0.00133938970417 106:0.00190232160882 107:7.76457799519E-5 108:0.00287289385822 109:1.16468669928E-4 110:1.74703004892E-4 111:1.16468669928E-4 112:0.00159173848901 113:2.13525894868E-4 114:5.82343349639E-5 115:3.88228899759E-5 116:1.9411444988E-4 117:1.16468669928E-4 118:1.9411444988E-4 119:9.70572249398E-5 120:4.46463234723E-4 121:9.70572249398E-5 122:1.74703004892E-4 123:7.76457799519E-5 124:5.24109014675E-4 125:1.74703004892E-4 126:3.10583119807E-4 127:1.74703004892E-4 128:0.00477521546704 129:0.00174703004892 130:3.88228899759E-4 131:3.88228899759E-4 132:1.55291559904E-4 133:5.82343349639E-4 134:2.13525894868E-4 135:1.9411444988E-4 136:7.76457799519E-5 137:5.04697569687E-4 138:1.35880114916E-4 139:2.32937339856E-4 140:1.16468669928E-4 141:3.49406009783E-4 142:9.70572249398E-5 143:1.74703004892E-4 144:1.35880114916E-4 145:3.68817454771E-4 146:2.32937339856E-4 147:1.55291559904E-4 148:7.76457799519E-5 149:7.76457799519E-4 150:3.88228899759E-5 151:0.00126174392422 152:0.00163056137899 153:1.9411444988E-4 154:7.76457799519E-5 155:5.82343349639E-5 156:1.74703004892E-4 157:5.82343349639E-5 158:1.9411444988E-5 159:1.16468669928E-4 160:0.00170820715894 161:3.68817454771E-4 162:2.13525894868E-4 163:1.16468669928E-4 164:1.35880114916E-4 165:2.32937339856E-4 166:1.55291559904E-4 167:1.16468669928E-4 168:1.55291559904E-4 169:1.9411444988E-4 170:9.70572249398E-5 171:9.70572249398E-5 172:1.16468669928E-4 173:1.74703004892E-4 174:9.70572249398E-5 175:5.82343349639E-5 176:2.52348784844E-4 177:5.82343349639E-5 178:7.76457799519E-5 179:9.70572249398E-5 180:1.16468669928E-4 181:1.35880114916E-4 182:2.13525894868E-4 183:1.35880114916E-4 184:1.55291559904E-4 185:3.88228899759E-5 186:5.82343349639E-5 187:1.35880114916E-4 188:1.74703004892E-4 189:5.82343349639E-5 190:7.76457799519E-5 191:3.10583119807E-4 192:0.00197996738877 193:2.71760229832E-4 194:9.70572249398E-5 195:9.70572249398E-5 196:9.70572249398E-5 197:1.16468669928E-4 198:3.88228899759E-5 199:1.16468669928E-4 200:1.35880114916E-4 201:7.76457799519E-5 202:1.16468669928E-4 203:3.88228899759E-5 204:9.70572249398E-5 205:2.13525894868E-4 206:1.74703004892E-4 207:1.74703004892E-4 208:2.71760229832E-4 209:0.00159173848901 210:1.35880114916E-4 211:1.16468669928E-4 212:1.16468669928E-4 213:0.00236819628853 214:3.88228899759E-5 215:0.00345523720786 216:0.00166938426896 217:1.9411444988E-4 218:1.16468669928E-4 219:7.76457799519E-5 220:2.52348784844E-4 221:1.35880114916E-4 222:3.68817454771E-4 223:5.82343349639E-4 224:0.00539638170665 225:8.34692134482E-4 226:1.16468669928E-4 227:1.9411444988E-5 228:1.16468669928E-4 229:1.35880114916E-4 230:7.76457799519E-5 231:1.35880114916E-4 232:2.32937339856E-4 233:0.0017664414939 234:0.00184408727386 235:5.82343349639E-5 236:0.00153350415405 237:1.74703004892E-4 238:2.13525894868E-4 239:2.91171674819E-4 240:0.0024264306235 241:0.00147526981909 242:1.35880114916E-4 243:7.76457799519E-5 244:2.52348784844E-4 245:0.0020964360587 246:2.71760229832E-4 247:0.00192173305381 248:0.00229055050858 249:0.00279524807827 250:0.00157232704403 251:6.79400574579E-4 252:0.00458110101716 253:0.00151409270906 254:0.00201879027875 255:0.00487227269198 256:0.858296451588 
1024.0 1:0.00960930277818 2:0.00153262297475 3:7.78475161777E-4 4:2.67600836861E-4 5:0.00148396827714 6:3.16255534472E-4 7:1.21636744028E-4 8:8.02802510582E-4 9:9.97421301027E-4 10:2.67600836861E-4 11:3.16255534472E-4 12:0.00150829562594 13:3.40582883277E-4 14:7.29820464166E-5 15:4.86546976111E-5 16:0.00170291441639 17:0.00124069478908 18:3.89237580888E-4 19:2.1894613925E-4 20:2.67600836861E-4 21:3.89237580888E-4 22:1.21636744028E-4 23:0.00182455116041 24:0.00270033571741 25:4.37892278499E-4 26:1.45964092833E-4 27:7.29820464166E-5 28:2.67600836861E-4 29:1.70291441639E-4 30:2.43273488055E-5 31:4.13564929694E-4 32:0.00501143385394 33:0.00148396827714 34:8.51457208193E-4 35:4.13564929694E-4 36:1.21636744028E-4 37:2.1894613925E-4 38:1.94618790444E-4 39:9.73093952221E-5 40:7.29820464166E-5 41:4.13564929694E-4 42:6.81165766555E-4 43:1.21636744028E-4 44:0.00223811609011 45:2.43273488055E-5 46:1.94618790444E-4 47:7.29820464166E-5 48:0.00136233153311 49:3.16255534472E-4 50:1.70291441639E-4 51:2.91928185666E-4 52:1.21636744028E-4 53:9.73093952221E-5 54:7.29820464166E-5 55:1.45964092833E-4 56:2.1894613925E-4 57:1.21636744028E-4 58:4.86546976111E-5 59:0.0 60:1.94618790444E-4 61:2.43273488055E-5 62:2.43273488055E-5 63:9.73093952221E-5 64:0.00182455116041 65:0.00119204009147 66:3.40582883277E-4 67:3.40582883277E-4 68:4.86546976111E-5 69:1.94618790444E-4 70:1.70291441639E-4 71:9.73093952221E-5 72:2.43273488055E-5 73:4.37892278499E-4 74:1.21636744028E-4 75:7.29820464166E-5 76:1.21636744028E-4 77:7.29820464166E-5 78:1.21636744028E-4 79:7.29820464166E-5 80:7.29820464166E-5 81:2.67600836861E-4 82:4.86546976111E-5 83:9.73093952221E-5 84:0.0 85:9.73093952221E-5 86:1.21636744028E-4 87:2.67600836861E-4 88:1.21636744028E-4 89:9.73093952221E-5 90:2.43273488055E-5 91:9.73093952221E-5 92:7.29820464166E-5 93:2.43273488055E-5 94:9.73093952221E-5 95:4.86546976111E-5 96:5.35201673722E-4 97:5.59529022527E-4 98:2.1894613925E-4 99:7.29820464166E-5 100:1.21636744028E-4 101:1.70291441639E-4 102:4.86546976111E-5 103:7.29820464166E-5 104:7.29820464166E-5 105:0.00243273488055 106:0.00284629981025 107:1.21636744028E-4 108:0.00301659125189 109:1.21636744028E-4 110:7.29820464166E-5 111:2.43273488055E-4 112:0.00165425971878 113:4.86546976111E-5 114:9.73093952221E-5 115:4.86546976111E-5 116:2.43273488055E-5 117:4.86546976111E-5 118:1.45964092833E-4 119:7.29820464166E-5 120:2.67600836861E-4 121:3.16255534472E-4 122:9.73093952221E-5 123:2.43273488055E-5 124:0.00114338539386 125:7.29820464166E-5 126:2.43273488055E-4 127:1.94618790444E-4 128:0.00479248771469 129:0.00121636744028 130:2.91928185666E-4 131:4.86546976111E-4 132:4.86546976111E-5 133:4.86546976111E-4 134:4.86546976111E-5 135:1.70291441639E-4 136:4.86546976111E-5 137:3.16255534472E-4 138:1.70291441639E-4 139:7.29820464166E-5 140:1.21636744028E-4 141:3.16255534472E-4 142:1.21636744028E-4 143:4.86546976111E-5 144:4.86546976111E-5 145:4.86546976111E-4 146:2.43273488055E-5 147:1.21636744028E-4 148:4.86546976111E-5 149:0.00109473069625 150:7.29820464166E-5 151:0.00311390064711 152:0.00279764511264 153:9.73093952221E-5 154:7.29820464166E-5 155:2.43273488055E-5 156:7.29820464166E-5 157:9.73093952221E-5 158:4.86546976111E-5 159:1.70291441639E-4 160:0.00282197246144 161:4.37892278499E-4 162:2.1894613925E-4 163:2.1894613925E-4 164:1.45964092833E-4 165:2.1894613925E-4 166:1.45964092833E-4 167:1.21636744028E-4 168:1.21636744028E-4 169:7.29820464166E-5 170:1.21636744028E-4 171:2.67600836861E-4 172:3.16255534472E-4 173:9.73093952221E-5 174:1.70291441639E-4 175:9.73093952221E-5 176:4.86546976111E-5 177:4.86546976111E-5 178:4.86546976111E-5 179:1.45964092833E-4 180:1.45964092833E-4 181:4.86546976111E-5 182:9.73093952221E-5 183:7.29820464166E-5 184:1.45964092833E-4 185:1.21636744028E-4 186:9.73093952221E-5 187:1.70291441639E-4 188:2.43273488055E-4 189:1.94618790444E-4 190:7.29820464166E-5 191:1.94618790444E-4 192:0.00194618790444 193:3.16255534472E-4 194:1.45964092833E-4 195:2.43273488055E-5 196:1.45964092833E-4 197:1.21636744028E-4 198:7.29820464166E-5 199:2.91928185666E-4 200:7.29820464166E-5 201:2.1894613925E-4 202:9.73093952221E-5 203:1.45964092833E-4 204:2.1894613925E-4 205:7.29820464166E-5 206:7.29820464166E-5 207:1.70291441639E-4 208:2.1894613925E-4 209:0.00116771274267 210:2.1894613925E-4 211:1.21636744028E-4 212:9.73093952221E-5 213:0.00192186055564 214:1.21636744028E-4 215:0.00474383301708 216:0.00216513404369 217:1.94618790444E-4 218:1.70291441639E-4 219:7.29820464166E-5 220:5.83856371333E-4 221:2.43273488055E-5 222:2.91928185666E-4 223:6.08183720138E-4 224:0.00639809273585 225:5.10874324916E-4 226:1.21636744028E-4 227:4.86546976111E-5 228:2.43273488055E-5 229:4.86546976111E-5 230:7.29820464166E-5 231:4.86546976111E-5 232:2.1894613925E-4 233:0.00481681506349 234:0.0035274655768 235:1.21636744028E-4 236:0.00267600836861 237:2.67600836861E-4 238:2.1894613925E-4 239:2.43273488055E-4 240:0.00243273488055 241:0.00211647934608 242:2.91928185666E-4 243:1.45964092833E-4 244:2.91928185666E-4 245:0.00153262297475 246:4.86546976111E-5 247:0.00187320585803 248:0.00204349729966 249:0.0083686079891 250:0.00433026808738 251:9.2443925461E-4 252:0.00922006519729 253:0.00294360920547 254:0.00204349729966 255:0.00647107478227 256:0.827640733713 
1024.0 1:0.0198588973086 2:0.00352756728508 3:0.00235171152339 4:0.00104520512151 5:0.00365821792527 6:0.00117585576169 7:2.61301280376E-4 8:0.00104520512151 9:0.00274366344395 10:0.00104520512151 11:9.14554481317E-4 12:0.0022210608832 13:2.61301280376E-4 14:7.83903841129E-4 15:3.91951920564E-4 16:0.00483407368696 17:0.00195975960282 18:2.61301280376E-4 19:6.53253200941E-4 20:2.61301280376E-4 21:2.61301280376E-4 22:3.91951920564E-4 23:0.0032662660047 24:0.00300496472433 25:5.22602560753E-4 26:1.30650640188E-4 27:0.0 28:2.61301280376E-4 29:1.30650640188E-4 30:2.61301280376E-4 31:1.30650640188E-4 32:0.011105304416 33:0.00313561536452 34:0.00104520512151 35:6.53253200941E-4 36:3.91951920564E-4 37:3.91951920564E-4 38:1.30650640188E-4 39:3.91951920564E-4 40:0.0 41:5.22602560753E-4 42:0.00130650640188 43:6.53253200941E-4 44:0.00457277240658 45:5.22602560753E-4 46:1.30650640188E-4 47:0.0 48:0.00496472432715 49:0.00104520512151 50:3.91951920564E-4 51:6.53253200941E-4 52:2.61301280376E-4 53:0.0 54:1.30650640188E-4 55:5.22602560753E-4 56:5.22602560753E-4 57:3.91951920564E-4 58:1.30650640188E-4 59:2.61301280376E-4 60:1.30650640188E-4 61:1.30650640188E-4 62:1.30650640188E-4 63:1.30650640188E-4 64:0.0044421217664 65:7.83903841129E-4 66:0.00117585576169 67:3.91951920564E-4 68:3.91951920564E-4 69:7.83903841129E-4 70:5.22602560753E-4 71:0.0 72:2.61301280376E-4 73:5.22602560753E-4 74:2.61301280376E-4 75:1.30650640188E-4 76:3.91951920564E-4 77:0.0 78:0.0 79:1.30650640188E-4 80:3.91951920564E-4 81:1.30650640188E-4 82:7.83903841129E-4 83:1.30650640188E-4 84:1.30650640188E-4 85:1.30650640188E-4 86:1.30650640188E-4 87:0.0 88:1.30650640188E-4 89:3.91951920564E-4 90:1.30650640188E-4 91:1.30650640188E-4 92:2.61301280376E-4 93:3.91951920564E-4 94:1.30650640188E-4 95:3.91951920564E-4 96:0.0022210608832 97:5.22602560753E-4 98:3.91951920564E-4 99:3.91951920564E-4 100:1.30650640188E-4 101:1.30650640188E-4 102:3.91951920564E-4 103:0.0 104:1.30650640188E-4 105:0.00287431408414 106:0.00104520512151 107:2.61301280376E-4 108:0.00352756728508 109:1.30650640188E-4 110:1.30650640188E-4 111:1.30650640188E-4 112:0.00274366344395 113:5.22602560753E-4 114:2.61301280376E-4 115:3.91951920564E-4 116:2.61301280376E-4 117:1.30650640188E-4 118:2.61301280376E-4 119:3.91951920564E-4 120:1.30650640188E-4 121:0.0 122:0.0 123:1.30650640188E-4 124:0.00143715704207 125:2.61301280376E-4 126:6.53253200941E-4 127:5.22602560753E-4 128:0.0099294486543 129:0.00300496472433 130:0.00104520512151 131:5.22602560753E-4 132:1.30650640188E-4 133:7.83903841129E-4 134:1.30650640188E-4 135:5.22602560753E-4 136:2.61301280376E-4 137:7.83903841129E-4 138:1.30650640188E-4 139:2.61301280376E-4 140:0.0 141:3.91951920564E-4 142:2.61301280376E-4 143:2.61301280376E-4 144:5.22602560753E-4 145:0.00143715704207 146:6.53253200941E-4 147:1.30650640188E-4 148:1.30650640188E-4 149:0.00143715704207 150:2.61301280376E-4 151:0.00195975960282 152:0.0032662660047 153:2.61301280376E-4 154:2.61301280376E-4 155:1.30650640188E-4 156:1.30650640188E-4 157:3.91951920564E-4 158:1.30650640188E-4 159:0.0 160:0.00418082048602 161:0.00143715704207 162:2.61301280376E-4 163:2.61301280376E-4 164:2.61301280376E-4 165:1.30650640188E-4 166:2.61301280376E-4 167:1.30650640188E-4 168:5.22602560753E-4 169:5.22602560753E-4 170:1.30650640188E-4 171:0.0 172:1.30650640188E-4 173:0.0 174:1.30650640188E-4 175:2.61301280376E-4 176:6.53253200941E-4 177:0.0 178:2.61301280376E-4 179:2.61301280376E-4 180:3.91951920564E-4 181:1.30650640188E-4 182:0.0 183:2.61301280376E-4 184:9.14554481317E-4 185:1.30650640188E-4 186:1.30650640188E-4 187:1.30650640188E-4 188:3.91951920564E-4 189:1.30650640188E-4 190:1.30650640188E-4 191:5.22602560753E-4 192:0.00339691664489 193:3.91951920564E-4 194:2.61301280376E-4 195:2.61301280376E-4 196:1.30650640188E-4 197:1.30650640188E-4 198:3.91951920564E-4 199:2.61301280376E-4 200:1.30650640188E-4 201:2.61301280376E-4 202:0.0 203:1.30650640188E-4 204:0.0 205:5.22602560753E-4 206:2.61301280376E-4 207:2.61301280376E-4 208:1.30650640188E-4 209:0.00352756728508 210:1.30650640188E-4 211:2.61301280376E-4 212:5.22602560753E-4 213:0.00313561536452 214:2.61301280376E-4 215:0.00522602560753 216:0.00313561536452 217:5.22602560753E-4 218:3.91951920564E-4 219:5.22602560753E-4 220:0.0 221:2.61301280376E-4 222:2.61301280376E-4 223:0.00117585576169 224:0.0105827018552 225:0.00287431408414 226:2.61301280376E-4 227:1.30650640188E-4 228:1.30650640188E-4 229:0.0 230:3.91951920564E-4 231:0.0 232:1.30650640188E-4 233:0.00587927880847 234:0.00522602560753 235:2.61301280376E-4 236:0.0022210608832 237:1.30650640188E-4 238:1.30650640188E-4 239:5.22602560753E-4 240:0.00378886856546 241:0.00313561536452 242:2.61301280376E-4 243:2.61301280376E-4 244:5.22602560753E-4 245:0.00457277240658 246:5.22602560753E-4 247:0.00287431408414 248:0.00378886856546 249:0.0141102691403 250:0.00483407368696 251:0.00117585576169 252:0.00966814737392 253:0.00418082048602 254:0.00300496472433 255:0.00796968905148 256:0.710739482623 
1024.0 1:0.0116594259404 2:0.00148527718986 3:0.0015224091196 4:3.71319297464E-5 5:0.00248783929301 6:4.45583156957E-4 7:2.97055437971E-4 8:8.54034384167E-4 9:0.00159667297909 10:4.0845122721E-4 11:2.59923508225E-4 12:0.00122535368163 13:4.0845122721E-4 14:3.71319297464E-5 15:1.11395789239E-4 16:0.00141101333036 17:0.00170806876833 18:6.68374735435E-4 19:4.0845122721E-4 20:2.97055437971E-4 21:4.82715086703E-4 22:1.85659648732E-4 23:0.00308195016895 24:0.00441869963982 25:5.56978946196E-4 26:2.59923508225E-4 27:1.11395789239E-4 28:1.11395789239E-4 29:2.59923508225E-4 30:1.48527718986E-4 31:2.59923508225E-4 32:0.00430730385058 33:0.0020793880658 34:3.34187367718E-4 35:2.59923508225E-4 36:1.85659648732E-4 37:1.85659648732E-4 38:1.85659648732E-4 39:1.11395789239E-4 40:1.11395789239E-4 41:4.0845122721E-4 42:3.71319297464E-4 43:3.71319297464E-5 44:0.00189372841707 45:1.48527718986E-4 46:3.71319297464E-5 47:7.42638594928E-5 48:0.00144814526011 49:6.68374735435E-4 50:2.97055437971E-4 51:3.71319297464E-4 52:2.59923508225E-4 53:1.48527718986E-4 54:7.42638594928E-5 55:4.0845122721E-4 56:2.22791578478E-4 57:2.59923508225E-4 58:1.11395789239E-4 59:3.71319297464E-5 60:1.48527718986E-4 61:1.11395789239E-4 62:3.71319297464E-5 63:2.22791578478E-4 64:0.00163380490884 65:0.0015224091196 66:5.56978946196E-4 67:4.45583156957E-4 68:2.59923508225E-4 69:4.82715086703E-4 70:1.85659648732E-4 71:1.48527718986E-4 72:1.11395789239E-4 73:2.97055437971E-4 74:1.48527718986E-4 75:1.11395789239E-4 76:1.11395789239E-4 77:1.11395789239E-4 78:7.42638594928E-5 79:1.11395789239E-4 80:1.48527718986E-4 81:2.59923508225E-4 82:1.85659648732E-4 83:1.48527718986E-4 84:1.11395789239E-4 85:1.85659648732E-4 86:2.59923508225E-4 87:1.85659648732E-4 88:1.11395789239E-4 89:1.11395789239E-4 90:1.11395789239E-4 91:7.42638594928E-5 92:1.85659648732E-4 93:3.71319297464E-5 94:7.42638594928E-5 95:3.71319297464E-5 96:9.2829824366E-4 97:4.0845122721E-4 98:2.22791578478E-4 99:3.71319297464E-5 100:1.85659648732E-4 101:7.42638594928E-5 102:3.71319297464E-5 103:7.42638594928E-5 104:1.85659648732E-4 105:0.00170806876833 106:0.00193086034681 107:3.71319297464E-5 108:0.00167093683859 109:1.48527718986E-4 110:7.42638594928E-5 111:1.11395789239E-4 112:0.00129961754112 113:1.85659648732E-4 114:2.59923508225E-4 115:3.71319297464E-5 116:1.11395789239E-4 117:7.42638594928E-5 118:1.11395789239E-4 119:7.42638594928E-5 120:4.45583156957E-4 121:2.22791578478E-4 122:1.48527718986E-4 123:3.71319297464E-5 124:8.54034384167E-4 125:1.48527718986E-4 126:4.82715086703E-4 127:2.97055437971E-4 128:0.00508707437526 129:0.00189372841707 130:5.56978946196E-4 131:4.0845122721E-4 132:1.48527718986E-4 133:7.05506665181E-4 134:2.59923508225E-4 135:1.85659648732E-4 136:7.42638594928E-5 137:7.42638594928E-4 138:1.11395789239E-4 139:1.48527718986E-4 140:1.48527718986E-4 141:3.71319297464E-4 142:7.42638594928E-5 143:1.48527718986E-4 144:1.48527718986E-4 145:3.34187367718E-4 146:7.42638594928E-5 147:3.71319297464E-5 148:4.0845122721E-4 149:2.59923508225E-4 150:2.97055437971E-4 151:0.00434443578033 152:0.00367606104489 153:1.85659648732E-4 154:1.11395789239E-4 155:0.0 156:1.11395789239E-4 157:1.85659648732E-4 158:1.11395789239E-4 159:1.48527718986E-4 160:0.00226504771453 161:4.45583156957E-4 162:2.59923508225E-4 163:1.11395789239E-4 164:3.71319297464E-5 165:2.97055437971E-4 166:1.11395789239E-4 167:1.48527718986E-4 168:1.48527718986E-4 169:1.48527718986E-4 170:1.11395789239E-4 171:7.42638594928E-5 172:7.42638594928E-5 173:7.42638594928E-5 174:3.71319297464E-5 175:2.22791578478E-4 176:3.34187367718E-4 177:1.11395789239E-4 178:1.48527718986E-4 179:2.22791578478E-4 180:1.48527718986E-4 181:7.42638594928E-5 182:2.22791578478E-4 183:1.48527718986E-4 184:1.85659648732E-4 185:3.71319297464E-5 186:7.42638594928E-5 187:7.42638594928E-5 188:4.0845122721E-4 189:3.71319297464E-5 190:4.0845122721E-4 191:4.45583156957E-4 192:0.0030448182392 193:2.97055437971E-4 194:1.85659648732E-4 195:1.85659648732E-4 196:2.22791578478E-4 197:1.48527718986E-4 198:1.11395789239E-4 199:7.42638594928E-5 200:1.11395789239E-4 201:2.97055437971E-4 202:1.48527718986E-4 203:1.11395789239E-4 204:2.59923508225E-4 205:1.85659648732E-4 206:1.48527718986E-4 207:1.11395789239E-4 208:5.94110875942E-4 209:0.00167093683859 210:1.85659648732E-4 211:7.42638594928E-5 212:1.11395789239E-4 213:7.42638594928E-4 214:1.11395789239E-4 215:0.00174520069808 216:0.00233931157402 217:1.48527718986E-4 218:1.11395789239E-4 219:0.0 220:3.71319297464E-4 221:1.11395789239E-4 222:2.22791578478E-4 223:9.65430173406E-4 224:0.00701793472207 225:7.42638594928E-4 226:1.85659648732E-4 227:3.71319297464E-5 228:2.22791578478E-4 229:7.42638594928E-5 230:1.11395789239E-4 231:3.71319297464E-5 232:2.97055437971E-4 233:0.00397311648286 234:0.00211651999554 235:2.22791578478E-4 236:0.00163380490884 237:1.85659648732E-4 238:3.34187367718E-4 239:3.34187367718E-4 240:0.00241357543352 241:0.00278489473098 242:1.11395789239E-4 243:1.48527718986E-4 244:3.71319297464E-4 245:0.00204225613605 246:1.11395789239E-4 247:0.0025621031525 248:0.00263636701199 249:0.0147785080391 250:0.00252497122275 251:9.2829824366E-4 252:0.00530986595373 253:0.00419590806134 254:0.00233931157402 255:0.00820615647395 256:0.812780810219 
278.3504733530571 1:0.01802054155 2:0.00261437908497 3:0.00280112044818 4:8.40336134454E-4 5:0.00336134453782 6:6.53594771242E-4 7:3.73482726424E-4 8:0.00177404295051 9:0.00168067226891 10:7.46965452848E-4 11:4.6685340803E-4 12:0.00196078431373 13:0.00130718954248 14:0.0 15:2.80112044818E-4 16:0.00522875816993 17:0.00205415499533 18:0.00112044817927 19:5.60224089636E-4 20:4.6685340803E-4 21:7.46965452848E-4 22:5.60224089636E-4 23:0.00345471521942 24:0.00326797385621 25:0.0015873015873 26:1.86741363212E-4 27:9.3370681606E-5 28:1.86741363212E-4 29:3.73482726424E-4 30:9.3370681606E-5 31:9.3370681606E-5 32:0.00849673202614 33:0.00345471521942 34:8.40336134454E-4 35:8.40336134454E-4 36:1.86741363212E-4 37:2.80112044818E-4 38:5.60224089636E-4 39:4.6685340803E-4 40:3.73482726424E-4 41:8.40336134454E-4 42:9.3370681606E-4 43:1.86741363212E-4 44:0.00168067226891 45:0.0 46:1.86741363212E-4 47:1.86741363212E-4 48:0.00336134453782 49:8.40336134454E-4 50:6.53594771242E-4 51:2.80112044818E-4 52:9.3370681606E-5 53:1.86741363212E-4 54:1.86741363212E-4 55:9.3370681606E-5 56:2.80112044818E-4 57:2.80112044818E-4 58:1.86741363212E-4 59:9.3370681606E-5 60:4.6685340803E-4 61:9.3370681606E-5 62:0.0 63:2.80112044818E-4 64:0.00298786181139 65:0.00205415499533 66:7.46965452848E-4 67:0.00112044817927 68:1.86741363212E-4 69:0.00112044817927 70:2.80112044818E-4 71:3.73482726424E-4 72:1.86741363212E-4 73:9.3370681606E-4 74:4.6685340803E-4 75:1.86741363212E-4 76:3.73482726424E-4 77:9.3370681606E-5 78:1.86741363212E-4 79:1.86741363212E-4 80:2.80112044818E-4 81:4.6685340803E-4 82:3.73482726424E-4 83:0.0 84:9.3370681606E-5 85:8.40336134454E-4 86:0.0 87:2.80112044818E-4 88:4.6685340803E-4 89:9.3370681606E-5 90:3.73482726424E-4 91:9.3370681606E-5 92:2.80112044818E-4 93:0.0 94:9.3370681606E-5 95:2.80112044818E-4 96:0.00140056022409 97:2.80112044818E-4 98:7.46965452848E-4 99:1.86741363212E-4 100:3.73482726424E-4 101:0.0 102:2.80112044818E-4 103:0.0 104:0.0 105:0.00205415499533 106:0.00457516339869 107:2.80112044818E-4 108:0.00588235294118 109:9.3370681606E-5 110:4.6685340803E-4 111:0.0 112:0.0014939309057 113:3.73482726424E-4 114:3.73482726424E-4 115:1.86741363212E-4 116:7.46965452848E-4 117:0.0 118:3.73482726424E-4 119:9.3370681606E-5 120:4.6685340803E-4 121:2.80112044818E-4 122:5.60224089636E-4 123:2.80112044818E-4 124:0.00121381886088 125:5.60224089636E-4 126:5.60224089636E-4 127:3.73482726424E-4 128:0.00756302521008 129:0.00289449112979 130:9.3370681606E-4 131:2.80112044818E-4 132:3.73482726424E-4 133:0.00102707749767 134:2.80112044818E-4 135:1.86741363212E-4 136:9.3370681606E-5 137:6.53594771242E-4 138:1.86741363212E-4 139:1.86741363212E-4 140:3.73482726424E-4 141:3.73482726424E-4 142:0.0 143:2.80112044818E-4 144:6.53594771242E-4 145:5.60224089636E-4 146:1.86741363212E-4 147:2.80112044818E-4 148:2.80112044818E-4 149:0.00214752567694 150:0.0 151:0.00280112044818 152:0.0031746031746 153:1.86741363212E-4 154:2.80112044818E-4 155:2.80112044818E-4 156:2.80112044818E-4 157:4.6685340803E-4 158:2.80112044818E-4 159:4.6685340803E-4 160:0.003081232493 161:9.3370681606E-4 162:9.3370681606E-5 163:7.46965452848E-4 164:0.0 165:2.80112044818E-4 166:3.73482726424E-4 167:0.0 168:5.60224089636E-4 169:1.86741363212E-4 170:2.80112044818E-4 171:0.0 172:1.86741363212E-4 173:9.3370681606E-5 174:2.80112044818E-4 175:2.80112044818E-4 176:1.86741363212E-4 177:5.60224089636E-4 178:9.3370681606E-5 179:1.86741363212E-4 180:9.3370681606E-5 181:9.3370681606E-5 182:9.3370681606E-5 183:2.80112044818E-4 184:2.80112044818E-4 185:9.3370681606E-5 186:9.3370681606E-5 187:4.6685340803E-4 188:1.86741363212E-4 189:2.80112044818E-4 190:4.6685340803E-4 191:5.60224089636E-4 192:0.00457516339869 193:3.73482726424E-4 194:9.3370681606E-5 195:4.6685340803E-4 196:1.86741363212E-4 197:3.73482726424E-4 198:9.3370681606E-5 199:4.6685340803E-4 200:2.80112044818E-4 201:3.73482726424E-4 202:1.86741363212E-4 203:9.3370681606E-5 204:4.6685340803E-4 205:1.86741363212E-4 206:4.6685340803E-4 207:0.0 208:6.53594771242E-4 209:0.00177404295051 210:1.86741363212E-4 211:2.80112044818E-4 212:9.3370681606E-5 213:0.00681605975724 214:2.80112044818E-4 215:0.00830999066293 216:0.00345471521942 217:2.80112044818E-4 218:9.3370681606E-5 219:1.86741363212E-4 220:2.80112044818E-4 221:0.0 222:1.86741363212E-4 223:0.00186741363212 224:0.00868347338936 225:9.3370681606E-4 226:1.86741363212E-4 227:9.3370681606E-5 228:3.73482726424E-4 229:1.86741363212E-4 230:6.53594771242E-4 231:2.80112044818E-4 232:5.60224089636E-4 233:0.00177404295051 234:0.003081232493 235:0.0 236:0.00186741363212 237:1.86741363212E-4 238:4.6685340803E-4 239:3.73482726424E-4 240:0.00485527544351 241:0.00448179271709 242:2.80112044818E-4 243:1.86741363212E-4 244:0.00121381886088 245:0.00336134453782 246:5.60224089636E-4 247:0.00224089635854 248:0.0046685340803 249:0.00662931839402 250:0.00130718954248 251:0.00168067226891 252:0.00737628384687 253:0.00252100840336 254:0.00401493930906 255:0.00812324929972 256:0.730065359477 
1024.0 1:0.00821224979641 2:0.0013201320132 3:8.74373151601E-4 4:3.514637178E-4 5:0.0014058548712 6:3.343191462E-4 7:2.914577172E-4 8:4.2861429E-4 9:0.0011058248682 10:4.114697184E-4 11:3.42891432E-4 12:0.0016544511594 13:3.42891432E-4 14:1.200120012E-4 15:1.543011444E-4 16:0.0020059148772 17:9.17234580601E-4 18:4.114697184E-4 19:1.971625734E-4 20:9.42951438001E-5 21:3.42891432E-4 22:1.114397154E-4 23:0.0010458188676 24:0.0012601260126 25:5.14337148001E-4 26:1.114397154E-4 27:9.42951438001E-5 28:1.885902876E-4 29:1.28584287E-4 30:6.85782864001E-5 31:1.543011444E-4 32:0.0036689383224 33:0.0012686982984 34:3.85752861E-4 35:2.914577172E-4 36:2.228794308E-4 37:4.114697184E-4 38:1.371565728E-4 39:8.57228580001E-5 40:8.57228580001E-5 41:3.514637178E-4 42:5.22909433801E-4 43:1.885902876E-4 44:0.0017058848742 45:9.42951438001E-5 46:6.00060006001E-5 47:2.314517166E-4 48:0.0018173245896 49:3.943251468E-4 50:2.228794308E-4 51:1.800180018E-4 52:6.00060006001E-5 53:1.028674296E-4 54:9.42951438001E-5 55:5.14337148001E-5 56:9.42951438001E-5 57:1.28584287E-4 58:1.028674296E-4 59:6.85782864001E-5 60:1.71445716E-4 61:6.85782864001E-5 62:2.57168574E-5 63:9.42951438001E-5 64:0.00171445716 65:9.51523723801E-4 66:2.314517166E-4 67:1.971625734E-4 68:7.71505722001E-5 69:3.600360036E-4 70:1.114397154E-4 71:6.85782864001E-5 72:4.2861429E-5 73:1.971625734E-4 74:8.57228580001E-5 75:1.200120012E-4 76:1.28584287E-4 77:1.28584287E-4 78:5.14337148001E-5 79:4.2861429E-5 80:5.14337148001E-5 81:2.657408598E-4 82:1.628734302E-4 83:7.71505722001E-5 84:7.71505722001E-5 85:1.371565728E-4 86:8.57228580001E-5 87:1.371565728E-4 88:5.14337148001E-5 89:1.200120012E-4 90:6.85782864001E-5 91:1.71445716E-5 92:1.28584287E-4 93:3.42891432E-5 94:5.14337148001E-5 95:4.2861429E-5 96:4.114697184E-4 97:3.943251468E-4 98:7.71505722001E-5 99:5.14337148001E-5 100:6.85782864001E-5 101:9.42951438001E-5 102:9.42951438001E-5 103:1.028674296E-4 104:6.85782864001E-5 105:0.0014401440144 106:7.02927435601E-4 107:9.42951438001E-5 108:0.0021773605932 109:1.457288586E-4 110:8.57228580001E-5 111:3.42891432E-5 112:0.0016115897304 113:1.800180018E-4 114:5.14337148001E-5 115:3.42891432E-5 116:6.85782864001E-5 117:1.28584287E-4 118:1.028674296E-4 119:6.85782864001E-5 120:2.228794308E-4 121:1.628734302E-4 122:1.028674296E-4 123:2.57168574E-5 124:5.48626291201E-4 125:1.28584287E-4 126:1.543011444E-4 127:1.371565728E-4 128:0.0044661609018 129:0.0011744031546 130:2.57168574E-4 131:2.314517166E-4 132:5.14337148001E-5 133:4.71475719E-4 134:1.371565728E-4 135:1.543011444E-4 136:7.71505722001E-5 137:3.343191462E-4 138:9.42951438001E-5 139:1.457288586E-4 140:1.628734302E-4 141:2.057348592E-4 142:1.28584287E-4 143:5.14337148001E-5 144:1.543011444E-4 145:3.514637178E-4 146:9.42951438001E-5 147:1.71445716E-4 148:7.71505722001E-5 149:7.80078007801E-4 150:5.14337148001E-5 151:0.0017316017316 152:0.001071535725 153:1.028674296E-4 154:1.028674296E-4 155:6.85782864001E-5 156:7.71505722001E-5 157:9.42951438001E-5 158:2.57168574E-5 159:1.200120012E-4 160:0.0014058548712 161:3.257468604E-4 162:1.971625734E-4 163:6.00060006001E-5 164:7.71505722001E-5 165:1.371565728E-4 166:7.71505722001E-5 167:7.71505722001E-5 168:7.71505722001E-5 169:8.57228580001E-5 170:9.42951438001E-5 171:5.14337148001E-5 172:7.71505722001E-5 173:4.2861429E-5 174:7.71505722001E-5 175:7.71505722001E-5 176:1.457288586E-4 177:6.00060006001E-5 178:7.71505722001E-5 179:6.85782864001E-5 180:6.00060006001E-5 181:9.42951438001E-5 182:9.42951438001E-5 183:9.42951438001E-5 184:1.457288586E-4 185:6.85782864001E-5 186:6.00060006001E-5 187:6.00060006001E-5 188:1.885902876E-4 189:1.114397154E-4 190:8.57228580001E-5 191:1.885902876E-4 192:0.001500150015 193:3.257468604E-4 194:1.028674296E-4 195:7.71505722001E-5 196:2.57168574E-5 197:1.028674296E-4 198:7.71505722001E-5 199:8.57228580001E-5 200:6.00060006001E-5 201:1.457288586E-4 202:8.57228580001E-5 203:1.71445716E-5 204:7.71505722001E-5 205:8.57228580001E-5 206:6.00060006001E-5 207:6.85782864001E-5 208:1.800180018E-4 209:0.0011401140114 210:1.114397154E-4 211:1.628734302E-4 212:7.71505722001E-5 213:0.0015344391582 214:8.57228580001E-5 215:0.0028631434572 216:0.0014058548712 217:1.628734302E-4 218:7.71505722001E-5 219:6.00060006001E-5 220:1.885902876E-4 221:1.114397154E-4 222:2.314517166E-4 223:5.65770862801E-4 224:0.0038318117526 225:5.05764862201E-4 226:7.71505722001E-5 227:6.85782864001E-5 228:5.14337148001E-5 229:3.42891432E-5 230:6.85782864001E-5 231:9.42951438001E-5 232:9.42951438001E-5 233:0.0029917277442 234:0.001543011444 235:8.57228580001E-5 236:0.0015601560156 237:1.028674296E-4 238:1.628734302E-4 239:2.743131456E-4 240:0.0018601860186 241:0.001885902876 242:1.457288586E-4 243:8.57228580001E-5 244:1.71445716E-4 245:0.0017401740174 246:1.71445716E-4 247:0.001800180018 248:0.0017058848742 249:0.00751789464661 250:0.0023488063092 251:4.200420042E-4 252:0.0047919077622 253:0.0024088123098 254:0.0014058548712 255:0.00577772062921 256:0.870421327847 
1024.0 1:0.00949074074074 2:0.00171296296296 3:0.00113425925926 4:3.24074074074E-4 5:0.00148148148148 6:3.93518518519E-4 7:3.93518518519E-4 8:6.71296296296E-4 9:0.00150462962963 10:6.25E-4 11:3.24074074074E-4 12:0.0018287037037 13:3.47222222222E-4 14:1.15740740741E-4 15:1.15740740741E-4 16:0.00284722222222 17:0.00159722222222 18:5.55555555556E-4 19:3.7037037037E-4 20:2.31481481481E-4 21:4.62962962963E-4 22:1.38888888889E-4 23:0.00222222222222 24:0.00231481481481 25:4.86111111111E-4 26:1.38888888889E-4 27:1.38888888889E-4 28:9.25925925926E-5 29:1.15740740741E-4 30:2.31481481481E-5 31:9.25925925926E-5 32:0.00305555555556 33:0.00173611111111 34:5.09259259259E-4 35:5.78703703704E-4 36:1.38888888889E-4 37:3.24074074074E-4 38:2.5462962963E-4 39:1.62037037037E-4 40:2.31481481481E-5 41:3.47222222222E-4 42:0.00104166666667 43:4.62962962963E-5 44:0.00270833333333 45:2.31481481481E-4 46:6.94444444444E-5 47:1.85185185185E-4 48:0.00289351851852 49:4.16666666667E-4 50:2.5462962963E-4 51:1.62037037037E-4 52:1.85185185185E-4 53:1.62037037037E-4 54:9.25925925926E-5 55:1.85185185185E-4 56:1.38888888889E-4 57:9.25925925926E-5 58:1.85185185185E-4 59:6.94444444444E-5 60:1.62037037037E-4 61:2.31481481481E-5 62:6.94444444444E-5 63:9.25925925926E-5 64:0.00275462962963 65:0.00118055555556 66:4.62962962963E-4 67:9.72222222222E-4 68:1.62037037037E-4 69:2.77777777778E-4 70:1.85185185185E-4 71:1.15740740741E-4 72:4.62962962963E-5 73:2.77777777778E-4 74:2.08333333333E-4 75:1.62037037037E-4 76:2.08333333333E-4 77:1.15740740741E-4 78:9.25925925926E-5 79:6.94444444444E-5 80:1.38888888889E-4 81:1.15740740741E-4 82:2.08333333333E-4 83:1.38888888889E-4 84:1.15740740741E-4 85:1.15740740741E-4 86:9.25925925926E-5 87:1.62037037037E-4 88:2.31481481481E-4 89:1.38888888889E-4 90:1.15740740741E-4 91:2.31481481481E-5 92:1.38888888889E-4 93:2.31481481481E-5 94:1.38888888889E-4 95:9.25925925926E-5 96:6.71296296296E-4 97:3.93518518519E-4 98:2.31481481481E-4 99:1.15740740741E-4 100:9.25925925926E-5 101:1.15740740741E-4 102:1.38888888889E-4 103:1.38888888889E-4 104:9.25925925926E-5 105:0.00224537037037 106:0.0037962962963 107:1.62037037037E-4 108:0.00803240740741 109:2.5462962963E-4 110:1.62037037037E-4 111:1.38888888889E-4 112:0.00335648148148 113:1.38888888889E-4 114:6.94444444444E-5 115:4.62962962963E-5 116:1.85185185185E-4 117:1.38888888889E-4 118:1.38888888889E-4 119:1.85185185185E-4 120:3.7037037037E-4 121:1.62037037037E-4 122:1.38888888889E-4 123:4.62962962963E-5 124:7.87037037037E-4 125:6.94444444444E-5 126:4.86111111111E-4 127:3.00925925926E-4 128:0.0081712962963 129:0.00150462962963 130:3.93518518519E-4 131:3.7037037037E-4 132:1.15740740741E-4 133:3.93518518519E-4 134:1.15740740741E-4 135:9.25925925926E-5 136:6.94444444444E-5 137:6.01851851852E-4 138:1.62037037037E-4 139:2.77777777778E-4 140:9.25925925926E-5 141:1.85185185185E-4 142:1.15740740741E-4 143:1.38888888889E-4 144:1.85185185185E-4 145:5.78703703704E-4 146:2.31481481481E-4 147:1.85185185185E-4 148:6.94444444444E-5 149:7.63888888889E-4 150:1.38888888889E-4 151:0.00303240740741 152:0.00319444444444 153:1.62037037037E-4 154:1.38888888889E-4 155:1.15740740741E-4 156:1.15740740741E-4 157:1.62037037037E-4 158:4.62962962963E-5 159:1.85185185185E-4 160:0.00266203703704 161:4.62962962963E-4 162:2.77777777778E-4 163:1.15740740741E-4 164:1.85185185185E-4 165:1.38888888889E-4 166:1.38888888889E-4 167:4.62962962963E-5 168:6.94444444444E-5 169:2.31481481481E-4 170:1.62037037037E-4 171:9.25925925926E-5 172:9.25925925926E-5 173:9.25925925926E-5 174:0.0 175:1.85185185185E-4 176:2.31481481481E-4 177:4.62962962963E-5 178:6.94444444444E-5 179:1.38888888889E-4 180:2.08333333333E-4 181:4.62962962963E-5 182:1.15740740741E-4 183:2.08333333333E-4 184:2.77777777778E-4 185:4.62962962963E-5 186:6.94444444444E-5 187:9.25925925926E-5 188:1.62037037037E-4 189:9.25925925926E-5 190:2.08333333333E-4 191:3.93518518519E-4 192:0.0030787037037 193:4.62962962963E-4 194:1.38888888889E-4 195:1.85185185185E-4 196:1.15740740741E-4 197:2.31481481481E-4 198:2.31481481481E-5 199:1.38888888889E-4 200:2.08333333333E-4 201:1.38888888889E-4 202:2.08333333333E-4 203:4.62962962963E-5 204:3.24074074074E-4 205:2.77777777778E-4 206:3.00925925926E-4 207:9.25925925926E-5 208:1.85185185185E-4 209:0.00217592592593 210:6.94444444444E-5 211:1.85185185185E-4 212:6.94444444444E-5 213:0.00291666666667 214:6.94444444444E-5 215:0.00634259259259 216:0.00314814814815 217:1.62037037037E-4 218:9.25925925926E-5 219:6.94444444444E-5 220:2.5462962963E-4 221:1.38888888889E-4 222:1.62037037037E-4 223:0.00106481481481 224:0.00777777777778 225:5.55555555556E-4 226:9.25925925926E-5 227:9.25925925926E-5 228:6.94444444444E-5 229:1.38888888889E-4 230:1.38888888889E-4 231:9.25925925926E-5 232:1.62037037037E-4 233:0.00273148148148 234:0.00333333333333 235:1.15740740741E-4 236:0.00381944444444 237:1.38888888889E-4 238:1.38888888889E-4 239:4.16666666667E-4 240:0.00303240740741 241:0.00196759259259 242:6.94444444444E-5 243:1.62037037037E-4 244:3.47222222222E-4 245:0.00261574074074 246:2.31481481481E-4 247:0.003125 248:0.00303240740741 249:0.00356481481481 250:0.00324074074074 251:6.71296296296E-4 252:0.00967592592593 253:0.00229166666667 254:0.00293981481481 255:0.00763888888889 256:0.801458333333 
1024.0 1:0.00805094929104 2:0.00126839167935 3:8.67846938503E-4 4:4.40599214932E-4 5:0.00124168869663 6:3.60490266763E-4 7:2.80381318593E-4 8:6.67574568079E-4 9:0.00112152527437 10:3.20435792678E-4 11:1.46866404977E-4 12:0.00200272370424 13:4.53950706294E-4 14:8.01089481695E-5 15:9.34604395311E-5 16:0.00353814521082 17:0.00126839167935 18:3.20435792678E-4 19:2.40326844509E-4 20:8.01089481695E-5 21:4.40599214932E-4 22:5.34059654463E-5 23:0.0021896445833 24:0.00349809073674 25:8.01089481695E-4 26:9.34604395311E-5 27:8.01089481695E-5 28:2.00272370424E-4 29:2.13623861785E-4 30:1.33514913616E-5 31:2.93732809955E-4 32:0.00871852385912 33:0.00120163422254 34:4.80653689017E-4 35:2.80381318593E-4 36:1.20163422254E-4 37:2.00272370424E-4 38:1.33514913616E-4 39:1.20163422254E-4 40:8.01089481695E-5 41:4.13896232209E-4 42:4.53950706294E-4 43:4.00544740848E-5 44:0.00185585729926 45:6.67574568079E-5 46:1.73569387701E-4 47:5.34059654463E-5 48:0.00273705572912 49:3.87193249486E-4 50:2.13623861785E-4 51:1.46866404977E-4 52:2.67029827232E-5 53:1.33514913616E-4 54:6.67574568079E-5 55:1.20163422254E-4 56:1.33514913616E-4 57:1.73569387701E-4 58:6.67574568079E-5 59:4.00544740848E-5 60:1.46866404977E-4 61:9.34604395311E-5 62:1.06811930893E-4 63:1.73569387701E-4 64:0.0040321503912 65:6.80926059441E-4 66:3.47138775401E-4 67:3.07084301316E-4 68:5.34059654463E-5 69:2.5367833587E-4 70:2.00272370424E-4 71:6.67574568079E-5 72:1.46866404977E-4 73:2.00272370424E-4 74:6.67574568079E-5 75:5.34059654463E-5 76:1.20163422254E-4 77:1.20163422254E-4 78:4.00544740848E-5 79:2.67029827232E-5 80:1.46866404977E-4 81:2.13623861785E-4 82:6.67574568079E-5 83:5.34059654463E-5 84:1.33514913616E-5 85:4.00544740848E-5 86:4.00544740848E-5 87:6.67574568079E-5 88:1.20163422254E-4 89:1.06811930893E-4 90:1.20163422254E-4 91:5.34059654463E-5 92:4.00544740848E-5 93:6.67574568079E-5 94:4.00544740848E-5 95:6.67574568079E-5 96:6.80926059441E-4 97:2.80381318593E-4 98:1.20163422254E-4 99:4.00544740848E-5 100:4.00544740848E-5 101:4.00544740848E-5 102:9.34604395311E-5 103:0.0 104:6.67574568079E-5 105:0.00142860957569 106:0.00133514913616 107:9.34604395311E-5 108:0.00360490266763 109:8.01089481695E-5 110:8.01089481695E-5 111:5.34059654463E-5 112:0.00264359528959 113:1.20163422254E-4 114:6.67574568079E-5 115:9.34604395311E-5 116:1.06811930893E-4 117:1.06811930893E-4 118:4.00544740848E-5 119:9.34604395311E-5 120:1.60217896339E-4 121:2.26975353147E-4 122:2.00272370424E-4 123:1.33514913616E-4 124:6.14168602633E-4 125:1.60217896339E-4 126:1.20163422254E-4 127:2.26975353147E-4 128:0.00855830596278 129:0.0011482282571 130:2.5367833587E-4 131:2.5367833587E-4 132:6.67574568079E-5 133:4.00544740848E-4 134:1.60217896339E-4 135:9.34604395311E-5 136:2.13623861785E-4 137:2.67029827232E-4 138:1.06811930893E-4 139:5.34059654463E-5 140:2.67029827232E-5 141:1.73569387701E-4 142:1.06811930893E-4 143:6.67574568079E-5 144:1.20163422254E-4 145:2.5367833587E-4 146:6.67574568079E-5 147:6.67574568079E-5 148:1.33514913616E-4 149:2.93732809955E-4 150:2.67029827232E-5 151:0.00196266923015 152:0.00283051616866 153:1.86920879062E-4 154:5.34059654463E-5 155:4.00544740848E-5 156:1.60217896339E-4 157:6.67574568079E-5 158:1.60217896339E-4 159:1.46866404977E-4 160:0.00352479371946 161:4.53950706294E-4 162:1.86920879062E-4 163:1.06811930893E-4 164:6.67574568079E-5 165:1.20163422254E-4 166:1.60217896339E-4 167:8.01089481695E-5 168:4.00544740848E-5 169:1.06811930893E-4 170:9.34604395311E-5 171:9.34604395311E-5 172:1.06811930893E-4 173:8.01089481695E-5 174:1.06811930893E-4 175:6.67574568079E-5 176:1.46866404977E-4 177:9.34604395311E-5 178:1.33514913616E-5 179:5.34059654463E-5 180:6.67574568079E-5 181:9.34604395311E-5 182:2.67029827232E-5 183:2.40326844509E-4 184:1.60217896339E-4 185:9.34604395311E-5 186:1.06811930893E-4 187:4.00544740848E-5 188:2.13623861785E-4 189:1.06811930893E-4 190:1.33514913616E-4 191:9.34604395311E-5 192:0.00225640204011 193:3.07084301316E-4 194:8.01089481695E-5 195:1.06811930893E-4 196:2.67029827232E-5 197:2.67029827232E-5 198:8.01089481695E-5 199:6.67574568079E-5 200:1.06811930893E-4 201:1.46866404977E-4 202:6.67574568079E-5 203:2.67029827232E-5 204:1.60217896339E-4 205:6.67574568079E-5 206:6.67574568079E-5 207:5.34059654463E-5 208:1.73569387701E-4 209:0.00178909984245 210:1.06811930893E-4 211:1.20163422254E-4 212:1.20163422254E-4 213:0.0018425058079 214:5.34059654463E-5 215:0.00408555635665 216:0.00281716467729 217:2.67029827232E-4 218:1.06811930893E-4 219:8.01089481695E-5 220:2.5367833587E-4 221:1.33514913616E-4 222:1.33514913616E-4 223:5.34059654463E-4 224:0.00739672621432 225:5.60762637187E-4 226:4.00544740848E-5 227:2.67029827232E-5 228:9.34604395311E-5 229:6.67574568079E-5 230:4.00544740848E-5 231:2.67029827232E-5 232:1.73569387701E-4 233:0.00198937221288 234:0.00196266923015 235:1.20163422254E-4 236:0.00206948116105 237:1.20163422254E-4 238:1.60217896339E-4 239:1.73569387701E-4 240:0.002363213971 241:0.00308419450453 242:1.06811930893E-4 243:6.67574568079E-5 244:2.5367833587E-4 245:0.00285721915138 246:6.67574568079E-5 247:0.00283051616866 248:0.00234986247964 249:0.00911906859996 250:0.00267029827232 251:4.00544740848E-4 252:0.00611498304361 253:0.00379182354669 254:0.00190926326471 255:0.00889209324682 256:0.825242329568 
1024.0 1:0.00733626784047 2:0.00110710951047 3:9.60384153661E-4 4:2.00080032013E-4 5:0.00126717353608 6:2.53434707216E-4 7:2.66773376017E-4 8:4.6685340803E-4 9:0.00125383486728 10:3.0678938242E-4 11:2.26757369615E-4 12:0.00105375483527 13:2.80112044818E-4 14:5.33546752034E-5 15:6.66933440043E-5 16:0.00164065626251 17:8.93690809657E-4 18:2.80112044818E-4 19:2.93450713619E-4 20:9.3370681606E-5 21:1.86741363212E-4 22:9.3370681606E-5 23:0.00124049619848 24:0.00189409096972 25:3.86821395225E-4 26:1.20048019208E-4 27:6.66933440043E-5 28:1.33386688009E-4 29:1.33386688009E-4 30:5.33546752034E-5 31:1.46725356809E-4 32:0.00268107242897 33:0.00144057623049 34:4.13498732826E-4 35:4.00160064026E-4 36:9.3370681606E-5 37:2.26757369615E-4 38:1.06709350407E-4 39:2.66773376017E-5 40:6.66933440043E-5 41:4.40176070428E-4 42:8.00320128051E-4 43:9.3370681606E-5 44:0.00138722155529 45:9.3370681606E-5 46:4.00160064026E-5 47:5.33546752034E-5 48:0.00120048019208 49:3.73482726424E-4 50:2.13418700814E-4 51:8.00320128051E-5 52:4.00160064026E-5 53:1.86741363212E-4 54:5.33546752034E-5 55:5.33546752034E-5 56:9.3370681606E-5 57:1.33386688009E-4 58:2.66773376017E-5 59:6.66933440043E-5 60:9.3370681606E-5 61:9.3370681606E-5 62:5.33546752034E-5 63:8.00320128051E-5 64:0.0015873015873 65:0.00108043217287 66:5.33546752034E-4 67:6.00240096038E-4 68:1.06709350407E-4 69:2.66773376017E-4 70:1.06709350407E-4 71:1.20048019208E-4 72:1.33386688009E-5 73:2.93450713619E-4 74:1.46725356809E-4 75:1.06709350407E-4 76:8.00320128051E-5 77:1.46725356809E-4 78:1.33386688009E-4 79:5.33546752034E-5 80:8.00320128051E-5 81:2.80112044818E-4 82:1.20048019208E-4 83:4.00160064026E-5 84:2.66773376017E-5 85:1.33386688009E-4 86:2.66773376017E-5 87:6.66933440043E-5 88:8.00320128051E-5 89:2.66773376017E-5 90:2.66773376017E-5 91:5.33546752034E-5 92:2.66773376017E-5 93:8.00320128051E-5 94:1.20048019208E-4 95:0.0 96:4.93530745632E-4 97:4.13498732826E-4 98:1.6006402561E-4 99:1.06709350407E-4 100:1.06709350407E-4 101:6.66933440043E-5 102:8.00320128051E-5 103:1.33386688009E-5 104:6.66933440043E-5 105:0.00248099239696 106:0.00326797385621 107:1.33386688009E-4 108:0.00528211284514 109:8.00320128051E-5 110:2.00080032013E-4 111:1.33386688009E-4 112:0.00196078431373 113:1.06709350407E-4 114:9.3370681606E-5 115:5.33546752034E-5 116:1.20048019208E-4 117:9.3370681606E-5 118:6.66933440043E-5 119:1.06709350407E-4 120:2.13418700814E-4 121:1.86741363212E-4 122:2.13418700814E-4 123:9.3370681606E-5 124:7.33626784047E-4 125:8.00320128051E-5 126:3.60144057623E-4 127:2.26757369615E-4 128:0.0047619047619 129:0.00113378684807 130:1.86741363212E-4 131:2.80112044818E-4 132:8.00320128051E-5 133:2.93450713619E-4 134:5.33546752034E-5 135:8.00320128051E-5 136:6.66933440043E-5 137:2.53434707216E-4 138:9.3370681606E-5 139:1.73402694411E-4 140:8.00320128051E-5 141:3.0678938242E-4 142:5.33546752034E-5 143:8.00320128051E-5 144:2.00080032013E-4 145:3.33466720021E-4 146:1.06709350407E-4 147:1.33386688009E-4 148:9.3370681606E-5 149:7.20288115246E-4 150:9.3370681606E-5 151:0.00178738161931 152:0.00141389889289 153:6.66933440043E-5 154:8.00320128051E-5 155:5.33546752034E-5 156:8.00320128051E-5 157:6.66933440043E-5 158:2.66773376017E-5 159:1.33386688009E-4 160:0.0015739629185 161:2.80112044818E-4 162:8.00320128051E-5 163:1.46725356809E-4 164:1.06709350407E-4 165:1.46725356809E-4 166:1.06709350407E-4 167:2.66773376017E-5 168:5.33546752034E-5 169:1.20048019208E-4 170:2.66773376017E-5 171:1.33386688009E-4 172:1.46725356809E-4 173:4.00160064026E-5 174:1.20048019208E-4 175:1.06709350407E-4 176:1.73402694411E-4 177:8.00320128051E-5 178:5.33546752034E-5 179:2.66773376017E-5 180:1.6006402561E-4 181:5.33546752034E-5 182:6.66933440043E-5 183:8.00320128051E-5 184:1.46725356809E-4 185:2.66773376017E-5 186:1.06709350407E-4 187:9.3370681606E-5 188:2.00080032013E-4 189:4.00160064026E-5 190:2.13418700814E-4 191:2.40096038415E-4 192:0.00212084833934 193:3.73482726424E-4 194:8.00320128051E-5 195:8.00320128051E-5 196:9.3370681606E-5 197:4.00160064026E-5 198:1.33386688009E-5 199:9.3370681606E-5 200:8.00320128051E-5 201:1.06709350407E-4 202:1.73402694411E-4 203:4.00160064026E-5 204:1.46725356809E-4 205:6.66933440043E-5 206:9.3370681606E-5 207:8.00320128051E-5 208:1.33386688009E-4 209:0.00116046418567 210:1.06709350407E-4 211:1.86741363212E-4 212:8.00320128051E-5 213:0.00193410697612 214:1.6006402561E-4 215:0.00428171268507 216:0.00125383486728 217:1.46725356809E-4 218:1.46725356809E-4 219:6.66933440043E-5 220:2.66773376017E-4 221:6.66933440043E-5 222:2.53434707216E-4 223:4.80192076831E-4 224:0.00430839002268 225:2.26757369615E-4 226:1.20048019208E-4 227:8.00320128051E-5 228:9.3370681606E-5 229:4.00160064026E-5 230:9.3370681606E-5 231:6.66933440043E-5 232:1.33386688009E-4 233:0.00282779778578 234:0.00378818193944 235:9.3370681606E-5 236:0.00273442710418 237:5.33546752034E-5 238:3.2012805122E-4 239:2.80112044818E-4 240:0.00205415499533 241:9.07029478458E-4 242:6.66933440043E-5 243:1.46725356809E-4 244:1.73402694411E-4 245:0.00130718954248 246:1.20048019208E-4 247:0.0015739629185 248:0.00206749366413 249:0.00426837401627 250:0.00294784580499 251:5.20208083233E-4 252:0.0077897825797 253:0.00172068827531 254:0.00190742963852 255:0.00433506736028 256:0.861771375217 
1024.0 1:0.0133868808568 2:0.00334672021419 3:0.00174029451138 4:4.01606425703E-4 5:0.00214190093708 6:0.00107095046854 7:8.03212851406E-4 8:0.00214190093708 9:0.00200803212851 10:2.67737617135E-4 11:2.67737617135E-4 12:0.00133868808568 13:0.00107095046854 14:0.0 15:2.67737617135E-4 16:0.00388219544846 17:0.00227576974565 18:9.37081659973E-4 19:9.37081659973E-4 20:2.67737617135E-4 21:6.69344042838E-4 22:0.0 23:0.00160642570281 24:0.00468540829987 25:4.01606425703E-4 26:2.67737617135E-4 27:0.0 28:2.67737617135E-4 29:1.33868808568E-4 30:2.67737617135E-4 31:4.01606425703E-4 32:0.00789825970549 33:0.00374832663989 34:0.00120481927711 35:4.01606425703E-4 36:2.67737617135E-4 37:4.01606425703E-4 38:1.33868808568E-4 39:1.33868808568E-4 40:2.67737617135E-4 41:8.03212851406E-4 42:0.00107095046854 43:2.67737617135E-4 44:0.00147255689424 45:2.67737617135E-4 46:0.0 47:0.0 48:0.00267737617135 49:5.3547523427E-4 50:1.33868808568E-4 51:5.3547523427E-4 52:2.67737617135E-4 53:0.0 54:1.33868808568E-4 55:0.0 56:2.67737617135E-4 57:4.01606425703E-4 58:2.67737617135E-4 59:1.33868808568E-4 60:1.33868808568E-4 61:1.33868808568E-4 62:1.33868808568E-4 63:1.33868808568E-4 64:0.00281124497992 65:0.00147255689424 66:9.37081659973E-4 67:1.33868808568E-4 68:2.67737617135E-4 69:8.03212851406E-4 70:4.01606425703E-4 71:0.0 72:0.0 73:5.3547523427E-4 74:2.67737617135E-4 75:0.0 76:2.67737617135E-4 77:5.3547523427E-4 78:0.0 79:1.33868808568E-4 80:0.0 81:6.69344042838E-4 82:1.33868808568E-4 83:0.0 84:0.0 85:4.01606425703E-4 86:0.0 87:0.0 88:0.0 89:0.0 90:1.33868808568E-4 91:2.67737617135E-4 92:4.01606425703E-4 93:1.33868808568E-4 94:1.33868808568E-4 95:1.33868808568E-4 96:8.03212851406E-4 97:9.37081659973E-4 98:2.67737617135E-4 99:4.01606425703E-4 100:1.33868808568E-4 101:4.01606425703E-4 102:0.0 103:0.0 104:0.0 105:0.00669344042838 106:0.0045515394913 107:1.33868808568E-4 108:0.00589022757697 109:1.33868808568E-4 110:1.33868808568E-4 111:2.67737617135E-4 112:0.00254350736278 113:2.67737617135E-4 114:1.33868808568E-4 115:1.33868808568E-4 116:0.0 117:1.33868808568E-4 118:6.69344042838E-4 119:0.0 120:1.33868808568E-4 121:5.3547523427E-4 122:5.3547523427E-4 123:6.69344042838E-4 124:0.00187416331995 125:2.67737617135E-4 126:1.33868808568E-4 127:4.01606425703E-4 128:0.00870147255689 129:0.00321285140562 130:6.69344042838E-4 131:0.00107095046854 132:2.67737617135E-4 133:6.69344042838E-4 134:1.33868808568E-4 135:1.33868808568E-4 136:0.0 137:8.03212851406E-4 138:1.33868808568E-4 139:4.01606425703E-4 140:0.0 141:2.67737617135E-4 142:4.01606425703E-4 143:2.67737617135E-4 144:1.33868808568E-4 145:9.37081659973E-4 146:1.33868808568E-4 147:6.69344042838E-4 148:0.0 149:0.00120481927711 150:0.0 151:0.00240963855422 152:0.00187416331995 153:1.33868808568E-4 154:1.33868808568E-4 155:4.01606425703E-4 156:4.01606425703E-4 157:0.0 158:2.67737617135E-4 159:2.67737617135E-4 160:0.00187416331995 161:6.69344042838E-4 162:4.01606425703E-4 163:4.01606425703E-4 164:1.33868808568E-4 165:4.01606425703E-4 166:2.67737617135E-4 167:1.33868808568E-4 168:2.67737617135E-4 169:4.01606425703E-4 170:1.33868808568E-4 171:1.33868808568E-4 172:0.0 173:1.33868808568E-4 174:1.33868808568E-4 175:0.0 176:4.01606425703E-4 177:4.01606425703E-4 178:4.01606425703E-4 179:1.33868808568E-4 180:2.67737617135E-4 181:1.33868808568E-4 182:1.33868808568E-4 183:2.67737617135E-4 184:5.3547523427E-4 185:1.33868808568E-4 186:1.33868808568E-4 187:1.33868808568E-4 188:2.67737617135E-4 189:1.33868808568E-4 190:2.67737617135E-4 191:1.33868808568E-4 192:0.00348058902276 193:2.67737617135E-4 194:2.67737617135E-4 195:1.33868808568E-4 196:1.33868808568E-4 197:2.67737617135E-4 198:4.01606425703E-4 199:0.0 200:0.0 201:4.01606425703E-4 202:1.33868808568E-4 203:0.0 204:4.01606425703E-4 205:0.0 206:2.67737617135E-4 207:1.33868808568E-4 208:4.01606425703E-4 209:0.00281124497992 210:0.0 211:2.67737617135E-4 212:1.33868808568E-4 213:0.00254350736278 214:4.01606425703E-4 215:0.00615796519411 216:0.00240963855422 217:4.01606425703E-4 218:4.01606425703E-4 219:0.0 220:4.01606425703E-4 221:2.67737617135E-4 222:5.3547523427E-4 223:0.00174029451138 224:0.00682730923695 225:5.3547523427E-4 226:2.67737617135E-4 227:0.0 228:0.0 229:4.01606425703E-4 230:0.0 231:0.0 232:5.3547523427E-4 233:0.00682730923695 234:0.00789825970549 235:4.01606425703E-4 236:0.00374832663989 237:0.0 238:0.0 239:5.3547523427E-4 240:0.00575635876841 241:0.00348058902276 242:4.01606425703E-4 243:1.33868808568E-4 244:9.37081659973E-4 245:0.00334672021419 246:1.33868808568E-4 247:0.0041499330656 248:0.00334672021419 249:0.00883534136546 250:0.00629183400268 251:0.00147255689424 252:0.0117804551539 253:0.00348058902276 254:0.00334672021419 255:0.010843373494 256:0.731994645248 
