svm_type c_svc
kernel_type rbf
gamma 64.0
nr_class 2
total_sv 508
rho -6.111765618002757
label 0 1
nr_sv 260 248
SV
81.04098622368953 1:0.0213916892058 2:0.00491762970248 3:0.00196705188099 4:9.83525940497E-4 5:0.00344234079174 6:2.45881485124E-4 7:0.00122940742562 8:0.00196705188099 9:0.00368822227686 10:9.83525940497E-4 11:9.83525940497E-4 12:0.00467174821736 13:0.00147528891075 14:4.91762970248E-4 15:7.37644455373E-4 16:0.00958937791984 17:0.00417998524711 18:9.83525940497E-4 19:0.00122940742562 20:7.37644455373E-4 21:2.45881485124E-4 22:0.0 23:0.00417998524711 24:0.0081140890091 25:0.00319645930661 26:4.91762970248E-4 27:0.0 28:9.83525940497E-4 29:4.91762970248E-4 30:0.0 31:4.91762970248E-4 32:0.0169658224736 33:0.00221293336612 34:0.00147528891075 35:7.37644455373E-4 36:0.0 37:7.37644455373E-4 38:2.45881485124E-4 39:4.91762970248E-4 40:4.91762970248E-4 41:9.83525940497E-4 42:4.91762970248E-4 43:4.91762970248E-4 44:0.00221293336612 45:2.45881485124E-4 46:0.0 47:2.45881485124E-4 48:0.00516351118761 49:0.00196705188099 50:4.91762970248E-4 51:2.45881485124E-4 52:4.91762970248E-4 53:2.45881485124E-4 54:0.0 55:2.45881485124E-4 56:2.45881485124E-4 57:2.45881485124E-4 58:7.37644455373E-4 59:0.0 60:4.91762970248E-4 61:0.0 62:2.45881485124E-4 63:4.91762970248E-4 64:0.00393410376199 65:9.83525940497E-4 66:7.37644455373E-4 67:2.45881485124E-4 68:0.0 69:4.91762970248E-4 70:2.45881485124E-4 71:0.0 72:0.0 73:2.45881485124E-4 74:0.0 75:0.0 76:2.45881485124E-4 77:7.37644455373E-4 78:2.45881485124E-4 79:2.45881485124E-4 80:4.91762970248E-4 81:7.37644455373E-4 82:0.0 83:2.45881485124E-4 84:0.0 85:4.91762970248E-4 86:0.0 87:0.0 88:9.83525940497E-4 89:0.0 90:2.45881485124E-4 91:0.0 92:0.0 93:0.0 94:2.45881485124E-4 95:2.45881485124E-4 96:0.00172117039587 97:9.83525940497E-4 98:0.0 99:4.91762970248E-4 100:0.0 101:2.45881485124E-4 102:0.0 103:0.0 104:0.0 105:0.00245881485124 106:0.00221293336612 107:2.45881485124E-4 108:0.00540939267273 109:4.91762970248E-4 110:0.0 111:4.91762970248E-4 112:9.83525940497E-4 113:4.91762970248E-4 114:7.37644455373E-4 115:0.0 116:0.0 117:2.45881485124E-4 118:2.45881485124E-4 119:0.0 120:2.45881485124E-4 121:2.45881485124E-4 122:0.0 123:4.91762970248E-4 124:7.37644455373E-4 125:2.45881485124E-4 126:2.45881485124E-4 127:2.45881485124E-4 128:0.00983525940497 129:0.00221293336612 130:7.37644455373E-4 131:0.0 132:4.91762970248E-4 133:2.45881485124E-4 134:0.0 135:2.45881485124E-4 136:2.45881485124E-4 137:0.00221293336612 138:2.45881485124E-4 139:4.91762970248E-4 140:2.45881485124E-4 141:4.91762970248E-4 142:0.0 143:4.91762970248E-4 144:7.37644455373E-4 145:0.00245881485124 146:0.0 147:4.91762970248E-4 148:0.0 149:7.37644455373E-4 150:0.0 151:0.00295057782149 152:0.00639291861323 153:0.0 154:0.0 155:2.45881485124E-4 156:0.0 157:2.45881485124E-4 158:0.0 159:9.83525940497E-4 160:0.00639291861323 161:9.83525940497E-4 162:4.91762970248E-4 163:7.37644455373E-4 164:2.45881485124E-4 165:4.91762970248E-4 166:0.0 167:0.0 168:2.45881485124E-4 169:2.45881485124E-4 170:0.0 171:0.0 172:0.0 173:2.45881485124E-4 174:0.0 175:4.91762970248E-4 176:4.91762970248E-4 177:2.45881485124E-4 178:0.0 179:0.0 180:4.91762970248E-4 181:0.0 182:0.0 183:4.91762970248E-4 184:7.37644455373E-4 185:4.91762970248E-4 186:0.0 187:2.45881485124E-4 188:0.0 189:0.0 190:2.45881485124E-4 191:7.37644455373E-4 192:0.00467174821736 193:7.37644455373E-4 194:7.37644455373E-4 195:7.37644455373E-4 196:2.45881485124E-4 197:7.37644455373E-4 198:2.45881485124E-4 199:2.45881485124E-4 200:2.45881485124E-4 201:4.91762970248E-4 202:2.45881485124E-4 203:0.0 204:0.0 205:0.0 206:2.45881485124E-4 207:4.91762970248E-4 208:0.00122940742562 209:0.00368822227686 210:4.91762970248E-4 211:0.0 212:2.45881485124E-4 213:0.00295057782149 214:0.0 215:0.00295057782149 216:0.00516351118761 217:7.37644455373E-4 218:4.91762970248E-4 219:0.0 220:4.91762970248E-4 221:4.91762970248E-4 222:4.91762970248E-4 223:0.00172117039587 224:0.0162281780182 225:0.00196705188099 226:4.91762970248E-4 227:0.0 228:0.0 229:7.37644455373E-4 230:2.45881485124E-4 231:2.45881485124E-4 232:0.0 233:0.00270469633637 234:0.00245881485124 235:2.45881485124E-4 236:0.00196705188099 237:4.91762970248E-4 238:4.91762970248E-4 239:2.45881485124E-4 240:0.00663880009835 241:0.00737644455373 242:2.45881485124E-4 243:2.45881485124E-4 244:4.91762970248E-4 245:0.0071305630686 246:2.45881485124E-4 247:0.00221293336612 248:0.00639291861323 249:0.0174575854438 250:0.00368822227686 251:4.91762970248E-4 252:0.0115564298008 253:0.00393410376199 254:0.00540939267273 255:0.0120481927711 256:0.651094172609 
256.0 1:0.00763076766287 2:0.00131213534103 3:9.93655889322E-4 4:2.54783561365E-4 5:0.00127391780682 6:2.67522739433E-4 7:3.43957807842E-4 8:4.96827944661E-4 9:7.51611506026E-4 10:4.3313205432E-4 11:1.52870136819E-4 12:0.00128665698489 13:3.31218629774E-4 14:3.82175342047E-5 15:1.01913424546E-4 16:0.00179622410762 17:0.00101913424546 18:2.80261917501E-4 19:2.29305205228E-4 20:8.91742464776E-5 21:3.69436163979E-4 22:6.36958903412E-5 23:0.00211470355933 24:0.00217839944967 25:3.05740273638E-4 26:1.52870136819E-4 27:5.09567122729E-5 28:1.14652602614E-4 29:6.36958903412E-5 30:6.36958903412E-5 31:1.40130958751E-4 32:0.00490458355627 33:0.00114652602614 34:4.07653698183E-4 35:3.43957807842E-4 36:3.82175342047E-5 37:2.29305205228E-4 38:1.40130958751E-4 39:7.64350684094E-5 40:8.91742464776E-5 41:3.69436163979E-4 42:6.62437259548E-4 43:1.01913424546E-4 44:0.00169431068307 45:8.91742464776E-5 46:2.1656602716E-4 47:5.09567122729E-5 48:0.00173252821728 49:3.18479451706E-4 50:2.42044383296E-4 51:2.03826849092E-4 52:1.14652602614E-4 53:7.64350684094E-5 54:6.36958903412E-5 55:7.64350684094E-5 56:7.64350684094E-5 57:1.14652602614E-4 58:1.14652602614E-4 59:8.91742464776E-5 60:2.29305205228E-4 61:3.82175342047E-5 62:3.82175342047E-5 63:1.52870136819E-4 64:0.00193635506637 65:9.55438355117E-4 66:2.29305205228E-4 67:4.84088766593E-4 68:1.27391780682E-4 69:2.54783561365E-4 70:1.27391780682E-4 71:1.27391780682E-4 72:8.91742464776E-5 73:2.1656602716E-4 74:8.91742464776E-5 75:6.36958903412E-5 76:1.65609314887E-4 77:1.52870136819E-4 78:5.09567122729E-5 79:3.82175342047E-5 80:6.36958903412E-5 81:2.1656602716E-4 82:1.40130958751E-4 83:8.91742464776E-5 84:6.36958903412E-5 85:7.64350684094E-5 86:8.91742464776E-5 87:1.65609314887E-4 88:8.91742464776E-5 89:1.01913424546E-4 90:7.64350684094E-5 91:2.54783561365E-5 92:5.09567122729E-5 93:1.01913424546E-4 94:5.09567122729E-5 95:5.09567122729E-5 96:4.45871232388E-4 97:3.05740273638E-4 98:8.91742464776E-5 99:5.09567122729E-5 100:6.36958903412E-5 101:7.64350684094E-5 102:5.09567122729E-5 103:5.09567122729E-5 104:6.36958903412E-5 105:0.00163061479273 106:0.00219113862774 107:2.54783561365E-4 108:0.00505745369309 109:7.64350684094E-5 110:1.14652602614E-4 111:1.01913424546E-4 112:0.0021656602716 113:1.27391780682E-4 114:6.36958903412E-5 115:7.64350684094E-5 116:1.14652602614E-4 117:6.36958903412E-5 118:1.14652602614E-4 119:1.01913424546E-4 120:2.29305205228E-4 121:1.52870136819E-4 122:2.03826849092E-4 123:6.36958903412E-5 124:4.58610410456E-4 125:7.64350684094E-5 126:1.27391780682E-4 127:1.91087671023E-4 128:0.00550332492548 129:0.00114652602614 130:1.65609314887E-4 131:2.03826849092E-4 132:8.91742464776E-5 133:5.09567122729E-4 134:5.09567122729E-5 135:1.91087671023E-4 136:8.91742464776E-5 137:3.69436163979E-4 138:3.82175342047E-5 139:1.01913424546E-4 140:1.14652602614E-4 141:1.91087671023E-4 142:1.01913424546E-4 143:7.64350684094E-5 144:1.14652602614E-4 145:3.05740273638E-4 146:8.91742464776E-5 147:1.01913424546E-4 148:1.27391780682E-5 149:7.26133149889E-4 150:6.36958903412E-5 151:0.00271344492853 152:0.00315931616092 153:1.01913424546E-4 154:7.64350684094E-5 155:5.09567122729E-5 156:1.14652602614E-4 157:1.01913424546E-4 158:6.36958903412E-5 159:1.40130958751E-4 160:0.00309562027058 161:2.93001095569E-4 162:1.27391780682E-4 163:1.65609314887E-4 164:6.36958903412E-5 165:1.14652602614E-4 166:8.91742464776E-5 167:1.27391780682E-4 168:1.01913424546E-4 169:3.82175342047E-5 170:6.36958903412E-5 171:3.82175342047E-5 172:1.27391780682E-4 173:1.14652602614E-4 174:6.36958903412E-5 175:8.91742464776E-5 176:8.91742464776E-5 177:7.64350684094E-5 178:3.82175342047E-5 179:3.82175342047E-5 180:2.54783561365E-5 181:1.27391780682E-4 182:7.64350684094E-5 183:8.91742464776E-5 184:3.31218629774E-4 185:3.82175342047E-5 186:7.64350684094E-5 187:3.82175342047E-5 188:2.03826849092E-4 189:1.01913424546E-4 190:1.27391780682E-4 191:1.27391780682E-4 192:0.00183444164183 193:2.80261917501E-4 194:8.91742464776E-5 195:1.91087671023E-4 196:1.01913424546E-4 197:1.14652602614E-4 198:7.64350684094E-5 199:2.54783561365E-5 200:1.14652602614E-4 201:1.14652602614E-4 202:8.91742464776E-5 203:5.09567122729E-5 204:1.01913424546E-4 205:7.64350684094E-5 206:7.64350684094E-5 207:1.01913424546E-4 208:3.18479451706E-4 209:0.00141404876557 210:1.01913424546E-4 211:6.36958903412E-5 212:7.64350684094E-5 213:0.00174526739535 214:1.27391780682E-4 215:0.00601289204821 216:0.00295548931183 217:1.40130958751E-4 218:1.14652602614E-4 219:8.91742464776E-5 220:2.1656602716E-4 221:1.65609314887E-4 222:1.65609314887E-4 223:7.00654793753E-4 224:0.00775815944355 225:3.43957807842E-4 226:5.09567122729E-5 227:7.64350684094E-5 228:6.36958903412E-5 229:1.14652602614E-4 230:5.09567122729E-5 231:8.91742464776E-5 232:2.03826849092E-4 233:0.00196183342251 234:0.0024077046549 235:1.40130958751E-4 236:0.00270070575046 237:1.27391780682E-4 238:1.27391780682E-4 239:1.65609314887E-4 240:0.0018853983541 241:0.00145226629978 242:5.09567122729E-5 243:8.91742464776E-5 244:1.65609314887E-4 245:0.00183444164183 246:1.78348492955E-4 247:0.00212744273739 248:0.00207648602512 249:0.00442049478968 250:0.00235674794262 251:3.94914520115E-4 252:0.00643328492446 253:0.00187265917603 254:0.0018853983541 255:0.0054523682132 256:0.849435654412 
50.971501267550025 1:0.0247055443838 2:0.00287273771905 3:0.00316001149095 4:0.00143636885952 5:0.00287273771905 6:0.00143636885952 7:0.0 8:0.00229819017524 9:0.00459638035047 10:0.00143636885952 11:5.74547543809E-4 12:0.00861821315714 13:0.00114909508762 14:5.74547543809E-4 15:2.87273771905E-4 16:0.00603274921 17:0.00344728526286 18:0.00143636885952 19:5.74547543809E-4 20:2.87273771905E-4 21:0.00114909508762 22:5.74547543809E-4 23:0.00258546394714 24:0.00517092789428 25:0.00229819017524 26:0.00114909508762 27:2.87273771905E-4 28:5.74547543809E-4 29:2.87273771905E-4 30:0.0 31:0.00114909508762 32:0.0103418557886 33:0.0063200229819 34:0.00172364263143 35:0.00143636885952 36:2.87273771905E-4 37:0.00114909508762 38:8.61821315714E-4 39:5.74547543809E-4 40:0.0 41:0.00172364263143 42:0.00316001149095 43:0.0 44:0.00402183280666 45:0.0 46:2.87273771905E-4 47:8.61821315714E-4 48:0.00804366561333 49:8.61821315714E-4 50:5.74547543809E-4 51:0.0 52:0.0 53:0.0 54:2.87273771905E-4 55:2.87273771905E-4 56:8.61821315714E-4 57:0.0 58:8.61821315714E-4 59:2.87273771905E-4 60:0.00114909508762 61:0.0 62:0.0 63:5.74547543809E-4 64:0.00833093938523 65:0.00316001149095 66:5.74547543809E-4 67:0.00172364263143 68:0.0 69:0.00143636885952 70:0.00114909508762 71:2.87273771905E-4 72:0.0 73:0.00114909508762 74:8.61821315714E-4 75:0.0 76:2.87273771905E-4 77:2.87273771905E-4 78:2.87273771905E-4 79:0.0 80:8.61821315714E-4 81:0.0 82:0.0 83:2.87273771905E-4 84:5.74547543809E-4 85:5.74547543809E-4 86:0.0 87:2.87273771905E-4 88:0.0 89:5.74547543809E-4 90:2.87273771905E-4 91:0.0 92:2.87273771905E-4 93:8.61821315714E-4 94:0.0 95:5.74547543809E-4 96:0.00114909508762 97:8.61821315714E-4 98:0.0 99:2.87273771905E-4 100:0.0 101:0.0 102:0.0 103:0.0 104:0.0 105:0.00316001149095 106:0.00430910657857 107:0.0 108:0.00574547543809 109:0.0 110:0.0 111:2.87273771905E-4 112:0.00689457052571 113:2.87273771905E-4 114:2.87273771905E-4 115:2.87273771905E-4 116:0.0 117:2.87273771905E-4 118:0.0 119:0.0 120:2.87273771905E-4 121:0.00114909508762 122:0.00143636885952 123:2.87273771905E-4 124:0.00258546394714 125:2.87273771905E-4 126:2.87273771905E-4 127:0.00114909508762 128:0.0155127836828 129:0.00316001149095 130:0.00114909508762 131:8.61821315714E-4 132:2.87273771905E-4 133:0.00114909508762 134:8.61821315714E-4 135:8.61821315714E-4 136:0.0 137:0.00201091640333 138:0.0 139:0.0 140:5.74547543809E-4 141:8.61821315714E-4 142:0.0 143:0.0 144:5.74547543809E-4 145:8.61821315714E-4 146:2.87273771905E-4 147:0.0 148:2.87273771905E-4 149:0.00114909508762 150:2.87273771905E-4 151:0.00229819017524 152:0.00689457052571 153:5.74547543809E-4 154:0.0 155:2.87273771905E-4 156:2.87273771905E-4 157:0.0 158:0.0 159:5.74547543809E-4 160:0.00488365412238 161:2.87273771905E-4 162:5.74547543809E-4 163:5.74547543809E-4 164:2.87273771905E-4 165:5.74547543809E-4 166:0.0 167:0.00114909508762 168:2.87273771905E-4 169:2.87273771905E-4 170:0.00172364263143 171:2.87273771905E-4 172:2.87273771905E-4 173:2.87273771905E-4 174:2.87273771905E-4 175:2.87273771905E-4 176:0.00114909508762 177:5.74547543809E-4 178:2.87273771905E-4 179:2.87273771905E-4 180:0.0 181:0.00114909508762 182:0.0 183:8.61821315714E-4 184:8.61821315714E-4 185:0.0 186:0.0 187:5.74547543809E-4 188:0.00114909508762 189:2.87273771905E-4 190:2.87273771905E-4 191:5.74547543809E-4 192:0.00316001149095 193:5.74547543809E-4 194:2.87273771905E-4 195:2.87273771905E-4 196:2.87273771905E-4 197:5.74547543809E-4 198:0.0 199:0.0 200:8.61821315714E-4 201:0.0 202:2.87273771905E-4 203:0.0 204:2.87273771905E-4 205:2.87273771905E-4 206:0.0 207:0.0 208:8.61821315714E-4 209:0.00459638035047 210:2.87273771905E-4 211:2.87273771905E-4 212:0.0 213:0.00344728526286 214:0.0 215:0.00344728526286 216:0.00459638035047 217:8.61821315714E-4 218:8.61821315714E-4 219:5.74547543809E-4 220:5.74547543809E-4 221:5.74547543809E-4 222:5.74547543809E-4 223:0.00114909508762 224:0.0137891410514 225:0.00373455903476 226:8.61821315714E-4 227:0.0 228:8.61821315714E-4 229:2.87273771905E-4 230:0.00143636885952 231:2.87273771905E-4 232:0.0 233:0.00430910657857 234:0.00488365412238 235:0.0 236:0.00373455903476 237:0.0 238:5.74547543809E-4 239:5.74547543809E-4 240:0.00746911806952 241:0.00459638035047 242:8.61821315714E-4 243:5.74547543809E-4 244:5.74547543809E-4 245:0.0063200229819 246:0.00114909508762 247:0.00316001149095 248:0.00545820166619 249:0.00976730824476 250:0.00402183280666 251:0.00373455903476 252:0.0109164033324 253:0.00402183280666 254:0.00517092789428 255:0.00775639184142 256:0.612180407929 
256.0 1:0.00918081731666 2:0.00115693226348 3:0.00134353424146 4:3.73203955962E-4 5:0.00149281582385 6:5.97126329539E-4 7:4.85165142751E-4 8:7.65068109722E-4 9:0.0010263108789 10:2.61242769173E-4 11:2.61242769173E-4 12:0.00136219443926 13:4.29184549356E-4 14:1.30621384587E-4 15:1.49281582385E-4 16:0.00115693226348 17:0.00115693226348 18:2.42582571375E-4 19:3.35883560366E-4 20:1.11961186789E-4 21:4.10524351558E-4 22:7.46407911924E-5 23:0.00128755364807 24:0.00201530136219 25:6.53106922933E-4 26:1.86601977981E-4 27:7.46407911924E-5 28:1.30621384587E-4 29:5.59805933943E-5 30:0.0 31:1.30621384587E-4 32:0.00263108788953 33:0.00173539839522 34:5.22485538347E-4 35:2.79902966971E-4 36:1.30621384587E-4 37:2.61242769173E-4 38:1.67941780183E-4 39:3.73203955962E-5 40:2.23922373577E-4 41:3.73203955962E-4 42:0.00123157305467 43:7.46407911924E-5 44:0.00158611681284 45:2.23922373577E-4 46:1.49281582385E-4 47:7.46407911924E-5 48:0.00190334017541 49:4.29184549356E-4 50:2.42582571375E-4 51:5.59805933943E-5 52:1.49281582385E-4 53:1.30621384587E-4 54:1.11961186789E-4 55:5.59805933943E-5 56:1.49281582385E-4 57:2.05262175779E-4 58:5.59805933943E-5 59:3.73203955962E-5 60:1.49281582385E-4 61:3.73203955962E-5 62:5.59805933943E-5 63:5.59805933943E-5 64:0.00125023325247 65:0.00113827206568 66:4.47844747154E-4 67:5.22485538347E-4 68:1.30621384587E-4 69:2.42582571375E-4 70:7.46407911924E-5 71:5.59805933943E-5 72:7.46407911924E-5 73:3.73203955962E-4 74:7.46407911924E-5 75:1.86601977981E-5 76:2.23922373577E-4 77:1.30621384587E-4 78:3.73203955962E-5 79:9.33009889905E-5 80:2.42582571375E-4 81:2.61242769173E-4 82:2.79902966971E-4 83:9.33009889905E-5 84:1.30621384587E-4 85:7.46407911924E-5 86:5.59805933943E-5 87:1.11961186789E-4 88:1.11961186789E-4 89:1.11961186789E-4 90:5.59805933943E-5 91:5.59805933943E-5 92:5.59805933943E-5 93:3.73203955962E-5 94:0.0 95:1.11961186789E-4 96:3.54543758164E-4 97:4.10524351558E-4 98:1.30621384587E-4 99:5.59805933943E-5 100:5.59805933943E-5 101:3.73203955962E-5 102:3.73203955962E-5 103:7.46407911924E-5 104:7.46407911924E-5 105:0.00220190334018 106:0.00250046650494 107:1.67941780183E-4 108:0.00571002052622 109:5.59805933943E-5 110:7.46407911924E-5 111:9.33009889905E-5 112:0.0019966411644 113:1.11961186789E-4 114:1.67941780183E-4 115:3.73203955962E-5 116:9.33009889905E-5 117:3.73203955962E-5 118:0.0 119:1.11961186789E-4 120:2.05262175779E-4 121:1.86601977981E-4 122:2.05262175779E-4 123:1.30621384587E-4 124:0.0010076506811 125:1.11961186789E-4 126:1.11961186789E-4 127:2.61242769173E-4 128:0.0049449524165 129:0.00141817503266 130:3.54543758164E-4 131:3.35883560366E-4 132:9.33009889905E-5 133:3.73203955962E-4 134:2.23922373577E-4 135:1.49281582385E-4 136:1.30621384587E-4 137:3.54543758164E-4 138:7.46407911924E-5 139:7.46407911924E-5 140:7.46407911924E-5 141:2.61242769173E-4 142:9.33009889905E-5 143:7.46407911924E-5 144:1.11961186789E-4 145:4.10524351558E-4 146:1.11961186789E-4 147:9.33009889905E-5 148:3.73203955962E-5 149:4.10524351558E-4 150:9.33009889905E-5 151:0.00149281582385 152:0.00179137898862 153:2.23922373577E-4 154:3.73203955962E-5 155:3.73203955962E-5 156:1.49281582385E-4 157:9.33009889905E-5 158:9.33009889905E-5 159:1.49281582385E-4 160:0.00126889345027 161:3.35883560366E-4 162:1.30621384587E-4 163:1.86601977981E-4 164:9.33009889905E-5 165:1.86601977981E-4 166:1.11961186789E-4 167:9.33009889905E-5 168:7.46407911924E-5 169:1.49281582385E-4 170:1.49281582385E-4 171:7.46407911924E-5 172:5.59805933943E-5 173:1.11961186789E-4 174:3.73203955962E-5 175:3.73203955962E-5 176:2.61242769173E-4 177:7.46407911924E-5 178:3.73203955962E-5 179:3.73203955962E-5 180:5.59805933943E-5 181:1.11961186789E-4 182:5.59805933943E-5 183:5.59805933943E-5 184:2.61242769173E-4 185:5.59805933943E-5 186:3.73203955962E-5 187:3.73203955962E-5 188:1.86601977981E-4 189:7.46407911924E-5 190:7.46407911924E-5 191:2.05262175779E-4 192:0.0019966411644 193:2.23922373577E-4 194:9.33009889905E-5 195:9.33009889905E-5 196:1.67941780183E-4 197:2.23922373577E-4 198:5.59805933943E-5 199:1.86601977981E-5 200:5.59805933943E-5 201:1.49281582385E-4 202:3.73203955962E-5 203:1.30621384587E-4 204:5.59805933943E-5 205:5.59805933943E-5 206:7.46407911924E-5 207:5.59805933943E-5 208:2.05262175779E-4 209:0.00119425265908 210:9.33009889905E-5 211:1.30621384587E-4 212:1.67941780183E-4 213:0.00162343720843 214:5.59805933943E-5 215:0.0019779809666 216:0.00110095167009 217:2.05262175779E-4 218:1.30621384587E-4 219:1.86601977981E-5 220:2.42582571375E-4 221:1.67941780183E-4 222:2.05262175779E-4 223:5.03825340549E-4 224:0.00373203955962 225:8.58369098712E-4 226:9.33009889905E-5 227:5.59805933943E-5 228:3.73203955962E-5 229:2.05262175779E-4 230:1.86601977981E-4 231:7.46407911924E-5 232:9.33009889905E-5 233:0.00283635006531 234:0.00304161224109 235:1.11961186789E-4 236:0.00334017540586 237:1.49281582385E-4 238:1.67941780183E-4 239:1.86601977981E-4 240:0.00229520432917 241:0.00164209740623 242:1.30621384587E-4 243:1.30621384587E-4 244:9.33009889905E-5 245:0.00207128195559 246:1.11961186789E-4 247:0.00166075760403 248:0.00220190334018 249:0.00475835043851 250:0.0028923306587 251:7.8372830752E-4 252:0.00807986564658 253:0.00207128195559 254:0.00210860235118 255:0.00475835043851 256:0.854375816384 
252.63905542310417 1:0.0236939765915 2:0.00428204396232 3:0.00271196117613 4:5.70939194976E-4 5:0.00314016557237 6:8.56408792464E-4 7:0.00114187838995 8:0.00299743077362 9:0.00214102198116 10:8.56408792464E-4 11:5.70939194976E-4 12:0.0035683699686 13:4.28204396232E-4 14:1.42734798744E-4 15:2.85469597488E-4 16:0.00371110476734 17:0.0022837567799 18:0.00114187838995 19:1.42734798744E-4 20:5.70939194976E-4 21:2.85469597488E-4 22:4.28204396232E-4 23:0.00485298315729 24:0.00884955752212 25:0.0022837567799 26:2.85469597488E-4 27:0.0 28:8.56408792464E-4 29:1.42734798744E-4 30:0.0 31:4.28204396232E-4 32:0.0107051099058 33:0.00385383956609 34:9.99143591208E-4 35:4.28204396232E-4 36:2.85469597488E-4 37:4.28204396232E-4 38:2.85469597488E-4 39:1.42734798744E-4 40:4.28204396232E-4 41:0.00142734798744 42:0.00171281758493 43:5.70939194976E-4 44:0.00371110476734 45:0.0 46:1.42734798744E-4 47:1.42734798744E-4 48:0.00385383956609 49:8.56408792464E-4 50:7.1367399372E-4 51:4.28204396232E-4 52:1.42734798744E-4 53:1.42734798744E-4 54:5.70939194976E-4 55:2.85469597488E-4 56:8.56408792464E-4 57:5.70939194976E-4 58:2.85469597488E-4 59:2.85469597488E-4 60:7.1367399372E-4 61:1.42734798744E-4 62:0.0 63:5.70939194976E-4 64:0.00299743077362 65:0.00142734798744 66:0.00114187838995 67:7.1367399372E-4 68:2.85469597488E-4 69:0.0012846131887 70:5.70939194976E-4 71:0.0 72:4.28204396232E-4 73:7.1367399372E-4 74:1.42734798744E-4 75:0.0 76:2.85469597488E-4 77:7.1367399372E-4 78:4.28204396232E-4 79:2.85469597488E-4 80:1.42734798744E-4 81:8.56408792464E-4 82:4.28204396232E-4 83:0.0 84:1.42734798744E-4 85:2.85469597488E-4 86:1.42734798744E-4 87:0.0 88:2.85469597488E-4 89:0.0 90:4.28204396232E-4 91:4.28204396232E-4 92:4.28204396232E-4 93:0.0 94:1.42734798744E-4 95:2.85469597488E-4 96:8.56408792464E-4 97:8.56408792464E-4 98:4.28204396232E-4 99:2.85469597488E-4 100:0.0 101:1.42734798744E-4 102:4.28204396232E-4 103:0.0 104:1.42734798744E-4 105:0.00399657436483 106:0.00242649157865 107:1.42734798744E-4 108:0.00556665715101 109:5.70939194976E-4 110:5.70939194976E-4 111:1.42734798744E-4 112:0.00299743077362 113:4.28204396232E-4 114:2.85469597488E-4 115:0.0 116:2.85469597488E-4 117:2.85469597488E-4 118:0.0 119:2.85469597488E-4 120:9.99143591208E-4 121:2.85469597488E-4 122:0.0 123:1.42734798744E-4 124:0.00185555238367 125:0.0 126:5.70939194976E-4 127:4.28204396232E-4 128:0.00999143591208 129:0.00413930916357 130:4.28204396232E-4 131:8.56408792464E-4 132:1.42734798744E-4 133:9.99143591208E-4 134:0.0 135:2.85469597488E-4 136:5.70939194976E-4 137:0.00114187838995 138:1.42734798744E-4 139:7.1367399372E-4 140:2.85469597488E-4 141:0.0012846131887 142:4.28204396232E-4 143:1.42734798744E-4 144:7.1367399372E-4 145:0.0012846131887 146:1.42734798744E-4 147:1.42734798744E-4 148:5.70939194976E-4 149:2.85469597488E-4 150:1.42734798744E-4 151:0.00185555238367 152:0.00428204396232 153:0.0 154:0.0 155:1.42734798744E-4 156:2.85469597488E-4 157:1.42734798744E-4 158:1.42734798744E-4 159:4.28204396232E-4 160:0.00214102198116 161:9.99143591208E-4 162:2.85469597488E-4 163:4.28204396232E-4 164:0.0 165:4.28204396232E-4 166:4.28204396232E-4 167:2.85469597488E-4 168:7.1367399372E-4 169:2.85469597488E-4 170:0.0 171:1.42734798744E-4 172:4.28204396232E-4 173:1.42734798744E-4 174:1.42734798744E-4 175:2.85469597488E-4 176:2.85469597488E-4 177:4.28204396232E-4 178:1.42734798744E-4 179:4.28204396232E-4 180:1.42734798744E-4 181:2.85469597488E-4 182:1.42734798744E-4 183:1.42734798744E-4 184:4.28204396232E-4 185:1.42734798744E-4 186:2.85469597488E-4 187:1.42734798744E-4 188:1.42734798744E-4 189:2.85469597488E-4 190:4.28204396232E-4 191:2.85469597488E-4 192:0.00456751355981 193:2.85469597488E-4 194:1.42734798744E-4 195:2.85469597488E-4 196:2.85469597488E-4 197:2.85469597488E-4 198:1.42734798744E-4 199:2.85469597488E-4 200:1.42734798744E-4 201:4.28204396232E-4 202:1.42734798744E-4 203:0.0 204:2.85469597488E-4 205:0.0 206:1.42734798744E-4 207:0.0 208:8.56408792464E-4 209:0.00342563516985 210:2.85469597488E-4 211:1.42734798744E-4 212:2.85469597488E-4 213:0.00114187838995 214:4.28204396232E-4 215:0.00114187838995 216:0.0012846131887 217:7.1367399372E-4 218:5.70939194976E-4 219:0.0 220:4.28204396232E-4 221:1.42734798744E-4 222:5.70939194976E-4 223:0.00157008278618 224:0.00613759634599 225:0.00242649157865 226:5.70939194976E-4 227:1.42734798744E-4 228:0.0 229:4.28204396232E-4 230:2.85469597488E-4 231:1.42734798744E-4 232:7.1367399372E-4 233:0.00456751355981 234:0.00328290037111 235:1.42734798744E-4 236:0.00314016557237 237:7.1367399372E-4 238:4.28204396232E-4 239:8.56408792464E-4 240:0.00556665715101 241:0.00528118755353 242:1.42734798744E-4 243:4.28204396232E-4 244:2.85469597488E-4 245:0.00271196117613 246:2.85469597488E-4 247:0.00157008278618 248:0.00513845275478 249:0.011704253497 250:0.00242649157865 251:0.00142734798744 252:0.00670853554096 253:0.00157008278618 254:0.00413930916357 255:0.00570939194976 256:0.706965458179 
256.0 1:0.0143199420516 2:0.00167158856633 3:0.00189446704185 4:5.57196188778E-4 5:0.00172730818521 6:2.22878475511E-4 7:4.45756951022E-4 8:0.00144871009082 9:0.00222878475511 10:4.45756951022E-4 11:5.57196188778E-4 12:0.0040118125592 13:6.68635426534E-4 14:2.22878475511E-4 15:1.67158856633E-4 16:0.00540480303115 17:0.0020059062796 18:4.45756951022E-4 19:1.67158856633E-4 20:2.22878475511E-4 21:7.80074664289E-4 22:2.78598094389E-4 23:0.00273026132501 24:0.0045132891291 25:6.68635426534E-4 26:1.67158856633E-4 27:2.78598094389E-4 28:2.22878475511E-4 29:4.45756951022E-4 30:5.57196188778E-5 31:5.57196188778E-4 32:0.00780074664289 33:0.00195018666072 34:5.014765699E-4 35:2.78598094389E-4 36:5.57196188778E-5 37:8.35794283167E-4 38:3.90037332145E-4 39:2.22878475511E-4 40:1.67158856633E-4 41:9.47233520923E-4 42:0.00156014932858 43:5.57196188778E-5 44:0.00384465370257 45:5.57196188778E-5 46:2.22878475511E-4 47:2.78598094389E-4 48:0.00468044798574 49:5.57196188778E-4 50:2.78598094389E-4 51:1.67158856633E-4 52:1.11439237756E-4 53:2.78598094389E-4 54:2.22878475511E-4 55:0.0 56:1.11439237756E-4 57:3.90037332145E-4 58:1.11439237756E-4 59:0.0 60:2.22878475511E-4 61:0.0 62:1.11439237756E-4 63:3.90037332145E-4 64:0.00546052265003 65:0.00217306513623 66:3.34317713267E-4 67:6.12915807656E-4 68:2.78598094389E-4 69:6.12915807656E-4 70:3.90037332145E-4 71:1.11439237756E-4 72:2.22878475511E-4 73:2.78598094389E-4 74:2.22878475511E-4 75:1.67158856633E-4 76:4.45756951022E-4 77:2.22878475511E-4 78:1.67158856633E-4 79:1.11439237756E-4 80:2.78598094389E-4 81:5.014765699E-4 82:2.22878475511E-4 83:2.22878475511E-4 84:5.57196188778E-5 85:1.67158856633E-4 86:1.67158856633E-4 87:2.22878475511E-4 88:2.22878475511E-4 89:1.67158856633E-4 90:5.57196188778E-5 91:5.57196188778E-5 92:5.57196188778E-5 93:1.11439237756E-4 94:5.57196188778E-5 95:1.67158856633E-4 96:0.00128155123419 97:5.57196188778E-4 98:3.34317713267E-4 99:2.78598094389E-4 100:0.0 101:2.78598094389E-4 102:5.57196188778E-5 103:1.11439237756E-4 104:0.0 105:0.00289742018165 106:0.00312029865716 107:3.34317713267E-4 108:0.0105867275868 109:2.22878475511E-4 110:1.67158856633E-4 111:2.78598094389E-4 112:0.00507048531788 113:3.90037332145E-4 114:1.67158856633E-4 115:5.57196188778E-5 116:1.11439237756E-4 117:0.0 118:1.11439237756E-4 119:4.45756951022E-4 120:5.57196188778E-4 121:5.57196188778E-4 122:2.22878475511E-4 123:5.57196188778E-5 124:0.00105867275868 125:3.34317713267E-4 126:2.78598094389E-4 127:6.12915807656E-4 128:0.0131498300552 129:0.00195018666072 130:3.90037332145E-4 131:2.22878475511E-4 132:1.67158856633E-4 133:6.12915807656E-4 134:2.78598094389E-4 135:2.78598094389E-4 136:0.0 137:5.014765699E-4 138:2.78598094389E-4 139:3.34317713267E-4 140:1.11439237756E-4 141:3.34317713267E-4 142:2.22878475511E-4 143:1.11439237756E-4 144:3.34317713267E-4 145:6.68635426534E-4 146:5.57196188778E-5 147:2.22878475511E-4 148:1.11439237756E-4 149:0.00133727085307 150:3.90037332145E-4 151:0.00323173789491 152:0.00356605560818 153:5.57196188778E-4 154:5.57196188778E-5 155:1.11439237756E-4 156:2.78598094389E-4 157:1.11439237756E-4 158:1.11439237756E-4 159:2.78598094389E-4 160:0.00312029865716 161:4.45756951022E-4 162:2.22878475511E-4 163:1.67158856633E-4 164:1.11439237756E-4 165:2.78598094389E-4 166:3.34317713267E-4 167:2.22878475511E-4 168:2.22878475511E-4 169:5.57196188778E-5 170:5.57196188778E-5 171:2.22878475511E-4 172:2.22878475511E-4 173:1.11439237756E-4 174:5.57196188778E-5 175:5.57196188778E-5 176:3.90037332145E-4 177:2.78598094389E-4 178:1.67158856633E-4 179:2.22878475511E-4 180:0.0 181:1.11439237756E-4 182:1.67158856633E-4 183:5.57196188778E-5 184:1.67158856633E-4 185:2.22878475511E-4 186:0.0 187:1.11439237756E-4 188:5.014765699E-4 189:5.57196188778E-5 190:2.22878475511E-4 191:2.78598094389E-4 192:0.00440184989135 193:0.00105867275868 194:5.57196188778E-5 195:3.90037332145E-4 196:0.0 197:1.11439237756E-4 198:3.34317713267E-4 199:5.57196188778E-5 200:3.34317713267E-4 201:2.22878475511E-4 202:2.22878475511E-4 203:5.57196188778E-5 204:2.22878475511E-4 205:1.11439237756E-4 206:2.22878475511E-4 207:1.11439237756E-4 208:3.34317713267E-4 209:0.00440184989135 210:1.11439237756E-4 211:3.90037332145E-4 212:2.78598094389E-4 213:0.00596199921993 214:5.57196188778E-5 215:0.0108096060623 216:0.00367749484594 217:5.57196188778E-4 218:1.67158856633E-4 219:3.34317713267E-4 220:6.68635426534E-4 221:4.45756951022E-4 222:4.45756951022E-4 223:0.00122583161531 224:0.00936089597147 225:0.00167158856633 226:1.67158856633E-4 227:2.22878475511E-4 228:2.78598094389E-4 229:2.22878475511E-4 230:1.11439237756E-4 231:5.57196188778E-5 232:2.22878475511E-4 233:0.00239594361175 234:0.00367749484594 235:2.78598094389E-4 236:0.00284170056277 237:5.57196188778E-5 238:2.22878475511E-4 239:3.34317713267E-4 240:0.00390037332145 241:0.0045132891291 242:2.78598094389E-4 243:5.014765699E-4 244:1.11439237756E-4 245:0.00713211121636 246:2.22878475511E-4 247:0.00612915807656 248:0.00434613027247 249:0.0090265782582 250:0.00334317713267 251:0.00105867275868 252:0.00913801749596 253:0.00607343845768 254:0.00434613027247 255:0.0164930071878 256:0.702847272525 
256.0 1:0.019514661274 2:0.00242669362993 3:0.00323559150657 4:6.06673407482E-4 5:0.00202224469161 6:6.06673407482E-4 7:0.00111223458038 8:9.10010111223E-4 9:0.00192113245703 10:7.07785642063E-4 11:2.02224469161E-4 12:0.00182002022245 13:9.10010111223E-4 14:1.0111223458E-4 15:0.0 16:0.00192113245703 17:0.00252780586451 18:0.00111223458038 19:5.05561172902E-4 20:2.02224469161E-4 21:4.04448938322E-4 22:0.0 23:0.00333670374115 24:0.00283114256825 25:0.0010111223458 26:2.02224469161E-4 27:3.03336703741E-4 28:1.0111223458E-4 29:4.04448938322E-4 30:2.02224469161E-4 31:3.03336703741E-4 32:0.00586450960566 33:0.00192113245703 34:5.05561172902E-4 35:8.08897876643E-4 36:3.03336703741E-4 37:3.03336703741E-4 38:3.03336703741E-4 39:2.02224469161E-4 40:2.02224469161E-4 41:5.05561172902E-4 42:0.00192113245703 43:2.02224469161E-4 44:0.00374115267947 45:3.03336703741E-4 46:3.03336703741E-4 47:0.0 48:0.00303336703741 49:6.06673407482E-4 50:7.07785642063E-4 51:2.02224469161E-4 52:0.0 53:4.04448938322E-4 54:1.0111223458E-4 55:0.0 56:1.0111223458E-4 57:4.04448938322E-4 58:0.0 59:0.0 60:3.03336703741E-4 61:2.02224469161E-4 62:0.0 63:2.02224469161E-4 64:0.00303336703741 65:0.00273003033367 66:3.03336703741E-4 67:0.00121334681496 68:6.06673407482E-4 69:4.04448938322E-4 70:3.03336703741E-4 71:5.05561172902E-4 72:2.02224469161E-4 73:0.00111223458038 74:1.0111223458E-4 75:1.0111223458E-4 76:7.07785642063E-4 77:1.0111223458E-4 78:4.04448938322E-4 79:1.0111223458E-4 80:4.04448938322E-4 81:7.07785642063E-4 82:2.02224469161E-4 83:0.0 84:2.02224469161E-4 85:4.04448938322E-4 86:2.02224469161E-4 87:2.02224469161E-4 88:5.05561172902E-4 89:1.0111223458E-4 90:1.0111223458E-4 91:1.0111223458E-4 92:0.0 93:1.0111223458E-4 94:5.05561172902E-4 95:3.03336703741E-4 96:8.08897876643E-4 97:7.07785642063E-4 98:3.03336703741E-4 99:2.02224469161E-4 100:2.02224469161E-4 101:3.03336703741E-4 102:0.0 103:0.0 104:1.0111223458E-4 105:0.00202224469161 106:0.00283114256825 107:3.03336703741E-4 108:0.00596562184024 109:1.0111223458E-4 110:4.04448938322E-4 111:2.02224469161E-4 112:0.00313447927199 113:3.03336703741E-4 114:1.0111223458E-4 115:2.02224469161E-4 116:3.03336703741E-4 117:3.03336703741E-4 118:1.0111223458E-4 119:1.0111223458E-4 120:4.04448938322E-4 121:1.0111223458E-4 122:4.04448938322E-4 123:2.02224469161E-4 124:0.00121334681496 125:0.0 126:6.06673407482E-4 127:4.04448938322E-4 128:0.00859453993933 129:0.00293225480283 130:7.07785642063E-4 131:0.00131445904954 132:1.0111223458E-4 133:6.06673407482E-4 134:0.0 135:2.02224469161E-4 136:0.0 137:7.07785642063E-4 138:2.02224469161E-4 139:3.03336703741E-4 140:0.0 141:6.06673407482E-4 142:2.02224469161E-4 143:1.0111223458E-4 144:2.02224469161E-4 145:2.02224469161E-4 146:3.03336703741E-4 147:1.0111223458E-4 148:2.02224469161E-4 149:6.06673407482E-4 150:2.02224469161E-4 151:0.0056622851365 152:0.00495449949444 153:5.05561172902E-4 154:1.0111223458E-4 155:0.0 156:0.0 157:5.05561172902E-4 158:1.0111223458E-4 159:6.06673407482E-4 160:0.00333670374115 161:6.06673407482E-4 162:3.03336703741E-4 163:2.02224469161E-4 164:3.03336703741E-4 165:2.02224469161E-4 166:3.03336703741E-4 167:2.02224469161E-4 168:1.0111223458E-4 169:2.02224469161E-4 170:2.02224469161E-4 171:2.02224469161E-4 172:0.0 173:1.0111223458E-4 174:0.0 175:2.02224469161E-4 176:3.03336703741E-4 177:1.0111223458E-4 178:0.0 179:2.02224469161E-4 180:1.0111223458E-4 181:5.05561172902E-4 182:4.04448938322E-4 183:0.0 184:5.05561172902E-4 185:1.0111223458E-4 186:2.02224469161E-4 187:4.04448938322E-4 188:5.05561172902E-4 189:5.05561172902E-4 190:2.02224469161E-4 191:6.06673407482E-4 192:0.0041456016178 193:7.07785642063E-4 194:0.0 195:4.04448938322E-4 196:3.03336703741E-4 197:4.04448938322E-4 198:3.03336703741E-4 199:6.06673407482E-4 200:2.02224469161E-4 201:5.05561172902E-4 202:1.0111223458E-4 203:2.02224469161E-4 204:1.0111223458E-4 205:3.03336703741E-4 206:4.04448938322E-4 207:4.04448938322E-4 208:3.03336703741E-4 209:0.00212335692619 210:2.02224469161E-4 211:3.03336703741E-4 212:1.0111223458E-4 213:0.0061678463094 214:3.03336703741E-4 215:0.00819009100101 216:0.00444893832154 217:1.0111223458E-4 218:1.0111223458E-4 219:2.02224469161E-4 220:1.0111223458E-4 221:3.03336703741E-4 222:3.03336703741E-4 223:0.00111223458038 224:0.0107178968655 225:6.06673407482E-4 226:4.04448938322E-4 227:1.0111223458E-4 228:1.0111223458E-4 229:4.04448938322E-4 230:1.0111223458E-4 231:0.0 232:0.0010111223458 233:0.00212335692619 234:0.00252780586451 235:1.0111223458E-4 236:0.00202224469161 237:2.02224469161E-4 238:2.02224469161E-4 239:0.0010111223458 240:0.00424671385238 241:0.00202224469161 242:4.04448938322E-4 243:2.02224469161E-4 244:5.05561172902E-4 245:0.00364004044489 246:4.04448938322E-4 247:0.00252780586451 248:0.0046511627907 249:0.00161779575329 250:0.00161779575329 251:0.00161779575329 252:0.00637007077856 253:0.00212335692619 254:0.00505561172902 255:0.00849342770475 256:0.743983822042 
256.0 1:0.0198140527359 2:0.00289590001524 3:0.00182898948331 4:6.09663161103E-4 5:0.0038103947569 6:6.09663161103E-4 7:3.04831580552E-4 8:0.00182898948331 9:0.00289590001524 10:9.14494741655E-4 11:1.52415790276E-4 12:0.00137174211248 13:7.62078951379E-4 14:0.0 15:7.62078951379E-4 16:0.00243865264441 17:0.00335314738607 18:0.00106691053193 19:7.62078951379E-4 20:1.52415790276E-4 21:7.62078951379E-4 22:1.52415790276E-4 23:0.00335314738607 24:0.00609663161103 25:0.00137174211248 26:6.09663161103E-4 27:1.52415790276E-4 28:4.57247370828E-4 29:3.04831580552E-4 30:1.52415790276E-4 31:7.62078951379E-4 32:0.00685871056241 33:0.00396281054717 34:7.62078951379E-4 35:3.04831580552E-4 36:1.52415790276E-4 37:0.00106691053193 38:7.62078951379E-4 39:0.0 40:0.0 41:0.00121932632221 42:7.62078951379E-4 43:6.09663161103E-4 44:0.00213382106386 45:1.52415790276E-4 46:3.04831580552E-4 47:0.0 48:0.00274348422497 49:9.14494741655E-4 50:1.52415790276E-4 51:4.57247370828E-4 52:0.0 53:1.52415790276E-4 54:1.52415790276E-4 55:4.57247370828E-4 56:3.04831580552E-4 57:0.0 58:0.0 59:0.0 60:4.57247370828E-4 61:1.52415790276E-4 62:1.52415790276E-4 63:0.0 64:0.00228623685414 65:0.00259106843469 66:3.04831580552E-4 67:1.52415790276E-4 68:0.0 69:6.09663161103E-4 70:3.04831580552E-4 71:7.62078951379E-4 72:1.52415790276E-4 73:3.04831580552E-4 74:0.0 75:0.0 76:4.57247370828E-4 77:0.0 78:1.52415790276E-4 79:3.04831580552E-4 80:0.0 81:0.00106691053193 82:4.57247370828E-4 83:1.52415790276E-4 84:0.0 85:1.52415790276E-4 86:1.52415790276E-4 87:6.09663161103E-4 88:1.52415790276E-4 89:6.09663161103E-4 90:0.0 91:1.52415790276E-4 92:1.52415790276E-4 93:3.04831580552E-4 94:1.52415790276E-4 95:0.0 96:0.00121932632221 97:9.14494741655E-4 98:4.57247370828E-4 99:0.0 100:1.52415790276E-4 101:1.52415790276E-4 102:1.52415790276E-4 103:3.04831580552E-4 104:0.0 105:0.00396281054717 106:0.00243865264441 107:4.57247370828E-4 108:0.00289590001524 109:0.0 110:1.52415790276E-4 111:0.0 112:0.00243865264441 113:0.0 114:1.52415790276E-4 115:0.0 116:0.0 117:4.57247370828E-4 118:1.52415790276E-4 119:4.57247370828E-4 120:1.52415790276E-4 121:0.00121932632221 122:3.04831580552E-4 123:1.52415790276E-4 124:6.09663161103E-4 125:4.57247370828E-4 126:4.57247370828E-4 127:9.14494741655E-4 128:0.00716354214297 129:0.00320073159579 130:0.00121932632221 131:0.00121932632221 132:0.0 133:0.00137174211248 134:9.14494741655E-4 135:9.14494741655E-4 136:3.04831580552E-4 137:9.14494741655E-4 138:1.52415790276E-4 139:3.04831580552E-4 140:0.0 141:4.57247370828E-4 142:0.0 143:0.0 144:3.04831580552E-4 145:0.00106691053193 146:0.0 147:1.52415790276E-4 148:1.52415790276E-4 149:0.00121932632221 150:1.52415790276E-4 151:0.00167657369303 152:0.004420057918 153:1.52415790276E-4 154:1.52415790276E-4 155:4.57247370828E-4 156:3.04831580552E-4 157:6.09663161103E-4 158:3.04831580552E-4 159:7.62078951379E-4 160:0.00320073159579 161:9.14494741655E-4 162:3.04831580552E-4 163:4.57247370828E-4 164:3.04831580552E-4 165:3.04831580552E-4 166:4.57247370828E-4 167:3.04831580552E-4 168:4.57247370828E-4 169:0.0 170:0.0 171:0.0 172:1.52415790276E-4 173:3.04831580552E-4 174:1.52415790276E-4 175:1.52415790276E-4 176:7.62078951379E-4 177:0.0 178:0.0 179:1.52415790276E-4 180:1.52415790276E-4 181:1.52415790276E-4 182:0.0 183:3.04831580552E-4 184:6.09663161103E-4 185:3.04831580552E-4 186:1.52415790276E-4 187:3.04831580552E-4 188:1.52415790276E-4 189:3.04831580552E-4 190:3.04831580552E-4 191:0.0 192:0.0038103947569 193:0.00137174211248 194:3.04831580552E-4 195:3.04831580552E-4 196:1.52415790276E-4 197:4.57247370828E-4 198:1.52415790276E-4 199:0.0 200:0.0 201:4.57247370828E-4 202:1.52415790276E-4 203:1.52415790276E-4 204:0.0 205:0.0 206:1.52415790276E-4 207:1.52415790276E-4 208:4.57247370828E-4 209:0.00487730528883 210:6.09663161103E-4 211:1.52415790276E-4 212:1.52415790276E-4 213:0.00609663161103 214:6.09663161103E-4 215:0.00685871056241 216:0.00396281054717 217:9.14494741655E-4 218:1.52415790276E-4 219:1.52415790276E-4 220:1.52415790276E-4 221:7.62078951379E-4 222:9.14494741655E-4 223:0.00228623685414 224:0.00899253162628 225:9.14494741655E-4 226:6.09663161103E-4 227:4.57247370828E-4 228:7.62078951379E-4 229:3.04831580552E-4 230:9.14494741655E-4 231:3.04831580552E-4 232:4.57247370828E-4 233:0.00609663161103 234:0.00609663161103 235:0.0 236:0.00320073159579 237:0.00121932632221 238:0.00106691053193 239:6.09663161103E-4 240:0.00396281054717 241:0.0050297210791 242:4.57247370828E-4 243:3.04831580552E-4 244:4.57247370828E-4 245:0.00640146319159 246:9.14494741655E-4 247:0.00411522633745 248:0.00426764212772 249:0.00762078951379 250:0.00396281054717 251:0.00243865264441 252:0.0134125895443 253:0.00548696844993 254:0.00640146319159 255:0.013260173754 256:0.692272519433 
256.0 1:0.00966610437251 2:0.00163333065574 3:9.90708758401E-4 4:3.74862773449E-4 5:0.00160655474335 6:4.01638685838E-4 7:5.35518247784E-4 8:6.15845984952E-4 9:0.00139234744424 10:2.67759123892E-4 11:2.14207299114E-4 12:0.00163333065574 13:3.21310948671E-4 14:8.03277371676E-5 15:2.67759123892E-4 16:0.00238305620264 17:0.00107103649557 18:5.35518247784E-4 19:2.40983211503E-4 20:1.60655474335E-4 21:5.62294160174E-4 22:5.35518247784E-5 23:0.00125846788229 24:0.00265081532653 25:0.00125846788229 26:1.87431386725E-4 27:5.35518247784E-5 28:2.40983211503E-4 29:8.03277371676E-5 30:8.03277371676E-5 31:2.14207299114E-4 32:0.00564971751412 33:0.00147267518141 34:4.28414598227E-4 35:5.62294160174E-4 36:2.14207299114E-4 37:4.55190510617E-4 38:1.07103649557E-4 39:1.07103649557E-4 40:8.03277371676E-5 41:4.01638685838E-4 42:0.00107103649557 43:1.87431386725E-4 44:0.00139234744424 45:8.03277371676E-5 46:8.03277371676E-5 47:1.07103649557E-4 48:0.00179398613008 49:6.9617372212E-4 50:1.87431386725E-4 51:1.33879561946E-4 52:8.03277371676E-5 53:1.60655474335E-4 54:8.03277371676E-5 55:8.03277371676E-5 56:1.33879561946E-4 57:1.87431386725E-4 58:1.60655474335E-4 59:5.35518247784E-5 60:5.35518247784E-5 61:5.35518247784E-5 62:5.35518247784E-5 63:1.07103649557E-4 64:0.00235628029025 65:0.00131201970707 66:2.40983211503E-4 67:4.55190510617E-4 68:8.03277371676E-5 69:3.4808686106E-4 70:2.14207299114E-4 71:1.87431386725E-4 72:1.60655474335E-4 73:2.14207299114E-4 74:5.35518247784E-5 75:8.03277371676E-5 76:1.87431386725E-4 77:1.60655474335E-4 78:1.07103649557E-4 79:1.07103649557E-4 80:2.67759123892E-5 81:1.87431386725E-4 82:1.60655474335E-4 83:1.33879561946E-4 84:1.33879561946E-4 85:2.14207299114E-4 86:8.03277371676E-5 87:1.87431386725E-4 88:5.35518247784E-5 89:1.07103649557E-4 90:0.0 91:5.35518247784E-5 92:8.03277371676E-5 93:5.35518247784E-5 94:2.67759123892E-5 95:5.35518247784E-5 96:4.81966423006E-4 97:1.87431386725E-4 98:1.87431386725E-4 99:1.87431386725E-4 100:2.14207299114E-4 101:8.03277371676E-5 102:2.67759123892E-5 103:1.07103649557E-4 104:1.07103649557E-4 105:9.37156933623E-4 106:0.00136557153185 107:2.67759123892E-4 108:0.00433769780705 109:5.35518247784E-5 110:8.03277371676E-5 111:5.35518247784E-5 112:0.0014994510938 113:1.60655474335E-4 114:1.07103649557E-4 115:2.67759123892E-5 116:1.07103649557E-4 117:5.35518247784E-5 118:8.03277371676E-5 119:1.07103649557E-4 120:1.07103649557E-4 121:2.94535036281E-4 122:2.14207299114E-4 123:0.0 124:7.49725546898E-4 125:1.33879561946E-4 126:1.07103649557E-4 127:1.87431386725E-4 128:0.00492676787962 129:0.00163333065574 130:2.94535036281E-4 131:2.67759123892E-4 132:8.03277371676E-5 133:4.01638685838E-4 134:1.60655474335E-4 135:2.67759123892E-4 136:8.03277371676E-5 137:5.08742335395E-4 138:1.07103649557E-4 139:3.4808686106E-4 140:8.03277371676E-5 141:2.40983211503E-4 142:1.07103649557E-4 143:2.67759123892E-5 144:2.94535036281E-4 145:1.87431386725E-4 146:8.03277371676E-5 147:5.35518247784E-5 148:1.07103649557E-4 149:7.22949634509E-4 150:2.67759123892E-5 151:0.00192786569202 152:0.0019814175168 153:1.33879561946E-4 154:2.67759123892E-5 155:8.03277371676E-5 156:1.60655474335E-4 157:8.03277371676E-5 158:0.0 159:8.03277371676E-5 160:0.00168688248052 161:4.01638685838E-4 162:1.60655474335E-4 163:1.87431386725E-4 164:0.0 165:1.33879561946E-4 166:8.03277371676E-5 167:1.07103649557E-4 168:5.35518247784E-5 169:1.07103649557E-4 170:1.87431386725E-4 171:2.67759123892E-5 172:1.33879561946E-4 173:1.33879561946E-4 174:8.03277371676E-5 175:5.35518247784E-5 176:2.94535036281E-4 177:1.60655474335E-4 178:5.35518247784E-5 179:0.0 180:5.35518247784E-5 181:8.03277371676E-5 182:1.33879561946E-4 183:8.03277371676E-5 184:2.14207299114E-4 185:2.14207299114E-4 186:5.35518247784E-5 187:5.35518247784E-5 188:1.60655474335E-4 189:0.0 190:1.87431386725E-4 191:2.94535036281E-4 192:0.00190108977963 193:3.4808686106E-4 194:2.14207299114E-4 195:1.60655474335E-4 196:2.67759123892E-5 197:2.40983211503E-4 198:1.07103649557E-4 199:0.0 200:5.35518247784E-5 201:1.07103649557E-4 202:2.67759123892E-5 203:5.35518247784E-5 204:0.0 205:1.33879561946E-4 206:0.0 207:1.33879561946E-4 208:1.87431386725E-4 209:0.00125846788229 210:2.67759123892E-5 211:8.03277371676E-5 212:8.03277371676E-5 213:0.00184753795486 214:1.07103649557E-4 215:0.00246338393981 216:0.00155300291857 217:1.87431386725E-4 218:8.03277371676E-5 219:2.67759123892E-5 220:2.40983211503E-4 221:1.87431386725E-4 222:1.60655474335E-4 223:7.22949634509E-4 224:0.00479288831767 225:9.37156933623E-4 226:1.87431386725E-4 227:5.35518247784E-5 228:5.35518247784E-5 229:1.33879561946E-4 230:1.07103649557E-4 231:8.03277371676E-5 232:2.14207299114E-4 233:0.00182076204247 234:0.00144589926902 235:2.67759123892E-5 236:0.00136557153185 237:5.35518247784E-5 238:1.07103649557E-4 239:2.40983211503E-4 240:0.00227595255308 241:0.00238305620264 242:1.07103649557E-4 243:8.03277371676E-5 244:1.60655474335E-4 245:0.00216884890353 246:2.40983211503E-4 247:0.00176721021769 248:0.00265081532653 249:0.00551583795218 250:0.0019814175168 251:6.15845984952E-4 252:0.00503387152917 253:0.00176721021769 254:0.00219562481592 255:0.00559616568935 256:0.852196963612 
256.0 1:0.0101974161707 2:0.00188706633764 3:0.00156045870228 4:4.35476847148E-4 5:0.00166932791407 6:3.62897372623E-4 7:5.80635796197E-4 8:6.89505007984E-4 9:0.00148787922775 10:3.99187109885E-4 11:1.45158949049E-4 12:0.00159674843954 13:3.99187109885E-4 14:3.26607635361E-4 15:3.62897372623E-5 16:0.0025039918711 17:0.00181448686312 18:5.80635796197E-4 19:3.62897372623E-4 20:1.08869211787E-4 21:4.7176658441E-4 22:1.45158949049E-4 23:0.0019233560749 24:0.00283059950646 25:0.00108869211787 26:3.62897372623E-5 27:1.81448686312E-4 28:1.45158949049E-4 29:1.08869211787E-4 30:1.08869211787E-4 31:1.08869211787E-4 32:0.00547975032661 33:0.00174190738859 34:6.16925533459E-4 35:4.7176658441E-4 36:2.54028160836E-4 37:1.81448686312E-4 38:1.08869211787E-4 39:1.81448686312E-4 40:1.45158949049E-4 41:3.99187109885E-4 42:6.16925533459E-4 43:1.45158949049E-4 44:0.00203222528669 45:1.81448686312E-4 46:1.81448686312E-4 47:0.0 48:0.00199593554943 49:4.35476847148E-4 50:4.35476847148E-4 51:2.54028160836E-4 52:7.25794745246E-5 53:2.17738423574E-4 54:1.08869211787E-4 55:2.90317898098E-4 56:2.90317898098E-4 57:3.62897372623E-5 58:1.08869211787E-4 59:7.25794745246E-5 60:3.62897372623E-5 61:7.25794745246E-5 62:7.25794745246E-5 63:1.81448686312E-4 64:0.00217738423574 65:0.00152416896502 66:5.08056321672E-4 67:6.89505007984E-4 68:1.08869211787E-4 69:4.35476847148E-4 70:1.81448686312E-4 71:1.45158949049E-4 72:7.25794745246E-5 73:1.08869211787E-4 74:2.17738423574E-4 75:7.25794745246E-5 76:1.81448686312E-4 77:1.45158949049E-4 78:2.54028160836E-4 79:1.45158949049E-4 80:2.90317898098E-4 81:4.7176658441E-4 82:1.45158949049E-4 83:1.08869211787E-4 84:0.0 85:1.81448686312E-4 86:3.62897372623E-5 87:2.54028160836E-4 88:1.45158949049E-4 89:3.62897372623E-5 90:0.0 91:1.08869211787E-4 92:3.62897372623E-5 93:7.25794745246E-5 94:7.25794745246E-5 95:3.62897372623E-5 96:6.16925533459E-4 97:2.54028160836E-4 98:3.62897372623E-5 99:3.62897372623E-5 100:3.62897372623E-5 101:3.62897372623E-5 102:1.81448686312E-4 103:7.25794745246E-5 104:0.0 105:0.00119756132966 106:0.00141529975323 107:1.08869211787E-4 108:0.00577006822471 109:1.45158949049E-4 110:3.62897372623E-5 111:7.25794745246E-5 112:0.00141529975323 113:1.08869211787E-4 114:1.45158949049E-4 115:1.45158949049E-4 116:7.25794745246E-5 117:1.81448686312E-4 118:1.45158949049E-4 119:3.62897372623E-5 120:1.81448686312E-4 121:1.45158949049E-4 122:1.08869211787E-4 123:3.62897372623E-5 124:7.25794745246E-4 125:2.90317898098E-4 126:3.62897372623E-5 127:3.62897372623E-4 128:0.00518943242851 129:0.00152416896502 130:3.62897372623E-4 131:3.62897372623E-4 132:3.62897372623E-5 133:5.80635796197E-4 134:2.17738423574E-4 135:1.45158949049E-4 136:7.25794745246E-5 137:6.53215270721E-4 138:1.81448686312E-4 139:1.45158949049E-4 140:7.25794745246E-5 141:2.90317898098E-4 142:7.25794745246E-5 143:3.62897372623E-5 144:1.45158949049E-4 145:4.7176658441E-4 146:1.81448686312E-4 147:1.81448686312E-4 148:7.25794745246E-5 149:7.62084482508E-4 150:0.0 151:0.0030846276673 152:0.00312091740456 153:2.90317898098E-4 154:1.08869211787E-4 155:1.81448686312E-4 156:1.81448686312E-4 157:3.62897372623E-5 158:3.62897372623E-5 159:1.45158949049E-4 160:0.00272173029467 161:4.7176658441E-4 162:1.45158949049E-4 163:2.90317898098E-4 164:3.62897372623E-5 165:2.54028160836E-4 166:2.54028160836E-4 167:2.54028160836E-4 168:1.08869211787E-4 169:7.25794745246E-5 170:1.45158949049E-4 171:7.25794745246E-5 172:3.62897372623E-5 173:1.08869211787E-4 174:7.25794745246E-5 175:1.45158949049E-4 176:1.08869211787E-4 177:3.62897372623E-5 178:1.08869211787E-4 179:3.62897372623E-5 180:3.62897372623E-5 181:1.45158949049E-4 182:7.25794745246E-5 183:1.45158949049E-4 184:2.90317898098E-4 185:7.25794745246E-5 186:1.45158949049E-4 187:7.25794745246E-5 188:1.08869211787E-4 189:3.62897372623E-5 190:2.54028160836E-4 191:3.26607635361E-4 192:0.00261286108289 193:3.26607635361E-4 194:7.25794745246E-5 195:3.62897372623E-4 196:1.45158949049E-4 197:1.08869211787E-4 198:3.62897372623E-5 199:1.08869211787E-4 200:1.08869211787E-4 201:1.45158949049E-4 202:2.17738423574E-4 203:0.0 204:1.08869211787E-4 205:0.0 206:0.0 207:1.08869211787E-4 208:2.54028160836E-4 209:0.00301204819277 210:1.81448686312E-4 211:7.25794745246E-5 212:1.08869211787E-4 213:0.00257657134562 214:7.25794745246E-5 215:0.00547975032661 216:0.00348381477718 217:3.26607635361E-4 218:2.17738423574E-4 219:3.62897372623E-5 220:3.99187109885E-4 221:3.62897372623E-4 222:3.26607635361E-4 223:7.98374219771E-4 224:0.00780229351139 225:8.34663957033E-4 226:1.81448686312E-4 227:7.25794745246E-5 228:1.08869211787E-4 229:1.08869211787E-4 230:7.25794745246E-5 231:3.62897372623E-5 232:1.81448686312E-4 233:0.00156045870228 234:0.00119756132966 235:3.62897372623E-5 236:0.00105240238061 237:1.81448686312E-4 238:1.81448686312E-4 239:4.35476847148E-4 240:0.00272173029467 241:0.00348381477718 242:7.25794745246E-5 243:3.62897372623E-5 244:1.45158949049E-4 245:0.00420960952243 246:1.81448686312E-4 247:0.00283059950646 248:0.00290317898098 249:0.00627812454638 250:0.00177819712585 251:9.07243431558E-4 252:0.0041370300479 253:0.00355639425171 254:0.00203222528669 255:0.00791116272318 256:0.819640005806 
256.0 1:0.014200398142 2:0.00232249502322 3:0.00205706702057 4:3.98142003981E-4 5:0.00185799601858 6:5.30856005309E-4 7:3.98142003981E-4 8:0.00126078301261 9:0.00285335102853 10:1.99071001991E-4 11:3.31785003318E-4 12:9.95355009954E-4 13:6.63570006636E-4 14:1.99071001991E-4 15:2.65428002654E-4 16:0.00159256801593 17:0.00245520902455 18:9.2899800929E-4 19:2.65428002654E-4 20:1.32714001327E-4 21:3.31785003318E-4 22:6.63570006636E-5 23:0.00185799601858 24:0.00676841406768 25:0.0021897810219 26:1.99071001991E-4 27:3.31785003318E-4 28:1.99071001991E-4 29:6.63570006636E-5 30:0.0 31:1.99071001991E-4 32:0.00909090909091 33:0.0029197080292 34:7.29927007299E-4 35:1.99071001991E-4 36:1.32714001327E-4 37:5.30856005309E-4 38:3.31785003318E-4 39:1.99071001991E-4 40:1.32714001327E-4 41:2.65428002654E-4 42:0.00112806901128 43:1.32714001327E-4 44:0.00119442601194 45:6.63570006636E-5 46:0.0 47:0.0 48:7.29927007299E-4 49:7.96284007963E-4 50:4.64499004645E-4 51:1.32714001327E-4 52:1.99071001991E-4 53:0.0 54:6.63570006636E-5 55:1.99071001991E-4 56:4.64499004645E-4 57:3.31785003318E-4 58:1.32714001327E-4 59:1.99071001991E-4 60:0.0 61:1.32714001327E-4 62:6.63570006636E-5 63:6.63570006636E-5 64:0.00159256801593 65:0.00132714001327 66:7.29927007299E-4 67:7.96284007963E-4 68:1.32714001327E-4 69:6.63570006636E-4 70:2.65428002654E-4 71:6.63570006636E-5 72:1.99071001991E-4 73:3.98142003981E-4 74:1.32714001327E-4 75:3.31785003318E-4 76:1.32714001327E-4 77:4.64499004645E-4 78:1.32714001327E-4 79:1.99071001991E-4 80:1.99071001991E-4 81:1.99071001991E-4 82:3.31785003318E-4 83:6.63570006636E-5 84:1.32714001327E-4 85:0.0 86:6.63570006636E-5 87:2.65428002654E-4 88:6.63570006636E-5 89:0.0 90:1.32714001327E-4 91:6.63570006636E-5 92:6.63570006636E-5 93:0.0 94:1.32714001327E-4 95:6.63570006636E-5 96:5.30856005309E-4 97:7.29927007299E-4 98:4.64499004645E-4 99:2.65428002654E-4 100:6.63570006636E-5 101:1.99071001991E-4 102:1.32714001327E-4 103:1.32714001327E-4 104:0.0 105:0.00331785003318 106:0.00756469807565 107:3.31785003318E-4 108:0.00384870603849 109:1.99071001991E-4 110:3.98142003981E-4 111:1.32714001327E-4 112:0.00139349701393 113:6.63570006636E-5 114:1.32714001327E-4 115:1.32714001327E-4 116:3.31785003318E-4 117:6.63570006636E-5 118:1.99071001991E-4 119:6.63570006636E-5 120:5.30856005309E-4 121:3.31785003318E-4 122:2.65428002654E-4 123:4.64499004645E-4 124:9.2899800929E-4 125:6.63570006636E-5 126:1.99071001991E-4 127:1.32714001327E-4 128:0.00550763105508 129:0.00179163901792 130:5.30856005309E-4 131:9.95355009954E-4 132:3.31785003318E-4 133:7.29927007299E-4 134:1.32714001327E-4 135:2.65428002654E-4 136:1.99071001991E-4 137:9.95355009954E-4 138:6.63570006636E-5 139:2.65428002654E-4 140:1.99071001991E-4 141:5.30856005309E-4 142:2.65428002654E-4 143:6.63570006636E-5 144:1.32714001327E-4 145:3.31785003318E-4 146:1.32714001327E-4 147:3.98142003981E-4 148:1.32714001327E-4 149:9.2899800929E-4 150:6.63570006636E-5 151:0.00159256801593 152:0.00325149303251 153:2.65428002654E-4 154:1.32714001327E-4 155:6.63570006636E-5 156:1.99071001991E-4 157:0.0 158:6.63570006636E-5 159:2.65428002654E-4 160:0.00232249502322 161:0.00106171201062 162:1.32714001327E-4 163:0.0 164:1.32714001327E-4 165:3.31785003318E-4 166:1.32714001327E-4 167:1.32714001327E-4 168:1.32714001327E-4 169:3.31785003318E-4 170:2.65428002654E-4 171:0.0 172:1.99071001991E-4 173:1.32714001327E-4 174:2.65428002654E-4 175:2.65428002654E-4 176:1.32714001327E-4 177:1.32714001327E-4 178:1.99071001991E-4 179:3.31785003318E-4 180:2.65428002654E-4 181:1.99071001991E-4 182:1.99071001991E-4 183:6.63570006636E-5 184:3.98142003981E-4 185:6.63570006636E-5 186:1.99071001991E-4 187:6.63570006636E-5 188:4.64499004645E-4 189:2.65428002654E-4 190:6.63570006636E-5 191:3.98142003981E-4 192:0.00278699402787 193:4.64499004645E-4 194:2.65428002654E-4 195:1.32714001327E-4 196:6.63570006636E-5 197:2.65428002654E-4 198:0.0 199:2.65428002654E-4 200:1.99071001991E-4 201:2.65428002654E-4 202:2.65428002654E-4 203:6.63570006636E-5 204:1.32714001327E-4 205:1.32714001327E-4 206:1.99071001991E-4 207:1.99071001991E-4 208:6.63570006636E-4 209:0.00238885202389 210:3.31785003318E-4 211:1.99071001991E-4 212:6.63570006636E-5 213:0.00384870603849 214:1.99071001991E-4 215:0.00497677504977 216:8.62641008626E-4 217:2.65428002654E-4 218:6.63570006636E-5 219:0.0 220:3.98142003981E-4 221:6.63570006636E-5 222:4.64499004645E-4 223:4.64499004645E-4 224:0.00723291307233 225:7.96284007963E-4 226:3.31785003318E-4 227:6.63570006636E-5 228:2.65428002654E-4 229:1.99071001991E-4 230:1.32714001327E-4 231:3.31785003318E-4 232:1.99071001991E-4 233:0.00683477106835 234:0.00457863304579 235:3.98142003981E-4 236:0.00258792302588 237:2.65428002654E-4 238:4.64499004645E-4 239:6.63570006636E-4 240:0.00378234903782 241:0.0041804910418 242:3.31785003318E-4 243:1.99071001991E-4 244:5.97213005972E-4 245:0.00199071001991 246:6.63570006636E-5 247:0.00205706702057 248:0.0029197080292 249:0.0105507631055 250:0.00451227604512 251:0.0014598540146 252:0.0106834771068 253:0.00331785003318 254:0.00384870603849 255:0.00796284007963 256:0.76496350365 
256.0 1:0.02185932879 2:0.004629034332 3:0.001157258583 4:1.28584287E-4 5:0.004114697184 6:0.001157258583 7:5.14337148001E-4 8:0.002828854314 9:0.00257168574 10:6.42921435001E-4 11:0.001157258583 12:0.001414427157 13:5.14337148001E-4 14:5.14337148001E-4 15:9.00090009001E-4 16:0.002828854314 17:0.001800180018 18:0.001157258583 19:6.42921435001E-4 20:2.57168574E-4 21:0.00128584287 22:7.71505722001E-4 23:0.002443101453 24:0.00848656294201 25:0.001028674296 26:1.28584287E-4 27:3.85752861E-4 28:3.85752861E-4 29:2.57168574E-4 30:2.57168574E-4 31:6.42921435001E-4 32:0.011058248682 33:0.003986112897 34:0.001157258583 35:7.71505722001E-4 36:6.42921435001E-4 37:0.001028674296 38:0.0 39:1.28584287E-4 40:7.71505722001E-4 41:0.001028674296 42:0.001414427157 43:3.85752861E-4 44:0.002185932879 45:1.28584287E-4 46:0.0 47:1.28584287E-4 48:0.002057348592 49:0.001157258583 50:6.42921435001E-4 51:2.57168574E-4 52:5.14337148001E-4 53:5.14337148001E-4 54:1.28584287E-4 55:1.28584287E-4 56:0.0 57:1.28584287E-4 58:1.28584287E-4 59:3.85752861E-4 60:5.14337148001E-4 61:3.85752861E-4 62:0.0 63:3.85752861E-4 64:0.003214607175 65:7.71505722001E-4 66:6.42921435001E-4 67:3.85752861E-4 68:1.28584287E-4 69:7.71505722001E-4 70:1.28584287E-4 71:1.28584287E-4 72:3.85752861E-4 73:6.42921435001E-4 74:5.14337148001E-4 75:5.14337148001E-4 76:1.28584287E-4 77:3.85752861E-4 78:3.85752861E-4 79:0.0 80:3.85752861E-4 81:5.14337148001E-4 82:3.85752861E-4 83:2.57168574E-4 84:1.28584287E-4 85:0.0 86:1.28584287E-4 87:5.14337148001E-4 88:3.85752861E-4 89:1.28584287E-4 90:0.0 91:2.57168574E-4 92:0.0 93:0.0 94:5.14337148001E-4 95:2.57168574E-4 96:0.001028674296 97:0.001543011444 98:0.001157258583 99:2.57168574E-4 100:1.28584287E-4 101:1.28584287E-4 102:6.42921435001E-4 103:0.0 104:3.85752861E-4 105:0.003214607175 106:0.00591487720201 107:6.42921435001E-4 108:0.004500450045 109:2.57168574E-4 110:0.0 111:3.85752861E-4 112:0.002828854314 113:5.14337148001E-4 114:2.57168574E-4 115:1.28584287E-4 116:2.57168574E-4 117:1.28584287E-4 118:1.28584287E-4 119:1.28584287E-4 120:6.42921435001E-4 121:3.85752861E-4 122:3.85752861E-4 123:3.85752861E-4 124:0.001414427157 125:3.85752861E-4 126:6.42921435001E-4 127:7.71505722001E-4 128:0.00848656294201 129:0.003986112897 130:0.001157258583 131:0.00128584287 132:1.28584287E-4 133:0.001157258583 134:9.00090009001E-4 135:2.57168574E-4 136:3.85752861E-4 137:7.71505722001E-4 138:2.57168574E-4 139:3.85752861E-4 140:3.85752861E-4 141:9.00090009001E-4 142:3.85752861E-4 143:2.57168574E-4 144:9.00090009001E-4 145:9.00090009001E-4 146:0.0 147:0.0 148:2.57168574E-4 149:3.85752861E-4 150:6.42921435001E-4 151:0.002057348592 152:0.001928764305 153:1.28584287E-4 154:1.28584287E-4 155:1.28584287E-4 156:3.85752861E-4 157:0.0 158:1.28584287E-4 159:1.28584287E-4 160:0.002700270027 161:9.00090009001E-4 162:5.14337148001E-4 163:5.14337148001E-4 164:0.0 165:3.85752861E-4 166:0.0 167:2.57168574E-4 168:1.28584287E-4 169:5.14337148001E-4 170:1.28584287E-4 171:3.85752861E-4 172:3.85752861E-4 173:1.28584287E-4 174:2.57168574E-4 175:2.57168574E-4 176:6.42921435001E-4 177:2.57168574E-4 178:3.85752861E-4 179:2.57168574E-4 180:3.85752861E-4 181:2.57168574E-4 182:1.28584287E-4 183:0.0 184:2.57168574E-4 185:1.28584287E-4 186:0.0 187:3.85752861E-4 188:0.001028674296 189:2.57168574E-4 190:0.0 191:2.57168574E-4 192:0.00385752861 193:5.14337148001E-4 194:1.28584287E-4 195:2.57168574E-4 196:2.57168574E-4 197:1.28584287E-4 198:2.57168574E-4 199:2.57168574E-4 200:2.57168574E-4 201:5.14337148001E-4 202:2.57168574E-4 203:0.0 204:1.28584287E-4 205:2.57168574E-4 206:1.28584287E-4 207:6.42921435001E-4 208:6.42921435001E-4 209:0.00385752861 210:6.42921435001E-4 211:0.0 212:2.57168574E-4 213:0.003471775749 214:1.28584287E-4 215:0.00257168574 216:0.00257168574 217:3.85752861E-4 218:3.85752861E-4 219:2.57168574E-4 220:3.85752861E-4 221:0.0 222:7.71505722001E-4 223:0.002314517166 224:0.00797222579401 225:7.71505722001E-4 226:0.0 227:0.0 228:3.85752861E-4 229:1.28584287E-4 230:1.28584287E-4 231:1.28584287E-4 232:3.85752861E-4 233:0.002957438601 234:0.004371865758 235:2.57168574E-4 236:0.002700270027 237:1.28584287E-4 238:9.00090009001E-4 239:6.42921435001E-4 240:0.004500450045 241:0.00501478719301 242:1.28584287E-4 243:0.0 244:0.00128584287 245:0.004886202906 246:6.42921435001E-4 247:0.002957438601 248:0.00514337148001 249:0.00565770862801 250:0.003214607175 251:0.001157258583 252:0.00887231580301 253:0.003471775749 254:0.004114697184 255:0.00848656294201 256:0.709270927093 
256.0 1:0.00777467859318 2:0.00131448174153 3:0.00117020935526 4:3.36635567952E-4 5:9.77846173576E-4 6:2.24423711968E-4 7:4.80907954218E-4 8:7.21361931326E-4 9:0.00136257253695 10:5.6105927992E-4 11:1.12211855984E-4 12:0.00168317783976 13:2.7251450739E-4 14:8.01513257029E-5 15:1.28242121125E-4 16:0.00254881215735 17:0.00109005802956 18:3.04575037671E-4 19:3.20605302812E-4 20:6.41210605623E-5 21:4.00756628515E-4 22:1.12211855984E-4 23:0.00200378314257 24:0.00208393446828 25:9.61815908435E-4 26:2.56484242249E-4 27:1.12211855984E-4 28:3.04575037671E-4 29:1.76332916546E-4 30:4.80907954218E-5 31:3.36635567952E-4 32:0.00620371260941 33:0.00113814882498 34:3.52665833093E-4 35:1.92363181687E-4 36:4.80907954218E-5 37:2.56484242249E-4 38:1.12211855984E-4 39:4.80907954218E-5 40:4.80907954218E-5 41:4.64877689077E-4 42:4.48847423936E-4 43:9.61815908435E-5 44:0.00139463306723 45:6.41210605623E-5 46:9.61815908435E-5 47:1.60302651406E-5 48:0.00209996473342 49:3.84726363374E-4 50:8.01513257029E-5 51:1.60302651406E-4 52:4.80907954218E-5 53:9.61815908435E-5 54:3.20605302812E-5 55:2.24423711968E-4 56:1.76332916546E-4 57:2.08393446828E-4 58:2.56484242249E-4 59:6.41210605623E-5 60:1.92363181687E-4 61:6.41210605623E-5 62:3.20605302812E-5 63:2.08393446828E-4 64:0.00330223461896 65:0.001025936969 66:2.88544772531E-4 67:3.84726363374E-4 68:6.41210605623E-5 69:3.20605302812E-4 70:1.12211855984E-4 71:8.01513257029E-5 72:1.12211855984E-4 73:2.7251450739E-4 74:6.41210605623E-5 75:6.41210605623E-5 76:1.60302651406E-4 77:1.92363181687E-4 78:6.41210605623E-5 79:6.41210605623E-5 80:1.92363181687E-4 81:2.08393446828E-4 82:1.60302651406E-4 83:4.80907954218E-5 84:3.20605302812E-5 85:3.20605302812E-5 86:9.61815908435E-5 87:1.44272386265E-4 88:1.28242121125E-4 89:1.60302651406E-4 90:1.60302651406E-5 91:3.20605302812E-5 92:6.41210605623E-5 93:6.41210605623E-5 94:4.80907954218E-5 95:3.20605302812E-5 96:4.32817158796E-4 97:2.88544772531E-4 98:9.61815908435E-5 99:9.61815908435E-5 100:1.28242121125E-4 101:1.12211855984E-4 102:1.28242121125E-4 103:3.20605302812E-5 104:4.80907954218E-5 105:0.00237247924081 106:0.00189157128659 107:1.12211855984E-4 108:0.00530601776153 109:1.12211855984E-4 110:8.01513257029E-5 111:8.01513257029E-5 112:0.00278926613446 113:1.28242121125E-4 114:9.61815908435E-5 115:1.60302651406E-5 116:9.61815908435E-5 117:4.80907954218E-5 118:8.01513257029E-5 119:9.61815908435E-5 120:1.76332916546E-4 121:2.56484242249E-4 122:1.60302651406E-4 123:9.61815908435E-5 124:6.57240870764E-4 125:1.60302651406E-4 126:1.28242121125E-4 127:3.36635567952E-4 128:0.00775864832804 129:0.00134654227181 130:5.6105927992E-4 131:2.88544772531E-4 132:8.01513257029E-5 133:2.56484242249E-4 134:6.41210605623E-5 135:1.28242121125E-4 136:8.01513257029E-5 137:4.32817158796E-4 138:4.80907954218E-5 139:9.61815908435E-5 140:8.01513257029E-5 141:2.08393446828E-4 142:6.41210605623E-5 143:1.60302651406E-5 144:1.44272386265E-4 145:3.68696098233E-4 146:1.12211855984E-4 147:9.61815908435E-5 148:8.01513257029E-5 149:7.37392196467E-4 150:6.41210605623E-5 151:0.00173126863518 152:0.00248469109679 153:2.40453977109E-4 154:1.12211855984E-4 155:8.01513257029E-5 156:9.61815908435E-5 157:1.12211855984E-4 158:8.01513257029E-5 159:1.60302651406E-4 160:0.00269308454362 161:2.40453977109E-4 162:2.08393446828E-4 163:1.44272386265E-4 164:1.12211855984E-4 165:1.76332916546E-4 166:1.28242121125E-4 167:3.20605302812E-5 168:1.44272386265E-4 169:3.20605302812E-5 170:1.60302651406E-5 171:3.20605302812E-5 172:1.44272386265E-4 173:9.61815908435E-5 174:9.61815908435E-5 175:4.80907954218E-5 176:1.12211855984E-4 177:1.44272386265E-4 178:9.61815908435E-5 179:1.60302651406E-5 180:1.12211855984E-4 181:1.60302651406E-5 182:9.61815908435E-5 183:4.80907954218E-5 184:1.76332916546E-4 185:6.41210605623E-5 186:1.60302651406E-5 187:1.28242121125E-4 188:1.28242121125E-4 189:1.12211855984E-4 190:8.01513257029E-5 191:9.61815908435E-5 192:0.00266102401334 193:5.4502901478E-4 194:6.41210605623E-5 195:8.01513257029E-5 196:1.12211855984E-4 197:8.01513257029E-5 198:9.61815908435E-5 199:1.92363181687E-4 200:6.41210605623E-5 201:1.44272386265E-4 202:3.20605302812E-5 203:1.60302651406E-5 204:6.41210605623E-5 205:9.61815908435E-5 206:8.01513257029E-5 207:4.80907954218E-5 208:1.76332916546E-4 209:0.00158699624892 210:9.61815908435E-5 211:2.40453977109E-4 212:1.12211855984E-4 213:0.00179538969575 214:2.24423711968E-4 215:0.00394344522458 216:0.00266102401334 217:1.60302651406E-4 218:1.44272386265E-4 219:1.60302651406E-5 220:2.40453977109E-4 221:1.60302651406E-4 222:2.24423711968E-4 223:5.4502901478E-4 224:0.00681286268475 225:8.1754352217E-4 226:1.12211855984E-4 227:4.80907954218E-5 228:1.28242121125E-4 229:4.80907954218E-5 230:4.80907954218E-5 231:4.80907954218E-5 232:1.76332916546E-4 233:0.00419992946683 234:0.00304575037671 235:1.92363181687E-4 236:0.00322208329326 237:2.08393446828E-4 238:1.60302651406E-4 239:2.08393446828E-4 240:0.00309384117213 241:0.00226026738482 242:1.92363181687E-4 243:1.44272386265E-4 244:2.56484242249E-4 245:0.00216408579398 246:8.01513257029E-5 247:0.00309384117213 248:0.00274117533904 249:0.0100670065083 250:0.00444038344394 251:7.21361931326E-4 252:0.00984258279632 253:0.00355871886121 254:0.00310987143727 255:0.00822352601712 256:0.817527491905 
218.57426509916738 1:0.0212765957447 2:0.00354609929078 3:0.00223272918308 4:5.25348043079E-4 5:0.00420278434463 6:7.88022064618E-4 7:0.00105069608616 8:5.25348043079E-4 9:0.00249540320462 10:7.88022064618E-4 11:5.25348043079E-4 12:0.00380877331232 13:5.25348043079E-4 14:1.3133701077E-4 15:2.62674021539E-4 16:0.00144470711847 17:0.00210139217231 18:7.88022064618E-4 19:7.88022064618E-4 20:5.25348043079E-4 21:3.94011032309E-4 22:0.0 23:0.0030207512477 24:0.00315208825847 25:0.00105069608616 26:0.0 27:3.94011032309E-4 28:2.62674021539E-4 29:1.3133701077E-4 30:0.0 31:2.62674021539E-4 32:0.00144470711847 33:0.00288941423693 34:0.00105069608616 35:0.00157604412924 36:3.94011032309E-4 37:7.88022064618E-4 38:7.88022064618E-4 39:1.3133701077E-4 40:1.3133701077E-4 41:9.19359075387E-4 42:0.00197005516154 43:2.62674021539E-4 44:0.00420278434463 45:2.62674021539E-4 46:3.94011032309E-4 47:2.62674021539E-4 48:0.00407144733386 49:0.00197005516154 50:0.0013133701077 51:5.25348043079E-4 52:3.94011032309E-4 53:5.25348043079E-4 54:2.62674021539E-4 55:2.62674021539E-4 56:2.62674021539E-4 57:1.3133701077E-4 58:5.25348043079E-4 59:1.3133701077E-4 60:0.0 61:2.62674021539E-4 62:0.0 63:1.3133701077E-4 64:0.00197005516154 65:0.00157604412924 66:0.00183871815077 67:0.00183871815077 68:2.62674021539E-4 69:0.00105069608616 70:6.56685053848E-4 71:2.62674021539E-4 72:1.3133701077E-4 73:9.19359075387E-4 74:3.94011032309E-4 75:2.62674021539E-4 76:2.62674021539E-4 77:3.94011032309E-4 78:2.62674021539E-4 79:1.3133701077E-4 80:5.25348043079E-4 81:3.94011032309E-4 82:3.94011032309E-4 83:5.25348043079E-4 84:1.3133701077E-4 85:3.94011032309E-4 86:1.3133701077E-4 87:1.3133701077E-4 88:0.0 89:2.62674021539E-4 90:1.3133701077E-4 91:0.0 92:0.0 93:1.3133701077E-4 94:0.0 95:0.0 96:7.88022064618E-4 97:5.25348043079E-4 98:2.62674021539E-4 99:1.3133701077E-4 100:3.94011032309E-4 101:2.62674021539E-4 102:2.62674021539E-4 103:0.0 104:0.0 105:0.00315208825847 106:0.00801155765695 107:3.94011032309E-4 108:0.0107696348831 109:1.3133701077E-4 110:1.3133701077E-4 111:1.3133701077E-4 112:0.00236406619385 113:2.62674021539E-4 114:1.3133701077E-4 115:1.3133701077E-4 116:2.62674021539E-4 117:1.3133701077E-4 118:3.94011032309E-4 119:0.0 120:9.19359075387E-4 121:2.62674021539E-4 122:1.3133701077E-4 123:1.3133701077E-4 124:0.00210139217231 125:1.3133701077E-4 126:3.94011032309E-4 127:2.62674021539E-4 128:0.00630417651694 129:0.0030207512477 130:1.3133701077E-4 131:6.56685053848E-4 132:0.0 133:0.00170738114001 134:1.3133701077E-4 135:5.25348043079E-4 136:0.0 137:0.00144470711847 138:6.56685053848E-4 139:3.94011032309E-4 140:1.3133701077E-4 141:0.00118203309693 142:5.25348043079E-4 143:6.56685053848E-4 144:3.94011032309E-4 145:2.62674021539E-4 146:3.94011032309E-4 147:2.62674021539E-4 148:2.62674021539E-4 149:0.0013133701077 150:0.0 151:0.00275807722616 152:0.00354609929078 153:5.25348043079E-4 154:3.94011032309E-4 155:2.62674021539E-4 156:1.3133701077E-4 157:1.3133701077E-4 158:1.3133701077E-4 159:0.0 160:0.00118203309693 161:9.19359075387E-4 162:2.62674021539E-4 163:6.56685053848E-4 164:1.3133701077E-4 165:2.62674021539E-4 166:5.25348043079E-4 167:2.62674021539E-4 168:1.3133701077E-4 169:3.94011032309E-4 170:3.94011032309E-4 171:2.62674021539E-4 172:1.3133701077E-4 173:1.3133701077E-4 174:2.62674021539E-4 175:0.0 176:3.94011032309E-4 177:2.62674021539E-4 178:0.0 179:2.62674021539E-4 180:3.94011032309E-4 181:5.25348043079E-4 182:3.94011032309E-4 183:1.3133701077E-4 184:2.62674021539E-4 185:2.62674021539E-4 186:0.0 187:1.3133701077E-4 188:5.25348043079E-4 189:1.3133701077E-4 190:2.62674021539E-4 191:7.88022064618E-4 192:0.0030207512477 193:7.88022064618E-4 194:1.3133701077E-4 195:5.25348043079E-4 196:5.25348043079E-4 197:7.88022064618E-4 198:2.62674021539E-4 199:6.56685053848E-4 200:0.0 201:2.62674021539E-4 202:1.3133701077E-4 203:0.0 204:0.0 205:2.62674021539E-4 206:0.0 207:2.62674021539E-4 208:0.0 209:0.00354609929078 210:3.94011032309E-4 211:1.3133701077E-4 212:1.3133701077E-4 213:0.00380877331232 214:1.3133701077E-4 215:0.00210139217231 216:0.00144470711847 217:2.62674021539E-4 218:2.62674021539E-4 219:1.3133701077E-4 220:3.94011032309E-4 221:5.25348043079E-4 222:2.62674021539E-4 223:0.0013133701077 224:0.00630417651694 225:0.00144470711847 226:5.25348043079E-4 227:0.0 228:3.94011032309E-4 229:2.62674021539E-4 230:1.3133701077E-4 231:2.62674021539E-4 232:3.94011032309E-4 233:0.00144470711847 234:0.00551615445232 235:0.0 236:0.00577882847386 237:6.56685053848E-4 238:7.88022064618E-4 239:0.00118203309693 240:0.00354609929078 241:0.00341476228001 242:1.3133701077E-4 243:1.3133701077E-4 244:0.0 245:0.00367743630155 246:3.94011032309E-4 247:0.00118203309693 248:0.00354609929078 249:0.00262674021539 250:0.00236406619385 251:0.00144470711847 252:0.0140530601524 253:0.00118203309693 254:0.00380877331232 255:0.00512214342002 256:0.732991857105 
256.0 1:0.00683642368827 2:0.00101999927143 3:0.0010321421199 4:2.42856969388E-4 5:0.00138428472551 6:2.54999817857E-4 7:3.88571151021E-4 8:5.58571029592E-4 9:8.13570847449E-4 10:4.12856847959E-4 11:1.82142727041E-4 12:0.00160285599796 13:2.18571272449E-4 14:7.28570908164E-5 15:9.71427877552E-5 16:0.00200356999745 17:9.47142180613E-4 18:3.15714060204E-4 19:2.0642842398E-4 20:1.57857030102E-4 21:3.27856908674E-4 22:1.09285636225E-4 23:0.00131142763469 24:0.00217356987602 25:4.97856787245E-4 26:1.09285636225E-4 27:2.42856969388E-5 28:1.57857030102E-4 29:1.09285636225E-4 30:2.42856969388E-5 31:1.82142727041E-4 32:0.00513642490255 33:0.00114142775612 34:4.24999696429E-4 35:3.03571211735E-4 36:1.09285636225E-4 37:2.0642842398E-4 38:1.45714181633E-4 39:4.85713938776E-5 40:6.0714242347E-5 41:4.97856787245E-4 42:6.67856665817E-4 43:8.49999392858E-5 44:0.00282928369337 45:1.09285636225E-4 46:1.09285636225E-4 47:8.49999392858E-5 48:0.00211285563367 49:3.52142605612E-4 50:2.30714120918E-4 51:3.64285454082E-5 52:9.71427877552E-5 53:2.42856969388E-5 54:6.0714242347E-5 55:6.0714242347E-5 56:7.28570908164E-5 57:1.82142727041E-4 58:7.28570908164E-5 59:6.0714242347E-5 60:1.69999878572E-4 61:4.85713938776E-5 62:2.42856969388E-5 63:4.85713938776E-5 64:0.00286571223878 65:0.00108071351378 66:2.79285514796E-4 67:4.73571090306E-4 68:7.28570908164E-5 69:3.76428302551E-4 70:1.9428557551E-4 71:6.0714242347E-5 72:1.09285636225E-4 73:2.42856969388E-4 74:1.33571333163E-4 75:3.64285454082E-5 76:1.21428484694E-4 77:1.09285636225E-4 78:3.64285454082E-5 79:6.0714242347E-5 80:1.21428484694E-4 81:2.0642842398E-4 82:1.9428557551E-4 83:4.85713938776E-5 84:4.85713938776E-5 85:1.33571333163E-4 86:1.21428484694E-5 87:9.71427877552E-5 88:1.45714181633E-4 89:4.85713938776E-5 90:7.28570908164E-5 91:2.42856969388E-5 92:3.64285454082E-5 93:1.21428484694E-5 94:1.21428484694E-5 95:4.85713938776E-5 96:3.88571151021E-4 97:3.15714060204E-4 98:8.49999392858E-5 99:8.49999392858E-5 100:6.0714242347E-5 101:4.85713938776E-5 102:4.85713938776E-5 103:2.42856969388E-5 104:1.21428484694E-5 105:0.00241642684541 106:0.00346071181378 107:1.82142727041E-4 108:0.0109285636225 109:1.21428484694E-4 110:1.21428484694E-4 111:1.21428484694E-4 112:0.00398285429796 113:6.0714242347E-5 114:8.49999392858E-5 115:4.85713938776E-5 116:4.85713938776E-5 117:4.85713938776E-5 118:2.42856969388E-5 119:9.71427877552E-5 120:2.30714120918E-4 121:2.54999817857E-4 122:2.67142666327E-4 123:1.45714181633E-4 124:7.77142302041E-4 125:7.28570908164E-5 126:1.45714181633E-4 127:1.21428484694E-4 128:0.00825713695919 129:0.00101999927143 130:2.18571272449E-4 131:1.9428557551E-4 132:8.49999392858E-5 133:3.39999757143E-4 134:9.71427877552E-5 135:6.0714242347E-5 136:3.64285454082E-5 137:4.85713938776E-4 138:7.28570908164E-5 139:1.82142727041E-4 140:4.85713938776E-5 141:1.69999878572E-4 142:7.28570908164E-5 143:6.0714242347E-5 144:1.09285636225E-4 145:2.18571272449E-4 146:7.28570908164E-5 147:6.0714242347E-5 148:8.49999392858E-5 149:4.12856847959E-4 150:4.85713938776E-5 151:0.00161499884643 152:0.00203999854286 153:1.45714181633E-4 154:4.85713938776E-5 155:4.85713938776E-5 156:4.85713938776E-5 157:9.71427877552E-5 158:6.0714242347E-5 159:1.09285636225E-4 160:0.00227071266378 161:3.52142605612E-4 162:1.21428484694E-4 163:2.79285514796E-4 164:1.21428484694E-5 165:8.49999392858E-5 166:1.21428484694E-4 167:4.85713938776E-5 168:6.0714242347E-5 169:1.45714181633E-4 170:1.69999878572E-4 171:4.85713938776E-5 172:4.85713938776E-5 173:4.85713938776E-5 174:9.71427877552E-5 175:2.42856969388E-5 176:2.0642842398E-4 177:1.09285636225E-4 178:6.0714242347E-5 179:4.85713938776E-5 180:3.64285454082E-5 181:1.21428484694E-4 182:6.0714242347E-5 183:6.0714242347E-5 184:1.69999878572E-4 185:7.28570908164E-5 186:6.0714242347E-5 187:7.28570908164E-5 188:1.69999878572E-4 189:6.0714242347E-5 190:1.33571333163E-4 191:7.28570908164E-5 192:0.00196714145204 193:1.9428557551E-4 194:4.85713938776E-5 195:1.21428484694E-4 196:4.85713938776E-5 197:8.49999392858E-5 198:4.85713938776E-5 199:1.09285636225E-4 200:8.49999392858E-5 201:1.21428484694E-4 202:9.71427877552E-5 203:4.85713938776E-5 204:1.33571333163E-4 205:3.64285454082E-5 206:8.49999392858E-5 207:1.09285636225E-4 208:1.69999878572E-4 209:0.00143285611939 210:3.64285454082E-5 211:1.09285636225E-4 212:1.21428484694E-4 213:0.00171214163418 214:7.28570908164E-5 215:0.00363071169235 216:0.00201571284592 217:1.9428557551E-4 218:9.71427877552E-5 219:2.42856969388E-5 220:1.57857030102E-4 221:1.09285636225E-4 222:8.49999392858E-5 223:5.09999635715E-4 224:0.00593785290153 225:5.34285332653E-4 226:1.09285636225E-4 227:1.21428484694E-4 228:4.85713938776E-5 229:1.21428484694E-4 230:7.28570908164E-5 231:4.85713938776E-5 232:1.09285636225E-4 233:0.00461428241837 234:0.00349714035919 235:1.45714181633E-4 236:0.00462642526684 237:1.69999878572E-4 238:1.57857030102E-4 239:1.69999878572E-4 240:0.0025378553301 241:0.00203999854286 242:1.57857030102E-4 243:1.69999878572E-4 244:1.21428484694E-4 245:0.00225856981531 246:1.33571333163E-4 247:0.00199142714898 248:0.00225856981531 249:0.00820856556531 250:0.00534285332653 251:6.31428120408E-4 252:0.0121914198633 253:0.00271999805714 254:0.00246499823929 255:0.00664213811276 256:0.822010127136 
256.0 1:0.00482561691834 2:7.73096250483E-4 3:4.92537127324E-4 4:1.99508709802E-4 5:8.60381311022E-4 6:2.43151240071E-4 7:3.92782772423E-4 8:4.48894597055E-4 9:8.5414666384E-4 10:2.05743356983E-4 11:1.05989002082E-4 12:9.16493135653E-4 13:1.74570121077E-4 14:2.49385887253E-5 15:6.85811189945E-5 16:0.00134668379116 17:7.60626956121E-4 18:2.61855181615E-4 19:1.4339688517E-4 20:5.61118246318E-5 21:3.17967006247E-4 22:6.85811189945E-5 23:0.00162724291432 24:0.00230681945709 25:4.42659949873E-4 26:7.48157661758E-5 27:3.11732359066E-5 28:1.05989002082E-4 29:5.61118246318E-5 30:4.98771774505E-5 31:1.12223649264E-4 32:0.00452011920645 33:7.35688367395E-4 34:3.17967006247E-4 35:7.48157661758E-5 36:8.72850605384E-5 37:1.4339688517E-4 38:6.23464718132E-5 39:4.36425302692E-5 40:4.36425302692E-5 41:2.43151240071E-4 42:6.04760776588E-4 43:8.72850605384E-5 44:0.00128433731935 45:4.36425302692E-5 46:4.98771774505E-5 47:2.49385887253E-5 48:0.00134668379116 49:2.80559123159E-4 50:1.18458296445E-4 51:4.98771774505E-5 52:6.23464718132E-5 53:5.61118246318E-5 54:2.49385887253E-5 55:6.85811189945E-5 56:1.05989002082E-4 57:8.10504133571E-5 58:5.61118246318E-5 59:1.87039415439E-5 60:6.23464718132E-5 61:6.23464718132E-6 62:3.11732359066E-5 63:6.23464718132E-5 64:0.00177687444668 65:3.86548125242E-4 66:1.4339688517E-4 67:2.11978004165E-4 68:4.36425302692E-5 69:1.68335473896E-4 70:6.85811189945E-5 71:8.10504133571E-5 72:1.87039415439E-5 73:1.62100826714E-4 74:6.85811189945E-5 75:6.23464718132E-5 76:6.85811189945E-5 77:9.35197077197E-5 78:4.98771774505E-5 79:4.98771774505E-5 80:7.48157661758E-5 81:9.35197077197E-5 82:9.35197077197E-5 83:7.48157661758E-5 84:3.74078830879E-5 85:7.48157661758E-5 86:4.36425302692E-5 87:9.35197077197E-5 88:1.30927590808E-4 89:4.98771774505E-5 90:4.36425302692E-5 91:4.36425302692E-5 92:5.61118246318E-5 93:3.11732359066E-5 94:3.11732359066E-5 95:3.11732359066E-5 96:3.61609536516E-4 97:1.80804768258E-4 98:8.72850605384E-5 99:7.48157661758E-5 100:6.85811189945E-5 101:4.98771774505E-5 102:2.49385887253E-5 103:1.87039415439E-5 104:6.23464718132E-5 105:0.00120328690599 106:0.00158983503124 107:1.18458296445E-4 108:0.00429567190793 109:8.72850605384E-5 110:8.10504133571E-5 111:4.98771774505E-5 112:0.00178310909386 113:3.74078830879E-5 114:6.23464718132E-5 115:2.49385887253E-5 116:6.23464718132E-5 117:3.11732359066E-5 118:2.49385887253E-5 119:6.85811189945E-5 120:1.24692943626E-4 121:1.05989002082E-4 122:9.97543549011E-5 123:3.74078830879E-5 124:4.55129244236E-4 125:3.74078830879E-5 126:8.72850605384E-5 127:1.24692943626E-4 128:0.00475080115216 129:7.41923014577E-4 130:1.80804768258E-4 131:1.30927590808E-4 132:6.23464718132E-5 133:3.24201653428E-4 134:8.10504133571E-5 135:4.36425302692E-5 136:4.98771774505E-5 137:2.80559123159E-4 138:4.36425302692E-5 139:8.10504133571E-5 140:6.23464718132E-5 141:1.37162237989E-4 142:3.74078830879E-5 143:3.11732359066E-5 144:3.74078830879E-5 145:1.93274062621E-4 146:6.85811189945E-5 147:8.10504133571E-5 148:4.36425302692E-5 149:3.3043630061E-4 150:3.74078830879E-5 151:0.00148384602915 152:0.00231928875145 153:8.10504133571E-5 154:2.49385887253E-5 155:4.98771774505E-5 156:8.10504133571E-5 157:4.98771774505E-5 158:3.74078830879E-5 159:1.05989002082E-4 160:0.00257490928588 161:2.24447298527E-4 162:4.98771774505E-5 163:8.10504133571E-5 164:4.98771774505E-5 165:8.10504133571E-5 166:8.10504133571E-5 167:4.98771774505E-5 168:5.61118246318E-5 169:3.11732359066E-5 170:5.61118246318E-5 171:2.49385887253E-5 172:3.11732359066E-5 173:4.98771774505E-5 174:2.49385887253E-5 175:1.24692943626E-5 176:1.18458296445E-4 177:5.61118246318E-5 178:2.49385887253E-5 179:2.49385887253E-5 180:5.61118246318E-5 181:6.85811189945E-5 182:5.61118246318E-5 183:3.74078830879E-5 184:1.55866179533E-4 185:3.74078830879E-5 186:4.98771774505E-5 187:1.87039415439E-5 188:6.23464718132E-5 189:3.74078830879E-5 190:8.72850605384E-5 191:9.35197077197E-5 192:0.00155866179533 193:1.80804768258E-4 194:8.10504133571E-5 195:4.36425302692E-5 196:5.61118246318E-5 197:8.10504133571E-5 198:4.36425302692E-5 199:7.48157661758E-5 200:3.11732359066E-5 201:7.48157661758E-5 202:8.72850605384E-5 203:1.24692943626E-5 204:8.10504133571E-5 205:2.49385887253E-5 206:2.49385887253E-5 207:1.87039415439E-5 208:1.55866179533E-4 209:0.00109729790391 210:9.35197077197E-5 211:7.48157661758E-5 212:7.48157661758E-5 213:0.001134705787 214:3.74078830879E-5 215:0.0039028891355 216:0.00239410451763 217:8.72850605384E-5 218:4.98771774505E-5 219:1.87039415439E-5 220:1.18458296445E-4 221:1.12223649264E-4 222:9.97543549011E-5 223:4.42659949873E-4 224:0.00622841253413 225:4.30190655511E-4 226:6.85811189945E-5 227:6.23464718132E-6 228:1.24692943626E-5 229:6.85811189945E-5 230:3.11732359066E-5 231:2.49385887253E-5 232:8.72850605384E-5 233:0.0013030412609 234:0.00170829332768 235:4.98771774505E-5 236:0.00211978004165 237:5.61118246318E-5 238:1.24692943626E-4 239:8.72850605384E-5 240:0.00163971220869 241:0.00131551055526 242:4.36425302692E-5 243:8.10504133571E-5 244:9.35197077197E-5 245:0.00129680661371 246:5.61118246318E-5 247:0.00180804768258 248:0.00146514208761 249:0.00385301195805 250:0.00196391386211 251:3.49140242154E-4 252:0.00529321545694 253:0.00155866179533 254:0.00139656096861 255:0.00427696796638 256:0.887078070252 
256.0 1:0.0185277500831 2:0.0033233632436 3:0.00216018610834 4:6.64672648721E-4 5:0.00365569956796 6:0.00108009305417 7:1.6616816218E-4 8:0.00108009305417 9:0.00240943835161 10:8.30840810901E-4 11:2.4925224327E-4 12:0.00124626121635 13:9.13924891991E-4 14:1.6616816218E-4 15:4.1542040545E-4 16:0.0033233632436 17:0.00257560651379 18:8.30840810901E-4 19:6.64672648721E-4 20:0.0 21:4.1542040545E-4 22:7.47756729811E-4 23:0.0024925224327 24:0.00564971751412 25:8.30840810901E-4 26:2.4925224327E-4 27:8.30840810901E-5 28:1.6616816218E-4 29:0.0 30:3.3233632436E-4 31:3.3233632436E-4 32:0.00199401794616 33:0.00357261548687 34:6.64672648721E-4 35:0.00108009305417 36:1.6616816218E-4 37:7.47756729811E-4 38:4.9850448654E-4 39:1.6616816218E-4 40:1.6616816218E-4 41:8.30840810901E-4 42:0.00191093386507 43:1.6616816218E-4 44:0.00174476570289 45:2.4925224327E-4 46:8.30840810901E-5 47:3.3233632436E-4 48:0.0016616816218 49:7.47756729811E-4 50:4.9850448654E-4 51:4.9850448654E-4 52:8.30840810901E-5 53:4.1542040545E-4 54:2.4925224327E-4 55:1.6616816218E-4 56:4.1542040545E-4 57:4.9850448654E-4 58:2.4925224327E-4 59:8.30840810901E-5 60:2.4925224327E-4 61:8.30840810901E-5 62:8.30840810901E-5 63:2.4925224327E-4 64:0.0016616816218 65:0.00232635427052 66:8.30840810901E-4 67:4.1542040545E-4 68:3.3233632436E-4 69:4.9850448654E-4 70:4.1542040545E-4 71:0.0 72:1.6616816218E-4 73:4.9850448654E-4 74:6.64672648721E-4 75:8.30840810901E-5 76:3.3233632436E-4 77:1.6616816218E-4 78:1.6616816218E-4 79:2.4925224327E-4 80:3.3233632436E-4 81:1.6616816218E-4 82:0.0 83:8.30840810901E-5 84:8.30840810901E-5 85:2.4925224327E-4 86:8.30840810901E-5 87:8.30840810901E-5 88:2.4925224327E-4 89:4.1542040545E-4 90:8.30840810901E-5 91:1.6616816218E-4 92:2.4925224327E-4 93:8.30840810901E-5 94:8.30840810901E-5 95:3.3233632436E-4 96:0.00157859754071 97:1.6616816218E-4 98:4.1542040545E-4 99:1.6616816218E-4 100:1.6616816218E-4 101:3.3233632436E-4 102:4.1542040545E-4 103:1.6616816218E-4 104:8.30840810901E-5 105:0.00216018610834 106:0.00739448321702 107:1.6616816218E-4 108:0.00382186773014 109:3.3233632436E-4 110:4.1542040545E-4 111:2.4925224327E-4 112:0.00174476570289 113:4.9850448654E-4 114:4.1542040545E-4 115:1.6616816218E-4 116:8.30840810901E-5 117:3.3233632436E-4 118:2.4925224327E-4 119:1.6616816218E-4 120:4.1542040545E-4 121:8.30840810901E-5 122:3.3233632436E-4 123:2.4925224327E-4 124:0.00149551345962 125:3.3233632436E-4 126:7.47756729811E-4 127:5.8158856763E-4 128:0.00481887670322 129:0.0024925224327 130:3.3233632436E-4 131:4.9850448654E-4 132:8.30840810901E-5 133:0.00132934529744 134:4.1542040545E-4 135:2.4925224327E-4 136:2.4925224327E-4 137:8.30840810901E-4 138:2.4925224327E-4 139:4.1542040545E-4 140:2.4925224327E-4 141:7.47756729811E-4 142:8.30840810901E-5 143:4.9850448654E-4 144:1.6616816218E-4 145:5.8158856763E-4 146:3.3233632436E-4 147:4.1542040545E-4 148:1.6616816218E-4 149:4.9850448654E-4 150:2.4925224327E-4 151:0.00481887670322 152:0.00523429710867 153:7.47756729811E-4 154:2.4925224327E-4 155:2.4925224327E-4 156:0.0 157:1.6616816218E-4 158:8.30840810901E-5 159:2.4925224327E-4 160:0.0016616816218 161:0.00108009305417 162:5.8158856763E-4 163:4.1542040545E-4 164:4.9850448654E-4 165:4.9850448654E-4 166:3.3233632436E-4 167:2.4925224327E-4 168:4.1542040545E-4 169:0.0 170:1.6616816218E-4 171:3.3233632436E-4 172:4.1542040545E-4 173:4.9850448654E-4 174:1.6616816218E-4 175:8.30840810901E-5 176:4.1542040545E-4 177:0.0 178:0.0 179:4.9850448654E-4 180:3.3233632436E-4 181:1.6616816218E-4 182:8.30840810901E-5 183:5.8158856763E-4 184:5.8158856763E-4 185:1.6616816218E-4 186:1.6616816218E-4 187:8.30840810901E-5 188:4.1542040545E-4 189:8.30840810901E-5 190:6.64672648721E-4 191:5.8158856763E-4 192:0.00324027916251 193:9.97008973081E-4 194:2.4925224327E-4 195:1.6616816218E-4 196:8.30840810901E-5 197:0.00108009305417 198:3.3233632436E-4 199:3.3233632436E-4 200:3.3233632436E-4 201:4.9850448654E-4 202:2.4925224327E-4 203:8.30840810901E-5 204:8.30840810901E-5 205:8.30840810901E-5 206:1.6616816218E-4 207:0.0 208:4.9850448654E-4 209:0.00191093386507 210:1.6616816218E-4 211:3.3233632436E-4 212:0.0 213:0.00398803589232 214:1.6616816218E-4 215:0.00207710202725 216:0.00224327018943 217:3.3233632436E-4 218:1.6616816218E-4 219:2.4925224327E-4 220:4.9850448654E-4 221:1.6616816218E-4 222:0.00116317713526 223:0.00108009305417 224:0.00739448321702 225:8.30840810901E-4 226:3.3233632436E-4 227:8.30840810901E-5 228:8.30840810901E-5 229:2.4925224327E-4 230:1.6616816218E-4 231:8.30840810901E-5 232:7.47756729811E-4 233:0.00257560651379 234:0.00423728813559 235:3.3233632436E-4 236:0.00141242937853 237:3.3233632436E-4 238:4.1542040545E-4 239:8.30840810901E-4 240:0.00373878364905 241:0.00340644732469 242:2.4925224327E-4 243:2.4925224327E-4 244:8.30840810901E-4 245:0.00216018610834 246:3.3233632436E-4 247:0.00199401794616 248:0.00348953140578 249:0.00382186773014 250:0.00216018610834 251:0.0016616816218 252:0.00797607178465 253:0.00174476570289 254:0.00365569956796 255:0.00515121302758 256:0.76063476238 
256.0 1:0.0129335684891 2:0.00141093474427 3:0.00117577895356 4:2.35155790711E-4 5:0.00188124632569 6:3.52733686067E-4 7:5.87889476778E-4 8:0.00176366843034 9:0.00164609053498 10:9.40623162845E-4 11:3.52733686067E-4 12:0.00188124632569 13:5.87889476778E-4 14:1.17577895356E-4 15:1.17577895356E-4 16:0.00235155790711 17:0.00305702527925 18:3.52733686067E-4 19:7.05467372134E-4 20:0.0 21:8.2304526749E-4 22:1.17577895356E-4 23:0.00258671369782 24:0.00435038212816 25:0.00458553791887 26:1.17577895356E-4 27:1.17577895356E-4 28:0.0 29:3.52733686067E-4 30:0.0 31:8.2304526749E-4 32:0.0209288653733 33:0.00152851263962 34:7.05467372134E-4 35:2.35155790711E-4 36:2.35155790711E-4 37:2.35155790711E-4 38:1.17577895356E-4 39:1.17577895356E-4 40:0.0 41:2.35155790711E-4 42:0.00117577895356 43:0.0 44:0.00305702527925 45:0.0 46:0.0 47:1.17577895356E-4 48:0.00329218106996 49:0.00117577895356 50:5.87889476778E-4 51:3.52733686067E-4 52:0.0 53:2.35155790711E-4 54:0.0 55:1.17577895356E-4 56:3.52733686067E-4 57:2.35155790711E-4 58:2.35155790711E-4 59:0.0 60:2.35155790711E-4 61:1.17577895356E-4 62:0.0 63:1.17577895356E-4 64:0.00258671369782 65:0.00117577895356 66:3.52733686067E-4 67:0.00235155790711 68:2.35155790711E-4 69:7.05467372134E-4 70:0.0 71:0.0 72:1.17577895356E-4 73:4.70311581423E-4 74:0.0 75:0.0 76:0.0 77:0.0 78:0.0 79:0.0 80:2.35155790711E-4 81:1.17577895356E-4 82:3.52733686067E-4 83:1.17577895356E-4 84:0.0 85:0.0 86:1.17577895356E-4 87:3.52733686067E-4 88:0.0 89:2.35155790711E-4 90:0.0 91:1.17577895356E-4 92:1.17577895356E-4 93:0.0 94:0.0 95:0.0 96:4.70311581423E-4 97:2.35155790711E-4 98:4.70311581423E-4 99:0.0 100:0.0 101:0.0 102:0.0 103:0.0 104:3.52733686067E-4 105:5.87889476778E-4 106:0.00199882422105 107:1.17577895356E-4 108:0.0061140505585 109:3.52733686067E-4 110:1.17577895356E-4 111:2.35155790711E-4 112:0.00258671369782 113:3.52733686067E-4 114:0.0 115:1.17577895356E-4 116:1.17577895356E-4 117:1.17577895356E-4 118:0.0 119:0.0 120:0.0 121:3.52733686067E-4 122:0.0 123:1.17577895356E-4 124:4.70311581423E-4 125:1.17577895356E-4 126:2.35155790711E-4 127:0.0 128:0.00846560846561 129:0.00176366843034 130:3.52733686067E-4 131:7.05467372134E-4 132:1.17577895356E-4 133:4.70311581423E-4 134:1.17577895356E-4 135:1.17577895356E-4 136:0.0 137:3.52733686067E-4 138:0.0 139:2.35155790711E-4 140:1.17577895356E-4 141:8.2304526749E-4 142:0.0 143:1.17577895356E-4 144:2.35155790711E-4 145:8.2304526749E-4 146:1.17577895356E-4 147:0.0 148:0.0 149:0.00199882422105 150:2.35155790711E-4 151:0.00305702527925 152:0.00329218106996 153:1.17577895356E-4 154:1.17577895356E-4 155:0.0 156:1.17577895356E-4 157:5.87889476778E-4 158:0.0 159:4.70311581423E-4 160:0.0031746031746 161:9.40623162845E-4 162:1.17577895356E-4 163:3.52733686067E-4 164:0.0 165:2.35155790711E-4 166:1.17577895356E-4 167:1.17577895356E-4 168:0.0 169:1.17577895356E-4 170:0.0 171:0.0 172:1.17577895356E-4 173:1.17577895356E-4 174:1.17577895356E-4 175:0.0 176:1.17577895356E-4 177:3.52733686067E-4 178:1.17577895356E-4 179:2.35155790711E-4 180:1.17577895356E-4 181:2.35155790711E-4 182:3.52733686067E-4 183:2.35155790711E-4 184:2.35155790711E-4 185:0.0 186:0.0 187:1.17577895356E-4 188:2.35155790711E-4 189:0.0 190:0.0 191:5.87889476778E-4 192:0.00235155790711 193:0.0010582010582 194:1.17577895356E-4 195:0.0 196:1.17577895356E-4 197:0.0 198:2.35155790711E-4 199:1.17577895356E-4 200:1.17577895356E-4 201:1.17577895356E-4 202:2.35155790711E-4 203:0.0 204:0.0 205:1.17577895356E-4 206:2.35155790711E-4 207:1.17577895356E-4 208:3.52733686067E-4 209:0.00470311581423 210:0.0 211:3.52733686067E-4 212:1.17577895356E-4 213:0.00764256319812 214:4.70311581423E-4 215:0.0159905937684 216:0.00388007054674 217:3.52733686067E-4 218:0.0 219:0.0 220:5.87889476778E-4 221:2.35155790711E-4 222:1.17577895356E-4 223:0.00188124632569 224:0.0092886537331 225:0.00199882422105 226:3.52733686067E-4 227:1.17577895356E-4 228:0.0 229:1.17577895356E-4 230:2.35155790711E-4 231:0.0 232:1.17577895356E-4 233:0.00164609053498 234:0.00152851263962 235:0.0 236:0.00152851263962 237:1.17577895356E-4 238:0.0 239:5.87889476778E-4 240:0.00329218106996 241:0.00564373897707 242:4.70311581423E-4 243:0.0 244:2.35155790711E-4 245:0.00646678424456 246:3.52733686067E-4 247:0.00634920634921 248:0.00470311581423 249:0.0101116990006 250:0.00293944738389 251:0.00141093474427 252:0.00705467372134 253:0.00552616108172 254:0.0031746031746 255:0.0164609053498 256:0.725690770135 
9.28905771554139 1:0.0115753466496 2:0.00210738501008 3:6.10836234805E-4 4:4.27585364364E-4 5:0.00201575957486 6:4.27585364364E-4 7:3.35959929143E-4 8:0.00116058884613 9:0.00195467595138 10:3.35959929143E-4 11:2.13792682182E-4 12:0.00164925783397 13:7.94087105247E-4 14:6.10836234805E-5 15:1.52709058701E-4 16:0.00339014110317 17:0.00155763239875 18:6.41378046546E-4 19:3.05418117403E-4 20:0.0 21:3.05418117403E-4 22:1.22167246961E-4 23:0.00140492334005 24:0.00158817421049 25:8.85712540468E-4 26:4.58127176104E-4 27:9.16254352208E-5 28:3.05418117403E-4 29:6.10836234805E-5 30:1.83250870442E-4 31:1.83250870442E-4 32:0.00479506444322 33:0.00201575957486 34:5.49752611325E-4 35:5.19210799585E-4 36:9.16254352208E-5 37:4.88668987844E-4 38:1.83250870442E-4 39:2.44334493922E-4 40:2.13792682182E-4 41:4.27585364364E-4 42:4.58127176104E-4 43:1.52709058701E-4 44:0.00125221428135 45:3.05418117403E-5 46:1.22167246961E-4 47:9.16254352208E-5 48:0.002351719504 49:3.66501740883E-4 50:5.19210799585E-4 51:2.44334493922E-4 52:9.16254352208E-5 53:1.52709058701E-4 54:1.22167246961E-4 55:1.52709058701E-4 56:1.83250870442E-4 57:2.13792682182E-4 58:9.16254352208E-5 59:6.10836234805E-5 60:2.13792682182E-4 61:3.05418117403E-5 62:6.10836234805E-5 63:1.52709058701E-4 64:0.0018935923279 65:8.85712540468E-4 66:3.66501740883E-4 67:5.80294423065E-4 68:2.13792682182E-4 69:5.80294423065E-4 70:2.74876305662E-4 71:3.05418117403E-5 72:6.10836234805E-5 73:3.97043552624E-4 74:1.22167246961E-4 75:9.16254352208E-5 76:3.05418117403E-4 77:1.83250870442E-4 78:1.52709058701E-4 79:1.52709058701E-4 80:1.22167246961E-4 81:2.13792682182E-4 82:9.16254352208E-5 83:9.16254352208E-5 84:6.10836234805E-5 85:1.22167246961E-4 86:6.10836234805E-5 87:2.13792682182E-4 88:6.10836234805E-5 89:2.13792682182E-4 90:1.83250870442E-4 91:9.16254352208E-5 92:3.05418117403E-5 93:3.05418117403E-5 94:6.10836234805E-5 95:1.52709058701E-4 96:6.41378046546E-4 97:3.66501740883E-4 98:3.05418117403E-5 99:3.05418117403E-5 100:1.52709058701E-4 101:9.16254352208E-5 102:6.10836234805E-5 103:6.10836234805E-5 104:6.10836234805E-5 105:0.00177142508094 106:9.77337975689E-4 107:1.22167246961E-4 108:0.00131329790483 109:1.83250870442E-4 110:1.22167246961E-4 111:6.10836234805E-5 112:0.00106896341091 113:1.22167246961E-4 114:3.35959929143E-4 115:6.10836234805E-5 116:1.22167246961E-4 117:9.16254352208E-5 118:9.16254352208E-5 119:3.05418117403E-5 120:3.05418117403E-4 121:1.83250870442E-4 122:1.52709058701E-4 123:1.22167246961E-4 124:7.94087105247E-4 125:1.83250870442E-4 126:1.22167246961E-4 127:2.74876305662E-4 128:0.00445910451408 129:0.00149654877527 130:4.88668987844E-4 131:3.35959929143E-4 132:3.05418117403E-5 133:8.24628916987E-4 134:1.52709058701E-4 135:9.16254352208E-5 136:1.83250870442E-4 137:4.58127176104E-4 138:1.22167246961E-4 139:2.44334493922E-4 140:1.22167246961E-4 141:3.66501740883E-4 142:9.16254352208E-5 143:1.22167246961E-4 144:9.16254352208E-5 145:2.13792682182E-4 146:1.52709058701E-4 147:1.22167246961E-4 148:2.13792682182E-4 149:5.80294423065E-4 150:6.10836234805E-5 151:0.00171034145746 152:0.00201575957486 153:2.13792682182E-4 154:1.52709058701E-4 155:1.83250870442E-4 156:2.44334493922E-4 157:6.10836234805E-5 158:3.05418117403E-5 159:1.52709058701E-4 160:0.00152709058701 161:5.19210799585E-4 162:2.13792682182E-4 163:2.13792682182E-4 164:9.16254352208E-5 165:1.22167246961E-4 166:2.44334493922E-4 167:6.10836234805E-5 168:1.22167246961E-4 169:1.83250870442E-4 170:3.05418117403E-5 171:1.83250870442E-4 172:3.05418117403E-5 173:1.22167246961E-4 174:2.74876305662E-4 175:1.52709058701E-4 176:3.66501740883E-4 177:9.16254352208E-5 178:6.10836234805E-5 179:3.05418117403E-5 180:9.16254352208E-5 181:1.22167246961E-4 182:1.52709058701E-4 183:1.22167246961E-4 184:3.35959929143E-4 185:1.52709058701E-4 186:1.22167246961E-4 187:6.10836234805E-5 188:1.52709058701E-4 189:3.05418117403E-5 190:9.16254352208E-5 191:2.44334493922E-4 192:0.00192413413964 193:2.74876305662E-4 194:9.16254352208E-5 195:1.83250870442E-4 196:6.10836234805E-5 197:2.44334493922E-4 198:1.52709058701E-4 199:6.10836234805E-5 200:3.05418117403E-5 201:1.22167246961E-4 202:0.0 203:6.10836234805E-5 204:3.05418117403E-5 205:0.0 206:2.44334493922E-4 207:1.22167246961E-4 208:2.74876305662E-4 209:0.00158817421049 210:2.13792682182E-4 211:2.44334493922E-4 212:3.05418117403E-5 213:0.00109950522265 214:9.16254352208E-5 215:0.00171034145746 216:0.00122167246961 217:2.44334493922E-4 218:0.0 219:3.05418117403E-5 220:9.16254352208E-5 221:1.52709058701E-4 222:2.13792682182E-4 223:6.41378046546E-4 224:0.00433693726712 225:0.00122167246961 226:1.52709058701E-4 227:1.52709058701E-4 228:9.16254352208E-5 229:9.16254352208E-5 230:2.74876305662E-4 231:1.22167246961E-4 232:2.13792682182E-4 233:0.00192413413964 234:0.00192413413964 235:6.10836234805E-5 236:8.85712540468E-4 237:6.10836234805E-5 238:2.44334493922E-4 239:1.52709058701E-4 240:0.00271822124488 241:0.00244334493922 242:1.83250870442E-4 243:1.22167246961E-4 244:2.44334493922E-4 245:0.00207684319834 246:3.05418117403E-4 247:0.00128275609309 248:0.00226009406878 249:0.00290147211533 250:0.00137438152831 251:0.00106896341091 252:0.00329851566795 253:0.00140492334005 254:0.00216846863356 255:0.00415368639668 256:0.856361859385 
16.21630664598753 1:0.0343116990492 2:0.00744109136007 3:0.00578751550227 4:0.00124018189334 5:0.00289375775114 6:0.00165357585779 7:8.26787928896E-4 8:0.00124018189334 9:0.00454733360893 10:0.0 11:0.00206696982224 12:0.00702769739562 13:8.26787928896E-4 14:8.26787928896E-4 15:0.00165357585779 16:0.00289375775114 17:0.00248036378669 18:8.26787928896E-4 19:8.26787928896E-4 20:4.13393964448E-4 21:0.0 22:4.13393964448E-4 23:0.00661430343117 24:0.00702769739562 25:8.26787928896E-4 26:8.26787928896E-4 27:8.26787928896E-4 28:4.13393964448E-4 29:4.13393964448E-4 30:0.0 31:0.0 32:0.00330715171558 33:0.00289375775114 34:0.00248036378669 35:0.00124018189334 36:0.00124018189334 37:0.00206696982224 38:0.0 39:4.13393964448E-4 40:0.0 41:4.13393964448E-4 42:0.00124018189334 43:0.0 44:0.011988424969 45:4.13393964448E-4 46:8.26787928896E-4 47:4.13393964448E-4 48:0.0115750310045 49:0.00206696982224 50:8.26787928896E-4 51:0.0 52:0.0 53:8.26787928896E-4 54:0.00124018189334 55:4.13393964448E-4 56:0.0 57:4.13393964448E-4 58:8.26787928896E-4 59:8.26787928896E-4 60:8.26787928896E-4 61:4.13393964448E-4 62:4.13393964448E-4 63:0.0 64:0.00578751550227 65:0.00454733360893 66:0.00248036378669 67:0.0 68:0.0 69:0.00124018189334 70:4.13393964448E-4 71:4.13393964448E-4 72:4.13393964448E-4 73:8.26787928896E-4 74:4.13393964448E-4 75:0.0 76:0.00124018189334 77:0.0 78:4.13393964448E-4 79:4.13393964448E-4 80:8.26787928896E-4 81:8.26787928896E-4 82:8.26787928896E-4 83:8.26787928896E-4 84:0.0 85:0.0 86:0.0 87:4.13393964448E-4 88:4.13393964448E-4 89:0.0 90:4.13393964448E-4 91:8.26787928896E-4 92:4.13393964448E-4 93:0.00124018189334 94:0.0 95:4.13393964448E-4 96:0.00330715171558 97:4.13393964448E-4 98:4.13393964448E-4 99:0.00165357585779 100:4.13393964448E-4 101:4.13393964448E-4 102:4.13393964448E-4 103:4.13393964448E-4 104:0.0 105:0.00454733360893 106:0.00454733360893 107:0.00124018189334 108:0.0186027284002 109:8.26787928896E-4 110:0.00124018189334 111:4.13393964448E-4 112:0.0140553947912 113:4.13393964448E-4 114:0.0 115:8.26787928896E-4 116:0.00124018189334 117:8.26787928896E-4 118:4.13393964448E-4 119:0.0 120:0.00206696982224 121:8.26787928896E-4 122:8.26787928896E-4 123:4.13393964448E-4 124:0.00289375775114 125:4.13393964448E-4 126:0.00124018189334 127:4.13393964448E-4 128:0.0264572137247 129:0.00330715171558 130:0.00206696982224 131:8.26787928896E-4 132:8.26787928896E-4 133:4.13393964448E-4 134:8.26787928896E-4 135:4.13393964448E-4 136:4.13393964448E-4 137:0.00248036378669 138:4.13393964448E-4 139:4.13393964448E-4 140:4.13393964448E-4 141:8.26787928896E-4 142:4.13393964448E-4 143:4.13393964448E-4 144:0.00124018189334 145:0.00206696982224 146:0.0 147:8.26787928896E-4 148:0.0 149:4.13393964448E-4 150:0.0 151:0.00206696982224 152:0.00785448532451 153:4.13393964448E-4 154:4.13393964448E-4 155:0.0 156:0.0 157:0.0 158:0.0 159:0.00124018189334 160:0.00206696982224 161:0.00165357585779 162:8.26787928896E-4 163:8.26787928896E-4 164:0.0 165:4.13393964448E-4 166:4.13393964448E-4 167:0.00124018189334 168:4.13393964448E-4 169:0.0 170:4.13393964448E-4 171:0.0 172:0.00330715171558 173:4.13393964448E-4 174:4.13393964448E-4 175:8.26787928896E-4 176:8.26787928896E-4 177:8.26787928896E-4 178:0.0 179:4.13393964448E-4 180:4.13393964448E-4 181:4.13393964448E-4 182:0.00124018189334 183:4.13393964448E-4 184:0.00165357585779 185:0.0 186:0.0 187:0.0 188:0.00206696982224 189:0.0 190:0.0 191:8.26787928896E-4 192:0.00909466721786 193:4.13393964448E-4 194:0.0 195:4.13393964448E-4 196:0.0 197:0.0 198:4.13393964448E-4 199:4.13393964448E-4 200:0.00124018189334 201:0.0 202:4.13393964448E-4 203:0.0 204:8.26787928896E-4 205:0.0 206:4.13393964448E-4 207:0.0 208:0.00124018189334 209:0.00372054568003 210:4.13393964448E-4 211:4.13393964448E-4 212:8.26787928896E-4 213:0.00826787928896 214:4.13393964448E-4 215:0.00702769739562 216:0.00165357585779 217:0.00124018189334 218:0.00165357585779 219:0.0 220:4.13393964448E-4 221:0.00124018189334 222:0.00124018189334 223:0.00124018189334 224:0.0115750310045 225:0.00165357585779 226:4.13393964448E-4 227:0.0 228:4.13393964448E-4 229:8.26787928896E-4 230:4.13393964448E-4 231:4.13393964448E-4 232:0.00124018189334 233:0.00372054568003 234:0.00454733360893 235:0.0 236:0.00372054568003 237:0.00165357585779 238:0.0 239:0.00124018189334 240:0.00661430343117 241:0.00454733360893 242:0.0 243:0.0 244:0.00124018189334 245:0.00330715171558 246:8.26787928896E-4 247:0.00206696982224 248:0.00578751550227 249:0.00248036378669 250:0.00248036378669 251:0.00206696982224 252:0.0124018189334 253:0.00330715171558 254:0.00496072757338 255:0.0111616370401 256:0.541959487391 
