svm_type c_svc
kernel_type rbf
gamma 4.0
nr_class 2
total_sv 503
rho -8.798862401831329
label 0 1
nr_sv 256 247
SV
4096.0 1:0.00913381808904 2:0.00153080750096 3:0.00142875366756 4:5.35782625335E-4 5:0.00188799591785 6:3.5718841689E-4 7:3.06161500191E-4 8:8.92971042225E-4 9:0.00137772675086 10:5.61296083684E-4 11:3.31674958541E-4 12:0.00324020921036 13:5.10269166986E-4 14:7.65403750478E-5 15:7.65403750478E-5 16:0.0035718841689 17:0.00142875366756 18:5.10269166986E-4 19:2.04107666794E-4 20:1.78594208445E-4 21:5.61296083684E-4 22:1.78594208445E-4 23:0.00216864395969 24:0.00204107666794 25:6.63349917081E-4 26:1.53080750096E-4 27:1.78594208445E-4 28:2.55134583493E-4 29:1.02053833397E-4 30:7.65403750478E-5 31:2.80648041842E-4 32:0.00576604158694 33:0.00150529404261 34:5.10269166986E-4 35:4.59242250287E-4 36:1.78594208445E-4 37:3.31674958541E-4 38:2.80648041842E-4 39:5.10269166986E-5 40:2.04107666794E-4 41:5.10269166986E-4 42:0.00135221329251 43:1.78594208445E-4 44:0.00408215333588 45:1.02053833397E-4 46:1.27567291746E-4 47:1.53080750096E-4 48:0.00415869371093 49:4.33728791938E-4 50:3.06161500191E-4 51:1.02053833397E-4 52:7.65403750478E-5 53:1.78594208445E-4 54:1.02053833397E-4 55:5.10269166986E-5 56:5.10269166986E-5 57:2.04107666794E-4 58:2.04107666794E-4 59:1.53080750096E-4 60:3.06161500191E-4 61:7.65403750478E-5 62:1.02053833397E-4 63:1.53080750096E-4 64:0.00505166475316 65:0.00127567291746 66:4.33728791938E-4 67:4.08215333588E-4 68:7.65403750478E-5 69:2.55134583493E-4 70:1.27567291746E-4 71:1.53080750096E-4 72:2.55134583493E-5 73:2.55134583493E-4 74:1.53080750096E-4 75:5.10269166986E-5 76:3.06161500191E-4 77:1.27567291746E-4 78:5.10269166986E-5 79:0.0 80:1.78594208445E-4 81:2.29621125144E-4 82:1.78594208445E-4 83:1.27567291746E-4 84:7.65403750478E-5 85:1.27567291746E-4 86:7.65403750478E-5 87:2.04107666794E-4 88:1.53080750096E-4 89:1.78594208445E-4 90:7.65403750478E-5 91:1.02053833397E-4 92:1.27567291746E-4 93:5.10269166986E-5 94:1.27567291746E-4 95:1.02053833397E-4 96:9.18484500574E-4 97:3.82701875239E-4 98:1.53080750096E-4 99:1.02053833397E-4 100:1.27567291746E-4 101:1.78594208445E-4 102:1.27567291746E-4 103:1.53080750096E-4 104:5.10269166986E-5 105:0.0019135093762 106:0.00242377854318 107:2.04107666794E-4 108:0.00936343921419 109:1.53080750096E-4 110:1.02053833397E-4 111:2.29621125144E-4 112:0.00579155504529 113:2.29621125144E-4 114:2.55134583493E-5 115:2.55134583493E-5 116:5.10269166986E-5 117:1.27567291746E-4 118:7.65403750478E-5 119:1.27567291746E-4 120:1.02053833397E-4 121:3.31674958541E-4 122:1.53080750096E-4 123:1.27567291746E-4 124:0.00119913254242 125:1.27567291746E-4 126:1.27567291746E-4 127:3.82701875239E-4 128:0.0129353233831 129:0.00137772675086 130:2.29621125144E-4 131:2.55134583493E-4 132:1.53080750096E-4 133:7.1437683378E-4 134:3.06161500191E-4 135:7.65403750478E-5 136:1.02053833397E-4 137:3.82701875239E-4 138:1.27567291746E-4 139:3.5718841689E-4 140:1.02053833397E-4 141:3.5718841689E-4 142:1.27567291746E-4 143:1.53080750096E-4 144:1.53080750096E-4 145:4.59242250287E-4 146:5.10269166986E-5 147:1.27567291746E-4 148:1.27567291746E-4 149:0.00114810562572 150:2.55134583493E-5 151:0.00211761704299 152:0.00229621125144 153:1.78594208445E-4 154:5.10269166986E-5 155:1.02053833397E-4 156:1.02053833397E-4 157:1.02053833397E-4 158:5.10269166986E-5 159:3.06161500191E-4 160:0.00308712846026 161:5.61296083684E-4 162:1.53080750096E-4 163:1.27567291746E-4 164:2.55134583493E-5 165:1.27567291746E-4 166:2.04107666794E-4 167:2.55134583493E-5 168:1.53080750096E-4 169:0.0 170:7.65403750478E-5 171:5.10269166986E-5 172:1.78594208445E-4 173:5.10269166986E-5 174:5.10269166986E-5 175:7.65403750478E-5 176:1.53080750096E-4 177:1.02053833397E-4 178:1.02053833397E-4 179:5.10269166986E-5 180:2.55134583493E-5 181:0.0 182:7.65403750478E-5 183:1.53080750096E-4 184:2.55134583493E-4 185:1.02053833397E-4 186:7.65403750478E-5 187:5.10269166986E-5 188:2.55134583493E-4 189:1.27567291746E-4 190:1.53080750096E-4 191:2.55134583493E-4 192:0.00262788620998 193:3.06161500191E-4 194:7.65403750478E-5 195:2.55134583493E-5 196:5.10269166986E-5 197:1.27567291746E-4 198:5.10269166986E-5 199:1.53080750096E-4 200:0.0 201:1.27567291746E-4 202:5.10269166986E-5 203:2.55134583493E-5 204:1.53080750096E-4 205:7.65403750478E-5 206:0.0 207:1.02053833397E-4 208:2.04107666794E-4 209:0.00288302079347 210:1.78594208445E-4 211:2.04107666794E-4 212:1.78594208445E-4 213:0.0033677765021 214:7.65403750478E-5 215:0.00793468554663 216:0.00298507462687 217:4.33728791938E-4 218:1.53080750096E-4 219:2.55134583493E-5 220:2.04107666794E-4 221:2.04107666794E-4 222:3.31674958541E-4 223:7.65403750478E-4 224:0.00806225283837 225:7.39890292129E-4 226:5.10269166986E-5 227:1.27567291746E-4 228:7.65403750478E-5 229:1.78594208445E-4 230:1.53080750096E-4 231:5.10269166986E-5 232:1.27567291746E-4 233:0.00232172470978 234:0.00244929200153 235:1.27567291746E-4 236:0.00349534379385 237:1.78594208445E-4 238:1.78594208445E-4 239:1.27567291746E-4 240:0.00329123612706 241:0.0033677765021 242:1.78594208445E-4 243:2.55134583493E-5 244:3.06161500191E-4 245:0.00441382829443 246:2.04107666794E-4 247:0.00454139558617 248:0.0035208572522 249:0.00676106646256 250:0.00250031891823 251:8.92971042225E-4 252:0.00808776629672 253:0.00420972062763 254:0.00280648041842 255:0.0119147850491 256:0.774690649318 
475.19087788190166 1:0.0323868677906 2:0.00488021295475 3:0.00221827861579 4:0.00133096716948 5:0.00576752440106 6:0.00221827861579 7:4.43655723159E-4 8:0.00133096716948 9:0.00133096716948 10:0.00133096716948 11:4.43655723159E-4 12:0.00709849157054 13:0.00133096716948 14:0.00177462289264 15:8.87311446318E-4 16:0.00887311446318 17:0.00310559006211 18:0.0 19:0.00177462289264 20:8.87311446318E-4 21:8.87311446318E-4 22:0.00133096716948 23:0.00354924578527 24:0.00221827861579 25:4.43655723159E-4 26:4.43655723159E-4 27:4.43655723159E-4 28:4.43655723159E-4 29:4.43655723159E-4 30:0.0 31:0.0 32:0.00621118012422 33:0.00399290150843 34:0.00266193433895 35:8.87311446318E-4 36:4.43655723159E-4 37:0.00133096716948 38:4.43655723159E-4 39:4.43655723159E-4 40:4.43655723159E-4 41:0.0 42:8.87311446318E-4 43:0.0 44:0.00709849157054 45:4.43655723159E-4 46:0.00133096716948 47:4.43655723159E-4 48:0.00976042590949 49:8.87311446318E-4 50:0.00133096716948 51:8.87311446318E-4 52:8.87311446318E-4 53:4.43655723159E-4 54:4.43655723159E-4 55:8.87311446318E-4 56:0.00133096716948 57:4.43655723159E-4 58:0.0 59:0.0 60:8.87311446318E-4 61:0.0 62:0.0 63:4.43655723159E-4 64:0.00709849157054 65:0.00399290150843 66:0.00221827861579 67:0.0 68:0.0 69:8.87311446318E-4 70:8.87311446318E-4 71:0.0 72:0.0 73:8.87311446318E-4 74:8.87311446318E-4 75:8.87311446318E-4 76:4.43655723159E-4 77:4.43655723159E-4 78:4.43655723159E-4 79:4.43655723159E-4 80:0.0 81:0.0 82:8.87311446318E-4 83:4.43655723159E-4 84:0.0 85:0.0 86:0.0 87:4.43655723159E-4 88:8.87311446318E-4 89:4.43655723159E-4 90:0.0 91:8.87311446318E-4 92:8.87311446318E-4 93:8.87311446318E-4 94:8.87311446318E-4 95:4.43655723159E-4 96:0.00532386867791 97:0.0 98:4.43655723159E-4 99:0.0 100:0.0 101:4.43655723159E-4 102:0.0 103:0.0 104:0.0 105:0.00133096716948 106:0.00221827861579 107:0.0 108:0.00443655723159 109:4.43655723159E-4 110:0.0 111:0.0 112:0.00399290150843 113:8.87311446318E-4 114:0.00133096716948 115:0.0 116:4.43655723159E-4 117:4.43655723159E-4 118:0.0 119:0.0 120:0.00133096716948 121:8.87311446318E-4 122:8.87311446318E-4 123:0.0 124:0.00488021295475 125:4.43655723159E-4 126:0.00133096716948 127:4.43655723159E-4 128:0.0230700976043 129:0.00931677018634 130:0.00133096716948 131:0.00177462289264 132:0.0 133:0.00221827861579 134:0.00221827861579 135:0.0 136:0.0 137:0.00177462289264 138:8.87311446318E-4 139:0.0 140:4.43655723159E-4 141:0.0 142:0.0 143:4.43655723159E-4 144:4.43655723159E-4 145:4.43655723159E-4 146:0.0 147:0.0 148:8.87311446318E-4 149:0.00354924578527 150:0.0 151:0.0146406388642 152:0.00665483584738 153:0.0 154:0.0 155:4.43655723159E-4 156:0.0 157:0.00133096716948 158:0.0 159:4.43655723159E-4 160:0.00221827861579 161:0.00221827861579 162:4.43655723159E-4 163:0.00177462289264 164:0.0 165:0.0 166:8.87311446318E-4 167:4.43655723159E-4 168:0.00177462289264 169:4.43655723159E-4 170:0.0 171:4.43655723159E-4 172:0.0 173:8.87311446318E-4 174:4.43655723159E-4 175:8.87311446318E-4 176:0.0 177:0.0 178:8.87311446318E-4 179:0.0 180:4.43655723159E-4 181:8.87311446318E-4 182:0.0 183:0.0 184:0.00133096716948 185:0.0 186:4.43655723159E-4 187:4.43655723159E-4 188:4.43655723159E-4 189:4.43655723159E-4 190:4.43655723159E-4 191:4.43655723159E-4 192:0.00665483584738 193:4.43655723159E-4 194:8.87311446318E-4 195:0.0 196:0.0 197:8.87311446318E-4 198:8.87311446318E-4 199:8.87311446318E-4 200:0.0 201:0.00133096716948 202:0.0 203:4.43655723159E-4 204:0.0 205:8.87311446318E-4 206:4.43655723159E-4 207:0.0 208:4.43655723159E-4 209:8.87311446318E-4 210:0.0 211:0.0 212:8.87311446318E-4 213:0.00266193433895 214:4.43655723159E-4 215:0.00887311446318 216:0.00310559006211 217:4.43655723159E-4 218:0.0 219:0.0 220:4.43655723159E-4 221:0.0 222:8.87311446318E-4 223:0.00576752440106 224:0.0115350488021 225:0.00399290150843 226:0.0 227:0.0 228:0.0 229:4.43655723159E-4 230:8.87311446318E-4 231:0.0 232:8.87311446318E-4 233:0.00443655723159 234:0.00621118012422 235:0.0 236:0.00133096716948 237:4.43655723159E-4 238:0.00133096716948 239:4.43655723159E-4 240:0.00709849157054 241:0.0115350488021 242:0.0 243:0.0 244:0.00221827861579 245:0.00266193433895 246:4.43655723159E-4 247:0.00310559006211 248:0.00532386867791 249:0.0155279503106 250:0.00266193433895 251:0.00488021295475 252:0.0075421472937 253:0.00488021295475 254:0.00443655723159 255:0.0133096716948 256:0.558562555457 
4096.0 1:0.0135501355014 2:0.00289909875843 3:0.00163862103737 4:5.04191088423E-4 5:0.00189071658158 6:6.93262746581E-4 7:6.30238860528E-4 8:8.82334404739E-4 9:0.00195374046764 10:5.67214974475E-4 11:3.15119430264E-4 12:0.0021428121258 13:6.93262746581E-4 14:3.15119430264E-4 15:1.26047772106E-4 16:0.00189071658158 17:0.00195374046764 18:7.56286632634E-4 19:5.04191088423E-4 20:1.89071658158E-4 21:5.67214974475E-4 22:3.15119430264E-4 23:0.0033402659608 24:0.00352933761896 25:9.45358290792E-4 26:1.89071658158E-4 27:1.26047772106E-4 28:1.89071658158E-4 29:1.89071658158E-4 30:3.15119430264E-4 31:3.78143316317E-4 32:0.00497888699817 33:0.00271002710027 34:8.82334404739E-4 35:4.4116720237E-4 36:1.26047772106E-4 37:1.26047772106E-4 38:3.15119430264E-4 39:1.89071658158E-4 40:6.30238860528E-5 41:2.52095544211E-4 42:0.0010714060629 43:0.0 44:0.00283607487238 45:2.52095544211E-4 46:1.26047772106E-4 47:6.30238860528E-5 48:0.0022688598979 49:8.82334404739E-4 50:3.15119430264E-4 51:1.26047772106E-4 52:1.89071658158E-4 53:1.89071658158E-4 54:6.30238860528E-5 55:1.26047772106E-4 56:3.78143316317E-4 57:1.26047772106E-4 58:1.26047772106E-4 59:1.26047772106E-4 60:1.89071658158E-4 61:1.26047772106E-4 62:6.30238860528E-5 63:0.0 64:0.00176466880948 65:0.00113442994895 66:4.4116720237E-4 67:6.93262746581E-4 68:2.52095544211E-4 69:8.19310518687E-4 70:2.52095544211E-4 71:2.52095544211E-4 72:6.30238860528E-5 73:3.78143316317E-4 74:1.26047772106E-4 75:1.89071658158E-4 76:3.78143316317E-4 77:3.15119430264E-4 78:1.26047772106E-4 79:6.30238860528E-5 80:1.26047772106E-4 81:1.26047772106E-4 82:2.52095544211E-4 83:2.52095544211E-4 84:1.26047772106E-4 85:1.26047772106E-4 86:2.52095544211E-4 87:1.26047772106E-4 88:3.15119430264E-4 89:1.89071658158E-4 90:0.0 91:6.30238860528E-5 92:6.30238860528E-5 93:6.30238860528E-5 94:2.52095544211E-4 95:1.89071658158E-4 96:9.45358290792E-4 97:1.89071658158E-4 98:3.78143316317E-4 99:6.30238860528E-5 100:0.0 101:1.89071658158E-4 102:1.89071658158E-4 103:0.0 104:1.26047772106E-4 105:0.00170164492343 106:0.00434864813764 107:1.26047772106E-4 108:0.00529400642844 109:1.26047772106E-4 110:6.30238860528E-5 111:6.30238860528E-5 112:0.0021428121258 113:3.15119430264E-4 114:6.30238860528E-5 115:6.30238860528E-5 116:2.52095544211E-4 117:0.0 118:6.30238860528E-5 119:6.30238860528E-5 120:3.15119430264E-4 121:5.67214974475E-4 122:1.26047772106E-4 123:6.30238860528E-5 124:0.00132350160711 125:1.89071658158E-4 126:3.15119430264E-4 127:5.04191088423E-4 128:0.00686960357976 129:0.00302514653054 130:3.78143316317E-4 131:1.26047772106E-4 132:3.78143316317E-4 133:9.45358290792E-4 134:4.4116720237E-4 135:3.15119430264E-4 136:2.52095544211E-4 137:8.19310518687E-4 138:1.26047772106E-4 139:1.26047772106E-4 140:1.26047772106E-4 141:1.89071658158E-4 142:1.26047772106E-4 143:3.78143316317E-4 144:6.30238860528E-5 145:8.19310518687E-4 146:1.89071658158E-4 147:1.89071658158E-4 148:2.52095544211E-4 149:6.30238860528E-4 150:1.89071658158E-4 151:0.00384445704922 152:0.00466376756791 153:4.4116720237E-4 154:0.0 155:1.26047772106E-4 156:1.26047772106E-4 157:1.26047772106E-4 158:6.30238860528E-5 159:2.52095544211E-4 160:0.00252095544211 161:6.30238860528E-4 162:3.15119430264E-4 163:3.15119430264E-4 164:1.26047772106E-4 165:6.30238860528E-5 166:4.4116720237E-4 167:0.0 168:2.52095544211E-4 169:2.52095544211E-4 170:1.89071658158E-4 171:6.30238860528E-5 172:0.0 173:6.30238860528E-5 174:2.52095544211E-4 175:0.0 176:1.89071658158E-4 177:6.30238860528E-5 178:6.30238860528E-5 179:2.52095544211E-4 180:6.30238860528E-5 181:1.89071658158E-4 182:1.26047772106E-4 183:1.26047772106E-4 184:6.30238860528E-4 185:0.0 186:6.30238860528E-5 187:1.89071658158E-4 188:2.52095544211E-4 189:6.30238860528E-5 190:1.89071658158E-4 191:3.15119430264E-4 192:0.00258397932817 193:4.4116720237E-4 194:1.26047772106E-4 195:1.26047772106E-4 196:1.89071658158E-4 197:5.67214974475E-4 198:3.15119430264E-4 199:3.15119430264E-4 200:1.89071658158E-4 201:1.89071658158E-4 202:4.4116720237E-4 203:0.0 204:1.89071658158E-4 205:0.0 206:1.89071658158E-4 207:1.89071658158E-4 208:5.67214974475E-4 209:0.00163862103737 210:1.26047772106E-4 211:6.30238860528E-5 212:2.52095544211E-4 213:0.0022688598979 214:1.26047772106E-4 215:0.00409655259343 216:0.00189071658158 217:3.15119430264E-4 218:0.0 219:1.26047772106E-4 220:3.15119430264E-4 221:3.78143316317E-4 222:5.04191088423E-4 223:0.00100838217685 224:0.00712169912397 225:5.04191088423E-4 226:2.52095544211E-4 227:6.30238860528E-5 228:6.30238860528E-5 229:3.15119430264E-4 230:2.52095544211E-4 231:0.0 232:3.78143316317E-4 233:0.0021428121258 234:0.0021428121258 235:2.52095544211E-4 236:0.00163862103737 237:6.30238860528E-5 238:5.04191088423E-4 239:5.67214974475E-4 240:0.00327724207475 241:0.00384445704922 242:2.52095544211E-4 243:6.30238860528E-5 244:1.89071658158E-4 245:0.00176466880948 246:2.52095544211E-4 247:0.00264700321422 248:0.00302514653054 249:0.00460074368186 250:0.00151257326527 251:9.45358290792E-4 252:0.00649146026344 253:0.00207978823974 254:0.00296212264448 255:0.0066805319216 256:0.794731203126 
4096.0 1:0.0091046386192 2:0.00155339805825 3:0.00120819848975 4:3.45199568501E-4 5:0.001380798274 6:2.80474649407E-4 7:3.66774541532E-4 8:6.90399137001E-4 9:0.00161812297735 10:3.66774541532E-4 11:1.7259978425E-4 12:0.00217907227616 13:6.47249190939E-4 14:1.29449838188E-4 15:1.7259978425E-4 16:0.0024163969795 17:0.00168284789644 18:3.66774541532E-4 19:3.45199568501E-4 20:1.07874865156E-4 21:3.02049622438E-4 22:6.47249190939E-5 23:0.00176914778857 24:0.00256742179072 25:0.00116504854369 26:1.7259978425E-4 27:4.31499460626E-5 28:1.94174757282E-4 29:1.07874865156E-4 30:4.31499460626E-5 31:1.29449838188E-4 32:0.00791801510248 33:0.001380798274 34:6.6882416397E-4 35:3.02049622438E-4 36:6.47249190939E-5 37:3.45199568501E-4 38:2.15749730313E-4 39:8.62998921251E-5 40:1.51024811219E-4 41:5.17799352751E-4 42:9.06148867314E-4 43:6.47249190939E-5 44:0.00217907227616 45:1.29449838188E-4 46:1.07874865156E-4 47:6.47249190939E-5 48:0.00245954692557 49:6.6882416397E-4 50:2.37324703344E-4 51:1.94174757282E-4 52:1.7259978425E-4 53:6.47249190939E-5 54:2.15749730313E-5 55:8.62998921251E-5 56:1.07874865156E-4 57:1.94174757282E-4 58:1.7259978425E-4 59:0.0 60:2.80474649407E-4 61:0.0 62:2.15749730313E-5 63:1.94174757282E-4 64:0.00258899676375 65:0.0011003236246 66:3.02049622438E-4 67:8.84573894283E-4 68:6.47249190939E-5 69:2.58899676375E-4 70:1.7259978425E-4 71:4.31499460626E-5 72:8.62998921251E-5 73:2.37324703344E-4 74:1.51024811219E-4 75:2.15749730313E-5 76:2.37324703344E-4 77:2.37324703344E-4 78:1.07874865156E-4 79:2.15749730313E-5 80:1.94174757282E-4 81:3.02049622438E-4 82:1.51024811219E-4 83:2.15749730313E-5 84:0.0 85:1.51024811219E-4 86:8.62998921251E-5 87:2.37324703344E-4 88:1.07874865156E-4 89:1.07874865156E-4 90:4.31499460626E-5 91:4.31499460626E-5 92:2.15749730313E-5 93:6.47249190939E-5 94:8.62998921251E-5 95:1.07874865156E-4 96:4.9622437972E-4 97:3.88349514563E-4 98:6.47249190939E-5 99:4.31499460626E-5 100:1.07874865156E-4 101:4.31499460626E-5 102:1.29449838188E-4 103:2.15749730313E-5 104:8.62998921251E-5 105:0.00192017259978 106:0.00226537216828 107:1.07874865156E-4 108:0.00422869471413 109:1.51024811219E-4 110:1.07874865156E-4 111:2.15749730313E-5 112:0.00220064724919 113:1.51024811219E-4 114:1.7259978425E-4 115:6.47249190939E-5 116:6.47249190939E-5 117:1.29449838188E-4 118:2.15749730313E-5 119:1.29449838188E-4 120:1.07874865156E-4 121:2.80474649407E-4 122:1.7259978425E-4 123:1.29449838188E-4 124:7.11974110032E-4 125:1.7259978425E-4 126:2.15749730313E-4 127:4.53074433657E-4 128:0.00625674217907 129:0.00176914778857 130:2.15749730313E-4 131:3.88349514563E-4 132:0.0 133:4.53074433657E-4 134:1.07874865156E-4 135:6.47249190939E-5 136:8.62998921251E-5 137:5.17799352751E-4 138:6.47249190939E-5 139:1.51024811219E-4 140:6.47249190939E-5 141:2.80474649407E-4 142:1.51024811219E-4 143:6.47249190939E-5 144:8.62998921251E-5 145:4.53074433657E-4 146:1.07874865156E-4 147:6.47249190939E-5 148:8.62998921251E-5 149:7.55124056095E-4 150:2.15749730313E-5 151:0.00198489751888 152:0.00189859762675 153:1.07874865156E-4 154:6.47249190939E-5 155:4.31499460626E-5 156:1.07874865156E-4 157:1.51024811219E-4 158:8.62998921251E-5 159:1.51024811219E-4 160:0.00256742179072 161:4.31499460626E-4 162:1.29449838188E-4 163:1.29449838188E-4 164:4.31499460626E-5 165:2.80474649407E-4 166:6.47249190939E-5 167:1.29449838188E-4 168:4.31499460626E-5 169:1.29449838188E-4 170:1.29449838188E-4 171:6.47249190939E-5 172:1.29449838188E-4 173:2.15749730313E-5 174:2.15749730313E-5 175:6.47249190939E-5 176:6.47249190939E-5 177:1.51024811219E-4 178:4.31499460626E-5 179:1.07874865156E-4 180:6.47249190939E-5 181:1.7259978425E-4 182:1.07874865156E-4 183:1.51024811219E-4 184:2.80474649407E-4 185:8.62998921251E-5 186:1.29449838188E-4 187:1.29449838188E-4 188:2.37324703344E-4 189:1.29449838188E-4 190:1.94174757282E-4 191:3.45199568501E-4 192:0.00161812297735 193:5.82524271845E-4 194:1.51024811219E-4 195:1.94174757282E-4 196:4.31499460626E-5 197:2.15749730313E-4 198:1.07874865156E-4 199:8.62998921251E-5 200:4.31499460626E-5 201:1.94174757282E-4 202:6.47249190939E-5 203:1.07874865156E-4 204:1.94174757282E-4 205:1.29449838188E-4 206:2.15749730313E-5 207:6.47249190939E-5 208:2.58899676375E-4 209:0.00211434735707 210:8.62998921251E-5 211:2.80474649407E-4 212:8.62998921251E-5 213:0.00196332254585 214:8.62998921251E-5 215:0.00446601941748 216:0.00198489751888 217:3.02049622438E-4 218:1.94174757282E-4 219:1.51024811219E-4 220:2.80474649407E-4 221:2.15749730313E-4 222:1.51024811219E-4 223:6.04099244876E-4 224:0.00621359223301 225:9.27723840345E-4 226:2.37324703344E-4 227:6.47249190939E-5 228:1.51024811219E-4 229:1.29449838188E-4 230:6.47249190939E-5 231:4.31499460626E-5 232:1.94174757282E-4 233:0.00295577130529 234:0.00237324703344 235:1.29449838188E-4 236:0.00254584681769 237:3.23624595469E-4 238:1.94174757282E-4 239:2.15749730313E-4 240:0.00228694714132 241:0.0021359223301 242:2.80474649407E-4 243:1.94174757282E-4 244:4.09924487594E-4 245:0.00226537216828 246:3.45199568501E-4 247:0.00185544768069 248:0.00254584681769 249:0.00731391585761 250:0.00323624595469 251:7.11974110032E-4 252:0.00776699029126 253:0.00204962243797 254:0.00245954692557 255:0.00537216828479 256:0.826105717368 
37.91766867861685 1:0.0184372256365 2:0.00468247000293 3:0.00146327187591 4:8.77963125549E-4 5:0.00292654375183 6:8.77963125549E-4 7:0.0 8:0.00234123500146 9:0.00380450687738 10:8.77963125549E-4 11:2.92654375183E-4 12:0.00468247000293 13:0.00117061750073 14:5.85308750366E-4 15:2.92654375183E-4 16:0.00438981562774 17:0.00351185250219 18:0.00117061750073 19:8.77963125549E-4 20:5.85308750366E-4 21:8.77963125549E-4 22:5.85308750366E-4 23:0.00556043312848 24:0.00614574187884 25:0.00380450687738 26:0.0 27:5.85308750366E-4 28:0.0 29:2.92654375183E-4 30:0.0 31:0.0 32:0.011120866257 33:0.00497512437811 34:2.92654375183E-4 35:8.77963125549E-4 36:2.92654375183E-4 37:0.00117061750073 38:0.0 39:2.92654375183E-4 40:2.92654375183E-4 41:8.77963125549E-4 42:0.00146327187591 43:0.0 44:0.00497512437811 45:5.85308750366E-4 46:5.85308750366E-4 47:0.0 48:0.00526777875329 49:0.00146327187591 50:2.92654375183E-4 51:5.85308750366E-4 52:0.0 53:0.0 54:2.92654375183E-4 55:0.0 56:5.85308750366E-4 57:2.92654375183E-4 58:0.0 59:5.85308750366E-4 60:0.0 61:2.92654375183E-4 62:0.0 63:0.0 64:0.00468247000293 65:0.00292654375183 66:5.85308750366E-4 67:0.0 68:5.85308750366E-4 69:0.00117061750073 70:2.92654375183E-4 71:2.92654375183E-4 72:2.92654375183E-4 73:8.77963125549E-4 74:5.85308750366E-4 75:2.92654375183E-4 76:5.85308750366E-4 77:2.92654375183E-4 78:0.0 79:0.0 80:2.92654375183E-4 81:5.85308750366E-4 82:5.85308750366E-4 83:0.0 84:2.92654375183E-4 85:0.0 86:2.92654375183E-4 87:2.92654375183E-4 88:0.0 89:0.0 90:0.0 91:0.0 92:2.92654375183E-4 93:0.0 94:0.00117061750073 95:2.92654375183E-4 96:0.00438981562774 97:5.85308750366E-4 98:0.0 99:2.92654375183E-4 100:0.0 101:0.0 102:0.0 103:0.0 104:0.0 105:0.0017559262511 106:0.0017559262511 107:0.0 108:0.00292654375183 109:0.0 110:0.0 111:0.0 112:0.00438981562774 113:2.92654375183E-4 114:2.92654375183E-4 115:2.92654375183E-4 116:0.0 117:0.0 118:2.92654375183E-4 119:2.92654375183E-4 120:0.0 121:5.85308750366E-4 122:0.0 123:2.92654375183E-4 124:0.00146327187591 125:0.0 126:8.77963125549E-4 127:5.85308750366E-4 128:0.0122914837577 129:0.00409716125256 130:8.77963125549E-4 131:5.85308750366E-4 132:5.85308750366E-4 133:0.00146327187591 134:8.77963125549E-4 135:5.85308750366E-4 136:8.77963125549E-4 137:0.00117061750073 138:5.85308750366E-4 139:2.92654375183E-4 140:5.85308750366E-4 141:5.85308750366E-4 142:0.0 143:0.0 144:0.0 145:0.00117061750073 146:8.77963125549E-4 147:2.92654375183E-4 148:5.85308750366E-4 149:0.00204858062628 150:0.0 151:0.00204858062628 152:0.00380450687738 153:5.85308750366E-4 154:0.0 155:2.92654375183E-4 156:5.85308750366E-4 157:2.92654375183E-4 158:0.0 159:0.0 160:0.00321919812701 161:0.00146327187591 162:2.92654375183E-4 163:2.92654375183E-4 164:2.92654375183E-4 165:2.92654375183E-4 166:0.0 167:0.0 168:2.92654375183E-4 169:0.0 170:0.0 171:0.0 172:0.0 173:2.92654375183E-4 174:2.92654375183E-4 175:2.92654375183E-4 176:0.00117061750073 177:5.85308750366E-4 178:0.0 179:0.0 180:0.0 181:0.0 182:0.0 183:0.00117061750073 184:8.77963125549E-4 185:0.0 186:0.0 187:0.00117061750073 188:0.00117061750073 189:0.0 190:0.0 191:5.85308750366E-4 192:0.00702370500439 193:8.77963125549E-4 194:0.0 195:0.0 196:0.0 197:0.0 198:0.0 199:0.0 200:0.0 201:2.92654375183E-4 202:0.0 203:0.0 204:2.92654375183E-4 205:0.0 206:2.92654375183E-4 207:0.0 208:5.85308750366E-4 209:0.00351185250219 210:2.92654375183E-4 211:5.85308750366E-4 212:0.0 213:0.00263388937665 214:2.92654375183E-4 215:0.00497512437811 216:0.00351185250219 217:8.77963125549E-4 218:0.0 219:0.0 220:5.85308750366E-4 221:0.0 222:0.00117061750073 223:8.77963125549E-4 224:0.0114135206321 225:0.00556043312848 226:2.92654375183E-4 227:0.0 228:0.0 229:0.0 230:5.85308750366E-4 231:0.0 232:5.85308750366E-4 233:0.00321919812701 234:0.00468247000293 235:5.85308750366E-4 236:0.00204858062628 237:5.85308750366E-4 238:5.85308750366E-4 239:5.85308750366E-4 240:0.00438981562774 241:0.00497512437811 242:8.77963125549E-4 243:2.92654375183E-4 244:2.92654375183E-4 245:0.00468247000293 246:5.85308750366E-4 247:0.0017559262511 248:0.00556043312848 249:0.0172666081358 250:0.00380450687738 251:0.00263388937665 252:0.00907228563067 253:0.00380450687738 254:0.00234123500146 255:0.00877963125549 256:0.669593210418 
4096.0 1:0.0137662337662 2:0.00242424242424 3:0.00147186147186 4:0.00103896103896 5:0.00207792207792 6:7.79220779221E-4 7:5.19480519481E-4 8:0.00155844155844 9:0.0021645021645 10:9.52380952381E-4 11:6.06060606061E-4 12:0.0012987012987 13:6.92640692641E-4 14:8.65800865801E-5 15:2.5974025974E-4 16:0.00337662337662 17:0.00207792207792 18:8.65800865801E-4 19:2.5974025974E-4 20:6.06060606061E-4 21:7.79220779221E-4 22:3.4632034632E-4 23:0.0034632034632 24:0.00294372294372 25:0.00138528138528 26:1.7316017316E-4 27:3.4632034632E-4 28:1.7316017316E-4 29:2.5974025974E-4 30:1.7316017316E-4 31:5.19480519481E-4 32:0.00597402597403 33:0.00268398268398 34:8.65800865801E-4 35:5.19480519481E-4 36:2.5974025974E-4 37:7.79220779221E-4 38:2.5974025974E-4 39:1.7316017316E-4 40:4.329004329E-4 41:8.65800865801E-4 42:8.65800865801E-4 43:2.5974025974E-4 44:0.00233766233766 45:4.329004329E-4 46:8.65800865801E-5 47:8.65800865801E-5 48:0.00251082251082 49:6.92640692641E-4 50:2.5974025974E-4 51:2.5974025974E-4 52:0.0 53:8.65800865801E-5 54:8.65800865801E-5 55:8.65800865801E-5 56:4.329004329E-4 57:2.5974025974E-4 58:1.7316017316E-4 59:1.7316017316E-4 60:0.0 61:1.7316017316E-4 62:8.65800865801E-5 63:1.7316017316E-4 64:0.00164502164502 65:0.00181818181818 66:2.5974025974E-4 67:6.06060606061E-4 68:1.7316017316E-4 69:6.06060606061E-4 70:4.329004329E-4 71:0.0 72:0.0 73:6.06060606061E-4 74:3.4632034632E-4 75:0.0 76:1.7316017316E-4 77:4.329004329E-4 78:4.329004329E-4 79:0.0 80:2.5974025974E-4 81:7.79220779221E-4 82:1.7316017316E-4 83:0.0 84:8.65800865801E-5 85:1.7316017316E-4 86:8.65800865801E-5 87:3.4632034632E-4 88:0.0 89:2.5974025974E-4 90:3.4632034632E-4 91:0.0 92:1.7316017316E-4 93:0.0 94:1.7316017316E-4 95:1.7316017316E-4 96:8.65800865801E-4 97:7.79220779221E-4 98:1.7316017316E-4 99:1.7316017316E-4 100:8.65800865801E-5 101:2.5974025974E-4 102:8.65800865801E-5 103:8.65800865801E-5 104:8.65800865801E-5 105:0.00285714285714 106:0.00337662337662 107:3.4632034632E-4 108:0.00380952380952 109:1.7316017316E-4 110:5.19480519481E-4 111:1.7316017316E-4 112:0.00207792207792 113:1.7316017316E-4 114:1.7316017316E-4 115:1.7316017316E-4 116:1.7316017316E-4 117:8.65800865801E-5 118:1.7316017316E-4 119:2.5974025974E-4 120:6.06060606061E-4 121:2.5974025974E-4 122:8.65800865801E-5 123:8.65800865801E-5 124:0.00138528138528 125:3.4632034632E-4 126:6.06060606061E-4 127:2.5974025974E-4 128:0.00735930735931 129:0.00277056277056 130:5.19480519481E-4 131:6.92640692641E-4 132:8.65800865801E-5 133:7.79220779221E-4 134:3.4632034632E-4 135:3.4632034632E-4 136:5.19480519481E-4 137:0.00103896103896 138:4.329004329E-4 139:1.7316017316E-4 140:0.0 141:1.7316017316E-4 142:0.0 143:1.7316017316E-4 144:8.65800865801E-5 145:6.06060606061E-4 146:3.4632034632E-4 147:1.7316017316E-4 148:2.5974025974E-4 149:0.00164502164502 150:2.5974025974E-4 151:0.00502164502165 152:0.00493506493506 153:2.5974025974E-4 154:1.7316017316E-4 155:8.65800865801E-5 156:4.329004329E-4 157:8.65800865801E-5 158:0.0 159:1.7316017316E-4 160:0.00207792207792 161:6.06060606061E-4 162:4.329004329E-4 163:1.7316017316E-4 164:1.7316017316E-4 165:1.7316017316E-4 166:3.4632034632E-4 167:8.65800865801E-5 168:5.19480519481E-4 169:2.5974025974E-4 170:8.65800865801E-5 171:8.65800865801E-5 172:1.7316017316E-4 173:1.7316017316E-4 174:1.7316017316E-4 175:0.0 176:3.4632034632E-4 177:8.65800865801E-5 178:8.65800865801E-5 179:3.4632034632E-4 180:0.0 181:8.65800865801E-5 182:2.5974025974E-4 183:3.4632034632E-4 184:5.19480519481E-4 185:2.5974025974E-4 186:8.65800865801E-5 187:8.65800865801E-5 188:3.4632034632E-4 189:0.0 190:3.4632034632E-4 191:5.19480519481E-4 192:0.00406926406926 193:6.06060606061E-4 194:1.7316017316E-4 195:6.06060606061E-4 196:2.5974025974E-4 197:3.4632034632E-4 198:8.65800865801E-5 199:3.4632034632E-4 200:8.65800865801E-5 201:5.19480519481E-4 202:2.5974025974E-4 203:8.65800865801E-5 204:2.5974025974E-4 205:8.65800865801E-5 206:8.65800865801E-5 207:2.5974025974E-4 208:6.92640692641E-4 209:0.00138528138528 210:2.5974025974E-4 211:1.7316017316E-4 212:1.7316017316E-4 213:0.00233766233766 214:2.5974025974E-4 215:0.00562770562771 216:0.00277056277056 217:0.0 218:8.65800865801E-5 219:1.7316017316E-4 220:5.19480519481E-4 221:3.4632034632E-4 222:3.4632034632E-4 223:0.00103896103896 224:0.00805194805195 225:0.00112554112554 226:8.65800865801E-5 227:0.0 228:1.7316017316E-4 229:8.65800865801E-5 230:1.7316017316E-4 231:8.65800865801E-5 232:4.329004329E-4 233:0.00354978354978 234:0.00380952380952 235:6.06060606061E-4 236:0.0034632034632 237:2.5974025974E-4 238:4.329004329E-4 239:4.329004329E-4 240:0.00424242424242 241:0.00294372294372 242:8.65800865801E-5 243:8.65800865801E-5 244:2.5974025974E-4 245:0.00251082251082 246:2.5974025974E-4 247:0.00285714285714 248:0.00354978354978 249:0.00935064935065 250:0.00441558441558 251:0.0012987012987 252:0.0105627705628 253:0.00242424242424 254:0.00372294372294 255:0.00753246753247 256:0.75645021645 
418.12666808316123 1:0.0267973856209 2:0.00326797385621 3:0.00196078431373 4:0.00326797385621 5:0.00392156862745 6:0.00130718954248 7:0.00261437908497 8:0.00130718954248 9:0.00457516339869 10:0.00130718954248 11:6.53594771242E-4 12:0.00457516339869 13:0.00457516339869 14:0.00130718954248 15:6.53594771242E-4 16:0.0143790849673 17:0.00522875816993 18:0.00261437908497 19:0.00196078431373 20:0.0 21:6.53594771242E-4 22:0.0 23:0.00261437908497 24:0.00261437908497 25:0.00130718954248 26:0.0 27:0.0 28:0.00130718954248 29:6.53594771242E-4 30:6.53594771242E-4 31:0.00261437908497 32:0.00849673202614 33:0.00261437908497 34:0.0 35:0.00196078431373 36:6.53594771242E-4 37:0.00130718954248 38:0.0 39:6.53594771242E-4 40:0.0 41:0.00196078431373 42:0.0 43:0.0 44:0.00326797385621 45:0.00130718954248 46:0.0 47:6.53594771242E-4 48:0.00653594771242 49:6.53594771242E-4 50:0.0 51:6.53594771242E-4 52:6.53594771242E-4 53:0.00196078431373 54:0.0 55:0.0 56:0.0 57:0.00130718954248 58:6.53594771242E-4 59:6.53594771242E-4 60:0.0 61:0.0 62:6.53594771242E-4 63:0.00130718954248 64:0.00653594771242 65:0.00326797385621 66:6.53594771242E-4 67:0.00196078431373 68:6.53594771242E-4 69:6.53594771242E-4 70:6.53594771242E-4 71:6.53594771242E-4 72:0.0 73:0.00392156862745 74:0.00130718954248 75:0.0 76:0.0 77:0.0 78:0.0 79:0.0 80:0.0 81:0.00392156862745 82:6.53594771242E-4 83:0.0 84:0.0 85:0.0 86:0.0 87:0.0 88:6.53594771242E-4 89:0.00130718954248 90:0.0 91:6.53594771242E-4 92:0.0 93:0.00130718954248 94:6.53594771242E-4 95:0.0 96:0.00326797385621 97:6.53594771242E-4 98:0.00130718954248 99:6.53594771242E-4 100:0.0 101:0.0 102:6.53594771242E-4 103:0.0 104:6.53594771242E-4 105:0.00326797385621 106:0.00326797385621 107:0.0 108:0.00326797385621 109:0.0 110:0.0 111:6.53594771242E-4 112:0.00392156862745 113:0.00196078431373 114:0.0 115:0.0 116:0.0 117:0.00130718954248 118:6.53594771242E-4 119:0.0 120:0.00326797385621 121:0.0 122:0.0 123:0.0 124:0.00130718954248 125:0.0 126:0.0 127:6.53594771242E-4 128:0.0143790849673 129:0.00261437908497 130:6.53594771242E-4 131:0.0 132:6.53594771242E-4 133:6.53594771242E-4 134:0.0 135:0.0 136:0.00130718954248 137:0.00130718954248 138:6.53594771242E-4 139:0.0 140:6.53594771242E-4 141:6.53594771242E-4 142:0.0 143:0.0 144:0.00261437908497 145:0.00130718954248 146:0.00196078431373 147:6.53594771242E-4 148:6.53594771242E-4 149:6.53594771242E-4 150:0.0 151:0.00915032679739 152:0.00326797385621 153:0.0 154:6.53594771242E-4 155:6.53594771242E-4 156:0.0 157:0.0 158:0.0 159:6.53594771242E-4 160:0.00718954248366 161:0.00130718954248 162:6.53594771242E-4 163:0.0 164:6.53594771242E-4 165:0.0 166:0.0 167:6.53594771242E-4 168:0.00196078431373 169:6.53594771242E-4 170:0.0 171:0.0 172:0.0 173:0.0 174:0.0 175:0.0 176:0.0 177:6.53594771242E-4 178:0.0 179:0.0 180:0.0 181:6.53594771242E-4 182:0.0 183:0.0 184:0.00130718954248 185:6.53594771242E-4 186:0.0 187:0.0 188:6.53594771242E-4 189:0.0 190:0.0 191:0.00261437908497 192:0.00849673202614 193:0.00196078431373 194:6.53594771242E-4 195:0.00130718954248 196:0.0 197:0.0 198:0.0 199:0.0 200:6.53594771242E-4 201:0.0 202:6.53594771242E-4 203:6.53594771242E-4 204:0.0 205:0.0 206:0.0 207:0.0 208:0.00261437908497 209:0.00392156862745 210:0.0 211:0.0 212:0.00196078431373 213:0.00392156862745 214:6.53594771242E-4 215:0.00130718954248 216:0.00261437908497 217:6.53594771242E-4 218:0.0 219:0.0 220:0.0 221:0.0 222:0.0 223:0.00130718954248 224:0.0150326797386 225:0.00130718954248 226:6.53594771242E-4 227:0.0 228:6.53594771242E-4 229:6.53594771242E-4 230:0.0 231:0.0 232:0.00130718954248 233:0.00196078431373 234:0.00261437908497 235:0.0 236:0.00130718954248 237:0.0 238:6.53594771242E-4 239:6.53594771242E-4 240:0.00915032679739 241:0.00392156862745 242:6.53594771242E-4 243:0.0 244:0.00130718954248 245:0.00653594771242 246:0.00196078431373 247:0.00522875816993 248:0.0124183006536 249:0.0111111111111 250:0.0104575163399 251:0.00326797385621 252:0.0124183006536 253:0.00522875816993 254:0.00653594771242 255:0.0137254901961 256:0.57385620915 
4096.0 1:0.0109354876478 2:0.00142840416813 3:0.00114740662686 4:3.74663388362E-4 5:0.00140498770636 6:2.34164617726E-4 7:5.3857862077E-4 8:8.66409085587E-4 9:0.00161573586231 10:7.96159700269E-4 11:1.87331694181E-4 12:0.00175623463295 13:6.08828006088E-4 14:9.36658470905E-5 15:7.02493853179E-5 16:0.00194356632713 17:0.00138157124458 18:6.55660929634E-4 19:4.21496311907E-4 20:1.17082308863E-4 21:5.85411544316E-4 22:1.40498770636E-4 23:0.00252897787144 24:0.00243531202435 25:9.13242009132E-4 26:7.02493853179E-5 27:2.10748155954E-4 28:4.21496311907E-4 29:9.36658470905E-5 30:1.63915232408E-4 31:2.10748155954E-4 32:0.00414471373375 33:0.00166256878586 34:5.85411544316E-4 35:2.57581079499E-4 36:1.40498770636E-4 37:2.10748155954E-4 38:1.40498770636E-4 39:4.68329235453E-5 40:2.34164617726E-4 41:9.13242009132E-4 42:0.00131132185927 43:1.40498770636E-4 44:0.00259922725676 45:1.87331694181E-4 46:1.63915232408E-4 47:9.36658470905E-5 48:0.00217773094485 49:6.08828006088E-4 50:3.51246926589E-4 51:2.80997541272E-4 52:9.36658470905E-5 53:9.36658470905E-5 54:1.63915232408E-4 55:1.63915232408E-4 56:1.87331694181E-4 57:1.63915232408E-4 58:1.87331694181E-4 59:2.34164617726E-5 60:3.04414003044E-4 61:9.36658470905E-5 62:2.34164617726E-5 63:1.40498770636E-4 64:0.00285680833626 65:0.0014518206299 66:4.21496311907E-4 67:5.3857862077E-4 68:4.68329235453E-5 69:2.80997541272E-4 70:1.17082308863E-4 71:9.36658470905E-5 72:4.68329235453E-5 73:2.57581079499E-4 74:1.40498770636E-4 75:7.02493853179E-5 76:1.40498770636E-4 77:1.40498770636E-4 78:2.57581079499E-4 79:4.68329235453E-5 80:9.36658470905E-5 81:3.74663388362E-4 82:2.34164617726E-4 83:1.40498770636E-4 84:7.02493853179E-5 85:1.17082308863E-4 86:1.17082308863E-4 87:2.80997541272E-4 88:1.63915232408E-4 89:1.40498770636E-4 90:7.02493853179E-5 91:7.02493853179E-5 92:4.68329235453E-5 93:1.17082308863E-4 94:4.68329235453E-5 95:7.02493853179E-5 96:4.91745697225E-4 97:6.55660929634E-4 98:1.87331694181E-4 99:1.17082308863E-4 100:1.63915232408E-4 101:7.02493853179E-5 102:9.36658470905E-5 103:9.36658470905E-5 104:1.17082308863E-4 105:0.00384029973071 106:0.00655660929634 107:3.98079850135E-4 108:0.010912071186 109:9.36658470905E-5 110:9.36658470905E-5 111:2.80997541272E-4 112:0.00346563634235 113:9.36658470905E-5 114:1.17082308863E-4 115:9.36658470905E-5 116:1.63915232408E-4 117:9.36658470905E-5 118:7.02493853179E-5 119:2.34164617726E-4 120:1.87331694181E-4 121:6.08828006088E-4 122:2.57581079499E-4 123:1.87331694181E-4 124:0.00133473832104 125:1.40498770636E-4 126:3.74663388362E-4 127:4.68329235453E-4 128:0.00763376653788 129:0.00199039925067 130:2.80997541272E-4 131:4.68329235453E-4 132:9.36658470905E-5 133:3.27830464817E-4 134:2.80997541272E-4 135:1.87331694181E-4 136:4.68329235453E-5 137:5.85411544316E-4 138:1.40498770636E-4 139:1.63915232408E-4 140:2.57581079499E-4 141:1.87331694181E-4 142:1.87331694181E-4 143:1.40498770636E-4 144:1.40498770636E-4 145:2.57581079499E-4 146:1.40498770636E-4 147:9.36658470905E-5 148:7.02493853179E-5 149:7.72743238497E-4 150:9.36658470905E-5 151:0.0031612223393 152:0.00323147172462 153:3.27830464817E-4 154:2.34164617726E-5 155:1.17082308863E-4 156:2.34164617726E-4 157:1.17082308863E-4 158:2.34164617726E-5 159:2.10748155954E-4 160:0.00264606018031 161:3.51246926589E-4 162:1.17082308863E-4 163:2.34164617726E-4 164:7.02493853179E-5 165:1.63915232408E-4 166:2.80997541272E-4 167:1.40498770636E-4 168:9.36658470905E-5 169:1.17082308863E-4 170:9.36658470905E-5 171:7.02493853179E-5 172:1.87331694181E-4 173:1.40498770636E-4 174:9.36658470905E-5 175:1.63915232408E-4 176:1.40498770636E-4 177:7.02493853179E-5 178:1.63915232408E-4 179:2.34164617726E-5 180:7.02493853179E-5 181:2.10748155954E-4 182:1.40498770636E-4 183:1.87331694181E-4 184:3.04414003044E-4 185:1.40498770636E-4 186:1.17082308863E-4 187:1.17082308863E-4 188:2.57581079499E-4 189:1.17082308863E-4 190:1.63915232408E-4 191:4.21496311907E-4 192:0.00245872848613 193:6.79077391406E-4 194:1.63915232408E-4 195:2.57581079499E-4 196:1.63915232408E-4 197:2.80997541272E-4 198:1.17082308863E-4 199:1.40498770636E-4 200:2.34164617726E-5 201:1.40498770636E-4 202:9.36658470905E-5 203:1.17082308863E-4 204:1.40498770636E-4 205:9.36658470905E-5 206:7.02493853179E-5 207:1.17082308863E-4 208:3.27830464817E-4 209:0.00166256878586 210:1.87331694181E-4 211:3.27830464817E-4 212:1.87331694181E-4 213:0.00234164617726 214:1.40498770636E-4 215:0.00561995082543 216:0.00302072356867 217:2.57581079499E-4 218:3.04414003044E-4 219:9.36658470905E-5 220:3.74663388362E-4 221:2.10748155954E-4 222:1.63915232408E-4 223:7.25910314951E-4 224:0.00742301838192 225:6.08828006088E-4 226:1.87331694181E-4 227:9.36658470905E-5 228:9.36658470905E-5 229:9.36658470905E-5 230:1.17082308863E-4 231:9.36658470905E-5 232:1.63915232408E-4 233:0.00461304296921 234:0.00569020021075 235:1.40498770636E-4 236:0.00796159700269 237:2.10748155954E-4 238:2.10748155954E-4 239:3.27830464817E-4 240:0.00384029973071 241:0.00243531202435 242:1.63915232408E-4 243:1.63915232408E-4 244:2.57581079499E-4 245:0.00180306755649 246:2.34164617726E-4 247:0.00290364125981 248:0.00320805526285 249:0.00807867931156 250:0.00620536236975 251:3.74663388362E-4 252:0.0171642664793 253:0.0034188034188 254:0.00297389064512 255:0.00807867931156 256:0.766701791359 
4096.0 1:0.0163490575862 2:0.00270748724357 3:0.00291575549308 4:4.16536499011E-4 5:0.00218681661981 6:2.08268249505E-4 7:3.12402374258E-4 8:0.00166614599604 9:0.00249921899406 10:5.20670623763E-4 11:3.12402374258E-4 12:0.00156201187129 13:0.00104134124753 14:0.0 15:2.08268249505E-4 16:0.00343642611684 17:0.00249921899406 18:6.24804748516E-4 19:7.28938873269E-4 20:1.04134124753E-4 21:5.20670623763E-4 22:4.16536499011E-4 23:0.00239508486931 24:0.00343642611684 25:7.28938873269E-4 26:3.12402374258E-4 27:1.04134124753E-4 28:3.12402374258E-4 29:1.04134124753E-4 30:3.12402374258E-4 31:1.04134124753E-4 32:0.00614391336041 33:0.00291575549308 34:5.20670623763E-4 35:5.20670623763E-4 36:3.12402374258E-4 37:6.24804748516E-4 38:2.08268249505E-4 39:1.04134124753E-4 40:2.08268249505E-4 41:7.28938873269E-4 42:0.00166614599604 43:0.0 44:0.00135374362178 45:4.16536499011E-4 46:4.16536499011E-4 47:1.04134124753E-4 48:0.00281162136832 49:9.37207122774E-4 50:9.37207122774E-4 51:6.24804748516E-4 52:0.0 53:2.08268249505E-4 54:1.04134124753E-4 55:3.12402374258E-4 56:4.16536499011E-4 57:5.20670623763E-4 58:1.04134124753E-4 59:1.04134124753E-4 60:4.16536499011E-4 61:6.24804748516E-4 62:1.04134124753E-4 63:1.04134124753E-4 64:0.00145787774654 65:0.0019785483703 66:4.16536499011E-4 67:4.16536499011E-4 68:3.12402374258E-4 69:7.28938873269E-4 70:3.12402374258E-4 71:1.04134124753E-4 72:1.04134124753E-4 73:4.16536499011E-4 74:4.16536499011E-4 75:1.04134124753E-4 76:3.12402374258E-4 77:2.08268249505E-4 78:0.0 79:0.0 80:2.08268249505E-4 81:7.28938873269E-4 82:6.24804748516E-4 83:1.04134124753E-4 84:2.08268249505E-4 85:1.04134124753E-4 86:0.0 87:0.0 88:2.08268249505E-4 89:1.04134124753E-4 90:2.08268249505E-4 91:1.04134124753E-4 92:2.08268249505E-4 93:3.12402374258E-4 94:0.0 95:1.04134124753E-4 96:0.00114547537228 97:1.04134124753E-4 98:2.08268249505E-4 99:1.04134124753E-4 100:3.12402374258E-4 101:2.08268249505E-4 102:1.04134124753E-4 103:1.04134124753E-4 104:1.04134124753E-4 105:0.00281162136832 106:0.00489430386338 107:2.08268249505E-4 108:0.00322815786733 109:3.12402374258E-4 110:1.04134124753E-4 111:1.04134124753E-4 112:0.00229095074456 113:6.24804748516E-4 114:3.12402374258E-4 115:1.04134124753E-4 116:2.08268249505E-4 117:2.08268249505E-4 118:0.0 119:2.08268249505E-4 120:5.20670623763E-4 121:2.08268249505E-4 122:2.08268249505E-4 123:1.04134124753E-4 124:0.00135374362178 125:2.08268249505E-4 126:2.08268249505E-4 127:5.20670623763E-4 128:0.00635218160991 129:0.00301988961783 130:9.37207122774E-4 131:6.24804748516E-4 132:0.0 133:6.24804748516E-4 134:5.20670623763E-4 135:4.16536499011E-4 136:4.16536499011E-4 137:8.33072998021E-4 138:6.24804748516E-4 139:2.08268249505E-4 140:2.08268249505E-4 141:8.33072998021E-4 142:2.08268249505E-4 143:2.08268249505E-4 144:4.16536499011E-4 145:6.24804748516E-4 146:1.04134124753E-4 147:1.04134124753E-4 148:1.04134124753E-4 149:7.28938873269E-4 150:5.20670623763E-4 151:0.00260335311882 152:0.00312402374258 153:2.08268249505E-4 154:2.08268249505E-4 155:1.04134124753E-4 156:2.08268249505E-4 157:2.08268249505E-4 158:0.0 159:4.16536499011E-4 160:0.00281162136832 161:9.37207122774E-4 162:2.08268249505E-4 163:1.04134124753E-4 164:3.12402374258E-4 165:2.08268249505E-4 166:1.04134124753E-4 167:3.12402374258E-4 168:1.04134124753E-4 169:4.16536499011E-4 170:1.04134124753E-4 171:1.04134124753E-4 172:2.08268249505E-4 173:3.12402374258E-4 174:3.12402374258E-4 175:1.04134124753E-4 176:5.20670623763E-4 177:2.08268249505E-4 178:3.12402374258E-4 179:2.08268249505E-4 180:1.04134124753E-4 181:1.04134124753E-4 182:0.0 183:4.16536499011E-4 184:8.33072998021E-4 185:0.0 186:1.04134124753E-4 187:1.04134124753E-4 188:3.12402374258E-4 189:1.04134124753E-4 190:3.12402374258E-4 191:8.33072998021E-4 192:0.00426949911486 193:6.24804748516E-4 194:4.16536499011E-4 195:0.0 196:1.04134124753E-4 197:2.08268249505E-4 198:1.04134124753E-4 199:1.04134124753E-4 200:2.08268249505E-4 201:3.12402374258E-4 202:1.04134124753E-4 203:2.08268249505E-4 204:5.20670623763E-4 205:1.04134124753E-4 206:2.08268249505E-4 207:2.08268249505E-4 208:6.24804748516E-4 209:0.00312402374258 210:4.16536499011E-4 211:2.08268249505E-4 212:3.12402374258E-4 213:0.00489430386338 214:2.08268249505E-4 215:0.00718525460794 216:0.00270748724357 217:2.08268249505E-4 218:3.12402374258E-4 219:2.08268249505E-4 220:6.24804748516E-4 221:3.12402374258E-4 222:3.12402374258E-4 223:0.00104134124753 224:0.00905966885348 225:0.00104134124753 226:5.20670623763E-4 227:0.0 228:0.0 229:3.12402374258E-4 230:1.04134124753E-4 231:1.04134124753E-4 232:5.20670623763E-4 233:0.00260335311882 234:0.00499843798813 235:2.08268249505E-4 236:0.00187441424555 237:5.20670623763E-4 238:6.24804748516E-4 239:6.24804748516E-4 240:0.00364469436634 241:0.00520670623763 242:7.28938873269E-4 243:1.04134124753E-4 244:5.20670623763E-4 245:0.00531084036239 246:5.20670623763E-4 247:0.00468603561387 248:0.00499843798813 249:0.00510257211288 250:0.00239508486931 251:0.0017702801208 252:0.0077059252317 253:0.00468603561387 254:0.0039570967406 255:0.0130167655941 256:0.739768822243 
4096.0 1:0.00944036658322 2:0.00137892995036 3:0.0010395010395 4:3.39428910857E-4 5:0.00154864440579 6:5.09143366286E-4 7:4.66714752429E-4 8:8.91000891001E-4 9:0.00110314396029 10:3.81857524715E-4 11:3.60643217786E-4 12:0.00167593024736 13:3.39428910857E-4 14:1.06071534643E-4 15:6.36429207858E-5 16:0.00313971742543 17:0.00129407272264 18:5.30357673215E-4 19:3.39428910857E-4 20:1.90928762357E-4 21:4.24286138572E-4 22:1.485001485E-4 23:0.00203657346514 24:0.00258814544529 25:7.00072128644E-4 26:1.06071534643E-4 27:1.06071534643E-4 28:1.485001485E-4 29:1.27285841572E-4 30:8.48572277144E-5 31:2.54571683143E-4 32:0.00596122024693 33:0.00140014425729 34:3.81857524715E-4 35:3.39428910857E-4 36:8.48572277144E-5 37:3.18214603929E-4 38:2.33357376215E-4 39:1.27285841572E-4 40:2.12143069286E-4 41:4.455004455E-4 42:5.51571980143E-4 43:2.12143069286E-5 44:0.00154864440579 45:4.24286138572E-5 46:1.27285841572E-4 47:1.06071534643E-4 48:0.00224871653443 49:4.455004455E-4 50:2.33357376215E-4 51:1.06071534643E-4 52:0.0 53:6.36429207858E-5 54:6.36429207858E-5 55:8.48572277144E-5 56:1.69714455429E-4 57:1.27285841572E-4 58:6.36429207858E-5 59:8.48572277144E-5 60:1.69714455429E-4 61:4.24286138572E-5 62:4.24286138572E-5 63:1.06071534643E-4 64:0.00246085960372 65:8.48572277144E-4 66:3.81857524715E-4 67:5.51571980143E-4 68:8.48572277144E-5 69:4.24286138572E-4 70:1.485001485E-4 71:1.27285841572E-4 72:1.06071534643E-4 73:2.54571683143E-4 74:8.48572277144E-5 75:8.48572277144E-5 76:1.69714455429E-4 77:2.12143069286E-4 78:8.48572277144E-5 79:0.0 80:1.27285841572E-4 81:2.12143069286E-4 82:1.27285841572E-4 83:6.36429207858E-5 84:8.48572277144E-5 85:8.48572277144E-5 86:6.36429207858E-5 87:1.69714455429E-4 88:1.90928762357E-4 89:2.33357376215E-4 90:8.48572277144E-5 91:4.24286138572E-5 92:8.48572277144E-5 93:6.36429207858E-5 94:1.27285841572E-4 95:1.27285841572E-4 96:4.87929059358E-4 97:3.81857524715E-4 98:1.27285841572E-4 99:8.48572277144E-5 100:4.24286138572E-5 101:4.24286138572E-5 102:8.48572277144E-5 103:1.06071534643E-4 104:1.27285841572E-4 105:0.00142135856422 106:0.00106071534643 107:1.485001485E-4 108:0.00286393143536 109:1.27285841572E-4 110:1.485001485E-4 111:8.48572277144E-5 112:0.00195171623743 113:1.90928762357E-4 114:1.06071534643E-4 115:2.12143069286E-5 116:1.69714455429E-4 117:6.36429207858E-5 118:2.12143069286E-5 119:1.06071534643E-4 120:2.33357376215E-4 121:2.97000297E-4 122:4.24286138572E-5 123:1.485001485E-4 124:7.00072128644E-4 125:6.36429207858E-5 126:1.06071534643E-4 127:2.12143069286E-4 128:0.00653400653401 129:0.00171835886122 130:3.18214603929E-4 131:2.54571683143E-4 132:2.12143069286E-5 133:2.75785990072E-4 134:2.75785990072E-4 135:4.24286138572E-5 136:1.06071534643E-4 137:4.03071831643E-4 138:8.48572277144E-5 139:1.27285841572E-4 140:4.24286138572E-5 141:4.03071831643E-4 142:1.06071534643E-4 143:1.27285841572E-4 144:1.69714455429E-4 145:3.60643217786E-4 146:4.24286138572E-5 147:6.36429207858E-5 148:6.36429207858E-5 149:6.57643514786E-4 150:1.06071534643E-4 151:0.00233357376215 152:0.00305486019772 153:1.69714455429E-4 154:8.48572277144E-5 155:6.36429207858E-5 156:1.485001485E-4 157:8.48572277144E-5 158:2.12143069286E-5 159:1.90928762357E-4 160:0.00347914633629 161:3.39428910857E-4 162:8.48572277144E-5 163:2.12143069286E-4 164:6.36429207858E-5 165:1.69714455429E-4 166:2.33357376215E-4 167:8.48572277144E-5 168:8.48572277144E-5 169:1.90928762357E-4 170:8.48572277144E-5 171:2.12143069286E-5 172:6.36429207858E-5 173:1.27285841572E-4 174:6.36429207858E-5 175:4.24286138572E-5 176:8.48572277144E-5 177:8.48572277144E-5 178:1.485001485E-4 179:8.48572277144E-5 180:8.48572277144E-5 181:1.06071534643E-4 182:6.36429207858E-5 183:1.69714455429E-4 184:2.75785990072E-4 185:4.24286138572E-5 186:8.48572277144E-5 187:1.27285841572E-4 188:1.485001485E-4 189:6.36429207858E-5 190:2.54571683143E-4 191:8.48572277144E-5 192:0.00256693113836 193:3.60643217786E-4 194:1.06071534643E-4 195:1.27285841572E-4 196:6.36429207858E-5 197:8.48572277144E-5 198:4.24286138572E-5 199:4.24286138572E-5 200:1.27285841572E-4 201:1.06071534643E-4 202:8.48572277144E-5 203:4.24286138572E-5 204:1.06071534643E-4 205:1.485001485E-4 206:8.48572277144E-5 207:6.36429207858E-5 208:2.12143069286E-4 209:0.00254571683143 210:1.06071534643E-4 211:2.12143069286E-4 212:0.0 213:0.00303364589079 214:6.36429207858E-5 215:0.00842207985065 216:0.00328821757393 217:2.54571683143E-4 218:1.06071534643E-4 219:2.12143069286E-5 220:1.485001485E-4 221:1.90928762357E-4 222:1.90928762357E-4 223:0.00108192965336 224:0.00907972336544 225:0.0010395010395 226:1.06071534643E-4 227:1.27285841572E-4 228:8.48572277144E-5 229:2.12143069286E-4 230:1.69714455429E-4 231:6.36429207858E-5 232:1.90928762357E-4 233:0.00233357376215 234:0.00173957316814 235:1.69714455429E-4 236:0.001485001485 237:1.90928762357E-4 238:1.485001485E-4 239:2.54571683143E-4 240:0.00263057405915 241:0.0022275022275 242:1.06071534643E-4 243:8.48572277144E-5 244:1.69714455429E-4 245:0.00360643217786 246:1.27285841572E-4 247:0.00464593321736 248:0.00324578896007 249:0.00750986465272 250:0.00203657346514 251:7.63715049429E-4 252:0.00521871950443 253:0.00417921846493 254:0.00250328821757 255:0.0111375111375 256:0.815159743731 
4096.0 1:0.0134499726627 2:0.0021323127392 3:0.00196828868234 4:4.92072170585E-4 5:0.00278840896665 6:8.20120284308E-4 7:5.46746856206E-4 8:0.00207763805358 9:0.00174958993986 10:7.10770913067E-4 11:4.37397484964E-4 12:0.0024056861673 13:8.20120284308E-4 14:2.73373428103E-4 15:1.09349371241E-4 16:0.00410060142154 17:0.00246036085293 18:9.29469655549E-4 19:6.56096227447E-4 20:2.18698742482E-4 21:4.92072170585E-4 22:1.64024056862E-4 23:0.00306178239475 24:0.0042646254784 25:0.00207763805358 26:3.28048113723E-4 27:2.18698742482E-4 28:2.73373428103E-4 29:1.09349371241E-4 30:2.18698742482E-4 31:4.37397484964E-4 32:0.00710770913067 33:0.00267905959541 34:5.46746856206E-4 35:3.28048113723E-4 36:2.18698742482E-4 37:5.46746856206E-4 38:1.64024056862E-4 39:1.09349371241E-4 40:3.28048113723E-4 41:5.46746856206E-4 42:4.37397484964E-4 43:0.0 44:0.00169491525424 45:5.46746856206E-5 46:1.64024056862E-4 47:5.46746856206E-5 48:0.00273373428103 49:4.37397484964E-4 50:2.18698742482E-4 51:2.18698742482E-4 52:1.64024056862E-4 53:1.09349371241E-4 54:1.09349371241E-4 55:1.64024056862E-4 56:5.46746856206E-4 57:2.18698742482E-4 58:2.18698742482E-4 59:0.0 60:1.09349371241E-4 61:1.64024056862E-4 62:5.46746856206E-5 63:1.64024056862E-4 64:0.00366320393658 65:0.001585565883 66:6.56096227447E-4 67:6.56096227447E-4 68:1.09349371241E-4 69:3.28048113723E-4 70:2.73373428103E-4 71:1.09349371241E-4 72:0.0 73:4.92072170585E-4 74:5.46746856206E-5 75:1.09349371241E-4 76:2.18698742482E-4 77:2.73373428103E-4 78:5.46746856206E-5 79:1.09349371241E-4 80:1.64024056862E-4 81:2.18698742482E-4 82:3.28048113723E-4 83:5.46746856206E-5 84:0.0 85:1.64024056862E-4 86:5.46746856206E-5 87:2.18698742482E-4 88:2.73373428103E-4 89:1.64024056862E-4 90:5.46746856206E-5 91:1.09349371241E-4 92:1.09349371241E-4 93:5.46746856206E-5 94:1.09349371241E-4 95:1.09349371241E-4 96:7.10770913067E-4 97:3.28048113723E-4 98:3.28048113723E-4 99:0.0 100:1.64024056862E-4 101:5.46746856206E-5 102:0.0 103:5.46746856206E-5 104:0.0 105:0.00251503553855 106:0.00338983050847 107:1.09349371241E-4 108:0.00749043193002 109:1.64024056862E-4 110:5.46746856206E-5 111:1.09349371241E-4 112:0.00322580645161 113:1.64024056862E-4 114:2.73373428103E-4 115:1.64024056862E-4 116:2.18698742482E-4 117:0.0 118:5.46746856206E-5 119:1.09349371241E-4 120:3.82722799344E-4 121:3.82722799344E-4 122:1.64024056862E-4 123:1.64024056862E-4 124:0.001585565883 125:1.64024056862E-4 126:3.28048113723E-4 127:2.18698742482E-4 128:0.00820120284308 129:0.0024056861673 130:5.46746856206E-4 131:7.10770913067E-4 132:5.46746856206E-5 133:8.74794969929E-4 134:1.64024056862E-4 135:1.09349371241E-4 136:1.09349371241E-4 137:7.10770913067E-4 138:0.0 139:2.73373428103E-4 140:0.0 141:3.28048113723E-4 142:1.64024056862E-4 143:2.18698742482E-4 144:6.01421541826E-4 145:3.28048113723E-4 146:2.73373428103E-4 147:5.46746856206E-5 148:1.64024056862E-4 149:3.28048113723E-4 150:1.64024056862E-4 151:0.00393657736468 152:0.00442864953527 153:2.18698742482E-4 154:1.64024056862E-4 155:5.46746856206E-5 156:2.18698742482E-4 157:1.09349371241E-4 158:1.64024056862E-4 159:1.09349371241E-4 160:0.00437397484964 161:5.46746856206E-4 162:4.37397484964E-4 163:3.82722799344E-4 164:1.09349371241E-4 165:1.64024056862E-4 166:2.18698742482E-4 167:2.73373428103E-4 168:1.64024056862E-4 169:5.46746856206E-5 170:1.64024056862E-4 171:1.09349371241E-4 172:5.46746856206E-5 173:2.73373428103E-4 174:5.46746856206E-5 175:5.46746856206E-5 176:5.46746856206E-4 177:1.09349371241E-4 178:1.64024056862E-4 179:5.46746856206E-5 180:0.0 181:1.64024056862E-4 182:3.28048113723E-4 183:5.46746856206E-5 184:4.92072170585E-4 185:2.18698742482E-4 186:1.09349371241E-4 187:5.46746856206E-5 188:2.73373428103E-4 189:1.64024056862E-4 190:3.28048113723E-4 191:2.18698742482E-4 192:0.00328048113723 193:6.01421541826E-4 194:1.64024056862E-4 195:2.18698742482E-4 196:1.64024056862E-4 197:1.09349371241E-4 198:1.09349371241E-4 199:2.18698742482E-4 200:2.18698742482E-4 201:1.09349371241E-4 202:1.09349371241E-4 203:2.18698742482E-4 204:1.64024056862E-4 205:5.46746856206E-5 206:1.09349371241E-4 207:1.64024056862E-4 208:4.92072170585E-4 209:0.00300710770913 210:1.09349371241E-4 211:1.64024056862E-4 212:5.46746856206E-5 213:0.00235101148168 214:1.64024056862E-4 215:0.00481137233461 216:0.00431930016402 217:5.46746856206E-5 218:5.46746856206E-5 219:1.09349371241E-4 220:4.92072170585E-4 221:2.73373428103E-4 222:5.46746856206E-5 223:0.00136686714051 224:0.0114816839803 225:0.00109349371241 226:2.18698742482E-4 227:5.46746856206E-5 228:1.64024056862E-4 229:1.64024056862E-4 230:1.64024056862E-4 231:5.46746856206E-5 232:2.18698742482E-4 233:0.00338983050847 234:0.00377255330782 235:5.46746856206E-5 236:0.00431930016402 237:1.64024056862E-4 238:2.73373428103E-4 239:4.37397484964E-4 240:0.0034445051941 241:0.00278840896665 242:2.73373428103E-4 243:4.37397484964E-4 244:4.37397484964E-4 245:0.00289775833789 246:5.46746856206E-4 247:0.00311645708037 248:0.00377255330782 249:0.0061235647895 250:0.00338983050847 251:6.01421541826E-4 252:0.0106068890104 253:0.00295243302351 254:0.00317113176599 255:0.00792782941498 256:0.755330781848 
4096.0 1:0.0133867589473 2:0.0026409252345 3:0.00145706219834 4:5.91931518077E-4 5:0.00177579455423 6:6.37464711775E-4 7:3.64265549586E-4 8:0.00127492942355 9:0.00223112649121 10:6.37464711775E-4 11:4.09798743284E-4 12:0.00200346052272 13:4.55331936982E-4 14:1.36599581095E-4 15:1.82132774793E-4 16:0.00400692104544 17:0.00218559329751 18:5.46398324378E-4 19:5.46398324378E-4 20:2.73199162189E-4 21:7.28531099171E-4 22:4.55331936982E-5 23:0.00400692104544 24:0.00910663873964 25:5.0086513068E-4 26:4.55331936982E-5 27:1.36599581095E-4 28:4.09798743284E-4 29:1.82132774793E-4 30:1.82132774793E-4 31:4.09798743284E-4 32:0.0146161551771 33:0.00227665968491 34:9.10663873964E-4 35:5.46398324378E-4 36:1.36599581095E-4 37:5.0086513068E-4 38:3.18732355887E-4 39:1.36599581095E-4 40:1.82132774793E-4 41:6.82997905473E-4 42:0.00109279664876 43:3.18732355887E-4 44:0.00209452691012 45:1.36599581095E-4 46:1.36599581095E-4 47:1.82132774793E-4 48:0.00236772607231 49:5.0086513068E-4 50:2.73199162189E-4 51:3.64265549586E-4 52:0.0 53:1.36599581095E-4 54:4.55331936982E-5 55:2.73199162189E-4 56:4.55331936982E-4 57:2.73199162189E-4 58:4.55331936982E-5 59:4.55331936982E-5 60:2.73199162189E-4 61:4.55331936982E-5 62:9.10663873964E-5 63:2.27665968491E-4 64:0.00387032146435 65:0.00136599581095 66:4.55331936982E-4 67:5.91931518077E-4 68:2.73199162189E-4 69:5.46398324378E-4 70:3.64265549586E-4 71:4.55331936982E-5 72:9.10663873964E-5 73:5.0086513068E-4 74:2.73199162189E-4 75:9.10663873964E-5 76:4.55331936982E-4 77:1.36599581095E-4 78:0.0 79:1.82132774793E-4 80:2.27665968491E-4 81:4.09798743284E-4 82:1.36599581095E-4 83:9.10663873964E-5 84:0.0 85:1.36599581095E-4 86:4.55331936982E-5 87:1.82132774793E-4 88:1.36599581095E-4 89:2.73199162189E-4 90:1.36599581095E-4 91:9.10663873964E-5 92:4.55331936982E-5 93:4.55331936982E-5 94:1.36599581095E-4 95:2.73199162189E-4 96:9.10663873964E-4 97:5.0086513068E-4 98:3.18732355887E-4 99:2.27665968491E-4 100:9.10663873964E-5 101:9.10663873964E-5 102:1.82132774793E-4 103:4.55331936982E-5 104:9.10663873964E-5 105:0.00364265549586 106:0.00555504963118 107:2.73199162189E-4 108:0.00632911392405 109:5.0086513068E-4 110:2.73199162189E-4 111:1.82132774793E-4 112:0.0024587924597 113:9.10663873964E-5 114:2.27665968491E-4 115:9.10663873964E-5 116:9.10663873964E-5 117:4.55331936982E-5 118:0.0 119:9.10663873964E-5 120:5.0086513068E-4 121:3.18732355887E-4 122:1.82132774793E-4 123:0.0 124:0.00109279664876 125:3.18732355887E-4 126:3.18732355887E-4 127:3.18732355887E-4 128:0.00960750387032 129:0.00186686094163 130:2.73199162189E-4 131:5.91931518077E-4 132:9.10663873964E-5 133:6.37464711775E-4 134:2.73199162189E-4 135:9.10663873964E-5 136:2.73199162189E-4 137:5.46398324378E-4 138:1.36599581095E-4 139:2.73199162189E-4 140:4.55331936982E-5 141:3.18732355887E-4 142:1.36599581095E-4 143:9.10663873964E-5 144:3.18732355887E-4 145:6.37464711775E-4 146:1.36599581095E-4 147:1.82132774793E-4 148:1.82132774793E-4 149:9.10663873964E-4 150:1.36599581095E-4 151:0.00327838994627 152:0.00664784627994 153:1.36599581095E-4 154:1.36599581095E-4 155:1.82132774793E-4 156:9.10663873964E-5 157:1.36599581095E-4 158:9.10663873964E-5 159:2.27665968491E-4 160:0.00887897277115 161:6.37464711775E-4 162:2.73199162189E-4 163:1.36599581095E-4 164:9.10663873964E-5 165:2.73199162189E-4 166:4.55331936982E-5 167:0.0 168:1.82132774793E-4 169:3.64265549586E-4 170:2.27665968491E-4 171:9.10663873964E-5 172:4.55331936982E-5 173:1.82132774793E-4 174:9.10663873964E-5 175:1.36599581095E-4 176:1.82132774793E-4 177:2.73199162189E-4 178:0.0 179:0.0 180:3.64265549586E-4 181:1.82132774793E-4 182:1.82132774793E-4 183:1.36599581095E-4 184:5.46398324378E-4 185:9.10663873964E-5 186:4.55331936982E-5 187:9.10663873964E-5 188:4.09798743284E-4 189:9.10663873964E-5 190:2.27665968491E-4 191:4.55331936982E-4 192:0.00346052272106 193:2.27665968491E-4 194:2.27665968491E-4 195:2.73199162189E-4 196:1.82132774793E-4 197:9.10663873964E-5 198:1.82132774793E-4 199:2.27665968491E-4 200:1.82132774793E-4 201:3.64265549586E-4 202:1.82132774793E-4 203:4.55331936982E-5 204:9.10663873964E-5 205:9.10663873964E-5 206:1.36599581095E-4 207:9.10663873964E-5 208:3.64265549586E-4 209:0.00118386303615 210:1.82132774793E-4 211:1.82132774793E-4 212:1.82132774793E-4 213:0.00204899371642 214:2.73199162189E-4 215:0.00277752481559 216:0.00446225298242 217:2.27665968491E-4 218:4.55331936982E-5 219:4.55331936982E-5 220:4.55331936982E-4 221:3.18732355887E-4 222:2.27665968491E-4 223:6.82997905473E-4 224:0.0175758127675 225:8.19597486568E-4 226:1.36599581095E-4 227:9.10663873964E-5 228:2.27665968491E-4 229:2.73199162189E-4 230:2.27665968491E-4 231:9.10663873964E-5 232:3.18732355887E-4 233:0.00309625717148 234:0.00610144795556 235:2.73199162189E-4 236:0.00459885256352 237:9.10663873964E-5 238:2.27665968491E-4 239:9.10663873964E-5 240:0.00409798743284 241:0.00104726345506 242:9.10663873964E-5 243:2.27665968491E-4 244:1.82132774793E-4 245:0.00136599581095 246:1.82132774793E-4 247:0.00113832984246 248:0.00318732355887 249:0.00537291685639 250:0.00405245423914 251:0.00113832984246 252:0.0122484291048 253:0.00118386303615 254:0.00282305800929 255:0.00446225298242 256:0.741462526182 
4096.0 1:0.0131481022079 2:0.00218308112131 3:8.43463160506E-4 4:6.45001240387E-4 5:0.00203423468122 6:4.96154800298E-4 7:7.93847680476E-4 8:0.00138923344083 9:0.0023319275614 10:8.43463160506E-4 11:1.98461920119E-4 12:0.0023319275614 13:6.94616720417E-4 14:1.48846440089E-4 15:1.48846440089E-4 16:0.00352269908211 17:0.00213346564128 18:6.45001240387E-4 19:2.48077400149E-4 20:1.98461920119E-4 21:6.45001240387E-4 22:1.48846440089E-4 23:0.00337385264202 24:0.00570578020342 25:0.00119077152071 26:1.98461920119E-4 27:9.92309600595E-5 28:5.95385760357E-4 29:1.98461920119E-4 30:4.96154800298E-5 31:2.48077400149E-4 32:0.011610022327 33:0.00198461920119 34:6.94616720417E-4 35:4.46539320268E-4 36:1.48846440089E-4 37:2.97692880179E-4 38:2.48077400149E-4 39:4.96154800298E-5 40:9.92309600595E-5 41:4.46539320268E-4 42:7.93847680476E-4 43:1.48846440089E-4 44:0.00238154304143 45:9.92309600595E-5 46:9.92309600595E-5 47:9.92309600595E-5 48:0.00372116100223 49:2.97692880179E-4 50:6.94616720417E-4 51:9.92309600595E-5 52:1.48846440089E-4 53:2.48077400149E-4 54:4.96154800298E-5 55:4.96154800298E-5 56:2.48077400149E-4 57:3.96923840238E-4 58:1.98461920119E-4 59:0.0 60:2.97692880179E-4 61:4.96154800298E-5 62:0.0 63:2.48077400149E-4 64:0.00401885388241 65:0.00138923344083 66:3.47308360208E-4 67:4.46539320268E-4 68:3.47308360208E-4 69:2.48077400149E-4 70:1.48846440089E-4 71:9.92309600595E-5 72:4.96154800298E-5 73:2.97692880179E-4 74:1.98461920119E-4 75:0.0 76:1.48846440089E-4 77:9.92309600595E-5 78:4.46539320268E-4 79:4.96154800298E-5 80:1.48846440089E-4 81:1.98461920119E-4 82:9.92309600595E-5 83:4.96154800298E-5 84:4.96154800298E-5 85:1.98461920119E-4 86:9.92309600595E-5 87:3.96923840238E-4 88:9.92309600595E-5 89:9.92309600595E-5 90:0.0 91:9.92309600595E-5 92:4.96154800298E-5 93:1.48846440089E-4 94:1.98461920119E-4 95:1.98461920119E-4 96:7.93847680476E-4 97:3.47308360208E-4 98:1.48846440089E-4 99:9.92309600595E-5 100:1.48846440089E-4 101:9.92309600595E-5 102:1.48846440089E-4 103:0.0 104:9.92309600595E-5 105:0.00248077400149 106:0.00248077400149 107:2.48077400149E-4 108:0.00635078144381 109:2.48077400149E-4 110:2.97692880179E-4 111:9.92309600595E-5 112:0.00253038948152 113:1.48846440089E-4 114:1.98461920119E-4 115:0.0 116:9.92309600595E-5 117:2.48077400149E-4 118:9.92309600595E-5 119:9.92309600595E-5 120:2.97692880179E-4 121:3.96923840238E-4 122:2.48077400149E-4 123:2.97692880179E-4 124:0.00109154056065 125:0.0 126:1.98461920119E-4 127:2.97692880179E-4 128:0.00947655668569 129:0.00178615728107 130:6.45001240387E-4 131:4.96154800298E-4 132:1.48846440089E-4 133:3.96923840238E-4 134:2.97692880179E-4 135:2.48077400149E-4 136:1.98461920119E-4 137:4.96154800298E-4 138:1.98461920119E-4 139:2.97692880179E-4 140:9.92309600595E-5 141:7.44232200447E-4 142:1.98461920119E-4 143:4.96154800298E-5 144:1.48846440089E-4 145:4.46539320268E-4 146:2.48077400149E-4 147:1.48846440089E-4 148:1.98461920119E-4 149:7.93847680476E-4 150:9.92309600595E-5 151:0.00312577524188 152:0.00525924088316 153:1.98461920119E-4 154:1.48846440089E-4 155:4.96154800298E-5 156:3.96923840238E-4 157:1.48846440089E-4 158:9.92309600595E-5 159:1.48846440089E-4 160:0.00610270404366 161:4.46539320268E-4 162:3.47308360208E-4 163:2.97692880179E-4 164:9.92309600595E-5 165:2.48077400149E-4 166:1.98461920119E-4 167:2.48077400149E-4 168:2.48077400149E-4 169:4.96154800298E-5 170:9.92309600595E-5 171:9.92309600595E-5 172:4.96154800298E-5 173:0.0 174:9.92309600595E-5 175:2.97692880179E-4 176:2.97692880179E-4 177:2.48077400149E-4 178:4.96154800298E-5 179:2.97692880179E-4 180:9.92309600595E-5 181:4.96154800298E-5 182:0.0 183:1.48846440089E-4 184:9.92309600595E-5 185:9.92309600595E-5 186:0.0 187:4.96154800298E-5 188:1.98461920119E-4 189:4.96154800298E-5 190:1.98461920119E-4 191:2.97692880179E-4 192:0.00277846688167 193:2.48077400149E-4 194:4.96154800298E-5 195:3.96923840238E-4 196:9.92309600595E-5 197:4.96154800298E-5 198:9.92309600595E-5 199:9.92309600595E-5 200:1.98461920119E-4 201:1.98461920119E-4 202:4.96154800298E-5 203:9.92309600595E-5 204:1.98461920119E-4 205:1.98461920119E-4 206:1.98461920119E-4 207:4.96154800298E-5 208:4.46539320268E-4 209:0.00218308112131 210:2.97692880179E-4 211:4.96154800298E-5 212:1.48846440089E-4 213:0.00277846688167 214:1.48846440089E-4 215:0.00496154800298 216:0.00426693128256 217:1.98461920119E-4 218:1.48846440089E-4 219:9.92309600595E-5 220:1.98461920119E-4 221:3.47308360208E-4 222:1.48846440089E-4 223:9.42694120566E-4 224:0.0129496402878 225:0.00114115604068 226:2.48077400149E-4 227:4.96154800298E-5 228:9.92309600595E-5 229:1.48846440089E-4 230:1.48846440089E-4 231:2.48077400149E-4 232:9.92309600595E-5 233:0.00411808484247 234:0.00391962292235 235:2.97692880179E-4 236:0.00297692880179 237:2.48077400149E-4 238:1.98461920119E-4 239:2.97692880179E-4 240:0.00327462168196 241:0.00243115852146 242:1.98461920119E-4 243:9.92309600595E-5 244:2.97692880179E-4 245:0.00317539072191 246:3.47308360208E-4 247:0.00267923592161 248:0.00317539072191 249:0.00808732324485 250:0.00451500868271 251:0.00114115604068 252:0.0106177127264 253:0.00277846688167 254:0.00312577524188 255:0.00778963036467 256:0.753510295212 
4096.0 1:0.0123232156149 2:0.00215035977173 3:0.00140600446613 4:4.13530725333E-4 5:0.00256389049706 6:4.96236870399E-4 7:4.96236870399E-4 8:0.001240592176 9:0.002481184352 10:9.92473740799E-4 11:4.13530725333E-4 12:0.00413530725333 13:5.78943015466E-4 14:8.27061450666E-5 15:0.0 16:0.00330824580266 17:0.0019849474816 18:4.96236870399E-4 19:8.27061450666E-5 20:8.27061450666E-5 21:4.96236870399E-4 22:1.65412290133E-4 23:0.00215035977173 24:0.00239847820693 25:6.61649160533E-4 26:3.30824580266E-4 27:0.0 28:4.13530725333E-4 29:8.27061450666E-5 30:0.0 31:1.65412290133E-4 32:0.00744355305599 33:0.00289471507733 34:9.09767595732E-4 35:6.61649160533E-4 36:3.30824580266E-4 37:5.78943015466E-4 38:2.481184352E-4 39:1.65412290133E-4 40:2.481184352E-4 41:8.27061450666E-4 42:0.00115788603093 43:1.65412290133E-4 44:0.00496236870399 45:1.65412290133E-4 46:4.13530725333E-4 47:1.65412290133E-4 48:0.00454883797866 49:9.92473740799E-4 50:4.96236870399E-4 51:3.30824580266E-4 52:0.0 53:8.27061450666E-5 54:0.0 55:8.27061450666E-5 56:1.65412290133E-4 57:8.27061450666E-5 58:2.481184352E-4 59:0.0 60:4.13530725333E-4 61:8.27061450666E-5 62:0.0 63:8.27061450666E-5 64:0.00330824580266 65:0.0014887106112 66:2.481184352E-4 67:6.61649160533E-4 68:1.65412290133E-4 69:4.96236870399E-4 70:3.30824580266E-4 71:3.30824580266E-4 72:1.65412290133E-4 73:5.78943015466E-4 74:1.65412290133E-4 75:8.27061450666E-5 76:2.481184352E-4 77:3.30824580266E-4 78:8.27061450666E-5 79:0.0 80:2.481184352E-4 81:4.96236870399E-4 82:4.13530725333E-4 83:1.65412290133E-4 84:0.0 85:8.27061450666E-5 86:1.65412290133E-4 87:2.481184352E-4 88:1.65412290133E-4 89:1.65412290133E-4 90:8.27061450666E-5 91:8.27061450666E-5 92:8.27061450666E-5 93:1.65412290133E-4 94:1.65412290133E-4 95:0.0 96:9.09767595732E-4 97:2.481184352E-4 98:0.0 99:2.481184352E-4 100:2.481184352E-4 101:0.0 102:1.65412290133E-4 103:8.27061450666E-5 104:8.27061450666E-5 105:0.00314283351253 106:0.00206765362666 107:0.0 108:0.00479695641386 109:0.0 110:8.27061450666E-5 111:1.65412290133E-4 112:0.00306012736746 113:8.27061450666E-5 114:8.27061450666E-5 115:8.27061450666E-5 116:4.13530725333E-4 117:1.65412290133E-4 118:8.27061450666E-5 119:8.27061450666E-5 120:5.78943015466E-4 121:2.481184352E-4 122:1.65412290133E-4 123:1.65412290133E-4 124:0.0014887106112 125:8.27061450666E-5 126:1.65412290133E-4 127:2.481184352E-4 128:0.00802249607146 129:0.0017368290464 130:4.13530725333E-4 131:3.30824580266E-4 132:1.65412290133E-4 133:3.30824580266E-4 134:3.30824580266E-4 135:8.27061450666E-5 136:8.27061450666E-5 137:4.96236870399E-4 138:8.27061450666E-5 139:1.65412290133E-4 140:1.65412290133E-4 141:1.65412290133E-4 142:2.481184352E-4 143:8.27061450666E-5 144:4.13530725333E-4 145:1.65412290133E-4 146:0.0 147:2.481184352E-4 148:1.65412290133E-4 149:0.00132329832107 150:0.0 151:0.00231577206186 152:0.00239847820693 153:1.65412290133E-4 154:1.65412290133E-4 155:8.27061450666E-5 156:8.27061450666E-5 157:8.27061450666E-5 158:8.27061450666E-5 159:8.27061450666E-5 160:0.00264659664213 161:4.96236870399E-4 162:2.481184352E-4 163:4.96236870399E-4 164:2.481184352E-4 165:0.0 166:1.65412290133E-4 167:8.27061450666E-5 168:2.481184352E-4 169:8.27061450666E-5 170:1.65412290133E-4 171:8.27061450666E-5 172:1.65412290133E-4 173:1.65412290133E-4 174:8.27061450666E-5 175:2.481184352E-4 176:2.481184352E-4 177:8.27061450666E-5 178:1.65412290133E-4 179:8.27061450666E-5 180:2.481184352E-4 181:2.481184352E-4 182:8.27061450666E-5 183:8.27061450666E-5 184:0.0 185:8.27061450666E-5 186:2.481184352E-4 187:2.481184352E-4 188:4.13530725333E-4 189:0.0 190:4.13530725333E-4 191:4.96236870399E-4 192:0.00289471507733 193:2.481184352E-4 194:1.65412290133E-4 195:2.481184352E-4 196:1.65412290133E-4 197:0.0 198:1.65412290133E-4 199:2.481184352E-4 200:3.30824580266E-4 201:1.65412290133E-4 202:0.0 203:8.27061450666E-5 204:2.481184352E-4 205:8.27061450666E-5 206:8.27061450666E-5 207:8.27061450666E-5 208:3.30824580266E-4 209:0.00140600446613 210:8.27061450666E-5 211:3.30824580266E-4 212:1.65412290133E-4 213:0.00231577206186 214:0.0 215:0.00835332065172 216:0.00157141675626 217:1.65412290133E-4 218:8.27061450666E-5 219:0.0 220:3.30824580266E-4 221:1.65412290133E-4 222:3.30824580266E-4 223:0.00140600446613 224:0.00504507484906 225:9.92473740799E-4 226:1.65412290133E-4 227:8.27061450666E-5 228:8.27061450666E-5 229:8.27061450666E-5 230:2.481184352E-4 231:8.27061450666E-5 232:3.30824580266E-4 233:0.00380448267306 234:0.00289471507733 235:1.65412290133E-4 236:0.00380448267306 237:2.481184352E-4 238:2.481184352E-4 239:4.13530725333E-4 240:0.00405260110826 241:0.00264659664213 242:1.65412290133E-4 243:0.0 244:1.65412290133E-4 245:0.00215035977173 246:4.96236870399E-4 247:0.00181953519146 248:0.0029774212224 249:0.0121578033248 250:0.00330824580266 251:9.09767595732E-4 252:0.00843602679679 253:0.0017368290464 254:0.00281200893226 255:0.00587213629973 256:0.777520469771 
4096.0 1:0.00866357865843 2:0.00162978212386 3:0.00114370675359 4:2.85926688397E-4 5:0.00145822611083 6:3.14519357237E-4 7:5.43260707954E-4 8:7.43409389832E-4 9:0.00174415279922 10:2.85926688397E-4 11:2.00148681878E-4 12:0.00148681877966 13:3.71704694916E-4 14:8.57780065191E-5 15:1.14370675359E-4 16:0.00251615485789 17:0.00148681877966 18:3.71704694916E-4 19:2.00148681878E-4 20:5.71853376794E-5 21:2.57334019557E-4 22:5.71853376794E-5 23:8.86372734031E-4 24:0.00228741350718 25:0.00154400411734 26:8.57780065191E-5 27:5.71853376794E-5 28:2.00148681878E-4 29:1.42963344199E-4 30:5.71853376794E-5 31:1.71556013038E-4 32:0.00680505518385 33:0.00120089209127 34:6.00446045634E-4 35:4.00297363756E-4 36:1.42963344199E-4 37:2.85926688397E-4 38:1.14370675359E-4 39:2.85926688397E-5 40:2.57334019557E-4 41:4.86075370275E-4 42:7.43409389832E-4 43:1.71556013038E-4 44:0.00211585749414 45:1.42963344199E-4 46:1.14370675359E-4 47:8.57780065191E-5 48:0.00231600617602 49:4.86075370275E-4 50:2.28741350718E-4 51:2.00148681878E-4 52:5.71853376794E-5 53:8.57780065191E-5 54:1.71556013038E-4 55:8.57780065191E-5 56:5.71853376794E-5 57:8.57780065191E-5 58:8.57780065191E-5 59:0.0 60:1.14370675359E-4 61:1.14370675359E-4 62:2.85926688397E-5 63:2.00148681878E-4 64:0.00257334019557 65:0.0015154114485 66:1.71556013038E-4 67:5.71853376794E-4 68:1.14370675359E-4 69:3.14519357237E-4 70:1.71556013038E-4 71:2.85926688397E-5 72:1.42963344199E-4 73:3.14519357237E-4 74:1.14370675359E-4 75:8.57780065191E-5 76:1.71556013038E-4 77:1.42963344199E-4 78:2.85926688397E-5 79:5.71853376794E-5 80:1.71556013038E-4 81:1.42963344199E-4 82:2.57334019557E-4 83:1.42963344199E-4 84:2.85926688397E-5 85:1.14370675359E-4 86:1.71556013038E-4 87:1.42963344199E-4 88:1.71556013038E-4 89:2.00148681878E-4 90:0.0 91:1.14370675359E-4 92:2.85926688397E-5 93:0.0 94:2.85926688397E-5 95:1.14370675359E-4 96:5.14668039115E-4 97:4.57482701435E-4 98:1.14370675359E-4 99:8.57780065191E-5 100:2.28741350718E-4 101:1.14370675359E-4 102:0.0 103:0.0 104:0.0 105:0.00257334019557 106:0.0020872648253 107:1.71556013038E-4 108:0.00926402470407 109:5.71853376794E-5 110:5.71853376794E-5 111:2.85926688397E-5 112:0.00211585749414 113:1.14370675359E-4 114:1.14370675359E-4 115:8.57780065191E-5 116:1.71556013038E-4 117:1.14370675359E-4 118:2.85926688397E-5 119:1.14370675359E-4 120:8.57780065191E-5 121:2.28741350718E-4 122:2.28741350718E-4 123:0.0 124:6.57631383313E-4 125:1.14370675359E-4 126:8.57780065191E-5 127:2.85926688397E-4 128:0.00614742380054 129:0.00140104077315 130:2.00148681878E-4 131:2.00148681878E-4 132:0.0 133:4.57482701435E-4 134:2.28741350718E-4 135:1.71556013038E-4 136:1.14370675359E-4 137:2.85926688397E-4 138:1.42963344199E-4 139:2.28741350718E-4 140:1.14370675359E-4 141:2.57334019557E-4 142:2.85926688397E-5 143:1.71556013038E-4 144:1.14370675359E-4 145:3.43112026077E-4 146:8.57780065191E-5 147:5.71853376794E-5 148:0.0 149:4.57482701435E-4 150:1.42963344199E-4 151:0.00125807742895 152:0.0018013381369 153:8.57780065191E-5 154:5.71853376794E-5 155:8.57780065191E-5 156:2.85926688397E-5 157:2.85926688397E-5 158:5.71853376794E-5 159:1.14370675359E-4 160:0.00234459884486 161:5.14668039115E-4 162:2.00148681878E-4 163:2.85926688397E-5 164:1.42963344199E-4 165:2.85926688397E-5 166:1.42963344199E-4 167:1.42963344199E-4 168:1.71556013038E-4 169:1.71556013038E-4 170:5.71853376794E-5 171:1.14370675359E-4 172:2.28741350718E-4 173:2.85926688397E-5 174:5.71853376794E-5 175:1.42963344199E-4 176:8.57780065191E-5 177:1.42963344199E-4 178:1.42963344199E-4 179:2.85926688397E-5 180:2.85926688397E-5 181:5.71853376794E-5 182:1.14370675359E-4 183:5.71853376794E-5 184:1.71556013038E-4 185:1.42963344199E-4 186:8.57780065191E-5 187:2.85926688397E-5 188:3.14519357237E-4 189:1.14370675359E-4 190:1.42963344199E-4 191:5.71853376794E-5 192:0.00214445016298 193:1.42963344199E-4 194:1.14370675359E-4 195:1.71556013038E-4 196:2.85926688397E-5 197:2.00148681878E-4 198:8.57780065191E-5 199:5.71853376794E-5 200:8.57780065191E-5 201:1.14370675359E-4 202:5.71853376794E-5 203:2.85926688397E-5 204:5.71853376794E-5 205:8.57780065191E-5 206:5.71853376794E-5 207:2.85926688397E-5 208:3.71704694916E-4 209:0.00145822611083 210:8.57780065191E-5 211:1.14370675359E-4 212:1.14370675359E-4 213:0.00162978212386 214:2.85926688397E-5 215:0.00334534225425 216:0.00145822611083 217:1.71556013038E-4 218:1.14370675359E-4 219:1.14370675359E-4 220:2.28741350718E-4 221:1.71556013038E-4 222:8.57780065191E-5 223:4.86075370275E-4 224:0.00514668039115 225:5.43260707954E-4 226:1.42963344199E-4 227:8.57780065191E-5 228:1.42963344199E-4 229:1.14370675359E-4 230:8.57780065191E-5 231:5.71853376794E-5 232:1.14370675359E-4 233:0.0038886029622 234:0.00340252759193 235:5.71853376794E-5 236:0.00288785955281 237:1.42963344199E-4 238:2.85926688397E-4 239:2.28741350718E-4 240:0.00280208154629 241:0.00294504489049 242:1.14370675359E-4 243:1.42963344199E-4 244:1.42963344199E-4 245:0.00217304283182 246:1.14370675359E-4 247:0.00260193286441 248:0.00277348887745 249:0.0152684851604 250:0.00483216103391 251:5.43260707954E-4 252:0.00997884142506 253:0.00406015897524 254:0.00271630353977 255:0.00846342997655 256:0.812346314405 
4096.0 1:0.00940469645802 2:0.00166889185581 3:0.00102096913532 4:4.31948480327E-4 5:0.00139401555015 6:3.33778371162E-4 7:4.31948480327E-4 8:8.04994895154E-4 9:0.00113877326632 10:4.31948480327E-4 11:2.74876305662E-4 12:0.00168852587764 13:3.53412392995E-4 14:1.57072174664E-4 15:1.9634021833E-4 16:0.00223827848897 17:0.00106023717898 18:5.10484567659E-4 19:3.14144349329E-4 20:5.89020654991E-5 21:3.73046414828E-4 22:7.85360873321E-5 23:0.00145291761564 24:0.00139401555015 25:5.30118589492E-4 26:1.76706196497E-4 27:9.81701091652E-5 28:3.14144349329E-4 29:1.57072174664E-4 30:5.89020654991E-5 31:1.57072174664E-4 32:0.00280766512212 33:0.00121730935365 34:3.33778371162E-4 35:4.31948480327E-4 36:1.37438152831E-4 37:4.31948480327E-4 38:1.76706196497E-4 39:9.81701091652E-5 40:7.85360873321E-5 41:3.33778371162E-4 42:6.87190764156E-4 43:1.57072174664E-4 44:0.00153145370298 45:5.89020654991E-5 46:2.15974240163E-4 47:5.89020654991E-5 48:0.00233644859813 49:3.73046414828E-4 50:1.9634021833E-4 51:1.76706196497E-4 52:1.37438152831E-4 53:1.17804130998E-4 54:1.17804130998E-4 55:9.81701091652E-5 56:1.76706196497E-4 57:1.76706196497E-4 58:7.85360873321E-5 59:7.85360873321E-5 60:1.37438152831E-4 61:5.89020654991E-5 62:9.81701091652E-5 63:9.81701091652E-5 64:0.00212047435797 65:8.24628916987E-4 66:3.14144349329E-4 67:8.83530982486E-4 68:7.85360873321E-5 69:2.35608261996E-4 70:9.81701091652E-5 71:7.85360873321E-5 72:1.37438152831E-4 73:2.74876305662E-4 74:9.81701091652E-5 75:7.85360873321E-5 76:1.17804130998E-4 77:2.35608261996E-4 78:3.92680436661E-5 79:5.89020654991E-5 80:1.76706196497E-4 81:3.53412392995E-4 82:2.15974240163E-4 83:5.89020654991E-5 84:3.92680436661E-5 85:3.92680436661E-5 86:9.81701091652E-5 87:1.17804130998E-4 88:1.9634021833E-5 89:9.81701091652E-5 90:5.89020654991E-5 91:3.92680436661E-5 92:9.81701091652E-5 93:7.85360873321E-5 94:1.9634021833E-5 95:5.89020654991E-5 96:7.46092829655E-4 97:2.35608261996E-4 98:1.76706196497E-4 99:5.89020654991E-5 100:7.85360873321E-5 101:1.17804130998E-4 102:1.37438152831E-4 103:3.92680436661E-5 104:5.89020654991E-5 105:0.00107987120082 106:0.00111913924448 107:7.85360873321E-5 108:0.00345558784261 109:1.17804130998E-4 110:9.81701091652E-5 111:0.0 112:0.00198303620514 113:1.37438152831E-4 114:7.85360873321E-5 115:5.89020654991E-5 116:9.81701091652E-5 117:1.37438152831E-4 118:1.17804130998E-4 119:1.17804130998E-4 120:1.57072174664E-4 121:1.9634021833E-4 122:1.9634021833E-4 123:1.76706196497E-4 124:8.04994895154E-4 125:1.17804130998E-4 126:2.35608261996E-4 127:2.55242283829E-4 128:0.00573313437525 129:0.00168852587764 130:3.73046414828E-4 131:3.33778371162E-4 132:9.81701091652E-5 133:5.69386633158E-4 134:2.74876305662E-4 135:1.17804130998E-4 136:1.17804130998E-4 137:3.92680436661E-4 138:7.85360873321E-5 139:1.37438152831E-4 140:1.17804130998E-4 141:2.35608261996E-4 142:1.57072174664E-4 143:7.85360873321E-5 144:1.37438152831E-4 145:4.31948480327E-4 146:5.89020654991E-5 147:7.85360873321E-5 148:1.9634021833E-5 149:4.90850545826E-4 150:5.89020654991E-5 151:0.00135474750648 152:0.00155108772481 153:1.9634021833E-4 154:1.17804130998E-4 155:5.89020654991E-5 156:1.57072174664E-4 157:1.17804130998E-4 158:1.9634021833E-5 159:2.15974240163E-4 160:0.0020812063143 161:4.12314458494E-4 162:1.17804130998E-4 163:1.17804130998E-4 164:7.85360873321E-5 165:1.76706196497E-4 166:1.9634021833E-4 167:1.37438152831E-4 168:9.81701091652E-5 169:1.57072174664E-4 170:3.92680436661E-5 171:1.9634021833E-5 172:9.81701091652E-5 173:5.89020654991E-5 174:1.17804130998E-4 175:3.92680436661E-5 176:2.35608261996E-4 177:1.37438152831E-4 178:1.17804130998E-4 179:1.9634021833E-5 180:9.81701091652E-5 181:1.17804130998E-4 182:1.57072174664E-4 183:5.89020654991E-5 184:2.94510327495E-4 185:7.85360873321E-5 186:7.85360873321E-5 187:1.9634021833E-5 188:1.9634021833E-4 189:3.92680436661E-5 190:1.17804130998E-4 191:2.74876305662E-4 192:0.00223827848897 193:2.74876305662E-4 194:7.85360873321E-5 195:1.9634021833E-4 196:1.17804130998E-4 197:2.55242283829E-4 198:5.89020654991E-5 199:3.92680436661E-5 200:9.81701091652E-5 201:1.37438152831E-4 202:5.89020654991E-5 203:9.81701091652E-5 204:1.17804130998E-4 205:1.76706196497E-4 206:9.81701091652E-5 207:1.9634021833E-5 208:2.55242283829E-4 209:0.00178669598681 210:1.37438152831E-4 211:1.37438152831E-4 212:1.57072174664E-4 213:0.00170815989947 214:1.76706196497E-4 215:0.00365192806094 216:0.00212047435797 217:2.15974240163E-4 218:1.37438152831E-4 219:1.57072174664E-4 220:2.74876305662E-4 221:1.76706196497E-4 222:2.35608261996E-4 223:6.67556742323E-4 224:0.00526191785125 225:8.04994895154E-4 226:5.89020654991E-5 227:1.17804130998E-4 228:5.89020654991E-5 229:1.76706196497E-4 230:9.81701091652E-5 231:9.81701091652E-5 232:2.74876305662E-4 233:0.00131547946281 234:0.00139401555015 235:3.92680436661E-5 236:0.00155108772481 237:1.57072174664E-4 238:1.57072174664E-4 239:2.94510327495E-4 240:0.00241498468546 241:0.00296473729679 242:9.81701091652E-5 243:1.57072174664E-4 244:2.94510327495E-4 245:0.0021990104453 246:2.55242283829E-4 247:0.00200267022697 248:0.00263095892563 249:0.00424094871593 250:0.00192413413964 251:6.28288698657E-4 252:0.00475143328359 253:0.00241498468546 254:0.0020812063143 255:0.00585093850624 256:0.853981779628 
4096.0 1:0.00503871270378 2:7.06263077726E-4 3:6.43015637929E-4 4:2.05554179338E-4 5:8.22216717352E-4 6:2.10824799321E-4 7:2.9515471905E-4 8:4.95438278405E-4 9:7.69510517522E-4 10:2.58260379168E-4 11:1.10683019644E-4 12:9.85605936826E-4 13:1.95012939372E-4 14:5.79768198133E-5 15:3.68943398812E-5 16:0.00132292561574 17:7.00992457743E-4 18:2.00283559355E-4 19:1.2122425961E-4 20:8.43299197285E-5 21:1.7393045944E-4 22:6.32474397963E-5 23:0.00112264205639 24:0.0019870237336 25:0.00120170135613 26:1.37036119559E-4 27:6.32474397963E-5 28:1.63389219474E-4 29:9.48711596945E-5 30:3.16237198982E-5 31:1.05412399661E-4 32:0.00619824910004 33:8.27487337335E-4 34:2.84613479084E-4 35:1.37036119559E-4 36:8.96005397115E-5 37:1.63389219474E-4 38:1.15953639627E-4 39:3.16237198982E-5 40:7.90592997454E-5 41:3.10966578999E-4 42:4.32190838608E-4 43:5.79768198133E-5 44:0.00134927871566 45:5.79768198133E-5 46:3.16237198982E-5 47:4.21649598642E-5 48:0.00138617305554 49:2.21366039287E-4 50:1.95012939372E-4 51:9.48711596945E-5 52:2.63530999151E-5 53:4.74355798473E-5 54:4.21649598642E-5 55:6.32474397963E-5 56:9.48711596945E-5 57:8.43299197285E-5 58:6.85180597794E-5 59:1.58118599491E-5 60:1.26494879593E-4 61:1.58118599491E-5 62:1.05412399661E-5 63:4.74355798473E-5 64:0.00178146955426 65:7.16804317692E-4 66:1.2122425961E-4 67:2.42448519219E-4 68:2.10824799321E-5 69:1.84471699406E-4 70:1.26494879593E-4 71:4.21649598642E-5 72:5.27061998303E-5 73:1.58118599491E-4 74:8.43299197285E-5 75:4.21649598642E-5 76:7.37886797624E-5 77:4.74355798473E-5 78:3.68943398812E-5 79:2.10824799321E-5 80:1.10683019644E-4 81:1.68659839457E-4 82:1.52847979508E-4 83:5.27061998303E-5 84:1.58118599491E-5 85:6.32474397963E-5 86:2.10824799321E-5 87:8.43299197285E-5 88:5.27061998303E-5 89:3.68943398812E-5 90:3.68943398812E-5 91:2.10824799321E-5 92:2.10824799321E-5 93:1.58118599491E-5 94:0.0 95:3.16237198982E-5 96:2.52989759185E-4 97:2.47719139202E-4 98:8.43299197285E-5 99:8.96005397115E-5 100:4.21649598642E-5 101:5.79768198133E-5 102:2.63530999151E-5 103:2.63530999151E-5 104:4.21649598642E-5 105:0.00161808033479 106:0.00208716551328 107:1.10683019644E-4 108:0.00470139302486 109:7.37886797624E-5 110:8.96005397115E-5 111:5.27061998303E-5 112:0.00207135365333 113:4.74355798473E-5 114:3.16237198982E-5 115:2.10824799321E-5 116:5.79768198133E-5 117:4.21649598642E-5 118:4.74355798473E-5 119:7.37886797624E-5 120:7.37886797624E-5 121:1.58118599491E-4 122:1.26494879593E-4 123:6.85180597794E-5 124:6.21933157997E-4 125:8.43299197285E-5 126:8.96005397115E-5 127:1.00141779678E-4 128:0.00514412510344 129:7.90592997454E-4 130:1.10683019644E-4 131:1.52847979508E-4 132:4.21649598642E-5 133:3.05695959016E-4 134:8.96005397115E-5 135:4.21649598642E-5 136:5.27061998303E-5 137:3.16237198982E-4 138:8.43299197285E-5 139:6.32474397963E-5 140:5.79768198133E-5 141:1.37036119559E-4 142:3.16237198982E-5 143:5.79768198133E-5 144:7.37886797624E-5 145:2.31907279253E-4 146:4.21649598642E-5 147:5.27061998303E-5 148:6.32474397963E-5 149:3.74214018795E-4 150:4.21649598642E-5 151:8.90734777132E-4 152:0.00141252615545 153:7.37886797624E-5 154:2.63530999151E-5 155:4.74355798473E-5 156:6.32474397963E-5 157:5.27061998303E-5 158:4.74355798473E-5 159:7.90592997454E-5 160:0.00204500055342 161:1.84471699406E-4 162:1.10683019644E-4 163:1.42306739542E-4 164:5.79768198133E-5 165:7.37886797624E-5 166:1.05412399661E-4 167:7.37886797624E-5 168:8.96005397115E-5 169:7.37886797624E-5 170:8.96005397115E-5 171:3.68943398812E-5 172:4.74355798473E-5 173:3.68943398812E-5 174:3.16237198982E-5 175:3.16237198982E-5 176:7.90592997454E-5 177:6.32474397963E-5 178:5.27061998303E-5 179:3.16237198982E-5 180:5.79768198133E-5 181:5.27061998303E-5 182:7.90592997454E-5 183:4.74355798473E-5 184:7.90592997454E-5 185:7.90592997454E-5 186:4.21649598642E-5 187:3.16237198982E-5 188:1.00141779678E-4 189:3.16237198982E-5 190:7.37886797624E-5 191:9.48711596945E-5 192:0.00138090243555 193:1.89742319389E-4 194:3.68943398812E-5 195:7.37886797624E-5 196:6.85180597794E-5 197:7.90592997454E-5 198:3.68943398812E-5 199:4.74355798473E-5 200:3.68943398812E-5 201:6.85180597794E-5 202:7.90592997454E-5 203:1.05412399661E-5 204:6.32474397963E-5 205:3.16237198982E-5 206:7.37886797624E-5 207:3.16237198982E-5 208:1.00141779678E-4 209:9.53982216928E-4 210:4.74355798473E-5 211:7.37886797624E-5 212:8.96005397115E-5 213:0.00107520647654 214:7.37886797624E-5 215:0.0022663665927 216:0.00169713963454 217:1.42306739542E-4 218:5.27061998303E-5 219:4.74355798473E-5 220:1.47577359525E-4 221:1.00141779678E-4 222:6.85180597794E-5 223:4.05837738693E-4 224:0.00473301674476 225:5.05979518371E-4 226:7.90592997454E-5 227:4.74355798473E-5 228:4.74355798473E-5 229:5.27061998303E-5 230:5.27061998303E-5 231:5.27061998303E-5 232:1.15953639627E-4 233:0.00209770675325 234:0.00233488465248 235:1.10683019644E-4 236:0.00244029705214 237:9.48711596945E-5 238:1.47577359525E-4 239:8.43299197285E-5 240:0.00191323505384 241:0.00117007763623 242:1.00141779678E-4 243:6.85180597794E-5 244:1.15953639627E-4 245:0.00125967817594 246:7.90592997454E-5 247:0.00134927871566 248:0.0015232091751 249:0.00414270730666 250:0.00208716551328 251:3.63672778829E-4 252:0.00601904802062 253:0.0014283380154 254:0.00153375041506 255:0.00398458870717 256:0.885822559308 
4096.0 1:0.00864471248703 2:0.00142383499786 3:0.00105770599841 4:3.66128999451E-4 5:0.00130179199805 6:3.45788499481E-4 7:4.88171999268E-4 8:3.66128999451E-4 9:0.0012000894982 10:4.27150499359E-4 11:1.83064499725E-4 12:0.00140349449789 13:4.27150499359E-4 14:1.01702499847E-4 15:1.01702499847E-4 16:0.00150519699774 17:0.00124077049814 18:3.45788499481E-4 19:1.83064499725E-4 20:1.22042999817E-4 21:4.47490999329E-4 22:1.22042999817E-4 23:0.00235949799646 24:0.00237983849643 25:4.27150499359E-4 26:8.1361999878E-5 27:2.03404999695E-5 28:2.44085999634E-4 29:8.1361999878E-5 30:8.1361999878E-5 31:2.44085999634E-4 32:0.00534955149198 33:0.00128145149808 34:7.11917498932E-4 35:3.05107499542E-4 36:8.1361999878E-5 37:2.84766999573E-4 38:1.22042999817E-4 39:8.1361999878E-5 40:1.01702499847E-4 41:5.69533999146E-4 42:6.71236498993E-4 43:8.1361999878E-5 44:0.00187132599719 45:8.1361999878E-5 46:8.1361999878E-5 47:8.1361999878E-5 48:0.00162723999756 49:4.88171999268E-4 50:2.23745499664E-4 51:2.23745499664E-4 52:4.0680999939E-5 53:4.0680999939E-5 54:1.01702499847E-4 55:1.22042999817E-4 56:1.22042999817E-4 57:1.22042999817E-4 58:1.22042999817E-4 59:4.0680999939E-5 60:1.22042999817E-4 61:4.0680999939E-5 62:4.0680999939E-5 63:6.10214999085E-5 64:0.00223745499664 65:8.54300998719E-4 66:3.45788499481E-4 67:5.49193499176E-4 68:8.1361999878E-5 69:4.88171999268E-4 70:1.01702499847E-4 71:1.01702499847E-4 72:1.42383499786E-4 73:1.83064499725E-4 74:1.01702499847E-4 75:1.01702499847E-4 76:1.01702499847E-4 77:1.22042999817E-4 78:4.0680999939E-5 79:8.1361999878E-5 80:1.01702499847E-4 81:1.62723999756E-4 82:2.23745499664E-4 83:8.1361999878E-5 84:2.03404999695E-5 85:4.0680999939E-5 86:2.03404999695E-5 87:2.44085999634E-4 88:2.23745499664E-4 89:4.0680999939E-5 90:6.10214999085E-5 91:4.0680999939E-5 92:4.0680999939E-5 93:4.0680999939E-5 94:6.10214999085E-5 95:2.03404999695E-5 96:5.28852999207E-4 97:2.23745499664E-4 98:1.62723999756E-4 99:8.1361999878E-5 100:6.10214999085E-5 101:1.83064499725E-4 102:8.1361999878E-5 103:4.0680999939E-5 104:2.03404999695E-5 105:0.00231881699652 106:0.00276630799585 107:2.44085999634E-4 108:0.00604112849094 109:1.22042999817E-4 110:1.01702499847E-4 111:1.01702499847E-4 112:0.00227813599658 113:6.10214999085E-5 114:6.10214999085E-5 115:6.10214999085E-5 116:1.22042999817E-4 117:4.0680999939E-5 118:6.10214999085E-5 119:1.62723999756E-4 120:1.83064499725E-4 121:2.23745499664E-4 122:2.44085999634E-4 123:1.42383499786E-4 124:6.10214999085E-4 125:1.22042999817E-4 126:1.83064499725E-4 127:2.44085999634E-4 128:0.00622419299066 129:0.00152553749771 130:3.66128999451E-4 131:2.64426499603E-4 132:8.1361999878E-5 133:5.89874499115E-4 134:1.42383499786E-4 135:1.01702499847E-4 136:8.1361999878E-5 137:5.08512499237E-4 138:8.1361999878E-5 139:4.0680999939E-5 140:1.01702499847E-4 141:2.03404999695E-4 142:1.62723999756E-4 143:6.10214999085E-5 144:8.1361999878E-5 145:3.66128999451E-4 146:4.0680999939E-5 147:8.1361999878E-5 148:1.22042999817E-4 149:6.30555499054E-4 150:2.03404999695E-5 151:0.00331550149503 152:0.00294937249558 153:6.10214999085E-5 154:1.01702499847E-4 155:6.10214999085E-5 156:2.03404999695E-5 157:1.22042999817E-4 158:8.1361999878E-5 159:1.83064499725E-4 160:0.00303073449545 161:4.27150499359E-4 162:1.83064499725E-4 163:1.22042999817E-4 164:6.10214999085E-5 165:1.42383499786E-4 166:1.22042999817E-4 167:4.0680999939E-5 168:1.22042999817E-4 169:8.1361999878E-5 170:1.42383499786E-4 171:2.03404999695E-5 172:2.03404999695E-4 173:1.01702499847E-4 174:8.1361999878E-5 175:4.0680999939E-5 176:6.10214999085E-5 177:6.10214999085E-5 178:2.03404999695E-5 179:8.1361999878E-5 180:1.01702499847E-4 181:1.22042999817E-4 182:1.01702499847E-4 183:1.83064499725E-4 184:1.42383499786E-4 185:1.01702499847E-4 186:1.42383499786E-4 187:1.22042999817E-4 188:1.42383499786E-4 189:1.22042999817E-4 190:1.22042999817E-4 191:1.62723999756E-4 192:0.00231881699652 193:4.47490999329E-4 194:1.22042999817E-4 195:2.03404999695E-4 196:1.22042999817E-4 197:4.0680999939E-5 198:8.1361999878E-5 199:1.01702499847E-4 200:1.01702499847E-4 201:1.42383499786E-4 202:1.22042999817E-4 203:6.10214999085E-5 204:1.62723999756E-4 205:1.22042999817E-4 206:2.03404999695E-5 207:4.0680999939E-5 208:2.03404999695E-4 209:0.0016679209975 210:1.22042999817E-4 211:2.84766999573E-4 212:1.42383499786E-4 213:0.00246120049631 214:1.22042999817E-4 215:0.0043325264935 216:0.00278664849582 217:1.62723999756E-4 218:1.42383499786E-4 219:0.0 220:3.25447999512E-4 221:8.1361999878E-5 222:1.62723999756E-4 223:8.74641498688E-4 224:0.00718019648923 225:6.10214999085E-4 226:8.1361999878E-5 227:4.0680999939E-5 228:6.10214999085E-5 229:8.1361999878E-5 230:8.1361999878E-5 231:1.01702499847E-4 232:2.44085999634E-4 233:0.00319345849521 234:0.00378333299433 235:6.10214999085E-5 236:0.002664605496 237:1.42383499786E-4 238:2.84766999573E-4 239:2.23745499664E-4 240:0.00235949799646 241:0.00138315399793 242:1.22042999817E-4 243:1.62723999756E-4 244:8.1361999878E-5 245:0.00211541199683 246:1.01702499847E-4 247:0.00244085999634 248:0.00225779549661 249:0.00530887049204 250:0.00315277749527 251:7.32257998902E-4 252:0.00823790248764 253:0.00223745499664 254:0.0024001789964 255:0.00620385249069 256:0.830339889754 
4096.0 1:0.0229781771502 2:0.00410783055199 3:0.0012836970475 4:3.85109114249E-4 5:0.00295250320924 6:8.98587933248E-4 7:5.13478818999E-4 8:6.41848523748E-4 9:0.00205391527599 10:3.85109114249E-4 11:5.13478818999E-4 12:0.0017971758665 13:7.70218228498E-4 14:0.0 15:2.56739409499E-4 16:0.00243902439024 17:0.0017971758665 18:7.70218228498E-4 19:7.70218228498E-4 20:5.13478818999E-4 21:3.85109114249E-4 22:5.13478818999E-4 23:0.00500641848524 24:0.00423620025674 25:0.0 26:3.85109114249E-4 27:2.56739409499E-4 28:5.13478818999E-4 29:1.2836970475E-4 30:0.0 31:3.85109114249E-4 32:0.00320924261874 33:0.00372272143774 34:7.70218228498E-4 35:6.41848523748E-4 36:0.0 37:3.85109114249E-4 38:3.85109114249E-4 39:5.13478818999E-4 40:1.2836970475E-4 41:3.85109114249E-4 42:0.00115532734275 43:1.2836970475E-4 44:0.001026957638 45:1.2836970475E-4 46:1.2836970475E-4 47:1.2836970475E-4 48:0.00192554557125 49:3.85109114249E-4 50:5.13478818999E-4 51:5.13478818999E-4 52:6.41848523748E-4 53:1.2836970475E-4 54:3.85109114249E-4 55:3.85109114249E-4 56:3.85109114249E-4 57:1.2836970475E-4 58:3.85109114249E-4 59:2.56739409499E-4 60:5.13478818999E-4 61:3.85109114249E-4 62:2.56739409499E-4 63:2.56739409499E-4 64:0.00141206675225 65:0.00256739409499 66:0.00115532734275 67:8.98587933248E-4 68:2.56739409499E-4 69:6.41848523748E-4 70:3.85109114249E-4 71:1.2836970475E-4 72:2.56739409499E-4 73:6.41848523748E-4 74:0.0 75:1.2836970475E-4 76:0.0 77:2.56739409499E-4 78:5.13478818999E-4 79:0.0 80:0.0 81:2.56739409499E-4 82:6.41848523748E-4 83:0.0 84:0.0 85:2.56739409499E-4 86:1.2836970475E-4 87:2.56739409499E-4 88:2.56739409499E-4 89:2.56739409499E-4 90:0.0 91:3.85109114249E-4 92:1.2836970475E-4 93:1.2836970475E-4 94:2.56739409499E-4 95:5.13478818999E-4 96:0.001540436457 97:5.13478818999E-4 98:6.41848523748E-4 99:1.2836970475E-4 100:1.2836970475E-4 101:3.85109114249E-4 102:2.56739409499E-4 103:1.2836970475E-4 104:2.56739409499E-4 105:0.00487804878049 106:0.00603337612323 107:5.13478818999E-4 108:0.00385109114249 109:2.56739409499E-4 110:1.2836970475E-4 111:2.56739409499E-4 112:7.70218228498E-4 113:2.56739409499E-4 114:2.56739409499E-4 115:5.13478818999E-4 116:6.41848523748E-4 117:2.56739409499E-4 118:1.2836970475E-4 119:1.2836970475E-4 120:7.70218228498E-4 121:5.13478818999E-4 122:3.85109114249E-4 123:1.2836970475E-4 124:0.00166880616175 125:1.2836970475E-4 126:5.13478818999E-4 127:3.85109114249E-4 128:0.00629011553273 129:0.00346598202824 130:6.41848523748E-4 131:0.00115532734275 132:3.85109114249E-4 133:7.70218228498E-4 134:5.13478818999E-4 135:3.85109114249E-4 136:0.0 137:7.70218228498E-4 138:1.2836970475E-4 139:6.41848523748E-4 140:3.85109114249E-4 141:2.56739409499E-4 142:2.56739409499E-4 143:0.0 144:3.85109114249E-4 145:0.00115532734275 146:3.85109114249E-4 147:1.2836970475E-4 148:2.56739409499E-4 149:0.0017971758665 150:2.56739409499E-4 151:0.00474967907574 152:0.00436456996149 153:2.56739409499E-4 154:3.85109114249E-4 155:3.85109114249E-4 156:2.56739409499E-4 157:0.0 158:2.56739409499E-4 159:1.2836970475E-4 160:0.00205391527599 161:8.98587933248E-4 162:5.13478818999E-4 163:6.41848523748E-4 164:5.13478818999E-4 165:1.2836970475E-4 166:2.56739409499E-4 167:2.56739409499E-4 168:1.2836970475E-4 169:1.2836970475E-4 170:0.0 171:0.0 172:3.85109114249E-4 173:2.56739409499E-4 174:1.2836970475E-4 175:2.56739409499E-4 176:5.13478818999E-4 177:5.13478818999E-4 178:2.56739409499E-4 179:1.2836970475E-4 180:5.13478818999E-4 181:1.2836970475E-4 182:3.85109114249E-4 183:3.85109114249E-4 184:8.98587933248E-4 185:0.0 186:1.2836970475E-4 187:1.2836970475E-4 188:6.41848523748E-4 189:0.0 190:6.41848523748E-4 191:2.56739409499E-4 192:0.00449293966624 193:8.98587933248E-4 194:2.56739409499E-4 195:3.85109114249E-4 196:1.2836970475E-4 197:3.85109114249E-4 198:0.0 199:1.2836970475E-4 200:0.0 201:2.56739409499E-4 202:1.2836970475E-4 203:5.13478818999E-4 204:1.2836970475E-4 205:2.56739409499E-4 206:3.85109114249E-4 207:2.56739409499E-4 208:5.13478818999E-4 209:0.00256739409499 210:6.41848523748E-4 211:1.2836970475E-4 212:1.2836970475E-4 213:0.00205391527599 214:1.2836970475E-4 215:0.00474967907574 216:0.00243902439024 217:6.41848523748E-4 218:2.56739409499E-4 219:0.0 220:3.85109114249E-4 221:2.56739409499E-4 222:0.001540436457 223:0.00243902439024 224:0.00693196405648 225:0.00231065468549 226:1.2836970475E-4 227:0.0 228:1.2836970475E-4 229:3.85109114249E-4 230:2.56739409499E-4 231:2.56739409499E-4 232:1.2836970475E-4 233:0.00436456996149 234:0.00436456996149 235:1.2836970475E-4 236:0.00269576379974 237:2.56739409499E-4 238:0.001026957638 239:7.70218228498E-4 240:0.00513478818999 241:0.00295250320924 242:1.2836970475E-4 243:2.56739409499E-4 244:8.98587933248E-4 245:0.0017971758665 246:6.41848523748E-4 247:0.00256739409499 248:0.00410783055199 249:0.00551989730424 250:0.00346598202824 251:0.00141206675225 252:0.00770218228498 253:0.00218228498074 254:0.00359435173299 255:0.00860077021823 256:0.736200256739 
4096.0 1:0.0069135145915 2:0.00116333178222 3:7.97713222097E-4 4:2.88063107979E-4 5:0.00108577633008 6:3.10221808593E-4 7:3.65618560128E-4 8:4.6533271289E-4 9:8.97427374859E-4 10:2.99142458286E-4 11:1.99428305524E-4 12:0.00109685568038 13:2.32666356445E-4 14:8.86348024552E-5 15:6.64761018414E-5 16:9.97141527621E-4 17:9.86062177314E-4 18:4.21015311662E-4 19:2.21587006138E-4 20:1.10793503069E-4 21:4.43174012276E-4 22:8.86348024552E-5 23:0.00134060138713 24:9.639034767E-4 25:2.65904407366E-4 26:4.43174012276E-5 27:8.86348024552E-5 28:1.4403155399E-4 29:6.64761018414E-5 30:6.64761018414E-5 31:9.97141527621E-5 32:0.00213831460923 33:9.86062177314E-4 34:4.54253362583E-4 35:2.54825057059E-4 36:5.53967515345E-5 37:2.21587006138E-4 38:1.4403155399E-4 39:7.75554521483E-5 40:1.21872853376E-4 41:4.32094661969E-4 42:5.42888165038E-4 43:1.32952203683E-4 44:0.00140707748898 45:8.86348024552E-5 46:8.86348024552E-5 47:5.53967515345E-5 48:0.00150679164174 49:2.88063107979E-4 50:2.99142458286E-4 51:1.21872853376E-4 52:1.10793503069E-4 53:3.32380509207E-5 54:7.75554521483E-5 55:9.97141527621E-5 56:7.75554521483E-5 57:7.75554521483E-5 58:5.53967515345E-5 59:4.43174012276E-5 60:1.21872853376E-4 61:1.10793503069E-5 62:3.32380509207E-5 63:5.53967515345E-5 64:9.08506725166E-4 65:7.64475171176E-4 66:2.10507655831E-4 67:3.98856611048E-4 68:7.75554521483E-5 69:1.21872853376E-4 70:1.7726960491E-4 71:3.32380509207E-5 72:6.64761018414E-5 73:1.88348955217E-4 74:4.43174012276E-5 75:5.53967515345E-5 76:9.97141527621E-5 77:9.97141527621E-5 78:1.10793503069E-4 79:2.21587006138E-5 80:1.10793503069E-4 81:1.32952203683E-4 82:1.66190254603E-4 83:5.53967515345E-5 84:4.43174012276E-5 85:8.86348024552E-5 86:1.10793503069E-5 87:1.21872853376E-4 88:6.64761018414E-5 89:1.66190254603E-4 90:4.43174012276E-5 91:4.43174012276E-5 92:3.32380509207E-5 93:4.43174012276E-5 94:3.32380509207E-5 95:4.43174012276E-5 96:2.54825057059E-4 97:1.55110904297E-4 98:1.10793503069E-4 99:7.75554521483E-5 100:4.43174012276E-5 101:2.21587006138E-5 102:3.32380509207E-5 103:1.10793503069E-5 104:4.43174012276E-5 105:0.00116333178222 106:0.00141815683928 107:1.10793503069E-4 108:0.00288063107979 109:8.86348024552E-5 110:1.32952203683E-4 111:2.21587006138E-5 112:0.00138491878836 113:7.75554521483E-5 114:7.75554521483E-5 115:5.53967515345E-5 116:1.10793503069E-4 117:4.43174012276E-5 118:7.75554521483E-5 119:6.64761018414E-5 120:1.88348955217E-4 121:1.88348955217E-4 122:1.66190254603E-4 123:5.53967515345E-5 124:6.09364266879E-4 125:9.97141527621E-5 126:1.10793503069E-4 127:1.66190254603E-4 128:0.00342351924483 129:0.00138491878836 130:1.55110904297E-4 131:2.10507655831E-4 132:5.53967515345E-5 133:3.76697910435E-4 134:1.32952203683E-4 135:1.21872853376E-4 136:4.43174012276E-5 137:3.98856611048E-4 138:6.64761018414E-5 139:6.64761018414E-5 140:3.32380509207E-5 141:1.99428305524E-4 142:6.64761018414E-5 143:6.64761018414E-5 144:6.64761018414E-5 145:2.65904407366E-4 146:8.86348024552E-5 147:1.21872853376E-4 148:7.75554521483E-5 149:6.64761018414E-4 150:6.64761018414E-5 151:0.00201644175586 152:0.00152895034235 153:1.32952203683E-4 154:8.86348024552E-5 155:6.64761018414E-5 156:3.32380509207E-5 157:9.97141527621E-5 158:4.43174012276E-5 159:8.86348024552E-5 160:0.00108577633008 161:2.54825057059E-4 162:1.4403155399E-4 163:1.32952203683E-4 164:4.43174012276E-5 165:1.4403155399E-4 166:7.75554521483E-5 167:5.53967515345E-5 168:4.43174012276E-5 169:2.21587006138E-5 170:7.75554521483E-5 171:3.32380509207E-5 172:7.75554521483E-5 173:6.64761018414E-5 174:3.32380509207E-5 175:5.53967515345E-5 176:1.7726960491E-4 177:7.75554521483E-5 178:6.64761018414E-5 179:4.43174012276E-5 180:1.32952203683E-4 181:1.32952203683E-4 182:6.64761018414E-5 183:1.7726960491E-4 184:1.7726960491E-4 185:5.53967515345E-5 186:7.75554521483E-5 187:4.43174012276E-5 188:1.10793503069E-4 189:8.86348024552E-5 190:1.4403155399E-4 191:1.21872853376E-4 192:0.00137383943806 193:3.213011589E-4 194:7.75554521483E-5 195:1.21872853376E-4 196:8.86348024552E-5 197:7.75554521483E-5 198:7.75554521483E-5 199:7.75554521483E-5 200:7.75554521483E-5 201:1.32952203683E-4 202:5.53967515345E-5 203:6.64761018414E-5 204:5.53967515345E-5 205:6.64761018414E-5 206:6.64761018414E-5 207:9.97141527621E-5 208:1.88348955217E-4 209:0.00182809280064 210:1.55110904297E-4 211:2.21587006138E-4 212:6.64761018414E-5 213:0.00454253362583 214:5.53967515345E-5 215:0.00856433778723 216:0.00201644175586 217:1.4403155399E-4 218:6.64761018414E-5 219:3.32380509207E-5 220:8.86348024552E-5 221:1.21872853376E-4 222:1.88348955217E-4 223:7.09078419641E-4 224:0.00416583571539 225:5.65046865652E-4 226:1.21872853376E-4 227:7.75554521483E-5 228:7.75554521483E-5 229:1.7726960491E-4 230:8.86348024552E-5 231:2.21587006138E-5 232:8.86348024552E-5 233:0.00155110904297 234:0.00150679164174 235:6.64761018414E-5 236:0.00139599813867 237:1.10793503069E-4 238:1.7726960491E-4 239:1.88348955217E-4 240:0.00163974384542 241:0.00227126681291 242:8.86348024552E-5 243:2.21587006138E-5 244:1.55110904297E-4 245:0.00477519998227 246:1.88348955217E-4 247:0.00518513594363 248:0.00185025150125 249:0.00347891599637 250:0.00157326774358 251:4.6533271289E-4 252:0.00406612156263 253:0.00288063107979 254:0.00157326774358 255:0.00973874891976 256:0.86607281349 
