svm_type c_svc
kernel_type rbf
gamma 16.0
nr_class 2
total_sv 499
rho -20.417799095651677
label 0 1
nr_sv 254 245
SV
1024.0 1:0.0137218212599 2:0.00253942796044 3:0.00133654103181 4:3.56410941816E-4 5:0.00218301701862 6:6.68270515905E-4 7:4.4551367727E-4 8:6.23719148178E-4 9:0.00160384923817 10:8.01924619086E-4 11:3.56410941816E-4 12:0.0016484006059 13:7.57373251359E-4 14:1.33654103181E-4 15:1.33654103181E-4 16:0.00423237993406 17:0.00178205470908 18:3.56410941816E-4 19:7.12821883632E-4 20:1.78205470908E-4 21:4.4551367727E-4 22:8.9102735454E-5 23:0.00120288692863 24:0.00178205470908 25:8.9102735454E-4 26:3.11859574089E-4 27:8.9102735454E-5 28:3.56410941816E-4 29:1.78205470908E-4 30:0.0 31:2.22756838635E-4 32:0.00699456473314 33:0.00178205470908 34:0.00138109239954 35:5.79167780451E-4 36:2.67308206362E-4 37:5.79167780451E-4 38:2.22756838635E-4 39:1.78205470908E-4 40:1.33654103181E-4 41:4.00962309543E-4 42:0.00151474650272 43:1.78205470908E-4 44:0.00414327719861 45:8.9102735454E-5 46:1.33654103181E-4 47:4.4551367727E-5 48:0.0028067361668 49:6.23719148178E-4 50:4.90065044997E-4 51:1.78205470908E-4 52:2.22756838635E-4 53:8.9102735454E-5 54:0.0 55:4.4551367727E-5 56:8.9102735454E-5 57:8.9102735454E-5 58:1.78205470908E-4 59:4.4551367727E-5 60:3.11859574089E-4 61:4.4551367727E-5 62:4.4551367727E-5 63:1.33654103181E-4 64:0.00302949300544 65:0.00160384923817 66:4.4551367727E-4 67:8.01924619086E-4 68:1.33654103181E-4 69:5.34616412724E-4 70:3.56410941816E-4 71:1.78205470908E-4 72:4.4551367727E-5 73:3.11859574089E-4 74:2.67308206362E-4 75:1.33654103181E-4 76:1.78205470908E-4 77:3.56410941816E-4 78:4.4551367727E-5 79:4.4551367727E-5 80:2.22756838635E-4 81:3.11859574089E-4 82:2.67308206362E-4 83:1.78205470908E-4 84:4.4551367727E-5 85:1.33654103181E-4 86:1.78205470908E-4 87:2.67308206362E-4 88:1.33654103181E-4 89:4.4551367727E-5 90:4.4551367727E-5 91:4.4551367727E-5 92:4.4551367727E-5 93:2.67308206362E-4 94:4.4551367727E-5 95:1.33654103181E-4 96:9.35578722267E-4 97:3.56410941816E-4 98:4.00962309543E-4 99:1.78205470908E-4 100:1.78205470908E-4 101:4.4551367727E-5 102:1.33654103181E-4 103:4.4551367727E-5 104:1.33654103181E-4 105:0.00142564376726 106:0.00405417446316 107:2.67308206362E-4 108:0.00645994832041 109:4.4551367727E-5 110:3.11859574089E-4 111:1.33654103181E-4 112:0.00289583890225 113:8.9102735454E-5 114:1.78205470908E-4 115:1.33654103181E-4 116:1.78205470908E-4 117:8.9102735454E-5 118:8.9102735454E-5 119:1.78205470908E-4 120:2.67308206362E-4 121:2.67308206362E-4 122:2.22756838635E-4 123:1.33654103181E-4 124:0.0011583355609 125:8.9102735454E-5 126:3.11859574089E-4 127:4.4551367727E-4 128:0.00784104071995 129:0.00262853069589 130:5.34616412724E-4 131:5.34616412724E-4 132:4.4551367727E-5 133:8.01924619086E-4 134:2.22756838635E-4 135:1.78205470908E-4 136:1.78205470908E-4 137:4.4551367727E-4 138:1.33654103181E-4 139:3.11859574089E-4 140:8.9102735454E-5 141:3.56410941816E-4 142:2.22756838635E-4 143:8.9102735454E-5 144:2.22756838635E-4 145:5.79167780451E-4 146:2.67308206362E-4 147:1.33654103181E-4 148:0.0 149:0.00155929787044 150:4.4551367727E-5 151:0.0021384656509 152:0.00155929787044 153:2.22756838635E-4 154:4.4551367727E-5 155:8.9102735454E-5 156:4.4551367727E-5 157:1.33654103181E-4 158:8.9102735454E-5 159:1.78205470908E-4 160:0.00142564376726 161:6.68270515905E-4 162:4.4551367727E-4 163:2.67308206362E-4 164:1.78205470908E-4 165:2.22756838635E-4 166:1.78205470908E-4 167:8.9102735454E-5 168:4.4551367727E-5 169:8.9102735454E-5 170:8.9102735454E-5 171:8.9102735454E-5 172:2.22756838635E-4 173:8.9102735454E-5 174:2.22756838635E-4 175:4.4551367727E-5 176:2.22756838635E-4 177:2.67308206362E-4 178:8.9102735454E-5 179:4.4551367727E-5 180:1.33654103181E-4 181:8.9102735454E-5 182:8.9102735454E-5 183:3.11859574089E-4 184:3.11859574089E-4 185:8.9102735454E-5 186:8.9102735454E-5 187:4.4551367727E-5 188:4.4551367727E-4 189:1.33654103181E-4 190:2.22756838635E-4 191:3.11859574089E-4 192:0.0028067361668 193:4.90065044997E-4 194:3.11859574089E-4 195:1.78205470908E-4 196:1.78205470908E-4 197:2.22756838635E-4 198:1.78205470908E-4 199:8.9102735454E-5 200:0.0 201:1.78205470908E-4 202:4.4551367727E-5 203:4.4551367727E-5 204:1.33654103181E-4 205:1.78205470908E-4 206:2.67308206362E-4 207:1.78205470908E-4 208:4.4551367727E-4 209:0.0023166711218 210:1.33654103181E-4 211:2.22756838635E-4 212:2.67308206362E-4 213:0.00423237993406 214:8.9102735454E-5 215:0.00507885592088 216:0.00178205470908 217:3.56410941816E-4 218:4.4551367727E-5 219:0.0 220:4.00962309543E-4 221:3.11859574089E-4 222:2.67308206362E-4 223:0.00111378419317 224:0.00503430455315 225:4.4551367727E-4 226:0.0 227:2.22756838635E-4 228:1.78205470908E-4 229:1.78205470908E-4 230:8.9102735454E-5 231:8.9102735454E-5 232:1.33654103181E-4 233:0.00173750334135 234:0.00178205470908 235:2.67308206362E-4 236:0.00169295197363 237:1.78205470908E-4 238:2.22756838635E-4 239:2.22756838635E-4 240:0.00245032522498 241:0.00311859574089 242:1.78205470908E-4 243:1.33654103181E-4 244:4.4551367727E-4 245:0.00285128753453 246:2.67308206362E-4 247:0.00258397932817 248:0.00271763343135 249:0.00383141762452 250:0.0021384656509 251:7.12821883632E-4 252:0.0051234072886 253:0.00271763343135 254:0.00227211975408 255:0.00623719148178 256:0.801211797202 
897.9517084496675 1:0.0234452943133 2:0.00349185234453 3:0.00149650814766 4:3.32557366146E-4 5:0.00382440971068 6:6.65114732291E-4 7:4.98836049218E-4 8:6.65114732291E-4 9:0.00282673761224 10:6.65114732291E-4 11:8.31393415364E-4 12:0.00432324575989 13:0.00216162287995 14:4.98836049218E-4 15:4.98836049218E-4 16:0.00266045892917 17:0.00299301629531 18:0.00116395078151 19:9.97672098437E-4 20:3.32557366146E-4 21:0.00149650814766 22:1.66278683073E-4 23:0.0018290655138 24:0.00249418024609 25:9.97672098437E-4 26:6.65114732291E-4 27:1.66278683073E-4 28:4.98836049218E-4 29:1.66278683073E-4 30:1.66278683073E-4 31:0.00116395078151 32:0.00648486863984 33:0.00299301629531 34:0.00199534419687 35:0.00133022946458 36:9.97672098437E-4 37:0.00166278683073 38:4.98836049218E-4 39:4.98836049218E-4 40:4.98836049218E-4 41:6.65114732291E-4 42:0.00315929497838 43:1.66278683073E-4 44:0.00714998337213 45:1.66278683073E-4 46:1.66278683073E-4 47:1.66278683073E-4 48:0.00615231127369 49:6.65114732291E-4 50:9.97672098437E-4 51:4.98836049218E-4 52:0.0 53:3.32557366146E-4 54:0.0 55:8.31393415364E-4 56:8.31393415364E-4 57:1.66278683073E-4 58:0.0 59:0.0 60:3.32557366146E-4 61:3.32557366146E-4 62:0.0 63:1.66278683073E-4 64:0.00166278683073 65:0.00315929497838 66:4.98836049218E-4 67:9.97672098437E-4 68:0.0 69:0.00133022946458 70:3.32557366146E-4 71:1.66278683073E-4 72:0.0 73:4.98836049218E-4 74:6.65114732291E-4 75:1.66278683073E-4 76:3.32557366146E-4 77:3.32557366146E-4 78:0.0 79:3.32557366146E-4 80:1.66278683073E-4 81:3.32557366146E-4 82:3.32557366146E-4 83:3.32557366146E-4 84:1.66278683073E-4 85:6.65114732291E-4 86:0.0 87:8.31393415364E-4 88:0.0 89:1.66278683073E-4 90:3.32557366146E-4 91:1.66278683073E-4 92:1.66278683073E-4 93:3.32557366146E-4 94:0.0 95:1.66278683073E-4 96:0.00133022946458 97:4.98836049218E-4 98:4.98836049218E-4 99:0.0 100:0.0 101:0.0 102:6.65114732291E-4 103:4.98836049218E-4 104:1.66278683073E-4 105:0.0036581310276 106:0.00399068839375 107:1.66278683073E-4 108:0.0079813767875 109:3.32557366146E-4 110:3.32557366146E-4 111:0.0 112:0.00232790156302 113:1.66278683073E-4 114:0.0 115:0.0 116:4.98836049218E-4 117:1.66278683073E-4 118:4.98836049218E-4 119:1.66278683073E-4 120:4.98836049218E-4 121:4.98836049218E-4 122:4.98836049218E-4 123:0.0 124:0.00266045892917 125:1.66278683073E-4 126:0.0 127:6.65114732291E-4 128:0.00881277020286 129:0.00465580312604 130:4.98836049218E-4 131:9.97672098437E-4 132:6.65114732291E-4 133:0.00133022946458 134:3.32557366146E-4 135:3.32557366146E-4 136:1.66278683073E-4 137:4.98836049218E-4 138:1.66278683073E-4 139:1.66278683073E-4 140:9.97672098437E-4 141:4.98836049218E-4 142:0.0 143:4.98836049218E-4 144:1.66278683073E-4 145:1.66278683073E-4 146:4.98836049218E-4 147:4.98836049218E-4 148:0.0 149:0.00116395078151 150:3.32557366146E-4 151:0.00714998337213 152:0.00299301629531 153:3.32557366146E-4 154:0.0 155:3.32557366146E-4 156:3.32557366146E-4 157:4.98836049218E-4 158:3.32557366146E-4 159:0.00133022946458 160:0.00382440971068 161:0.00133022946458 162:0.0 163:3.32557366146E-4 164:0.0 165:6.65114732291E-4 166:1.66278683073E-4 167:3.32557366146E-4 168:3.32557366146E-4 169:3.32557366146E-4 170:3.32557366146E-4 171:3.32557366146E-4 172:4.98836049218E-4 173:8.31393415364E-4 174:1.66278683073E-4 175:1.66278683073E-4 176:9.97672098437E-4 177:0.0 178:8.31393415364E-4 179:3.32557366146E-4 180:1.66278683073E-4 181:1.66278683073E-4 182:8.31393415364E-4 183:3.32557366146E-4 184:4.98836049218E-4 185:4.98836049218E-4 186:3.32557366146E-4 187:4.98836049218E-4 188:4.98836049218E-4 189:6.65114732291E-4 190:3.32557366146E-4 191:9.97672098437E-4 192:0.00299301629531 193:6.65114732291E-4 194:4.98836049218E-4 195:3.32557366146E-4 196:0.0 197:0.00116395078151 198:0.0 199:4.98836049218E-4 200:3.32557366146E-4 201:3.32557366146E-4 202:0.0 203:6.65114732291E-4 204:4.98836049218E-4 205:0.0 206:3.32557366146E-4 207:3.32557366146E-4 208:4.98836049218E-4 209:0.00349185234453 210:0.0 211:3.32557366146E-4 212:0.0 213:0.00382440971068 214:1.66278683073E-4 215:0.0106418357167 216:0.00498836049218 217:6.65114732291E-4 218:1.66278683073E-4 219:1.66278683073E-4 220:3.32557366146E-4 221:0.0 222:1.66278683073E-4 223:0.00166278683073 224:0.0123046225474 225:8.31393415364E-4 226:0.0 227:0.0 228:1.66278683073E-4 229:1.66278683073E-4 230:6.65114732291E-4 231:1.66278683073E-4 232:8.31393415364E-4 233:0.00216162287995 234:0.00448952444297 235:3.32557366146E-4 236:0.00266045892917 237:3.32557366146E-4 238:9.97672098437E-4 239:0.00116395078151 240:0.00465580312604 241:0.0036581310276 242:3.32557366146E-4 243:1.66278683073E-4 244:8.31393415364E-4 245:0.00515463917526 246:0.00166278683073 247:0.00282673761224 248:0.00382440971068 249:0.00415696707682 250:0.00232790156302 251:0.00166278683073 252:0.00831393415364 253:0.00349185234453 254:0.00315929497838 255:0.00931160625208 256:0.679414699036 
1024.0 1:0.00924754757287 2:0.00177080698204 3:0.00106810579869 4:2.8108047334E-4 5:0.0013210782247 6:3.93512662675E-4 7:5.34052899345E-4 8:0.00134918627203 9:0.00171459088737 10:4.77836804677E-4 11:3.09188520673E-4 12:0.00123675408269 13:5.34052899345E-4 14:0.0 15:2.8108047334E-5 16:0.00154594260337 17:0.00191134721871 18:5.90268994013E-4 19:2.24864378672E-4 20:1.96756331338E-4 21:4.77836804677E-4 22:2.24864378672E-4 23:0.00193945526604 24:0.0029794530174 25:0.00103999775136 26:1.68648284004E-4 27:8.43241420019E-5 28:1.68648284004E-4 29:5.62160946679E-5 30:8.43241420019E-5 31:1.68648284004E-4 32:0.00531242094612 33:0.00163026674537 34:5.34052899345E-4 35:3.65404615341E-4 36:1.4054023667E-4 37:2.52972426006E-4 38:1.12432189336E-4 39:1.96756331338E-4 40:2.24864378672E-4 41:5.62160946679E-4 42:0.00146161846137 43:2.8108047334E-5 44:0.00179891502937 45:1.68648284004E-4 46:1.12432189336E-4 47:2.8108047334E-5 48:0.0014054023667 49:5.05944852011E-4 50:2.8108047334E-4 51:2.8108047334E-4 52:8.43241420019E-5 53:5.62160946679E-5 54:1.12432189336E-4 55:1.96756331338E-4 56:1.68648284004E-4 57:1.12432189336E-4 58:1.68648284004E-4 59:2.8108047334E-5 60:1.12432189336E-4 61:2.8108047334E-5 62:8.43241420019E-5 63:0.0 64:0.00244540011805 65:0.00123675408269 66:3.09188520673E-4 67:3.09188520673E-4 68:1.96756331338E-4 69:2.24864378672E-4 70:2.24864378672E-4 71:1.12432189336E-4 72:1.12432189336E-4 73:3.37296568007E-4 74:1.96756331338E-4 75:1.4054023667E-4 76:1.12432189336E-4 77:1.68648284004E-4 78:1.96756331338E-4 79:0.0 80:5.62160946679E-5 81:2.52972426006E-4 82:1.68648284004E-4 83:2.8108047334E-5 84:5.62160946679E-5 85:1.4054023667E-4 86:8.43241420019E-5 87:2.52972426006E-4 88:1.4054023667E-4 89:2.8108047334E-5 90:1.4054023667E-4 91:0.0 92:2.8108047334E-5 93:2.8108047334E-5 94:2.8108047334E-5 95:1.4054023667E-4 96:5.90268994013E-4 97:4.49728757343E-4 98:2.24864378672E-4 99:8.43241420019E-5 100:1.4054023667E-4 101:1.68648284004E-4 102:8.43241420019E-5 103:0.0 104:5.62160946679E-5 105:0.00337296568007 106:0.00393512662675 107:2.8108047334E-4 108:0.0090226831942 109:1.68648284004E-4 110:2.24864378672E-4 111:1.12432189336E-4 112:0.00258594035472 113:2.52972426006E-4 114:5.62160946679E-5 115:1.12432189336E-4 116:5.62160946679E-5 117:5.62160946679E-5 118:5.62160946679E-5 119:1.96756331338E-4 120:2.24864378672E-4 121:2.24864378672E-4 122:1.68648284004E-4 123:5.62160946679E-5 124:7.87025325351E-4 125:1.12432189336E-4 126:1.68648284004E-4 127:2.24864378672E-4 128:0.00688647159682 129:0.00182702307671 130:1.96756331338E-4 131:3.65404615341E-4 132:8.43241420019E-5 133:4.77836804677E-4 134:2.24864378672E-4 135:1.68648284004E-4 136:1.68648284004E-4 137:3.65404615341E-4 138:5.62160946679E-5 139:8.43241420019E-5 140:2.52972426006E-4 141:1.4054023667E-4 142:1.12432189336E-4 143:1.12432189336E-4 144:1.12432189336E-4 145:5.34052899345E-4 146:1.4054023667E-4 147:1.12432189336E-4 148:5.62160946679E-5 149:4.77836804677E-4 150:8.43241420019E-5 151:0.00129297017736 152:0.00236107597605 153:1.4054023667E-4 154:5.62160946679E-5 155:2.8108047334E-5 156:5.62160946679E-5 157:8.43241420019E-5 158:1.4054023667E-4 159:1.12432189336E-4 160:0.00205188745538 161:2.8108047334E-4 162:1.4054023667E-4 163:5.62160946679E-5 164:1.96756331338E-4 165:1.96756331338E-4 166:2.24864378672E-4 167:1.4054023667E-4 168:1.4054023667E-4 169:1.12432189336E-4 170:5.62160946679E-5 171:2.8108047334E-5 172:1.68648284004E-4 173:8.43241420019E-5 174:8.43241420019E-5 175:5.62160946679E-5 176:5.62160946679E-5 177:5.62160946679E-5 178:1.12432189336E-4 179:1.12432189336E-4 180:2.8108047334E-5 181:1.68648284004E-4 182:1.4054023667E-4 183:1.12432189336E-4 184:2.24864378672E-4 185:5.62160946679E-5 186:1.4054023667E-4 187:1.12432189336E-4 188:3.37296568007E-4 189:1.12432189336E-4 190:2.24864378672E-4 191:3.37296568007E-4 192:0.00247350816539 193:5.05944852011E-4 194:1.68648284004E-4 195:2.52972426006E-4 196:1.12432189336E-4 197:1.4054023667E-4 198:1.12432189336E-4 199:1.4054023667E-4 200:1.96756331338E-4 201:1.4054023667E-4 202:5.62160946679E-5 203:0.0 204:1.4054023667E-4 205:1.12432189336E-4 206:1.68648284004E-4 207:8.43241420019E-5 208:3.93512662675E-4 209:0.00151783455603 210:1.12432189336E-4 211:2.24864378672E-4 212:1.12432189336E-4 213:0.00134918627203 214:2.8108047334E-4 215:0.00230485988138 216:0.00154594260337 217:1.96756331338E-4 218:1.68648284004E-4 219:5.62160946679E-5 220:2.52972426006E-4 221:2.8108047334E-4 222:1.68648284004E-4 223:7.30809230683E-4 224:0.00477836804677 225:7.30809230683E-4 226:5.62160946679E-5 227:2.8108047334E-5 228:1.68648284004E-4 229:1.4054023667E-4 230:1.4054023667E-4 231:2.8108047334E-5 232:3.09188520673E-4 233:0.00340107372741 234:0.00418809905276 235:8.43241420019E-5 236:0.0044691795261 237:1.4054023667E-4 238:2.8108047334E-4 239:1.68648284004E-4 240:0.00283891278073 241:0.00171459088737 242:1.68648284004E-4 243:1.96756331338E-4 244:3.09188520673E-4 245:0.00163026674537 246:1.68648284004E-4 247:0.00120864603536 248:0.00247350816539 249:0.00539674508812 250:0.00452539562077 251:3.37296568007E-4 252:0.0112151108862 253:0.00179891502937 254:0.00224864378672 255:0.00494701633078 256:0.820698766057 
1024.0 1:0.0163572732806 2:0.0022824102252 3:0.00144552647596 4:8.36883749239E-4 5:0.00281497261108 6:3.804017042E-4 7:6.08642726719E-4 8:9.12964090079E-4 9:0.00167376749848 10:1.5216068168E-4 11:8.36883749239E-4 12:0.00311929397444 13:3.0432136336E-4 14:3.0432136336E-4 15:2.2824102252E-4 16:0.0049452221546 17:0.00174984783932 18:9.89044430919E-4 19:3.804017042E-4 20:2.2824102252E-4 21:7.60803408399E-4 22:2.2824102252E-4 23:0.00220632988436 24:0.00388009738284 25:7.60803408399E-5 26:2.2824102252E-4 27:1.5216068168E-4 28:7.60803408399E-5 29:2.2824102252E-4 30:3.0432136336E-4 31:1.5216068168E-4 32:0.00836883749239 33:0.0030432136336 34:0.00106512477176 35:8.36883749239E-4 36:3.0432136336E-4 37:3.804017042E-4 38:1.5216068168E-4 39:3.0432136336E-4 40:3.0432136336E-4 41:6.84723067559E-4 42:0.00106512477176 43:2.2824102252E-4 44:0.00213024954352 45:2.2824102252E-4 46:2.2824102252E-4 47:1.5216068168E-4 48:0.00357577601948 49:7.60803408399E-4 50:3.0432136336E-4 51:2.2824102252E-4 52:2.2824102252E-4 53:1.5216068168E-4 54:7.60803408399E-5 55:2.2824102252E-4 56:1.5216068168E-4 57:7.60803408399E-5 58:3.0432136336E-4 59:1.5216068168E-4 60:1.5216068168E-4 61:0.0 62:1.5216068168E-4 63:3.804017042E-4 64:0.00319537431528 65:0.00159768715764 66:9.89044430919E-4 67:4.5648204504E-4 68:2.2824102252E-4 69:0.00106512477176 70:1.5216068168E-4 71:1.5216068168E-4 72:7.60803408399E-5 73:5.32562385879E-4 74:3.0432136336E-4 75:2.2824102252E-4 76:3.804017042E-4 77:6.08642726719E-4 78:7.60803408399E-5 79:1.5216068168E-4 80:7.60803408399E-5 81:6.84723067559E-4 82:1.5216068168E-4 83:1.5216068168E-4 84:1.5216068168E-4 85:4.5648204504E-4 86:2.2824102252E-4 87:7.60803408399E-5 88:3.804017042E-4 89:2.2824102252E-4 90:7.60803408399E-5 91:0.0 92:0.0 93:1.5216068168E-4 94:1.5216068168E-4 95:0.0 96:0.00106512477176 97:7.60803408399E-4 98:4.5648204504E-4 99:1.5216068168E-4 100:7.60803408399E-5 101:3.804017042E-4 102:7.60803408399E-5 103:1.5216068168E-4 104:1.5216068168E-4 105:0.00281497261108 106:0.00357577601948 107:3.0432136336E-4 108:0.00365185636032 109:3.804017042E-4 110:3.804017042E-4 111:3.804017042E-4 112:0.00327145465612 113:3.0432136336E-4 114:3.0432136336E-4 115:0.0 116:2.2824102252E-4 117:7.60803408399E-5 118:1.5216068168E-4 119:7.60803408399E-5 120:4.5648204504E-4 121:7.60803408399E-5 122:3.0432136336E-4 123:0.0 124:0.00121728545344 125:2.2824102252E-4 126:3.804017042E-4 127:3.804017042E-4 128:0.00814059646987 129:0.00273889227024 130:5.32562385879E-4 131:7.60803408399E-4 132:0.0 133:7.60803408399E-4 134:7.60803408399E-4 135:7.60803408399E-5 136:1.5216068168E-4 137:6.08642726719E-4 138:7.60803408399E-5 139:4.5648204504E-4 140:1.5216068168E-4 141:3.0432136336E-4 142:1.5216068168E-4 143:3.0432136336E-4 144:2.2824102252E-4 145:7.60803408399E-4 146:0.0 147:3.0432136336E-4 148:2.2824102252E-4 149:0.00144552647596 150:7.60803408399E-5 151:0.0015216068168 152:0.00327145465612 153:2.2824102252E-4 154:3.804017042E-4 155:1.5216068168E-4 156:1.5216068168E-4 157:7.60803408399E-5 158:1.5216068168E-4 159:3.0432136336E-4 160:0.00243457090688 161:5.32562385879E-4 162:6.08642726719E-4 163:3.804017042E-4 164:2.2824102252E-4 165:3.804017042E-4 166:2.2824102252E-4 167:1.5216068168E-4 168:1.5216068168E-4 169:2.2824102252E-4 170:7.60803408399E-5 171:2.2824102252E-4 172:3.0432136336E-4 173:1.5216068168E-4 174:0.0 175:3.0432136336E-4 176:3.804017042E-4 177:3.804017042E-4 178:7.60803408399E-5 179:7.60803408399E-5 180:2.2824102252E-4 181:1.5216068168E-4 182:1.5216068168E-4 183:2.2824102252E-4 184:3.0432136336E-4 185:0.0 186:7.60803408399E-5 187:3.0432136336E-4 188:6.08642726719E-4 189:3.0432136336E-4 190:1.5216068168E-4 191:6.08642726719E-4 192:0.00273889227024 193:3.0432136336E-4 194:1.5216068168E-4 195:7.60803408399E-5 196:1.5216068168E-4 197:1.5216068168E-4 198:3.804017042E-4 199:2.2824102252E-4 200:1.5216068168E-4 201:7.60803408399E-5 202:7.60803408399E-5 203:3.804017042E-4 204:7.60803408399E-5 205:1.5216068168E-4 206:1.5216068168E-4 207:3.0432136336E-4 208:1.5216068168E-4 209:0.00213024954352 210:3.804017042E-4 211:2.2824102252E-4 212:7.60803408399E-5 213:0.00502130249544 214:3.0432136336E-4 215:0.0030432136336 216:0.00243457090688 217:5.32562385879E-4 218:1.5216068168E-4 219:7.60803408399E-5 220:6.84723067559E-4 221:3.0432136336E-4 222:4.5648204504E-4 223:0.0015216068168 224:0.00798843578819 225:9.89044430919E-4 226:7.60803408399E-5 227:7.60803408399E-5 228:1.5216068168E-4 229:2.2824102252E-4 230:2.2824102252E-4 231:7.60803408399E-5 232:2.2824102252E-4 233:0.00289105295192 234:0.00441265976872 235:3.804017042E-4 236:0.00319537431528 237:2.2824102252E-4 238:1.5216068168E-4 239:3.804017042E-4 240:0.00289105295192 241:0.00235849056604 242:3.804017042E-4 243:3.804017042E-4 244:3.0432136336E-4 245:0.00319537431528 246:3.804017042E-4 247:0.00213024954352 248:0.00357577601948 249:0.00395617772368 250:0.00334753499696 251:0.00121728545344 252:0.00951004260499 253:0.00136944613512 254:0.00372793670116 255:0.00593426658551 256:0.764303104078 
662.1365382184921 1:0.0296610169492 2:0.00423728813559 3:0.00353107344633 4:3.53107344633E-4 5:0.00564971751412 6:0.0021186440678 7:7.06214689266E-4 8:3.53107344633E-4 9:0.00282485875706 10:3.53107344633E-4 11:3.53107344633E-4 12:0.00353107344633 13:0.0021186440678 14:7.06214689266E-4 15:3.53107344633E-4 16:0.00353107344633 17:0.00176553672316 18:0.00141242937853 19:7.06214689266E-4 20:7.06214689266E-4 21:0.00141242937853 22:0.0 23:0.0102401129944 24:0.00317796610169 25:7.06214689266E-4 26:0.0 27:7.06214689266E-4 28:0.0 29:0.0 30:0.0 31:0.0 32:0.00141242937853 33:0.00564971751412 34:0.0021186440678 35:0.00176553672316 36:0.0 37:0.0 38:0.0 39:0.0010593220339 40:0.0 41:0.00176553672316 42:0.00317796610169 43:7.06214689266E-4 44:0.00388418079096 45:7.06214689266E-4 46:3.53107344633E-4 47:7.06214689266E-4 48:0.00353107344633 49:0.0021186440678 50:0.00282485875706 51:0.0010593220339 52:3.53107344633E-4 53:3.53107344633E-4 54:7.06214689266E-4 55:3.53107344633E-4 56:0.0 57:0.0 58:0.0 59:3.53107344633E-4 60:3.53107344633E-4 61:0.0 62:3.53107344633E-4 63:0.0 64:0.00247175141243 65:0.00282485875706 66:0.00141242937853 67:7.06214689266E-4 68:0.0 69:0.00176553672316 70:7.06214689266E-4 71:0.0 72:0.0 73:3.53107344633E-4 74:0.0 75:0.0 76:0.0 77:0.0010593220339 78:3.53107344633E-4 79:0.0 80:0.0 81:3.53107344633E-4 82:0.0 83:0.0 84:3.53107344633E-4 85:3.53107344633E-4 86:0.0 87:0.0 88:0.0 89:3.53107344633E-4 90:0.0 91:3.53107344633E-4 92:0.0 93:0.0010593220339 94:0.0 95:3.53107344633E-4 96:0.00176553672316 97:7.06214689266E-4 98:3.53107344633E-4 99:3.53107344633E-4 100:0.0 101:3.53107344633E-4 102:0.0 103:0.0 104:0.0 105:0.00953389830508 106:0.010593220339 107:0.0 108:0.00988700564972 109:3.53107344633E-4 110:7.06214689266E-4 111:0.0 112:0.00459039548023 113:3.53107344633E-4 114:0.0 115:0.0 116:0.0 117:0.0 118:3.53107344633E-4 119:3.53107344633E-4 120:7.06214689266E-4 121:0.0010593220339 122:7.06214689266E-4 123:3.53107344633E-4 124:0.0021186440678 125:3.53107344633E-4 126:0.00141242937853 127:3.53107344633E-4 128:0.0137711864407 129:0.00494350282486 130:0.0010593220339 131:0.0010593220339 132:3.53107344633E-4 133:0.00388418079096 134:7.06214689266E-4 135:7.06214689266E-4 136:3.53107344633E-4 137:0.00176553672316 138:0.0010593220339 139:0.0 140:3.53107344633E-4 141:0.00141242937853 142:7.06214689266E-4 143:0.0 144:0.0 145:3.53107344633E-4 146:0.0 147:0.0 148:7.06214689266E-4 149:0.00141242937853 150:3.53107344633E-4 151:0.0151836158192 152:0.0116525423729 153:0.0 154:0.0 155:3.53107344633E-4 156:0.0 157:0.0 158:3.53107344633E-4 159:7.06214689266E-4 160:0.00423728813559 161:0.0021186440678 162:7.06214689266E-4 163:7.06214689266E-4 164:3.53107344633E-4 165:0.0010593220339 166:0.0 167:0.0010593220339 168:0.0 169:7.06214689266E-4 170:7.06214689266E-4 171:7.06214689266E-4 172:0.0010593220339 173:0.0010593220339 174:3.53107344633E-4 175:3.53107344633E-4 176:7.06214689266E-4 177:0.0 178:0.0 179:0.00176553672316 180:0.0 181:0.0 182:0.0 183:3.53107344633E-4 184:0.00247175141243 185:3.53107344633E-4 186:0.0 187:0.0010593220339 188:7.06214689266E-4 189:0.0 190:3.53107344633E-4 191:3.53107344633E-4 192:0.00494350282486 193:7.06214689266E-4 194:0.0 195:3.53107344633E-4 196:3.53107344633E-4 197:3.53107344633E-4 198:7.06214689266E-4 199:0.0 200:0.0 201:3.53107344633E-4 202:0.0010593220339 203:3.53107344633E-4 204:7.06214689266E-4 205:0.0 206:0.0 207:7.06214689266E-4 208:0.00176553672316 209:0.00247175141243 210:0.0 211:7.06214689266E-4 212:3.53107344633E-4 213:0.00141242937853 214:7.06214689266E-4 215:0.00564971751412 216:0.00600282485876 217:7.06214689266E-4 218:0.0 219:0.0 220:0.0010593220339 221:3.53107344633E-4 222:0.0021186440678 223:0.00353107344633 224:0.0165960451977 225:0.00141242937853 226:0.0 227:3.53107344633E-4 228:0.00141242937853 229:0.0 230:0.0 231:0.0 232:3.53107344633E-4 233:0.00918079096045 234:0.00918079096045 235:0.0 236:0.00494350282486 237:7.06214689266E-4 238:3.53107344633E-4 239:0.0021186440678 240:0.00423728813559 241:0.00459039548023 242:0.0010593220339 243:3.53107344633E-4 244:7.06214689266E-4 245:0.00176553672316 246:0.0 247:0.00282485875706 248:0.00600282485876 249:0.00741525423729 250:0.00564971751412 251:0.0010593220339 252:0.0165960451977 253:0.00247175141243 254:0.00529661016949 255:0.010593220339 256:0.579802259887 
1024.0 1:0.0115151515152 2:0.00213716108453 3:0.00124401913876 4:4.78468899522E-4 5:0.00191387559809 6:2.87081339713E-4 7:4.14673046252E-4 8:0.00124401913876 9:0.00175438596491 10:6.37958532695E-4 11:3.18979266348E-4 12:0.00242424242424 13:6.06060606061E-4 14:1.27591706539E-4 15:2.23285486443E-4 16:0.00277511961722 17:0.00175438596491 18:4.46570972887E-4 19:5.42264752791E-4 20:9.56937799043E-5 21:3.50877192982E-4 22:2.55183413078E-4 23:0.00296650717703 24:0.00200956937799 25:5.74162679426E-4 26:1.27591706539E-4 27:3.18979266348E-5 28:3.18979266348E-4 29:6.37958532695E-5 30:6.37958532695E-5 31:2.55183413078E-4 32:0.00634768740032 33:0.00165869218501 34:8.29346092504E-4 35:3.82775119617E-4 36:1.27591706539E-4 37:4.46570972887E-4 38:2.55183413078E-4 39:1.27591706539E-4 40:2.23285486443E-4 41:7.01754385965E-4 42:0.00102073365231 43:9.56937799043E-5 44:0.00398724082935 45:6.37958532695E-5 46:6.37958532695E-5 47:6.37958532695E-5 48:0.00287081339713 49:6.06060606061E-4 50:3.18979266348E-4 51:2.87081339713E-4 52:9.56937799043E-5 53:1.27591706539E-4 54:2.87081339713E-4 55:1.59489633174E-4 56:9.56937799043E-5 57:3.50877192982E-4 58:6.37958532695E-5 59:1.27591706539E-4 60:2.23285486443E-4 61:1.27591706539E-4 62:9.56937799043E-5 63:1.27591706539E-4 64:0.00370015948963 65:9.25039872408E-4 66:5.74162679426E-4 67:6.06060606061E-4 68:2.23285486443E-4 69:3.82775119617E-4 70:1.59489633174E-4 71:1.27591706539E-4 72:9.56937799043E-5 73:4.14673046252E-4 74:2.55183413078E-4 75:6.37958532695E-5 76:3.18979266348E-4 77:6.37958532695E-5 78:0.0 79:1.27591706539E-4 80:1.27591706539E-4 81:1.59489633174E-4 82:2.55183413078E-4 83:1.59489633174E-4 84:9.56937799043E-5 85:1.91387559809E-4 86:1.27591706539E-4 87:4.14673046252E-4 88:1.91387559809E-4 89:1.91387559809E-4 90:1.27591706539E-4 91:9.56937799043E-5 92:1.27591706539E-4 93:3.18979266348E-5 94:1.27591706539E-4 95:3.18979266348E-5 96:8.93141945774E-4 97:5.10366826156E-4 98:9.56937799043E-5 99:9.56937799043E-5 100:9.56937799043E-5 101:1.91387559809E-4 102:1.59489633174E-4 103:6.37958532695E-5 104:1.91387559809E-4 105:0.00322169059011 106:0.00421052631579 107:2.55183413078E-4 108:0.0121531100478 109:6.37958532695E-5 110:9.56937799043E-5 111:6.37958532695E-5 112:0.00529505582137 113:9.56937799043E-5 114:2.23285486443E-4 115:9.56937799043E-5 116:3.18979266348E-5 117:3.18979266348E-5 118:9.56937799043E-5 119:9.56937799043E-5 120:2.55183413078E-4 121:3.82775119617E-4 122:3.18979266348E-4 123:9.56937799043E-5 124:0.00118022328549 125:1.27591706539E-4 126:1.27591706539E-4 127:6.37958532695E-5 128:0.0110366826156 129:0.00175438596491 130:3.50877192982E-4 131:1.59489633174E-4 132:9.56937799043E-5 133:9.56937799043E-4 134:1.91387559809E-4 135:2.55183413078E-4 136:1.59489633174E-4 137:4.14673046252E-4 138:2.87081339713E-4 139:2.55183413078E-4 140:2.87081339713E-4 141:5.10366826156E-4 142:9.56937799043E-5 143:9.56937799043E-5 144:2.23285486443E-4 145:4.78468899522E-4 146:9.56937799043E-5 147:1.91387559809E-4 148:9.56937799043E-5 149:0.00127591706539 150:0.0 151:0.00331738437002 152:0.00350877192982 153:1.59489633174E-4 154:1.27591706539E-4 155:3.18979266348E-5 156:1.27591706539E-4 157:1.91387559809E-4 158:1.27591706539E-4 159:1.59489633174E-4 160:0.00296650717703 161:3.82775119617E-4 162:2.55183413078E-4 163:2.55183413078E-4 164:6.37958532695E-5 165:2.55183413078E-4 166:2.55183413078E-4 167:3.18979266348E-5 168:1.59489633174E-4 169:2.87081339713E-4 170:1.91387559809E-4 171:1.27591706539E-4 172:2.23285486443E-4 173:3.18979266348E-5 174:1.59489633174E-4 175:1.27591706539E-4 176:1.59489633174E-4 177:3.18979266348E-5 178:3.18979266348E-5 179:6.37958532695E-5 180:6.37958532695E-5 181:2.23285486443E-4 182:9.56937799043E-5 183:3.50877192982E-4 184:1.59489633174E-4 185:6.37958532695E-5 186:1.27591706539E-4 187:3.18979266348E-5 188:1.91387559809E-4 189:1.27591706539E-4 190:4.14673046252E-4 191:2.87081339713E-4 192:0.00255183413078 193:5.10366826156E-4 194:1.59489633174E-4 195:3.18979266348E-4 196:2.87081339713E-4 197:6.37958532695E-5 198:6.37958532695E-5 199:9.56937799043E-5 200:9.56937799043E-5 201:9.56937799043E-5 202:3.18979266348E-5 203:3.18979266348E-5 204:6.37958532695E-5 205:1.27591706539E-4 206:0.0 207:6.37958532695E-5 208:2.55183413078E-4 209:0.00165869218501 210:9.56937799043E-5 211:1.59489633174E-4 212:1.27591706539E-4 213:0.00277511961722 214:2.23285486443E-4 215:0.0097288676236 216:0.00350877192982 217:1.59489633174E-4 218:3.18979266348E-5 219:1.27591706539E-4 220:2.87081339713E-4 221:1.59489633174E-4 222:6.37958532695E-5 223:0.00114832535885 224:0.00826156299841 225:7.97448165869E-4 226:2.23285486443E-4 227:1.27591706539E-4 228:1.27591706539E-4 229:1.27591706539E-4 230:2.87081339713E-4 231:9.56937799043E-5 232:4.46570972887E-4 233:0.00242424242424 234:0.00363636363636 235:1.27591706539E-4 236:0.00382775119617 237:6.37958532695E-5 238:3.18979266348E-4 239:1.59489633174E-4 240:0.00296650717703 241:0.0015629984051 242:1.59489633174E-4 243:1.27591706539E-4 244:1.59489633174E-4 245:0.00194577352472 246:2.55183413078E-4 247:0.00283891547049 248:0.00299840510367 249:0.00299840510367 250:0.00242424242424 251:7.336523126E-4 252:0.00826156299841 253:0.00169059011164 254:0.00245614035088 255:0.00673046251994 256:0.778660287081 
1024.0 1:0.0108397167221 2:0.00190779014308 3:0.00121404827287 4:4.04682757624E-4 5:0.00173435467553 6:6.35930047695E-4 7:5.78118225177E-4 8:5.78118225177E-4 9:0.00153201329672 10:2.6015320133E-4 11:1.44529556294E-4 12:0.00153201329672 13:6.64835958954E-4 14:2.6015320133E-4 15:2.31247290071E-4 16:0.00193669605434 17:0.0016187310305 18:4.04682757624E-4 19:2.31247290071E-4 20:2.02341378812E-4 21:5.78118225177E-4 22:2.31247290071E-4 23:0.00239919063448 24:0.00291949703714 25:6.07024136436E-4 26:2.31247290071E-4 27:2.31247290071E-4 28:1.73435467553E-4 29:1.73435467553E-4 30:5.78118225177E-5 31:2.31247290071E-4 32:0.00589680589681 33:0.00184997832057 34:4.62494580142E-4 35:5.78118225177E-4 36:1.73435467553E-4 37:5.49212313918E-4 38:2.02341378812E-4 39:3.17965023847E-4 40:5.78118225177E-5 41:5.20306402659E-4 42:7.22647781471E-4 43:2.02341378812E-4 44:0.00234137881197 45:5.78118225177E-5 46:1.15623645035E-4 47:1.44529556294E-4 48:0.00190779014308 49:4.62494580142E-4 50:2.02341378812E-4 51:2.6015320133E-4 52:2.31247290071E-4 53:2.31247290071E-4 54:5.78118225177E-5 55:5.78118225177E-5 56:2.02341378812E-4 57:8.67177337766E-5 58:8.67177337766E-5 59:5.78118225177E-5 60:1.15623645035E-4 61:5.78118225177E-5 62:1.44529556294E-4 63:8.67177337766E-5 64:0.00164763694175 65:0.00130076600665 66:4.62494580142E-4 67:5.20306402659E-4 68:2.31247290071E-4 69:4.62494580142E-4 70:3.17965023847E-4 71:2.89059112589E-5 72:2.89059112589E-5 73:4.33588668883E-4 74:1.73435467553E-4 75:5.78118225177E-5 76:2.31247290071E-4 77:1.73435467553E-4 78:5.78118225177E-5 79:5.78118225177E-5 80:1.73435467553E-4 81:3.46870935106E-4 82:1.73435467553E-4 83:1.15623645035E-4 84:8.67177337766E-5 85:1.44529556294E-4 86:1.44529556294E-4 87:2.89059112589E-4 88:8.67177337766E-5 89:5.78118225177E-5 90:5.78118225177E-5 91:8.67177337766E-5 92:0.0 93:5.78118225177E-5 94:2.89059112589E-5 95:8.67177337766E-5 96:7.80459603989E-4 97:1.44529556294E-4 98:2.02341378812E-4 99:5.78118225177E-5 100:1.44529556294E-4 101:1.44529556294E-4 102:8.67177337766E-5 103:2.89059112589E-5 104:8.67177337766E-5 105:0.00164763694175 106:0.00173435467553 107:1.73435467553E-4 108:0.00329527388351 109:5.78118225177E-5 110:2.02341378812E-4 111:5.78118225177E-5 112:0.00170544876427 113:2.02341378812E-4 114:8.67177337766E-5 115:5.78118225177E-5 116:8.67177337766E-5 117:2.6015320133E-4 118:2.89059112589E-5 119:1.15623645035E-4 120:2.31247290071E-4 121:1.15623645035E-4 122:2.31247290071E-4 123:1.73435467553E-4 124:8.96083249024E-4 125:1.15623645035E-4 126:2.6015320133E-4 127:3.17965023847E-4 128:0.00508744038156 129:0.00187888423183 130:3.75776846365E-4 131:5.20306402659E-4 132:8.67177337766E-5 133:6.93741870212E-4 134:4.04682757624E-4 135:1.44529556294E-4 136:1.15623645035E-4 137:2.89059112589E-4 138:5.78118225177E-5 139:1.44529556294E-4 140:1.15623645035E-4 141:3.17965023847E-4 142:1.44529556294E-4 143:2.02341378812E-4 144:1.44529556294E-4 145:6.93741870212E-4 146:3.75776846365E-4 147:5.78118225177E-5 148:8.67177337766E-5 149:6.64835958954E-4 150:5.78118225177E-5 151:0.0016187310305 152:0.00277496748085 153:2.02341378812E-4 154:8.67177337766E-5 155:1.15623645035E-4 156:1.15623645035E-4 157:1.44529556294E-4 158:0.0 159:2.89059112589E-4 160:0.00271715565833 161:5.78118225177E-4 162:1.44529556294E-4 163:2.6015320133E-4 164:2.6015320133E-4 165:2.89059112589E-4 166:1.44529556294E-4 167:1.73435467553E-4 168:1.73435467553E-4 169:2.6015320133E-4 170:1.15623645035E-4 171:2.89059112589E-5 172:1.73435467553E-4 173:1.15623645035E-4 174:8.67177337766E-5 175:1.15623645035E-4 176:2.6015320133E-4 177:1.73435467553E-4 178:1.44529556294E-4 179:1.73435467553E-4 180:5.78118225177E-5 181:2.02341378812E-4 182:1.15623645035E-4 183:1.44529556294E-4 184:3.75776846365E-4 185:2.89059112589E-5 186:5.78118225177E-5 187:8.67177337766E-5 188:8.67177337766E-5 189:8.67177337766E-5 190:1.73435467553E-4 191:2.02341378812E-4 192:0.00234137881197 193:3.17965023847E-4 194:8.67177337766E-5 195:8.67177337766E-5 196:0.0 197:2.31247290071E-4 198:1.44529556294E-4 199:1.44529556294E-4 200:1.15623645035E-4 201:1.44529556294E-4 202:1.15623645035E-4 203:0.0 204:1.73435467553E-4 205:2.02341378812E-4 206:2.02341378812E-4 207:8.67177337766E-5 208:2.6015320133E-4 209:0.00231247290071 210:2.89059112589E-5 211:5.78118225177E-5 212:1.15623645035E-4 213:0.00164763694175 214:1.73435467553E-4 215:0.00315074432721 216:0.002457002457 217:2.02341378812E-4 218:1.44529556294E-4 219:1.15623645035E-4 220:3.17965023847E-4 221:2.89059112589E-4 222:4.33588668883E-4 223:8.09365515248E-4 224:0.0065327359445 225:7.5155369273E-4 226:2.02341378812E-4 227:5.78118225177E-5 228:1.73435467553E-4 229:1.44529556294E-4 230:1.44529556294E-4 231:8.67177337766E-5 232:5.78118225177E-5 233:0.00222575516693 234:0.00173435467553 235:1.15623645035E-4 236:0.00167654285301 237:2.02341378812E-4 238:1.73435467553E-4 239:3.75776846365E-4 240:0.00263043792456 241:0.00315074432721 242:1.15623645035E-4 243:2.89059112589E-5 244:1.73435467553E-4 245:0.00254372019078 246:2.02341378812E-4 247:0.00231247290071 248:0.00263043792456 249:0.00531868767163 250:0.00251481427952 251:7.22647781471E-4 252:0.00615695909814 253:0.0021101315219 254:0.00219684925567 255:0.00633039456569 256:0.8282410753 
1024.0 1:0.00912499115795 2:0.00136756973427 3:0.00117893942609 4:4.47996981915E-4 5:0.00122609700314 6:1.88630308175E-4 7:3.7726061635E-4 8:0.00124967579166 9:0.00146188488835 10:5.65890924524E-4 11:1.65051519653E-4 12:0.00235787885218 13:4.71575770437E-4 14:4.71575770437E-5 15:1.65051519653E-4 16:0.00348966070123 17:0.00139114852279 18:5.18733347481E-4 19:1.17893942609E-4 20:1.17893942609E-4 21:1.88630308175E-4 22:7.07363655655E-5 23:0.00153262125392 24:0.00207493338992 25:0.00103746669496 26:3.53681827828E-4 27:2.35787885218E-5 28:3.7726061635E-4 29:2.82945462262E-4 30:9.43151540874E-5 31:3.30103039306E-4 32:0.00858267902195 33:0.00139114852279 34:4.00839404871E-4 35:5.42312136002E-4 36:9.43151540874E-5 37:4.71575770437E-4 38:2.35787885218E-5 39:1.41472731131E-4 40:1.41472731131E-4 41:4.71575770437E-4 42:8.72415175308E-4 43:2.35787885218E-5 44:0.00257008794888 45:9.43151540874E-5 46:1.41472731131E-4 47:1.17893942609E-4 48:0.00348966070123 49:4.00839404871E-4 50:2.12209096697E-4 51:1.65051519653E-4 52:4.71575770437E-5 53:7.07363655655E-5 54:7.07363655655E-5 55:7.07363655655E-5 56:9.43151540874E-5 57:1.65051519653E-4 58:1.17893942609E-4 59:2.35787885218E-5 60:1.65051519653E-4 61:4.71575770437E-5 62:2.35787885218E-5 63:1.88630308175E-4 64:0.00422060314541 65:9.66730329396E-4 66:4.00839404871E-4 67:8.48836386786E-4 68:2.12209096697E-4 69:4.00839404871E-4 70:3.30103039306E-4 71:1.17893942609E-4 72:1.41472731131E-4 73:3.06524250784E-4 74:1.17893942609E-4 75:1.17893942609E-4 76:1.17893942609E-4 77:7.07363655655E-5 78:0.0 79:1.17893942609E-4 80:3.06524250784E-4 81:3.7726061635E-4 82:1.41472731131E-4 83:7.07363655655E-5 84:4.71575770437E-5 85:1.41472731131E-4 86:7.07363655655E-5 87:1.65051519653E-4 88:1.88630308175E-4 89:4.71575770437E-5 90:2.35787885218E-5 91:2.35787885218E-5 92:1.41472731131E-4 93:4.71575770437E-5 94:4.71575770437E-5 95:1.17893942609E-4 96:4.71575770437E-4 97:1.65051519653E-4 98:4.71575770437E-5 99:7.07363655655E-5 100:1.88630308175E-4 101:4.71575770437E-5 102:1.65051519653E-4 103:9.43151540874E-5 104:2.35787885218E-5 105:9.90309117918E-4 106:0.00155620004244 107:9.43151540874E-5 108:0.00667279715168 109:1.88630308175E-4 110:4.71575770437E-5 111:2.12209096697E-4 112:0.00273513946853 113:1.65051519653E-4 114:1.41472731131E-4 115:9.43151540874E-5 116:7.07363655655E-5 117:9.43151540874E-5 118:2.35787885218E-5 119:9.43151540874E-5 120:2.5936667374E-4 121:2.35787885218E-4 122:1.65051519653E-4 123:7.07363655655E-5 124:5.65890924524E-4 125:1.41472731131E-4 126:1.41472731131E-4 127:2.82945462262E-4 128:0.00943151540874 129:0.00160335761949 130:2.5936667374E-4 131:3.30103039306E-4 132:7.07363655655E-5 133:2.82945462262E-4 134:2.82945462262E-4 135:7.07363655655E-5 136:1.41472731131E-4 137:4.71575770437E-4 138:4.71575770437E-5 139:9.43151540874E-5 140:1.65051519653E-4 141:3.53681827828E-4 142:2.35787885218E-5 143:1.17893942609E-4 144:9.43151540874E-5 145:5.89469713046E-4 146:9.43151540874E-5 147:7.07363655655E-5 148:4.71575770437E-5 149:6.13048501568E-4 150:1.88630308175E-4 151:0.0015090424654 152:0.00207493338992 153:1.65051519653E-4 154:4.71575770437E-5 155:0.0 156:1.17893942609E-4 157:1.41472731131E-4 158:1.41472731131E-4 159:4.71575770437E-5 160:0.00299450614227 161:2.82945462262E-4 162:2.35787885218E-4 163:1.17893942609E-4 164:4.71575770437E-5 165:4.24418193393E-4 166:1.17893942609E-4 167:9.43151540874E-5 168:1.88630308175E-4 169:1.17893942609E-4 170:9.43151540874E-5 171:1.17893942609E-4 172:1.17893942609E-4 173:3.06524250784E-4 174:9.43151540874E-5 175:4.71575770437E-5 176:2.12209096697E-4 177:1.17893942609E-4 178:9.43151540874E-5 179:2.35787885218E-5 180:4.71575770437E-5 181:1.41472731131E-4 182:1.17893942609E-4 183:1.17893942609E-4 184:1.88630308175E-4 185:9.43151540874E-5 186:2.35787885218E-5 187:2.35787885218E-5 188:1.88630308175E-4 189:9.43151540874E-5 190:1.88630308175E-4 191:1.88630308175E-4 192:0.00198061823584 193:5.18733347481E-4 194:2.12209096697E-4 195:2.12209096697E-4 196:9.43151540874E-5 197:1.88630308175E-4 198:9.43151540874E-5 199:1.17893942609E-4 200:4.71575770437E-5 201:1.41472731131E-4 202:2.35787885218E-5 203:9.43151540874E-5 204:4.71575770437E-5 205:1.17893942609E-4 206:9.43151540874E-5 207:9.43151540874E-5 208:1.17893942609E-4 209:0.00313597887341 210:1.41472731131E-4 211:2.12209096697E-4 212:7.07363655655E-5 213:0.00266440310297 214:2.12209096697E-4 215:0.00384334252906 216:0.00233430006366 217:1.88630308175E-4 218:1.17893942609E-4 219:1.65051519653E-4 220:3.06524250784E-4 221:2.12209096697E-4 222:1.17893942609E-4 223:6.3662729009E-4 224:0.00726226686473 225:9.19572752352E-4 226:1.17893942609E-4 227:9.43151540874E-5 228:4.71575770437E-5 229:1.65051519653E-4 230:9.43151540874E-5 231:1.65051519653E-4 232:1.65051519653E-4 233:0.00214566975549 234:0.00167409398505 235:9.43151540874E-5 236:0.00223998490958 237:1.88630308175E-4 238:1.88630308175E-4 239:1.41472731131E-4 240:0.00254650916036 241:0.00393765768315 242:1.88630308175E-4 243:3.30103039306E-4 244:1.88630308175E-4 245:0.00346608191271 246:2.82945462262E-4 247:0.00254650916036 248:0.00257008794888 249:0.00768668505812 250:0.00290019098819 251:8.01678809743E-4 252:0.0071207941336 253:0.00417344556837 254:0.00266440310297 255:0.00846478507934 256:0.808328028106 
1024.0 1:0.00942293142582 2:0.00130682990577 3:8.48293096728E-4 4:3.89756287686E-4 5:0.00169658619346 6:4.3560996859E-4 7:3.43902606782E-4 8:7.5658573492E-4 9:0.00126097622487 10:2.75122085425E-4 11:1.60487883165E-4 12:0.0021551230025 13:3.66829447234E-4 14:1.37561042713E-4 15:6.87805213564E-5 16:0.00327853818465 17:0.00142146410803 18:6.87805213564E-4 19:2.52195244973E-4 20:9.17073618085E-5 21:3.89756287686E-4 22:6.87805213564E-5 23:0.00171951303391 24:0.00256780613064 25:4.58536809042E-4 26:1.83414723617E-4 27:6.87805213564E-5 28:2.06341564069E-4 29:1.83414723617E-4 30:6.87805213564E-5 31:1.60487883165E-4 32:0.00710732054016 33:0.00137561042713 34:5.73171011303E-4 35:5.50244170851E-4 36:3.2097576633E-4 37:3.43902606782E-4 38:1.14634202261E-4 39:1.14634202261E-4 40:1.60487883165E-4 41:2.29268404521E-4 42:7.5658573492E-4 43:1.14634202261E-4 44:0.00217804984295 45:1.37561042713E-4 46:1.83414723617E-4 47:9.17073618085E-5 48:0.00286585505651 49:3.66829447234E-4 50:1.37561042713E-4 51:3.2097576633E-4 52:1.37561042713E-4 53:9.17073618085E-5 54:9.17073618085E-5 55:9.17073618085E-5 56:1.37561042713E-4 57:2.06341564069E-4 58:1.37561042713E-4 59:4.58536809042E-5 60:1.37561042713E-4 61:0.0 62:4.58536809042E-5 63:1.37561042713E-4 64:0.00295756241832 65:0.00100878097989 66:4.81463649494E-4 67:4.12683128138E-4 68:1.37561042713E-4 69:2.98048925878E-4 70:2.98048925878E-4 71:1.37561042713E-4 72:4.58536809042E-5 73:3.2097576633E-4 74:9.17073618085E-5 75:6.87805213564E-5 76:1.14634202261E-4 77:9.17073618085E-5 78:1.14634202261E-4 79:6.87805213564E-5 80:2.06341564069E-4 81:2.52195244973E-4 82:2.75122085425E-4 83:0.0 84:9.17073618085E-5 85:1.14634202261E-4 86:2.29268404521E-5 87:1.14634202261E-4 88:9.17073618085E-5 89:9.17073618085E-5 90:9.17073618085E-5 91:4.58536809042E-5 92:1.37561042713E-4 93:1.60487883165E-4 94:4.58536809042E-5 95:9.17073618085E-5 96:6.19024692207E-4 97:3.43902606782E-4 98:1.37561042713E-4 99:1.14634202261E-4 100:4.58536809042E-5 101:9.17073618085E-5 102:2.29268404521E-5 103:2.29268404521E-5 104:9.17073618085E-5 105:0.00119219570351 106:5.96097851755E-4 107:2.29268404521E-4 108:0.00316390398239 109:2.29268404521E-5 110:1.60487883165E-4 111:9.17073618085E-5 112:0.00144439094848 113:1.14634202261E-4 114:1.60487883165E-4 115:1.14634202261E-4 116:1.60487883165E-4 117:1.83414723617E-4 118:0.0 119:9.17073618085E-5 120:1.14634202261E-4 121:2.06341564069E-4 122:1.14634202261E-4 123:2.29268404521E-5 124:9.17073618085E-4 125:9.17073618085E-5 126:2.29268404521E-4 127:1.60487883165E-4 128:0.00600683219845 129:0.00128390306532 130:2.98048925878E-4 131:4.3560996859E-4 132:4.58536809042E-5 133:5.27317330399E-4 134:1.37561042713E-4 135:9.17073618085E-5 136:6.87805213564E-5 137:6.19024692207E-4 138:9.17073618085E-5 139:2.52195244973E-4 140:1.60487883165E-4 141:2.52195244973E-4 142:6.87805213564E-5 143:2.29268404521E-5 144:9.17073618085E-5 145:3.66829447234E-4 146:1.37561042713E-4 147:1.60487883165E-4 148:2.29268404521E-5 149:8.94146777633E-4 150:1.83414723617E-4 151:0.00233853772612 152:0.00236146456657 153:1.60487883165E-4 154:0.0 155:9.17073618085E-5 156:1.14634202261E-4 157:1.60487883165E-4 158:4.58536809042E-5 159:1.37561042713E-4 160:0.00369122131279 161:4.12683128138E-4 162:1.83414723617E-4 163:2.52195244973E-4 164:1.14634202261E-4 165:2.06341564069E-4 166:1.37561042713E-4 167:1.14634202261E-4 168:9.17073618085E-5 169:9.17073618085E-5 170:1.14634202261E-4 171:4.58536809042E-5 172:1.14634202261E-4 173:6.87805213564E-5 174:1.14634202261E-4 175:1.37561042713E-4 176:2.75122085425E-4 177:6.87805213564E-5 178:1.37561042713E-4 179:6.87805213564E-5 180:1.14634202261E-4 181:1.14634202261E-4 182:9.17073618085E-5 183:1.14634202261E-4 184:1.83414723617E-4 185:6.87805213564E-5 186:4.58536809042E-5 187:4.58536809042E-5 188:1.83414723617E-4 189:1.14634202261E-4 190:2.75122085425E-4 191:2.06341564069E-4 192:0.00256780613064 193:2.75122085425E-4 194:1.60487883165E-4 195:2.06341564069E-4 196:4.58536809042E-5 197:2.06341564069E-4 198:1.37561042713E-4 199:6.87805213564E-5 200:9.17073618085E-5 201:4.58536809042E-5 202:9.17073618085E-5 203:4.58536809042E-5 204:9.17073618085E-5 205:1.37561042713E-4 206:1.14634202261E-4 207:1.60487883165E-4 208:2.29268404521E-4 209:0.00231561088566 210:1.60487883165E-4 211:4.58536809042E-5 212:9.17073618085E-5 213:0.0032097576633 214:2.29268404521E-5 215:0.00660293005021 216:0.00339317238691 217:2.06341564069E-4 218:1.37561042713E-4 219:6.87805213564E-5 220:2.52195244973E-4 221:2.75122085425E-4 222:3.43902606782E-4 223:9.17073618085E-4 224:0.00857463832909 225:6.87805213564E-4 226:1.37561042713E-4 227:0.0 228:2.29268404521E-5 229:4.58536809042E-5 230:4.58536809042E-5 231:2.29268404521E-5 232:1.37561042713E-4 233:0.00149024462939 234:0.00123804938441 235:1.60487883165E-4 236:0.00123804938441 237:1.60487883165E-4 238:1.60487883165E-4 239:4.12683128138E-4 240:0.00249902560928 241:0.00304926978013 242:1.37561042713E-4 243:1.37561042713E-4 244:3.89756287686E-4 245:0.00392048971731 246:2.29268404521E-4 247:0.00362244079143 248:0.00284292821606 249:0.00768049155146 250:0.0021551230025 251:4.81463649494E-4 252:0.00440195336681 253:0.00424146548364 254:0.00194878143843 255:0.00983561455396 256:0.819244789876 
123.64910548072545 1:0.0191397849462 2:0.00258064516129 3:0.00215053763441 4:6.45161290323E-4 5:0.00344086021505 6:0.00172043010753 7:8.60215053763E-4 8:2.15053763441E-4 9:0.00494623655914 10:0.0010752688172 11:4.30107526882E-4 12:0.00279569892473 13:0.0010752688172 14:0.0 15:4.30107526882E-4 16:0.00537634408602 17:0.00430107526882 18:6.45161290323E-4 19:6.45161290323E-4 20:2.15053763441E-4 21:2.15053763441E-4 22:4.30107526882E-4 23:0.00387096774194 24:0.00731182795699 25:0.00666666666667 26:8.60215053763E-4 27:4.30107526882E-4 28:0.0010752688172 29:0.00129032258065 30:2.15053763441E-4 31:0.0010752688172 32:0.0296774193548 33:0.00301075268817 34:4.30107526882E-4 35:0.0010752688172 36:4.30107526882E-4 37:0.00129032258065 38:8.60215053763E-4 39:0.0 40:4.30107526882E-4 41:4.30107526882E-4 42:0.0010752688172 43:0.0 44:0.00559139784946 45:0.0 46:2.15053763441E-4 47:4.30107526882E-4 48:0.0047311827957 49:0.00215053763441 50:0.0010752688172 51:2.15053763441E-4 52:0.0 53:0.0 54:0.0 55:4.30107526882E-4 56:2.15053763441E-4 57:4.30107526882E-4 58:0.0 59:0.0 60:0.0 61:2.15053763441E-4 62:2.15053763441E-4 63:2.15053763441E-4 64:0.00387096774194 65:0.00150537634409 66:0.0010752688172 67:0.0 68:0.0 69:0.00129032258065 70:0.0 71:2.15053763441E-4 72:0.0 73:8.60215053763E-4 74:2.15053763441E-4 75:0.0 76:6.45161290323E-4 77:4.30107526882E-4 78:0.0 79:0.0 80:2.15053763441E-4 81:2.15053763441E-4 82:4.30107526882E-4 83:0.0 84:0.0 85:2.15053763441E-4 86:0.0 87:0.0 88:2.15053763441E-4 89:4.30107526882E-4 90:2.15053763441E-4 91:2.15053763441E-4 92:2.15053763441E-4 93:0.0 94:0.0 95:2.15053763441E-4 96:0.00129032258065 97:8.60215053763E-4 98:0.0 99:0.0 100:6.45161290323E-4 101:2.15053763441E-4 102:0.0 103:0.0 104:4.30107526882E-4 105:0.00494623655914 106:0.00150537634409 107:2.15053763441E-4 108:0.0101075268817 109:4.30107526882E-4 110:2.15053763441E-4 111:4.30107526882E-4 112:0.00279569892473 113:4.30107526882E-4 114:2.15053763441E-4 115:2.15053763441E-4 116:2.15053763441E-4 117:0.0 118:6.45161290323E-4 119:0.0 120:4.30107526882E-4 121:4.30107526882E-4 122:2.15053763441E-4 123:2.15053763441E-4 124:0.00172043010753 125:2.15053763441E-4 126:2.15053763441E-4 127:0.0 128:0.00967741935484 129:0.00301075268817 130:8.60215053763E-4 131:6.45161290323E-4 132:0.0 133:0.00172043010753 134:0.0 135:4.30107526882E-4 136:2.15053763441E-4 137:8.60215053763E-4 138:2.15053763441E-4 139:2.15053763441E-4 140:4.30107526882E-4 141:2.15053763441E-4 142:2.15053763441E-4 143:6.45161290323E-4 144:2.15053763441E-4 145:8.60215053763E-4 146:0.0 147:2.15053763441E-4 148:0.0 149:0.00150537634409 150:2.15053763441E-4 151:0.00193548387097 152:0.00258064516129 153:0.0 154:2.15053763441E-4 155:0.0 156:8.60215053763E-4 157:2.15053763441E-4 158:4.30107526882E-4 159:0.0 160:0.00408602150538 161:8.60215053763E-4 162:2.15053763441E-4 163:0.0 164:2.15053763441E-4 165:0.0 166:2.15053763441E-4 167:0.0 168:0.0 169:8.60215053763E-4 170:2.15053763441E-4 171:6.45161290323E-4 172:4.30107526882E-4 173:8.60215053763E-4 174:0.0 175:4.30107526882E-4 176:2.15053763441E-4 177:2.15053763441E-4 178:4.30107526882E-4 179:0.0 180:2.15053763441E-4 181:4.30107526882E-4 182:0.0 183:0.0 184:2.15053763441E-4 185:2.15053763441E-4 186:0.0 187:4.30107526882E-4 188:2.15053763441E-4 189:4.30107526882E-4 190:0.0 191:2.15053763441E-4 192:0.00430107526882 193:4.30107526882E-4 194:2.15053763441E-4 195:2.15053763441E-4 196:2.15053763441E-4 197:2.15053763441E-4 198:2.15053763441E-4 199:2.15053763441E-4 200:0.0 201:4.30107526882E-4 202:0.0 203:0.0 204:0.0 205:2.15053763441E-4 206:4.30107526882E-4 207:4.30107526882E-4 208:0.0 209:0.00408602150538 210:2.15053763441E-4 211:2.15053763441E-4 212:2.15053763441E-4 213:0.00430107526882 214:8.60215053763E-4 215:0.00365591397849 216:0.00236559139785 217:2.15053763441E-4 218:0.0 219:4.30107526882E-4 220:2.15053763441E-4 221:2.15053763441E-4 222:2.15053763441E-4 223:0.00193548387097 224:0.00967741935484 225:0.00193548387097 226:0.0 227:0.0 228:4.30107526882E-4 229:2.15053763441E-4 230:0.0 231:0.0 232:0.00172043010753 233:0.00387096774194 234:0.00516129032258 235:4.30107526882E-4 236:0.00451612903226 237:2.15053763441E-4 238:6.45161290323E-4 239:2.15053763441E-4 240:0.00430107526882 241:0.00301075268817 242:2.15053763441E-4 243:2.15053763441E-4 244:0.00129032258065 245:0.00430107526882 246:4.30107526882E-4 247:0.00258064516129 248:0.00666666666667 249:0.00537634408602 250:0.00451612903226 251:0.00172043010753 252:0.0120430107527 253:0.00193548387097 254:0.0058064516129 255:0.00924731182796 256:0.66688172043 
597.4395447690271 1:0.00915901341497 2:0.00164264914508 3:0.00119465392369 4:3.98217974564E-4 5:0.0014684287812 6:4.47995221384E-4 7:3.73329351154E-4 8:7.71547325717E-4 9:0.0014684287812 10:3.98217974564E-4 11:2.48886234102E-4 12:0.00204086711964 13:4.97772468205E-4 14:1.49331740461E-4 15:3.23552104333E-4 16:0.00166753776849 17:0.00166753776849 18:3.98217974564E-4 19:5.22661091615E-4 20:7.46658702307E-5 21:4.97772468205E-4 22:1.74220363872E-4 23:0.00251375096443 24:0.0034097414072 25:7.21770078897E-4 26:1.49331740461E-4 27:7.46658702307E-5 28:1.99108987282E-4 29:1.24443117051E-4 30:4.97772468205E-5 31:2.48886234102E-4 32:0.00689414868464 33:0.00184175813236 34:5.97326961846E-4 35:4.97772468205E-4 36:4.97772468205E-5 37:2.73774857513E-4 38:1.99108987282E-4 39:1.24443117051E-4 40:2.23997610692E-4 41:4.72883844795E-4 42:0.00136887428756 43:1.74220363872E-4 44:0.00174220363872 45:9.9554493641E-5 46:7.46658702307E-5 47:2.48886234102E-5 48:0.00253863958784 49:4.47995221384E-4 50:1.99108987282E-4 51:2.73774857513E-4 52:1.24443117051E-4 53:2.73774857513E-4 54:1.74220363872E-4 55:1.49331740461E-4 56:1.74220363872E-4 57:1.24443117051E-4 58:1.74220363872E-4 59:2.48886234102E-5 60:2.23997610692E-4 61:4.97772468205E-5 62:1.24443117051E-4 63:1.24443117051E-4 64:0.00308618930287 65:0.00104532218323 66:3.73329351154E-4 67:6.22215585256E-4 68:9.9554493641E-5 69:3.48440727743E-4 70:2.48886234102E-4 71:2.23997610692E-4 72:9.9554493641E-5 73:2.23997610692E-4 74:1.99108987282E-4 75:2.23997610692E-4 76:1.49331740461E-4 77:2.23997610692E-4 78:1.24443117051E-4 79:9.9554493641E-5 80:1.74220363872E-4 81:1.74220363872E-4 82:1.74220363872E-4 83:1.49331740461E-4 84:9.9554493641E-5 85:1.49331740461E-4 86:9.9554493641E-5 87:2.48886234102E-4 88:1.49331740461E-4 89:9.9554493641E-5 90:7.46658702307E-5 91:0.0 92:1.24443117051E-4 93:1.24443117051E-4 94:4.97772468205E-5 95:7.46658702307E-5 96:7.71547325717E-4 97:4.23106597974E-4 98:2.73774857513E-4 99:1.24443117051E-4 100:2.48886234102E-5 101:9.9554493641E-5 102:1.74220363872E-4 103:1.49331740461E-4 104:2.48886234102E-5 105:0.00236441922397 106:0.00263819408149 107:1.99108987282E-4 108:0.00477861569477 109:2.48886234102E-4 110:2.73774857513E-4 111:7.46658702307E-5 112:0.00253863958784 113:7.46658702307E-5 114:7.46658702307E-5 115:1.24443117051E-4 116:1.74220363872E-4 117:9.9554493641E-5 118:1.24443117051E-4 119:9.9554493641E-5 120:3.48440727743E-4 121:2.98663480923E-4 122:1.74220363872E-4 123:4.97772468205E-5 124:9.20879066179E-4 125:4.97772468205E-5 126:9.9554493641E-5 127:2.48886234102E-4 128:0.00818835710197 129:0.00161776052167 130:4.47995221384E-4 131:3.23552104333E-4 132:1.24443117051E-4 133:7.21770078897E-4 134:2.98663480923E-4 135:1.49331740461E-4 136:1.74220363872E-4 137:4.97772468205E-4 138:9.9554493641E-5 139:1.49331740461E-4 140:9.9554493641E-5 141:2.23997610692E-4 142:7.46658702307E-5 143:4.97772468205E-5 144:7.46658702307E-5 145:2.48886234102E-4 146:9.9554493641E-5 147:1.24443117051E-4 148:1.74220363872E-4 149:0.00102043355982 150:1.99108987282E-4 151:0.00221508748351 152:0.00311107792628 153:1.24443117051E-4 154:1.24443117051E-4 155:1.24443117051E-4 156:9.9554493641E-5 157:7.46658702307E-5 158:9.9554493641E-5 159:1.24443117051E-4 160:0.00333507553697 161:4.47995221384E-4 162:2.23997610692E-4 163:2.98663480923E-4 164:9.9554493641E-5 165:1.99108987282E-4 166:7.46658702307E-5 167:9.9554493641E-5 168:1.24443117051E-4 169:1.24443117051E-4 170:1.24443117051E-4 171:2.48886234102E-5 172:1.24443117051E-4 173:1.49331740461E-4 174:1.49331740461E-4 175:2.48886234102E-5 176:3.48440727743E-4 177:1.24443117051E-4 178:1.24443117051E-4 179:7.46658702307E-5 180:7.46658702307E-5 181:1.24443117051E-4 182:4.97772468205E-5 183:1.49331740461E-4 184:2.73774857513E-4 185:2.48886234102E-5 186:1.24443117051E-4 187:4.97772468205E-5 188:2.98663480923E-4 189:2.48886234102E-5 190:2.48886234102E-4 191:3.48440727743E-4 192:0.00258841683466 193:3.73329351154E-4 194:1.49331740461E-4 195:1.24443117051E-4 196:2.48886234102E-5 197:9.9554493641E-5 198:4.97772468205E-5 199:2.98663480923E-4 200:1.24443117051E-4 201:1.49331740461E-4 202:7.46658702307E-5 203:7.46658702307E-5 204:1.99108987282E-4 205:7.46658702307E-5 206:7.46658702307E-5 207:4.97772468205E-5 208:2.98663480923E-4 209:0.00223997610692 210:1.74220363872E-4 211:2.98663480923E-4 212:1.24443117051E-4 213:0.00164264914508 214:1.99108987282E-4 215:0.00597326961846 216:0.00261330545808 217:2.73774857513E-4 218:1.49331740461E-4 219:4.97772468205E-5 220:1.24443117051E-4 221:9.9554493641E-5 222:1.24443117051E-4 223:8.21324572538E-4 224:0.00749147564648 225:5.97326961846E-4 226:1.74220363872E-4 227:4.97772468205E-5 228:4.97772468205E-5 229:1.49331740461E-4 230:2.23997610692E-4 231:7.46658702307E-5 232:1.24443117051E-4 233:0.00296174618582 234:0.00318574379651 235:1.99108987282E-4 236:0.00258841683466 237:2.23997610692E-4 238:7.46658702307E-5 239:2.98663480923E-4 240:0.00311107792628 241:0.00253863958784 242:1.49331740461E-4 243:7.46658702307E-5 244:2.23997610692E-4 245:0.00281241444536 246:7.46658702307E-5 247:0.00313596654969 248:0.00273774857513 249:0.00833768884243 250:0.00355907314766 251:6.71992832076E-4 252:0.00843724333607 253:0.00343463003061 254:0.0026630827049 255:0.00796435949128 256:0.802060778018 
1024.0 1:0.0131481022079 2:0.00218308112131 3:8.43463160506E-4 4:6.45001240387E-4 5:0.00203423468122 6:4.96154800298E-4 7:7.93847680476E-4 8:0.00138923344083 9:0.0023319275614 10:8.43463160506E-4 11:1.98461920119E-4 12:0.0023319275614 13:6.94616720417E-4 14:1.48846440089E-4 15:1.48846440089E-4 16:0.00352269908211 17:0.00213346564128 18:6.45001240387E-4 19:2.48077400149E-4 20:1.98461920119E-4 21:6.45001240387E-4 22:1.48846440089E-4 23:0.00337385264202 24:0.00570578020342 25:0.00119077152071 26:1.98461920119E-4 27:9.92309600595E-5 28:5.95385760357E-4 29:1.98461920119E-4 30:4.96154800298E-5 31:2.48077400149E-4 32:0.011610022327 33:0.00198461920119 34:6.94616720417E-4 35:4.46539320268E-4 36:1.48846440089E-4 37:2.97692880179E-4 38:2.48077400149E-4 39:4.96154800298E-5 40:9.92309600595E-5 41:4.46539320268E-4 42:7.93847680476E-4 43:1.48846440089E-4 44:0.00238154304143 45:9.92309600595E-5 46:9.92309600595E-5 47:9.92309600595E-5 48:0.00372116100223 49:2.97692880179E-4 50:6.94616720417E-4 51:9.92309600595E-5 52:1.48846440089E-4 53:2.48077400149E-4 54:4.96154800298E-5 55:4.96154800298E-5 56:2.48077400149E-4 57:3.96923840238E-4 58:1.98461920119E-4 59:0.0 60:2.97692880179E-4 61:4.96154800298E-5 62:0.0 63:2.48077400149E-4 64:0.00401885388241 65:0.00138923344083 66:3.47308360208E-4 67:4.46539320268E-4 68:3.47308360208E-4 69:2.48077400149E-4 70:1.48846440089E-4 71:9.92309600595E-5 72:4.96154800298E-5 73:2.97692880179E-4 74:1.98461920119E-4 75:0.0 76:1.48846440089E-4 77:9.92309600595E-5 78:4.46539320268E-4 79:4.96154800298E-5 80:1.48846440089E-4 81:1.98461920119E-4 82:9.92309600595E-5 83:4.96154800298E-5 84:4.96154800298E-5 85:1.98461920119E-4 86:9.92309600595E-5 87:3.96923840238E-4 88:9.92309600595E-5 89:9.92309600595E-5 90:0.0 91:9.92309600595E-5 92:4.96154800298E-5 93:1.48846440089E-4 94:1.98461920119E-4 95:1.98461920119E-4 96:7.93847680476E-4 97:3.47308360208E-4 98:1.48846440089E-4 99:9.92309600595E-5 100:1.48846440089E-4 101:9.92309600595E-5 102:1.48846440089E-4 103:0.0 104:9.92309600595E-5 105:0.00248077400149 106:0.00248077400149 107:2.48077400149E-4 108:0.00635078144381 109:2.48077400149E-4 110:2.97692880179E-4 111:9.92309600595E-5 112:0.00253038948152 113:1.48846440089E-4 114:1.98461920119E-4 115:0.0 116:9.92309600595E-5 117:2.48077400149E-4 118:9.92309600595E-5 119:9.92309600595E-5 120:2.97692880179E-4 121:3.96923840238E-4 122:2.48077400149E-4 123:2.97692880179E-4 124:0.00109154056065 125:0.0 126:1.98461920119E-4 127:2.97692880179E-4 128:0.00947655668569 129:0.00178615728107 130:6.45001240387E-4 131:4.96154800298E-4 132:1.48846440089E-4 133:3.96923840238E-4 134:2.97692880179E-4 135:2.48077400149E-4 136:1.98461920119E-4 137:4.96154800298E-4 138:1.98461920119E-4 139:2.97692880179E-4 140:9.92309600595E-5 141:7.44232200447E-4 142:1.98461920119E-4 143:4.96154800298E-5 144:1.48846440089E-4 145:4.46539320268E-4 146:2.48077400149E-4 147:1.48846440089E-4 148:1.98461920119E-4 149:7.93847680476E-4 150:9.92309600595E-5 151:0.00312577524188 152:0.00525924088316 153:1.98461920119E-4 154:1.48846440089E-4 155:4.96154800298E-5 156:3.96923840238E-4 157:1.48846440089E-4 158:9.92309600595E-5 159:1.48846440089E-4 160:0.00610270404366 161:4.46539320268E-4 162:3.47308360208E-4 163:2.97692880179E-4 164:9.92309600595E-5 165:2.48077400149E-4 166:1.98461920119E-4 167:2.48077400149E-4 168:2.48077400149E-4 169:4.96154800298E-5 170:9.92309600595E-5 171:9.92309600595E-5 172:4.96154800298E-5 173:0.0 174:9.92309600595E-5 175:2.97692880179E-4 176:2.97692880179E-4 177:2.48077400149E-4 178:4.96154800298E-5 179:2.97692880179E-4 180:9.92309600595E-5 181:4.96154800298E-5 182:0.0 183:1.48846440089E-4 184:9.92309600595E-5 185:9.92309600595E-5 186:0.0 187:4.96154800298E-5 188:1.98461920119E-4 189:4.96154800298E-5 190:1.98461920119E-4 191:2.97692880179E-4 192:0.00277846688167 193:2.48077400149E-4 194:4.96154800298E-5 195:3.96923840238E-4 196:9.92309600595E-5 197:4.96154800298E-5 198:9.92309600595E-5 199:9.92309600595E-5 200:1.98461920119E-4 201:1.98461920119E-4 202:4.96154800298E-5 203:9.92309600595E-5 204:1.98461920119E-4 205:1.98461920119E-4 206:1.98461920119E-4 207:4.96154800298E-5 208:4.46539320268E-4 209:0.00218308112131 210:2.97692880179E-4 211:4.96154800298E-5 212:1.48846440089E-4 213:0.00277846688167 214:1.48846440089E-4 215:0.00496154800298 216:0.00426693128256 217:1.98461920119E-4 218:1.48846440089E-4 219:9.92309600595E-5 220:1.98461920119E-4 221:3.47308360208E-4 222:1.48846440089E-4 223:9.42694120566E-4 224:0.0129496402878 225:0.00114115604068 226:2.48077400149E-4 227:4.96154800298E-5 228:9.92309600595E-5 229:1.48846440089E-4 230:1.48846440089E-4 231:2.48077400149E-4 232:9.92309600595E-5 233:0.00411808484247 234:0.00391962292235 235:2.97692880179E-4 236:0.00297692880179 237:2.48077400149E-4 238:1.98461920119E-4 239:2.97692880179E-4 240:0.00327462168196 241:0.00243115852146 242:1.98461920119E-4 243:9.92309600595E-5 244:2.97692880179E-4 245:0.00317539072191 246:3.47308360208E-4 247:0.00267923592161 248:0.00317539072191 249:0.00808732324485 250:0.00451500868271 251:0.00114115604068 252:0.0106177127264 253:0.00277846688167 254:0.00312577524188 255:0.00778963036467 256:0.753510295212 
936.7952190568858 1:0.0169097442401 2:0.00317057704502 3:0.00232508983302 4:0.00105685901501 5:0.00232508983302 6:6.34115409004E-4 7:6.34115409004E-4 8:8.45487212006E-4 9:0.00359332065103 10:0.00147960262101 11:6.34115409004E-4 12:0.00486155146903 13:0.00105685901501 14:4.22743606003E-4 15:4.22743606003E-4 16:0.00507292327204 17:0.00443880786303 18:8.45487212006E-4 19:2.11371803001E-4 20:4.22743606003E-4 21:4.22743606003E-4 22:4.22743606003E-4 23:0.00126823081801 24:0.00507292327204 25:0.00274783343902 26:0.0 27:4.22743606003E-4 28:2.11371803001E-4 29:2.11371803001E-4 30:4.22743606003E-4 31:0.0 32:0.00930035933207 33:0.00317057704502 34:8.45487212006E-4 35:4.22743606003E-4 36:2.11371803001E-4 37:8.45487212006E-4 38:0.0 39:4.22743606003E-4 40:0.0 41:2.11371803001E-4 42:0.00211371803001 43:4.22743606003E-4 44:0.00676389769605 45:0.0 46:4.22743606003E-4 47:0.0 48:0.00676389769605 49:0.00126823081801 50:0.00105685901501 51:8.45487212006E-4 52:0.0 53:0.0 54:4.22743606003E-4 55:0.00105685901501 56:2.11371803001E-4 57:4.22743606003E-4 58:0.0 59:4.22743606003E-4 60:2.11371803001E-4 61:2.11371803001E-4 62:2.11371803001E-4 63:2.11371803001E-4 64:0.00465017966603 65:0.00232508983302 66:0.00105685901501 67:0.00147960262101 68:2.11371803001E-4 69:4.22743606003E-4 70:0.0 71:0.0 72:0.0 73:2.11371803001E-4 74:0.0 75:0.0 76:6.34115409004E-4 77:4.22743606003E-4 78:2.11371803001E-4 79:2.11371803001E-4 80:4.22743606003E-4 81:4.22743606003E-4 82:4.22743606003E-4 83:2.11371803001E-4 84:2.11371803001E-4 85:4.22743606003E-4 86:2.11371803001E-4 87:2.11371803001E-4 88:2.11371803001E-4 89:4.22743606003E-4 90:0.0 91:0.0 92:0.0 93:0.0 94:2.11371803001E-4 95:0.0 96:0.00105685901501 97:4.22743606003E-4 98:2.11371803001E-4 99:6.34115409004E-4 100:2.11371803001E-4 101:4.22743606003E-4 102:2.11371803001E-4 103:0.0 104:0.0 105:0.00169097442401 106:0.00253646163602 107:4.22743606003E-4 108:0.0120481927711 109:2.11371803001E-4 110:0.0 111:4.22743606003E-4 112:0.00465017966603 113:0.0 114:2.11371803001E-4 115:2.11371803001E-4 116:0.0 117:8.45487212006E-4 118:0.0 119:2.11371803001E-4 120:0.00105685901501 121:4.22743606003E-4 122:0.0 123:6.34115409004E-4 124:0.00211371803001 125:0.0 126:8.45487212006E-4 127:0.0 128:0.0139505389981 129:0.00422743606003 130:8.45487212006E-4 131:4.22743606003E-4 132:2.11371803001E-4 133:0.00126823081801 134:2.11371803001E-4 135:6.34115409004E-4 136:6.34115409004E-4 137:0.00169097442401 138:2.11371803001E-4 139:2.11371803001E-4 140:4.22743606003E-4 141:2.11371803001E-4 142:0.0 143:2.11371803001E-4 144:2.11371803001E-4 145:0.00105685901501 146:0.0 147:2.11371803001E-4 148:0.0 149:2.11371803001E-4 150:0.0 151:0.00105685901501 152:0.00211371803001 153:0.0 154:4.22743606003E-4 155:2.11371803001E-4 156:6.34115409004E-4 157:0.0 158:2.11371803001E-4 159:6.34115409004E-4 160:0.00169097442401 161:8.45487212006E-4 162:2.11371803001E-4 163:0.0 164:2.11371803001E-4 165:2.11371803001E-4 166:0.0 167:0.0 168:0.0 169:0.0 170:2.11371803001E-4 171:0.0 172:4.22743606003E-4 173:2.11371803001E-4 174:2.11371803001E-4 175:2.11371803001E-4 176:0.00105685901501 177:2.11371803001E-4 178:2.11371803001E-4 179:0.0 180:0.0 181:2.11371803001E-4 182:0.0 183:0.0 184:4.22743606003E-4 185:4.22743606003E-4 186:0.0 187:0.0 188:6.34115409004E-4 189:2.11371803001E-4 190:4.22743606003E-4 191:4.22743606003E-4 192:0.00359332065103 193:0.00105685901501 194:4.22743606003E-4 195:0.0 196:2.11371803001E-4 197:0.0 198:2.11371803001E-4 199:2.11371803001E-4 200:4.22743606003E-4 201:6.34115409004E-4 202:4.22743606003E-4 203:2.11371803001E-4 204:2.11371803001E-4 205:2.11371803001E-4 206:0.0 207:4.22743606003E-4 208:6.34115409004E-4 209:0.00295920524202 210:2.11371803001E-4 211:0.0 212:2.11371803001E-4 213:0.00232508983302 214:6.34115409004E-4 215:8.45487212006E-4 216:0.00190234622701 217:6.34115409004E-4 218:2.11371803001E-4 219:0.0 220:0.0 221:6.34115409004E-4 222:2.11371803001E-4 223:0.00169097442401 224:0.00549566687804 225:0.00486155146903 226:6.34115409004E-4 227:2.11371803001E-4 228:4.22743606003E-4 229:6.34115409004E-4 230:4.22743606003E-4 231:0.0 232:0.00126823081801 233:0.00232508983302 234:0.00169097442401 235:6.34115409004E-4 236:0.00232508983302 237:2.11371803001E-4 238:2.11371803001E-4 239:0.00105685901501 240:0.00422743606003 241:0.00803212851406 242:4.22743606003E-4 243:4.22743606003E-4 244:2.11371803001E-4 245:0.00549566687804 246:8.45487212006E-4 247:0.00126823081801 248:0.00549566687804 249:0.00993447474107 250:0.00274783343902 251:0.00359332065103 252:0.00887761572606 253:0.00211371803001 254:0.00465017966603 255:0.00718664130205 256:0.701754385965 
1024.0 1:0.00862638700477 2:0.00163483947268 3:8.6959546419E-4 4:4.52189641379E-4 5:0.00126960937772 6:5.21757278514E-4 7:4.17405822811E-4 8:6.95676371352E-4 9:0.00132178510557 10:4.17405822811E-4 11:1.3913527427E-4 12:0.00166962329124 13:3.6523009496E-4 14:1.21743364987E-4 15:1.21743364987E-4 16:0.00325228703607 17:0.00170440710981 18:2.95662457825E-4 19:3.13054367108E-4 20:8.6959546419E-5 21:4.34797732095E-4 22:1.3913527427E-4 23:0.00213920484191 24:0.00410449059098 25:0.00116525792201 26:1.21743364987E-4 27:1.91311002122E-4 28:1.91311002122E-4 29:2.43486729973E-4 30:1.21743364987E-4 31:4.00013913527E-4 32:0.00953076628752 33:0.00120004174058 34:5.39149187798E-4 35:2.60878639257E-4 36:1.04351455703E-4 37:5.39149187798E-4 38:1.3913527427E-4 39:1.56527183554E-4 40:1.91311002122E-4 41:3.82622004244E-4 42:5.56541097082E-4 43:2.08702911406E-4 44:0.00144352847056 45:8.6959546419E-5 46:1.73919092838E-4 47:6.95676371352E-5 48:0.00227834011618 49:4.52189641379E-4 50:1.73919092838E-4 51:1.04351455703E-4 52:1.56527183554E-4 53:1.04351455703E-4 54:1.21743364987E-4 55:1.04351455703E-4 56:2.08702911406E-4 57:2.43486729973E-4 58:1.73919092838E-4 59:6.95676371352E-5 60:1.56527183554E-4 61:3.47838185676E-5 62:6.95676371352E-5 63:1.21743364987E-4 64:0.00292184075968 65:8.52203554906E-4 66:3.30446276392E-4 67:1.73919092838E-4 68:1.04351455703E-4 69:2.43486729973E-4 70:8.6959546419E-5 71:1.04351455703E-4 72:8.6959546419E-5 73:3.30446276392E-4 74:1.3913527427E-4 75:5.21757278514E-5 76:2.08702911406E-4 77:1.56527183554E-4 78:3.47838185676E-5 79:5.21757278514E-5 80:1.21743364987E-4 81:1.73919092838E-4 82:1.21743364987E-4 83:1.91311002122E-4 84:6.95676371352E-5 85:1.3913527427E-4 86:1.04351455703E-4 87:1.73919092838E-4 88:1.56527183554E-4 89:1.04351455703E-4 90:3.47838185676E-5 91:5.21757278514E-5 92:6.95676371352E-5 93:5.21757278514E-5 94:3.47838185676E-5 95:6.95676371352E-5 96:5.56541097082E-4 97:2.60878639257E-4 98:1.3913527427E-4 99:1.04351455703E-4 100:6.95676371352E-5 101:5.21757278514E-5 102:1.21743364987E-4 103:3.47838185676E-5 104:5.21757278514E-5 105:0.00196528574907 106:0.0017217990191 107:1.21743364987E-4 108:0.00314793558037 109:1.56527183554E-4 110:6.95676371352E-5 111:1.3913527427E-4 112:0.00215659675119 113:1.04351455703E-4 114:8.6959546419E-5 115:5.21757278514E-5 116:6.95676371352E-5 117:1.21743364987E-4 118:5.21757278514E-5 119:1.21743364987E-4 120:2.26094820689E-4 121:3.47838185676E-4 122:1.73919092838E-4 123:1.04351455703E-4 124:6.26108734217E-4 125:1.3913527427E-4 126:1.04351455703E-4 127:3.13054367108E-4 128:0.00704372325994 129:0.00146092037984 130:3.13054367108E-4 131:2.78270548541E-4 132:6.95676371352E-5 133:3.6523009496E-4 134:2.08702911406E-4 135:8.6959546419E-5 136:1.21743364987E-4 137:4.00013913527E-4 138:8.6959546419E-5 139:1.56527183554E-4 140:1.04351455703E-4 141:3.47838185676E-4 142:1.21743364987E-4 143:3.47838185676E-5 144:1.56527183554E-4 145:5.56541097082E-4 146:3.47838185676E-5 147:8.6959546419E-5 148:6.95676371352E-5 149:6.95676371352E-4 150:3.47838185676E-5 151:0.00307836794323 152:0.00366969285888 153:1.91311002122E-4 154:5.21757278514E-5 155:1.04351455703E-4 156:1.04351455703E-4 157:5.21757278514E-5 158:1.21743364987E-4 159:1.73919092838E-4 160:0.00520018087586 161:5.91324915649E-4 162:2.08702911406E-4 163:6.95676371352E-5 164:6.95676371352E-5 165:1.56527183554E-4 166:1.3913527427E-4 167:1.04351455703E-4 168:1.56527183554E-4 169:1.21743364987E-4 170:1.04351455703E-4 171:6.95676371352E-5 172:5.21757278514E-5 173:1.3913527427E-4 174:1.73919092838E-5 175:1.04351455703E-4 176:6.95676371352E-5 177:1.21743364987E-4 178:6.95676371352E-5 179:1.04351455703E-4 180:5.21757278514E-5 181:8.6959546419E-5 182:1.91311002122E-4 183:2.08702911406E-4 184:2.43486729973E-4 185:3.47838185676E-5 186:6.95676371352E-5 187:1.04351455703E-4 188:1.91311002122E-4 189:8.6959546419E-5 190:1.21743364987E-4 191:1.73919092838E-4 192:0.00243486729973 193:4.52189641379E-4 194:1.21743364987E-4 195:1.21743364987E-4 196:8.6959546419E-5 197:1.21743364987E-4 198:6.95676371352E-5 199:8.6959546419E-5 200:8.6959546419E-5 201:1.04351455703E-4 202:8.6959546419E-5 203:6.95676371352E-5 204:2.26094820689E-4 205:3.47838185676E-5 206:8.6959546419E-5 207:3.47838185676E-5 208:1.56527183554E-4 209:0.00180875856552 210:1.3913527427E-4 211:1.04351455703E-4 212:8.6959546419E-5 213:0.00293923266896 214:1.21743364987E-4 215:0.00726981808063 216:0.00438276113952 217:3.13054367108E-4 218:1.04351455703E-4 219:1.04351455703E-4 220:3.6523009496E-4 221:1.3913527427E-4 222:1.91311002122E-4 223:9.21771192041E-4 224:0.0118786740408 225:8.34811645622E-4 226:1.04351455703E-4 227:1.04351455703E-4 228:6.95676371352E-5 229:1.04351455703E-4 230:6.95676371352E-5 231:6.95676371352E-5 232:1.73919092838E-4 233:0.00346098994748 234:0.00255661066472 235:1.3913527427E-4 236:0.0023652996626 237:1.04351455703E-4 238:1.04351455703E-4 239:1.91311002122E-4 240:0.00271313784827 241:0.00318271939894 242:1.3913527427E-4 243:1.91311002122E-4 244:2.60878639257E-4 245:0.002574002574 246:5.21757278514E-5 247:0.00342620612891 248:0.0031131517618 249:0.0105568889353 250:0.00426101777453 251:8.52203554906E-4 252:0.0081568054541 253:0.00473059932519 254:0.00233051584403 255:0.00972207728964 256:0.793644996348 
1024.0 1:0.0149311294766 2:0.00247933884298 3:0.00203856749311 4:3.30578512397E-4 5:0.00231404958678 6:4.40771349862E-4 7:5.50964187328E-4 8:0.00104683195592 9:0.00170798898072 10:6.61157024793E-4 11:1.65289256198E-4 12:0.00203856749311 13:6.06060606061E-4 14:2.75482093664E-4 15:6.61157024793E-4 16:0.00347107438017 17:0.00159779614325 18:4.95867768595E-4 19:8.26446280992E-4 20:3.30578512397E-4 21:4.95867768595E-4 22:5.50964187328E-5 23:0.00192837465565 24:0.00220385674931 25:7.71349862259E-4 26:1.65289256198E-4 27:5.50964187328E-5 28:2.20385674931E-4 29:1.65289256198E-4 30:1.10192837466E-4 31:1.10192837466E-4 32:0.0062258953168 33:0.00231404958678 34:9.9173553719E-4 35:6.61157024793E-4 36:2.75482093664E-4 37:8.26446280992E-4 38:5.50964187328E-5 39:2.20385674931E-4 40:1.10192837466E-4 41:8.81542699725E-4 42:0.00154269972452 43:2.75482093664E-4 44:0.00314049586777 45:5.50964187328E-5 46:1.65289256198E-4 47:1.65289256198E-4 48:0.00380165289256 49:4.95867768595E-4 50:3.85674931129E-4 51:1.65289256198E-4 52:1.65289256198E-4 53:5.50964187328E-5 54:5.50964187328E-5 55:1.10192837466E-4 56:1.10192837466E-4 57:1.10192837466E-4 58:2.20385674931E-4 59:5.50964187328E-5 60:3.30578512397E-4 61:5.50964187328E-5 62:5.50964187328E-5 63:1.65289256198E-4 64:0.00220385674931 65:0.00170798898072 66:8.81542699725E-4 67:9.9173553719E-4 68:1.10192837466E-4 69:9.9173553719E-4 70:2.75482093664E-4 71:1.10192837466E-4 72:0.0 73:6.06060606061E-4 74:1.65289256198E-4 75:1.10192837466E-4 76:6.06060606061E-4 77:5.50964187328E-4 78:5.50964187328E-5 79:0.0 80:1.10192837466E-4 81:4.95867768595E-4 82:4.95867768595E-4 83:0.0 84:1.65289256198E-4 85:2.75482093664E-4 86:1.65289256198E-4 87:4.95867768595E-4 88:1.10192837466E-4 89:1.10192837466E-4 90:1.10192837466E-4 91:5.50964187328E-5 92:5.50964187328E-5 93:1.65289256198E-4 94:1.65289256198E-4 95:0.0 96:8.26446280992E-4 97:5.50964187328E-4 98:3.85674931129E-4 99:5.50964187328E-5 100:2.20385674931E-4 101:5.50964187328E-5 102:1.10192837466E-4 103:1.10192837466E-4 104:5.50964187328E-5 105:0.00214876033058 106:0.00380165289256 107:3.30578512397E-4 108:0.00776859504132 109:0.0 110:3.30578512397E-4 111:1.10192837466E-4 112:0.00247933884298 113:5.50964187328E-5 114:1.10192837466E-4 115:1.10192837466E-4 116:3.85674931129E-4 117:2.20385674931E-4 118:2.20385674931E-4 119:1.65289256198E-4 120:3.30578512397E-4 121:6.61157024793E-4 122:2.75482093664E-4 123:5.50964187328E-5 124:0.00137741046832 125:0.0 126:2.75482093664E-4 127:3.30578512397E-4 128:0.00787878787879 129:0.00203856749311 130:4.40771349862E-4 131:6.06060606061E-4 132:1.65289256198E-4 133:8.81542699725E-4 134:1.65289256198E-4 135:3.85674931129E-4 136:1.65289256198E-4 137:6.06060606061E-4 138:0.0 139:3.30578512397E-4 140:2.75482093664E-4 141:3.85674931129E-4 142:1.10192837466E-4 143:1.65289256198E-4 144:0.0 145:5.50964187328E-4 146:1.10192837466E-4 147:1.65289256198E-4 148:1.65289256198E-4 149:0.00192837465565 150:1.65289256198E-4 151:0.00385674931129 152:0.00314049586777 153:2.20385674931E-4 154:1.10192837466E-4 155:5.50964187328E-5 156:1.65289256198E-4 157:2.20385674931E-4 158:1.10192837466E-4 159:2.20385674931E-4 160:0.00297520661157 161:0.00104683195592 162:2.75482093664E-4 163:2.20385674931E-4 164:1.65289256198E-4 165:3.30578512397E-4 166:2.20385674931E-4 167:1.10192837466E-4 168:2.20385674931E-4 169:1.10192837466E-4 170:1.65289256198E-4 171:1.65289256198E-4 172:1.65289256198E-4 173:2.75482093664E-4 174:2.20385674931E-4 175:1.65289256198E-4 176:6.61157024793E-4 177:2.75482093664E-4 178:2.20385674931E-4 179:1.65289256198E-4 180:1.65289256198E-4 181:4.95867768595E-4 182:5.50964187328E-5 183:2.75482093664E-4 184:4.95867768595E-4 185:1.10192837466E-4 186:1.10192837466E-4 187:2.20385674931E-4 188:3.85674931129E-4 189:2.20385674931E-4 190:5.50964187328E-5 191:4.40771349862E-4 192:0.00236914600551 193:2.75482093664E-4 194:3.85674931129E-4 195:3.85674931129E-4 196:3.30578512397E-4 197:3.85674931129E-4 198:5.50964187328E-5 199:1.10192837466E-4 200:0.0 201:1.65289256198E-4 202:1.10192837466E-4 203:1.10192837466E-4 204:1.10192837466E-4 205:3.30578512397E-4 206:1.10192837466E-4 207:1.65289256198E-4 208:1.65289256198E-4 209:0.00258953168044 210:2.75482093664E-4 211:4.40771349862E-4 212:1.10192837466E-4 213:0.00363636363636 214:2.75482093664E-4 215:0.0062258953168 216:0.0031955922865 217:2.75482093664E-4 218:0.0 219:1.10192837466E-4 220:2.75482093664E-4 221:2.20385674931E-4 222:3.85674931129E-4 223:9.36639118457E-4 224:0.00953168044077 225:7.16253443526E-4 226:1.65289256198E-4 227:1.65289256198E-4 228:1.10192837466E-4 229:1.65289256198E-4 230:5.50964187328E-5 231:1.10192837466E-4 232:4.40771349862E-4 233:0.00253443526171 234:0.00451790633609 235:1.65289256198E-4 236:0.00396694214876 237:2.20385674931E-4 238:4.95867768595E-4 239:5.50964187328E-5 240:0.0030303030303 241:0.00104683195592 242:1.65289256198E-4 243:5.50964187328E-5 244:2.75482093664E-4 245:0.0028650137741 246:5.50964187328E-4 247:0.00192837465565 248:0.00275482093664 249:0.00220385674931 250:0.00314049586777 251:9.9173553719E-4 252:0.0105785123967 253:0.00121212121212 254:0.00264462809917 255:0.00539944903581 256:0.772506887052 
604.0369539218568 1:0.0189291508924 2:0.00310978907518 3:0.00175770686858 4:0.00121687398594 5:0.00297458085452 6:9.46457544619E-4 7:6.76041103299E-4 8:0.00243374797188 9:0.00243374797188 10:0.00175770686858 11:5.40832882639E-4 12:0.00567874526771 13:8.11249323959E-4 14:1.3520822066E-4 15:6.76041103299E-4 16:0.00513791238507 17:0.00189291508924 18:9.46457544619E-4 19:4.05624661979E-4 20:2.7041644132E-4 21:4.05624661979E-4 22:4.05624661979E-4 23:0.0020281233099 24:0.00162249864792 25:0.00148729042726 26:5.40832882639E-4 27:1.3520822066E-4 28:8.11249323959E-4 29:0.0 30:1.3520822066E-4 31:2.7041644132E-4 32:0.00838290968091 33:0.0020281233099 34:0.00121687398594 35:0.00121687398594 36:4.05624661979E-4 37:0.00108166576528 38:1.3520822066E-4 39:1.3520822066E-4 40:2.7041644132E-4 41:5.40832882639E-4 42:0.00189291508924 43:6.76041103299E-4 44:0.00513791238507 45:2.7041644132E-4 46:0.0 47:1.3520822066E-4 48:0.00608436992969 49:6.76041103299E-4 50:6.76041103299E-4 51:5.40832882639E-4 52:9.46457544619E-4 53:1.3520822066E-4 54:0.0 55:1.3520822066E-4 56:2.7041644132E-4 57:2.7041644132E-4 58:1.3520822066E-4 59:1.3520822066E-4 60:6.76041103299E-4 61:1.3520822066E-4 62:1.3520822066E-4 63:1.3520822066E-4 64:0.00229853975122 65:0.00229853975122 66:5.40832882639E-4 67:0.00297458085452 68:6.76041103299E-4 69:0.00108166576528 70:4.05624661979E-4 71:0.0 72:0.0 73:4.05624661979E-4 74:2.7041644132E-4 75:4.05624661979E-4 76:4.05624661979E-4 77:1.3520822066E-4 78:1.3520822066E-4 79:2.7041644132E-4 80:2.7041644132E-4 81:6.76041103299E-4 82:5.40832882639E-4 83:1.3520822066E-4 84:0.0 85:1.3520822066E-4 86:2.7041644132E-4 87:5.40832882639E-4 88:2.7041644132E-4 89:1.3520822066E-4 90:2.7041644132E-4 91:1.3520822066E-4 92:2.7041644132E-4 93:4.05624661979E-4 94:1.3520822066E-4 95:1.3520822066E-4 96:0.00148729042726 97:5.40832882639E-4 98:2.7041644132E-4 99:4.05624661979E-4 100:5.40832882639E-4 101:2.7041644132E-4 102:1.3520822066E-4 103:0.0 104:1.3520822066E-4 105:0.00229853975122 106:0.0013520822066 107:1.3520822066E-4 108:0.00527312060573 109:1.3520822066E-4 110:4.05624661979E-4 111:1.3520822066E-4 112:0.00324499729584 113:6.76041103299E-4 114:4.05624661979E-4 115:1.3520822066E-4 116:2.7041644132E-4 117:1.3520822066E-4 118:5.40832882639E-4 119:0.0 120:0.0013520822066 121:4.05624661979E-4 122:0.0 123:4.05624661979E-4 124:0.00189291508924 125:0.0 126:4.05624661979E-4 127:5.40832882639E-4 128:0.0102758247701 129:0.00432666306111 130:4.05624661979E-4 131:8.11249323959E-4 132:0.0 133:0.00108166576528 134:2.7041644132E-4 135:2.7041644132E-4 136:2.7041644132E-4 137:0.0013520822066 138:5.40832882639E-4 139:4.05624661979E-4 140:2.7041644132E-4 141:5.40832882639E-4 142:1.3520822066E-4 143:2.7041644132E-4 144:2.7041644132E-4 145:5.40832882639E-4 146:8.11249323959E-4 147:2.7041644132E-4 148:1.3520822066E-4 149:0.00175770686858 150:1.3520822066E-4 151:0.0020281233099 152:0.00189291508924 153:5.40832882639E-4 154:2.7041644132E-4 155:2.7041644132E-4 156:1.3520822066E-4 157:1.3520822066E-4 158:0.0 159:4.05624661979E-4 160:0.00148729042726 161:5.40832882639E-4 162:1.3520822066E-4 163:2.7041644132E-4 164:0.0 165:2.7041644132E-4 166:4.05624661979E-4 167:5.40832882639E-4 168:9.46457544619E-4 169:4.05624661979E-4 170:2.7041644132E-4 171:1.3520822066E-4 172:0.0 173:2.7041644132E-4 174:1.3520822066E-4 175:2.7041644132E-4 176:4.05624661979E-4 177:2.7041644132E-4 178:1.3520822066E-4 179:0.0 180:4.05624661979E-4 181:2.7041644132E-4 182:1.3520822066E-4 183:1.3520822066E-4 184:2.7041644132E-4 185:1.3520822066E-4 186:0.0 187:1.3520822066E-4 188:4.05624661979E-4 189:1.3520822066E-4 190:6.76041103299E-4 191:2.7041644132E-4 192:0.00446187128177 193:6.76041103299E-4 194:1.3520822066E-4 195:2.7041644132E-4 196:0.0 197:1.3520822066E-4 198:2.7041644132E-4 199:4.05624661979E-4 200:0.0 201:4.05624661979E-4 202:1.3520822066E-4 203:1.3520822066E-4 204:0.0 205:4.05624661979E-4 206:2.7041644132E-4 207:1.3520822066E-4 208:8.11249323959E-4 209:0.0020281233099 210:4.05624661979E-4 211:0.0 212:1.3520822066E-4 213:0.00432666306111 214:0.0 215:0.00824770146025 216:0.00229853975122 217:6.76041103299E-4 218:1.3520822066E-4 219:1.3520822066E-4 220:2.7041644132E-4 221:1.3520822066E-4 222:6.76041103299E-4 223:0.00108166576528 224:0.00689561925365 225:0.0013520822066 226:5.40832882639E-4 227:0.0 228:1.3520822066E-4 229:5.40832882639E-4 230:8.11249323959E-4 231:4.05624661979E-4 232:2.7041644132E-4 233:0.00324499729584 234:0.00189291508924 235:1.3520822066E-4 236:0.00175770686858 237:1.3520822066E-4 238:6.76041103299E-4 239:8.11249323959E-4 240:0.00419145484045 241:0.00256895619254 242:0.0 243:0.0 244:4.05624661979E-4 245:0.00283937263386 246:5.40832882639E-4 247:0.00148729042726 248:0.00405624661979 249:0.00973499188751 250:0.00229853975122 251:0.00148729042726 252:0.00608436992969 253:0.00229853975122 254:0.00243374797188 255:0.00662520281233 256:0.727690643591 
381.3616281913218 1:0.0278917145201 2:0.00820344544709 3:0.00369155045119 4:4.10172272354E-4 5:0.00697292863002 6:0.0 7:8.20344544709E-4 8:4.10172272354E-4 9:0.00246103363413 10:4.10172272354E-4 11:0.00123051681706 12:0.00287120590648 13:0.00123051681706 14:0.0 15:0.0 16:0.00205086136177 17:0.00246103363413 18:0.00205086136177 19:4.10172272354E-4 20:4.10172272354E-4 21:0.00123051681706 22:0.00164068908942 23:0.00287120590648 24:0.00533223954061 25:8.20344544709E-4 26:0.0 27:0.0 28:0.0 29:0.0 30:0.0 31:4.10172272354E-4 32:0.00205086136177 33:0.00738310090238 34:4.10172272354E-4 35:0.00123051681706 36:0.00123051681706 37:8.20344544709E-4 38:0.00123051681706 39:0.00123051681706 40:0.0 41:8.20344544709E-4 42:4.10172272354E-4 43:4.10172272354E-4 44:0.00697292863002 45:0.0 46:0.0 47:4.10172272354E-4 48:0.00410172272354 49:0.00123051681706 50:0.00123051681706 51:0.00123051681706 52:4.10172272354E-4 53:0.0 54:0.0 55:0.0 56:0.0 57:8.20344544709E-4 58:0.0 59:0.0 60:4.10172272354E-4 61:4.10172272354E-4 62:4.10172272354E-4 63:4.10172272354E-4 64:0.00328137817884 65:0.00246103363413 66:4.10172272354E-4 67:4.10172272354E-4 68:8.20344544709E-4 69:0.00205086136177 70:0.0 71:4.10172272354E-4 72:0.0 73:0.00123051681706 74:4.10172272354E-4 75:4.10172272354E-4 76:0.0 77:0.00123051681706 78:0.0 79:8.20344544709E-4 80:8.20344544709E-4 81:0.0 82:4.10172272354E-4 83:0.0 84:4.10172272354E-4 85:8.20344544709E-4 86:0.0 87:8.20344544709E-4 88:8.20344544709E-4 89:4.10172272354E-4 90:0.00164068908942 91:4.10172272354E-4 92:4.10172272354E-4 93:0.0 94:0.0 95:0.0 96:0.00287120590648 97:0.00246103363413 98:0.00123051681706 99:0.0 100:4.10172272354E-4 101:0.0 102:0.0 103:4.10172272354E-4 104:8.20344544709E-4 105:0.00697292863002 106:0.0045118949959 107:0.0 108:0.00164068908942 109:0.0 110:4.10172272354E-4 111:4.10172272354E-4 112:0.00123051681706 113:8.20344544709E-4 114:8.20344544709E-4 115:4.10172272354E-4 116:0.00123051681706 117:8.20344544709E-4 118:0.00164068908942 119:0.0 120:0.00205086136177 121:0.0 122:8.20344544709E-4 123:4.10172272354E-4 124:0.00205086136177 125:0.0 126:0.00123051681706 127:8.20344544709E-4 128:0.0106644790812 129:0.0045118949959 130:4.10172272354E-4 131:0.00246103363413 132:4.10172272354E-4 133:0.00123051681706 134:0.0 135:4.10172272354E-4 136:0.0 137:0.00205086136177 138:8.20344544709E-4 139:4.10172272354E-4 140:0.00123051681706 141:0.00123051681706 142:4.10172272354E-4 143:4.10172272354E-4 144:4.10172272354E-4 145:0.0 146:0.00205086136177 147:0.0 148:4.10172272354E-4 149:8.20344544709E-4 150:4.10172272354E-4 151:0.00205086136177 152:0.00246103363413 153:8.20344544709E-4 154:0.0 155:8.20344544709E-4 156:0.0 157:4.10172272354E-4 158:0.0 159:4.10172272354E-4 160:0.00328137817884 161:0.00164068908942 162:4.10172272354E-4 163:8.20344544709E-4 164:4.10172272354E-4 165:4.10172272354E-4 166:4.10172272354E-4 167:0.0 168:4.10172272354E-4 169:0.0 170:4.10172272354E-4 171:0.00123051681706 172:8.20344544709E-4 173:8.20344544709E-4 174:0.0 175:4.10172272354E-4 176:4.10172272354E-4 177:8.20344544709E-4 178:4.10172272354E-4 179:0.0 180:4.10172272354E-4 181:0.0 182:4.10172272354E-4 183:0.0 184:0.0 185:0.0 186:4.10172272354E-4 187:8.20344544709E-4 188:0.00246103363413 189:0.0 190:0.0 191:0.0 192:0.00328137817884 193:0.00164068908942 194:0.0 195:0.0 196:0.0 197:8.20344544709E-4 198:0.0 199:4.10172272354E-4 200:0.0 201:8.20344544709E-4 202:0.0 203:0.00123051681706 204:0.0 205:8.20344544709E-4 206:8.20344544709E-4 207:0.0 208:8.20344544709E-4 209:0.0045118949959 210:4.10172272354E-4 211:4.10172272354E-4 212:0.0 213:0.00492206726825 214:0.0 215:0.00943396226415 216:0.00328137817884 217:4.10172272354E-4 218:4.10172272354E-4 219:8.20344544709E-4 220:8.20344544709E-4 221:0.00123051681706 222:0.00123051681706 223:0.00410172272354 224:0.00779327317473 225:8.20344544709E-4 226:4.10172272354E-4 227:0.0 228:8.20344544709E-4 229:4.10172272354E-4 230:0.0 231:4.10172272354E-4 232:8.20344544709E-4 233:0.00574241181296 234:0.0102543068089 235:0.0 236:0.00164068908942 237:4.10172272354E-4 238:0.00123051681706 239:0.00205086136177 240:0.00615258408532 241:0.00410172272354 242:4.10172272354E-4 243:0.0 244:4.10172272354E-4 245:0.00574241181296 246:0.00123051681706 247:0.00328137817884 248:0.00533223954061 249:0.00410172272354 250:0.00164068908942 251:0.00492206726825 252:0.0147662018048 253:0.00205086136177 254:0.00861361771944 255:0.0118949958983 256:0.62551271534 
1024.0 1:0.0116686976109 2:0.0019570916879 3:9.60082714819E-4 4:5.90820132196E-4 5:0.00184631291311 6:5.90820132196E-4 7:5.53893873934E-4 8:6.27746390458E-4 9:0.00155090284701 10:4.43115099147E-4 11:1.84631291311E-4 12:0.00169860788006 13:7.01598906983E-4 14:7.38525165245E-5 15:1.47705033049E-4 16:0.00221557549574 17:0.0013662715557 18:8.49303940032E-4 19:3.3233632436E-4 20:1.10778774787E-4 21:6.27746390458E-4 22:1.84631291311E-4 23:0.00162475536354 24:0.00247405930357 25:5.16967615672E-4 26:3.69262582623E-5 27:1.84631291311E-4 28:3.69262582623E-5 29:1.47705033049E-4 30:7.38525165245E-5 31:1.84631291311E-4 32:0.0061666851298 33:0.0016616816218 34:5.16967615672E-4 35:2.95410066098E-4 36:2.21557549574E-4 37:4.06188840885E-4 38:2.95410066098E-4 39:7.38525165245E-5 40:1.10778774787E-4 41:4.43115099147E-4 42:0.00118164026439 43:7.38525165245E-5 44:0.00232635427052 45:1.84631291311E-4 46:1.84631291311E-4 47:1.10778774787E-4 48:0.00247405930357 49:5.16967615672E-4 50:4.06188840885E-4 51:1.84631291311E-4 52:1.10778774787E-4 53:1.84631291311E-4 54:1.47705033049E-4 55:7.38525165245E-5 56:2.21557549574E-4 57:1.84631291311E-4 58:1.84631291311E-4 59:1.10778774787E-4 60:1.10778774787E-4 61:7.38525165245E-5 62:1.10778774787E-4 63:1.84631291311E-4 64:0.002252501754 65:0.00103393523134 66:5.16967615672E-4 67:4.80041357409E-4 68:7.38525165245E-5 69:1.10778774787E-4 70:2.21557549574E-4 71:7.38525165245E-5 72:1.10778774787E-4 73:4.43115099147E-4 74:2.58483807836E-4 75:7.38525165245E-5 76:3.69262582623E-4 77:1.84631291311E-4 78:1.10778774787E-4 79:7.38525165245E-5 80:1.10778774787E-4 81:2.58483807836E-4 82:7.38525165245E-5 83:1.10778774787E-4 84:1.10778774787E-4 85:1.10778774787E-4 86:3.69262582623E-5 87:3.69262582623E-4 88:1.47705033049E-4 89:7.38525165245E-5 90:1.10778774787E-4 91:1.10778774787E-4 92:3.69262582623E-5 93:7.38525165245E-5 94:1.10778774787E-4 95:7.38525165245E-5 96:6.27746390458E-4 97:4.06188840885E-4 98:1.47705033049E-4 99:1.47705033049E-4 100:2.58483807836E-4 101:1.47705033049E-4 102:2.58483807836E-4 103:3.69262582623E-5 104:7.38525165245E-5 105:0.00173553413833 106:0.00217864923747 107:2.58483807836E-4 108:0.0042095934419 109:1.10778774787E-4 110:2.21557549574E-4 111:7.38525165245E-5 112:0.00155090284701 113:1.84631291311E-4 114:3.69262582623E-5 115:3.69262582623E-5 116:1.47705033049E-4 117:7.38525165245E-5 118:7.38525165245E-5 119:7.38525165245E-5 120:2.58483807836E-4 121:1.47705033049E-4 122:1.84631291311E-4 123:1.47705033049E-4 124:0.00114471400613 125:1.47705033049E-4 126:2.21557549574E-4 127:3.69262582623E-4 128:0.00568664377239 129:0.00188323917137 130:4.43115099147E-4 131:3.3233632436E-4 132:1.10778774787E-4 133:7.01598906983E-4 134:2.95410066098E-4 135:3.69262582623E-5 136:2.58483807836E-4 137:5.53893873934E-4 138:1.47705033049E-4 139:1.10778774787E-4 140:2.21557549574E-4 141:3.3233632436E-4 142:7.38525165245E-5 143:0.0 144:7.38525165245E-5 145:4.43115099147E-4 146:1.84631291311E-4 147:1.47705033049E-4 148:1.10778774787E-4 149:0.00107086148961 150:1.10778774787E-4 151:0.00240020678705 152:0.00232635427052 153:2.58483807836E-4 154:1.10778774787E-4 155:1.10778774787E-4 156:2.21557549574E-4 157:1.84631291311E-4 158:1.10778774787E-4 159:1.84631291311E-4 160:0.00265869059488 161:5.16967615672E-4 162:1.84631291311E-4 163:3.3233632436E-4 164:7.38525165245E-5 165:1.84631291311E-4 166:1.84631291311E-4 167:1.47705033049E-4 168:0.0 169:3.69262582623E-5 170:1.10778774787E-4 171:1.47705033049E-4 172:2.58483807836E-4 173:1.10778774787E-4 174:1.10778774787E-4 175:3.69262582623E-5 176:3.3233632436E-4 177:1.10778774787E-4 178:0.0 179:7.38525165245E-5 180:3.69262582623E-5 181:1.84631291311E-4 182:7.38525165245E-5 183:1.84631291311E-4 184:4.06188840885E-4 185:1.47705033049E-4 186:7.38525165245E-5 187:7.38525165245E-5 188:4.06188840885E-4 189:3.69262582623E-5 190:1.10778774787E-4 191:3.3233632436E-4 192:0.00199401794616 193:4.06188840885E-4 194:2.21557549574E-4 195:2.21557549574E-4 196:1.47705033049E-4 197:1.84631291311E-4 198:1.10778774787E-4 199:1.47705033049E-4 200:7.38525165245E-5 201:1.47705033049E-4 202:1.10778774787E-4 203:3.69262582623E-5 204:7.38525165245E-5 205:1.10778774787E-4 206:7.38525165245E-5 207:1.84631291311E-4 208:2.21557549574E-4 209:0.00206787046269 210:7.38525165245E-5 211:1.84631291311E-4 212:1.10778774787E-4 213:0.00180938665485 214:1.10778774787E-4 215:0.00387725711754 216:0.0016616816218 217:3.3233632436E-4 218:1.10778774787E-4 219:3.69262582623E-5 220:2.21557549574E-4 221:2.21557549574E-4 222:2.21557549574E-4 223:8.49303940032E-4 224:0.0055758649976 225:0.00107086148961 226:1.84631291311E-4 227:3.69262582623E-5 228:1.10778774787E-4 229:7.38525165245E-5 230:7.38525165245E-5 231:1.47705033049E-4 232:3.3233632436E-4 233:0.00214172297921 234:0.00240020678705 235:1.84631291311E-4 236:0.00188323917137 237:1.47705033049E-4 238:3.3233632436E-4 239:2.21557549574E-4 240:0.00247405930357 241:0.00262176433662 242:1.10778774787E-4 243:3.69262582623E-4 244:2.58483807836E-4 245:0.00280639562793 246:3.3233632436E-4 247:0.00184631291311 248:0.00236328052878 249:0.00450500350799 250:0.00214172297921 251:7.38525165245E-4 252:0.00609283261327 253:0.00232635427052 254:0.002252501754 255:0.00624053764632 256:0.826225028618 
1024.0 1:0.00735124020049 2:0.00114381184938 3:8.8677547873E-4 4:2.57036370646E-4 5:0.00122092276057 6:3.21295463308E-4 7:4.75517285696E-4 8:6.42590926616E-4 9:0.00120807094204 10:3.08443644776E-4 11:1.92777277985E-4 12:9.51034571392E-4 13:4.36961830099E-4 14:7.71109111939E-5 15:5.14072741293E-5 16:0.00118236730497 17:0.00113096003084 18:4.24110011567E-4 19:2.57036370646E-4 20:1.6707364092E-4 21:3.59850918905E-4 22:7.71109111939E-5 23:0.00164503277214 24:0.00296877008097 25:8.99627297263E-4 26:1.28518185323E-4 27:1.6707364092E-4 28:1.41370003856E-4 29:7.71109111939E-5 30:5.14072741293E-5 31:1.28518185323E-4 32:0.00440817375659 33:0.00129803367176 34:2.95591826243E-4 35:2.95591826243E-4 36:1.02814548259E-4 37:1.28518185323E-4 38:1.15666366791E-4 39:6.42590926616E-5 40:1.02814548259E-4 41:3.46999100373E-4 42:5.65480015422E-4 43:8.99627297263E-5 44:0.0012337745791 45:3.8555455597E-5 46:7.71109111939E-5 47:0.0 48:0.00134944094589 49:3.46999100373E-4 50:1.92777277985E-4 51:7.71109111939E-5 52:1.02814548259E-4 53:1.54221822388E-4 54:1.79925459453E-4 55:7.71109111939E-5 56:1.41370003856E-4 57:1.02814548259E-4 58:1.02814548259E-4 59:1.02814548259E-4 60:1.28518185323E-4 61:6.42590926616E-5 62:6.42590926616E-5 63:8.99627297263E-5 64:0.00134944094589 65:9.63886389924E-4 66:2.18480915049E-4 67:5.26924559825E-4 68:6.42590926616E-5 69:2.69888189179E-4 70:1.41370003856E-4 71:7.71109111939E-5 72:8.99627297263E-5 73:1.28518185323E-4 74:1.41370003856E-4 75:8.99627297263E-5 76:7.71109111939E-5 77:1.79925459453E-4 78:8.99627297263E-5 79:1.28518185323E-5 80:1.54221822388E-4 81:2.95591826243E-4 82:1.54221822388E-4 83:0.0 84:2.57036370646E-5 85:1.15666366791E-4 86:5.14072741293E-5 87:1.79925459453E-4 88:1.02814548259E-4 89:7.71109111939E-5 90:8.99627297263E-5 91:2.57036370646E-5 92:1.28518185323E-5 93:7.71109111939E-5 94:2.57036370646E-5 95:5.14072741293E-5 96:4.75517285696E-4 97:3.46999100373E-4 98:1.15666366791E-4 99:1.6707364092E-4 100:7.71109111939E-5 101:1.15666366791E-4 102:1.15666366791E-4 103:0.0 104:3.8555455597E-5 105:0.00186351368719 106:0.00284025189564 107:1.6707364092E-4 108:0.00532065287238 109:6.42590926616E-5 110:1.02814548259E-4 111:2.57036370646E-5 112:0.00143940367562 113:1.02814548259E-4 114:5.14072741293E-5 115:6.42590926616E-5 116:8.99627297263E-5 117:5.14072741293E-5 118:3.8555455597E-5 119:6.42590926616E-5 120:1.41370003856E-4 121:1.28518185323E-4 122:1.28518185323E-4 123:8.99627297263E-5 124:6.04035471019E-4 125:1.02814548259E-4 126:1.6707364092E-4 127:1.02814548259E-4 128:0.00447243284925 129:0.00141370003856 130:2.44184552114E-4 131:2.18480915049E-4 132:7.71109111939E-5 133:2.57036370646E-4 134:1.54221822388E-4 135:1.41370003856E-4 136:7.71109111939E-5 137:4.62665467164E-4 138:6.42590926616E-5 139:1.54221822388E-4 140:7.71109111939E-5 141:1.28518185323E-4 142:7.71109111939E-5 143:1.28518185323E-4 144:1.92777277985E-4 145:1.92777277985E-4 146:5.14072741293E-5 147:1.28518185323E-4 148:1.28518185323E-4 149:3.8555455597E-4 150:2.57036370646E-5 151:0.00150366276828 152:0.00239043824701 153:1.54221822388E-4 154:7.71109111939E-5 155:7.71109111939E-5 156:8.99627297263E-5 157:6.42590926616E-5 158:1.28518185323E-5 159:3.46999100373E-4 160:0.00232617915435 161:3.59850918905E-4 162:2.05629096517E-4 163:1.92777277985E-4 164:5.14072741293E-5 165:1.79925459453E-4 166:1.02814548259E-4 167:1.02814548259E-4 168:1.79925459453E-4 169:7.71109111939E-5 170:6.42590926616E-5 171:2.57036370646E-5 172:8.99627297263E-5 173:7.71109111939E-5 174:2.57036370646E-5 175:5.14072741293E-5 176:1.02814548259E-4 177:6.42590926616E-5 178:1.28518185323E-4 179:7.71109111939E-5 180:8.99627297263E-5 181:1.02814548259E-4 182:1.02814548259E-4 183:1.02814548259E-4 184:2.44184552114E-4 185:5.14072741293E-5 186:7.71109111939E-5 187:1.02814548259E-4 188:1.15666366791E-4 189:6.42590926616E-5 190:6.42590926616E-5 191:1.79925459453E-4 192:0.00196632823545 193:2.44184552114E-4 194:1.28518185323E-4 195:1.15666366791E-4 196:2.05629096517E-4 197:1.79925459453E-4 198:2.57036370646E-5 199:3.8555455597E-5 200:0.0 201:1.15666366791E-4 202:1.15666366791E-4 203:2.57036370646E-5 204:6.42590926616E-5 205:6.42590926616E-5 206:7.71109111939E-5 207:1.28518185323E-4 208:1.28518185323E-4 209:0.00138799640149 210:6.42590926616E-5 211:1.02814548259E-4 212:8.99627297263E-5 213:0.00115666366791 214:5.14072741293E-5 215:0.00322580645161 216:0.00222336460609 217:2.05629096517E-4 218:7.71109111939E-5 219:2.57036370646E-5 220:2.31332733582E-4 221:6.42590926616E-5 222:1.15666366791E-4 223:3.98406374502E-4 224:0.00600179925459 225:7.83960930472E-4 226:1.15666366791E-4 227:6.42590926616E-5 228:5.14072741293E-5 229:6.42590926616E-5 230:8.99627297263E-5 231:3.8555455597E-5 232:2.31332733582E-4 233:0.00230047551729 234:0.0029430664439 235:1.28518185323E-4 236:0.00305873281069 237:5.14072741293E-5 238:1.54221822388E-4 239:2.05629096517E-4 240:0.00208199460224 241:0.00149081094975 242:1.15666366791E-4 243:7.71109111939E-5 244:1.6707364092E-4 245:0.0016707364092 246:1.28518185323E-4 247:0.00179925459453 248:0.00192777277985 249:0.00506361650173 250:0.00280169644005 251:6.42590926616E-4 252:0.00781390566765 253:0.00192777277985 254:0.00199203187251 255:0.00496080195348 256:0.857421925202 
1024.0 1:0.00832260832261 2:0.00161304161304 3:0.00123552123552 4:2.574002574E-4 5:0.0013728013728 6:1.716001716E-4 7:4.9764049764E-4 8:6.00600600601E-4 9:0.00121836121836 10:4.8048048048E-4 11:1.5444015444E-4 12:0.00207636207636 13:5.83440583441E-4 14:8.58000858001E-5 15:1.716001716E-4 16:0.00382668382668 17:0.00104676104676 18:7.20720720721E-4 19:1.716001716E-4 20:1.5444015444E-4 21:4.1184041184E-4 22:3.432003432E-5 23:0.00200772200772 24:0.00293436293436 25:3.6036036036E-4 26:1.8876018876E-4 27:5.14800514801E-5 28:2.4024024024E-4 29:1.0296010296E-4 30:3.432003432E-5 31:1.2012012012E-4 32:0.0100557700558 33:0.0014586014586 34:4.6332046332E-4 35:4.4616044616E-4 36:1.8876018876E-4 37:2.7456027456E-4 38:1.716001716E-4 39:8.58000858001E-5 40:8.58000858001E-5 41:6.00600600601E-4 42:6.17760617761E-4 43:1.2012012012E-4 44:0.00209352209352 45:1.716001716E-4 46:5.14800514801E-5 47:1.2012012012E-4 48:0.00362076362076 49:3.2604032604E-4 50:2.2308022308E-4 51:2.0592020592E-4 52:8.58000858001E-5 53:1.2012012012E-4 54:1.0296010296E-4 55:1.3728013728E-4 56:2.0592020592E-4 57:1.0296010296E-4 58:1.2012012012E-4 59:6.86400686401E-5 60:2.2308022308E-4 61:3.432003432E-5 62:1.0296010296E-4 63:2.4024024024E-4 64:0.00468468468468 65:8.23680823681E-4 66:1.716001716E-4 67:4.4616044616E-4 68:8.58000858001E-5 69:2.7456027456E-4 70:1.0296010296E-4 71:1.2012012012E-4 72:1.0296010296E-4 73:2.0592020592E-4 74:5.14800514801E-5 75:3.432003432E-5 76:2.2308022308E-4 77:1.0296010296E-4 78:1.716001716E-5 79:6.86400686401E-5 80:1.716001716E-4 81:2.4024024024E-4 82:1.5444015444E-4 83:3.432003432E-5 84:6.86400686401E-5 85:1.2012012012E-4 86:6.86400686401E-5 87:1.716001716E-4 88:2.0592020592E-4 89:1.0296010296E-4 90:8.58000858001E-5 91:6.86400686401E-5 92:5.14800514801E-5 93:5.14800514801E-5 94:5.14800514801E-5 95:8.58000858001E-5 96:7.20720720721E-4 97:3.7752037752E-4 98:1.0296010296E-4 99:1.2012012012E-4 100:3.432003432E-5 101:1.0296010296E-4 102:5.14800514801E-5 103:8.58000858001E-5 104:1.716001716E-5 105:0.0024882024882 106:0.00238524238524 107:2.2308022308E-4 108:0.00533676533677 109:1.3728013728E-4 110:8.58000858001E-5 111:1.3728013728E-4 112:0.0031746031746 113:6.86400686401E-5 114:1.716001716E-4 115:5.14800514801E-5 116:1.3728013728E-4 117:1.2012012012E-4 118:1.2012012012E-4 119:8.58000858001E-5 120:3.432003432E-4 121:2.7456027456E-4 122:2.2308022308E-4 123:1.5444015444E-4 124:7.37880737881E-4 125:1.716001716E-4 126:2.0592020592E-4 127:2.9172029172E-4 128:0.00993564993565 129:0.00132132132132 130:3.432003432E-4 131:1.716001716E-4 132:1.0296010296E-4 133:5.14800514801E-4 134:1.5444015444E-4 135:1.3728013728E-4 136:1.5444015444E-4 137:3.7752037752E-4 138:8.58000858001E-5 139:2.0592020592E-4 140:2.4024024024E-4 141:1.2012012012E-4 142:3.432003432E-5 143:8.58000858001E-5 144:1.2012012012E-4 145:4.1184041184E-4 146:8.58000858001E-5 147:1.0296010296E-4 148:1.0296010296E-4 149:6.17760617761E-4 150:1.2012012012E-4 151:0.00252252252252 152:0.0029172029172 153:1.0296010296E-4 154:1.2012012012E-4 155:3.432003432E-5 156:8.58000858001E-5 157:8.58000858001E-5 158:1.2012012012E-4 159:1.3728013728E-4 160:0.0040326040326 161:2.574002574E-4 162:1.8876018876E-4 163:1.2012012012E-4 164:1.716001716E-4 165:1.5444015444E-4 166:1.0296010296E-4 167:5.14800514801E-5 168:8.58000858001E-5 169:1.2012012012E-4 170:1.0296010296E-4 171:5.14800514801E-5 172:5.14800514801E-5 173:1.2012012012E-4 174:5.14800514801E-5 175:1.5444015444E-4 176:1.3728013728E-4 177:1.0296010296E-4 178:1.5444015444E-4 179:0.0 180:6.86400686401E-5 181:5.14800514801E-5 182:8.58000858001E-5 183:2.0592020592E-4 184:1.716001716E-4 185:6.86400686401E-5 186:1.716001716E-5 187:5.14800514801E-5 188:1.2012012012E-4 189:1.0296010296E-4 190:1.5444015444E-4 191:1.716001716E-4 192:0.00238524238524 193:5.66280566281E-4 194:1.716001716E-4 195:3.432003432E-5 196:8.58000858001E-5 197:1.5444015444E-4 198:5.14800514801E-5 199:5.14800514801E-5 200:8.58000858001E-5 201:1.0296010296E-4 202:1.0296010296E-4 203:8.58000858001E-5 204:1.0296010296E-4 205:6.86400686401E-5 206:1.0296010296E-4 207:1.2012012012E-4 208:2.4024024024E-4 209:0.00190476190476 210:1.2012012012E-4 211:1.716001716E-4 212:1.3728013728E-4 213:0.00161304161304 214:1.2012012012E-4 215:0.00422136422136 216:0.00290004290004 217:2.2308022308E-4 218:6.86400686401E-5 219:1.0296010296E-4 220:3.432003432E-4 221:1.3728013728E-4 222:1.2012012012E-4 223:6.69240669241E-4 224:0.00876876876877 225:5.49120549121E-4 226:1.2012012012E-4 227:5.14800514801E-5 228:1.3728013728E-4 229:1.716001716E-4 230:1.3728013728E-4 231:3.432003432E-5 232:1.2012012012E-4 233:0.00312312312312 234:0.003432003432 235:1.716001716E-4 236:0.00327756327756 237:1.5444015444E-4 238:2.0592020592E-4 239:1.2012012012E-4 240:0.00250536250536 241:0.00253968253968 242:5.14800514801E-5 243:1.5444015444E-4 244:1.716001716E-4 245:0.00233376233376 246:8.58000858001E-5 247:0.0023166023166 248:0.002574002574 249:0.00720720720721 250:0.00434148434148 251:5.14800514801E-4 252:0.00943800943801 253:0.0032604032604 254:0.00255684255684 255:0.00717288717289 256:0.803517803518 
